-0.0111309 -0.0992098 0.0624695 -0.0981491 0.00303948 0.0679963 0.00307025 -0.0480728 0.0422261 0.0183232 0.193958 0.0339357 0.0932015 0.0715151 -0.0116703 -0.0307466 -0.0627278 0.119443 -0.0854284 -0.24395 -0.0705406 -0.0476119 -0.18397 0.00459905 -0.0816676 -0.00120169 -0.0168586 -0.062025 -0.00672799 0.0783492 0.0344096 -0.068397 0.128015 0.0735709 -0.0306003 0.0613994 0.110596 0.00424333 -0.0260264 0.10506 -0.119976 -0.0119658 -0.0429924 0.0065975 0.152748 -0.000935023 -0.0370267 -0.0287789 -0.0554057 -0.145721 -0.0901999 0.0727714 0.100845 -0.121007 -0.088707 0.143283 0.0144924 -0.0147791 0.129462 -0.181993 0.0518569 -0.00128192 0.0470772 -0.109312 0.101948 0.0508804 -0.131059 -0.0104059 0.085904 -0.0199752 -0.0381466 -0.0956954 -0.012307 -0.1005 0.0681122 -0.00752367 0.00875379 -0.0060905 0.00172257 0.104228 -0.0144096 0.121201 0.100613 0.0411314 0.0121055 0.00538672 0.0115859 -0.169104 0.0904293 -0.0206454 0.0849033 0.0904568 -0.0677261 0.00389208 0.18301 -0.0111152 0.070822 -0.260768 0.122811 -0.0241384 -0.0451579 -0.0376079 -0.0529638 0.146343 0.0835403 0.0448371 -0.113307 0.0512523 0.0503988 -0.012517 -0.0844805 -0.0902785 -0.0642936 0.0837788 -0.034998 0.109858 -0.0326267 -0.0308013 -0.0410281 -0.0250097 0.10934 0.0499711 0.0636725 0.120703 -0.1511 0.0818913 0.00640759 -0.0938362 0.15127 0.0655749 0.0144031 -0.0135112 -0.170388 0.0526436 0.225534 0.0730723 -0.178243 -0.0949761 -0.19476 -0.092253 -0.0141633 -0.024279 0.107183 0.0826306 0.18614 -0.0456283 -0.0979401 0.0296084 0.0283412 -0.193977 -0.0140768 0.109538 0.143371 -0.0360745 0.0964359 0.0743363 0.0225603 0.0368759 0.000762363 -0.0200274 -0.134188 0.02079 0.131967 0.0799829 -0.0756035 -0.129682 -0.0592177 -0.0283723 -0.0452807 -0.0757875 0.205091 -0.227736 0.0232081 -0.0242972 -0.16494 0.0760028 -0.000985228 -0.0448086 0.0233575 0.153901 -0.0168836 -0.0204458 -0.0865547 0.0264073 -0.0451947 -0.143942 0.0223443 0.0341157 0.180913 -0.0526319 0.021228 -0.131249 -0.0240916 -0.114695 0.0815765 0.0454796 -0.0688842 0.0743148 0.0690636 0.074566 -0.0108734 0.00427969 0.0591836 -0.107893 -0.119163 -0.0575151 -0.0283749 -0.0278597 0.0368726 0.013299 -0.0136889 0.00343873 -0.00921685 0.00458235 -0.0680292 0.00300166 -0.0658222 0.0487296 -0.0247123 -0.0742328 0.0731187 -0.164532 0.0729326 0.0942707 -0.0166228 0.0524653 -0.144015 -0.0249265 -0.153121 -0.0571166 0.0131853 -0.136273 0.0381516 0.0655754 -0.0700374 -0.203962 -0.0950195 0.0499687 -0.14919 0.103697 0.13223 0.0397318 0.138432 -0.116591 -0.108886 0.0379955 0.0463235 -0.0375263 -0.0489956 -0.0803829 -0.0055208 -0.14933 0.022791 -0.0594009 0.0150758 -0.206852 0.0159725 -0.0205421 0.0367651 -0.0218747 0.018186 0.117536 -0.0916113 -0.0558691 0.0945461 0.0835134 -0.0646905 -0.131743 -0.0715254 -0.0731868 -0.0464892 -0.0280495 0.0194631 0.0420418 0.0250474 0.103402 0.0752451 0.16614 -0.0874973 0.0303578 0.132165 0.261552 0.0689108 0.200918 0.0680303 0.13807 -0.0107395 -0.241384 -0.00845432 -0.018022 0.213657 0.0606679 0.00748891 0.146288 -0.0252206 0.0957608 -0.0983152 0.0975007 0.0232164 -0.253284 0.0372984 -0.135308 0.0155592 -0.137268 0.0285396 0.0206433 0.045931 -0.0808449 0.101864 -0.0507911 0.0782938 -0.193789 0.110838 0.0160902 -0.0106179 -0.0519111 -0.126259 -0.186744 -0.0638045 -0.0289168 -0.162841 0.016548 0.116503 0.0327947 0.0113004 0.0600559 -0.0147563 0.0187347 -0.032365 0.0170309 0.160741 -0.0765426 0.0524664 0.0609603 -0.00300063 0.0878977 0.143073 -0.102947 0.0414327 -0.0766647 -0.0766991 0.112906 0.0158189 -0.360923 -0.0171733 -0.100515 0.0524724 -0.152973 -0.132624 0.0837005 -0.0954897 -0.0114594 -0.0409856 0.104143 0.199616 -0.027554 -0.0503603 0.105809 -0.0816775 -0.0381113 -0.113168 0.101902 0.0672532 0.0163406 -0.15761 0.0110466 0.0391901 0.0971309 -0.077007 0.0121801 0.132378 0.0706061 -0.0634695 -0.100406 -0.081707 0.0667385 -0.0567338 -0.0187624 -0.180734 0.127055 -0.0952152 -0.118831 -0.0782993 0.197398 0.117625 0.0534813 0.00407677 -0.0931995 0.0735146 0.0673501 0.110491 0.147365 -0.201227 0.0578941 -0.161093 -0.0238248 0.0402934 -0.179227 -0.153702 0.0570623 0.0877641 0.010066 0.183699 0.134433 -0.0126056 0.238254 -0.0266064 0.0098282 -0.104289 -0.0536073 -0.0034123 0.044736 0.0651677 0.195503 -0.129579 -0.0317148 -0.083957 -0.0747167 0.0512581 -0.00256037 0.0611215 -0.0611466 0.0076481 0.0479372 0.000498118 -0.0997497 -0.0948846 0.00125791 -0.0964568 0.143806 0.0885274 0.0375935 0.0172236 -0.0429212 0.0851998 0.161978 0.0080927 -0.0123385 0.103378 0.0346645 0.197025 -0.00654106 -0.0168556 0.0866685 -0.0384557 -0.0216129 -0.0765408 0.133177 -0.0247854 0.043291 -0.0730285 0.0279386 0.0609157 -0.0251939 -0.148565 0.0764675 0.0536024 -0.0567018 -0.116982 0.0857699 0.0593437 -0.0184005 0.0814049 -0.0705166 0.138675 -0.141833 0.0643326 0.0733554 -0.153147 -0.0361275 0.0527944 0.0471108 0.0819524 0.165914 -0.0421334 -0.0265595 -0.045216 0.0947025 0.0208456 -0.0813535 -0.0670766 -0.0492103 -0.0538872 0.0376411 0.0475941 -0.118189 0.00160278 -0.0991724 0.0299156 0.100068 0.0374033 0.114883 0.14506 0.156971 -0.0791764 0.0104537 0.00292669 -0.123993 -0.0636159 0.0557566 0.0303363 -0.0639301 0.141904 -0.0851046 -0.251192 -0.113554 0.0857925 -0.290305 -0.10119 0.125734 -0.105667 -0.189407 0.0599581 0.128514 -0.200211 0.0143651 -0.0228165 -0.0668732 -0.108896 -0.0299852 -0.139522 0.0124651 0.227334 0.0638587 -0.0526047 0.0317205 0.233826 0.105529 0.0917831 0.0322698 0.116684 -0.0766469 0.108196 -0.176345 0.139784 0.135558 -0.00241683 -0.0262049 -0.0380258 -0.141261 -0.0556987 0.154457 0.0169628 -0.104806 0.0475573 -0.191361 -0.0750756 0.00808996 0.0090071 -0.10483 0.0970055 -0.000695385 -0.0422543 -0.0493421 -0.0752912 -0.00912033 0.0159188 0.032263 -0.129641 -0.0532158 0.0696299 0.104721 -0.0838941 0.0467262 0.0483322 -0.090953 -0.259121 0.137596 -0.0101778 -0.0798434 0.0749639 0.0296882 0.0136323 -0.0863086 0.0110333 0.0903726 0.0683096 0.00497184 0.113883 0.0186085 -0.0267169 -0.115297 -0.0287857 0.0245621 0.0787833 0.093518 -0.0727825 -0.00799999 -0.0558231 0.11242 0.0848372 0.0756015 -0.014086 -0.108714 -0.0284081 -0.105449 -0.108599 -0.124073 0.100902 -0.126934 -0.153028 -0.00549407 -0.0771538 -0.0736856 0.105781 0.0148086 0.0824245 0.0118123 0.121348 -0.0186682 0.0731685 0.111095 -0.0641524 0.0189132 0.0967146 -0.0491361 0.00399069 -0.0171048 0.100717 -0.0674854 0.14612 0.0430316 0.111289 0.0520003 -0.0860825 -0.0816447 0.0234098 0.112973 -0.124538 -0.162281 -0.0591944 0.0758895 -0.048401 0.018202 -0.123822 -0.083363 -0.082099 -0.212075 0.0588709 0.0290777 0.170901 0.0492849 -0.0530637 0.144648 0.0624163 0.120587 -0.101979 -0.0913702 -0.0278089 0.0543322 0.0933309 0.150578 -0.182123 -0.15081 0.175903 0.0896447 -0.150232 0.0426455 0.0365263 -0.0400885 0.0487167 -0.101386 -0.0171617 -0.0605604 -0.137343 -0.00326439 0.0719989 -0.0269663 0.0305333 -0.00385324 -0.100183 0.0215215 -0.126056 -0.0187201 -0.0231509 -0.0464617 -0.0509616 -0.0459706 -0.0241797 0.146192 0.0956527 0.273956 -0.0715701 -0.0926118 0.0576612 0.0932435 0.0894925 -0.0317659 0.0183551 0.0767883 0.0155909 -0.0415681 -0.0597971 -0.0376635 0.0261484 -0.034976 -0.0240514 -0.0343016 0.0890367 -0.0342 0.0244545 0.00450903 0.0610835 0.0797023 -0.129451 0.120778 -0.109442 -0.242514 -0.0545858 0.0725895 -0.267983 -0.0876757 0.176649 -0.0610537 0.141382 0.0904364 -0.115148 0.0832019 -0.0906815 -0.072993 -0.0157136 0.152889 -0.00492462 0.0268017 -0.0211403 0.183804 0.114525 0.0049483 0.125945 -0.0389903 0.191017 -0.065119 -0.0878476 0.0958864 0.0471694 -0.0504987 0.104435 -0.0374676 0.0440732 -0.0426477 -0.0388232 0.144263 -0.158122 -0.11715 0.0511125 -0.041658 -0.00671383 0.0366045 -0.0465579 0.152979 0.0151554 0.00371581 -0.106402 0.0722312 -0.0766351 0.0419111 -0.0644048 0.0195902 0.0666173 -0.0780301 0.0451564 -0.040629 -0.0613128 -0.0841583 0.0308978 0.0988711 0.162977 -0.0273819 -0.0726619 -0.0250076 -0.162828 -0.0393324 0.0879603 0.217763 -0.195344 -0.0492158 -0.0358854 0.0801574 0.0704802 0.0303683 0.0119199 -0.103064 -0.0756737 0.0724113 0.0650974 -0.0544679 -0.203951 -0.0189055 -0.0401178 -0.0743505 0.103161 0.0245562 0.0354343 -0.121727 -0.0481474 -0.0802185 -0.0312224 -0.00715204 -0.0713589 0.0418679 0.16517 0.0570066 -0.112202 -0.0135411 0.17815 0.149638 0.00769435 0.161478 0.230129 -0.0679891 -0.0802059 0.116912 -0.10549 -0.0282245 0.0877856 -0.0438792 -0.0579956 -0.0139917 -0.108779 0.0581285 -0.0832248 0.143983 0.0156455 -0.0198244 0.160736 0.0451882 0.171688 0.0432673 0.0857969 0.110326 -0.0983955 -0.0357002 0.0993536 -0.0971826 -0.121523 -0.00369007 0.0149538 -0.14365 0.115771 -0.106791 0.110542 0.03332 -0.0463754 -0.0259649 0.0590179 0.0559999 0.00191051 -0.00727262 -0.104262 -0.0970744 0.0648777 0.08774 -0.0383139 -0.0723175 0.0949713 0.0359175 0.104992 -0.0431698 -0.0493524 0.02235 -0.160092 0.0950604 -0.061565 -0.0409713 -0.0370526 0.0172109 -0.0416542 -0.049462 -0.0598616 -0.100353 0.0533104 0.0243026 0.0424719 0.110404 -0.0503033 -0.0613969 -0.0178184 -0.0394107 -0.0172391 0.0313124 0.0658827 -0.0336282 -0.128952 -0.0023385 -0.0272284 0.0773539 0.145207 -0.110537 -0.179308 0.0923007 -0.0604886 -0.104263 0.0471724 0.022961 -0.0337875 0.0989145 -0.0383222 -0.0153955 0.00666339 -0.128014 0.203332 0.0782187 -0.0428787 -0.0403156 -0.0150712 0.0629777 0.0506378 -0.0511015 0.0249719 0.114162 0.0733696 0.112154 -0.136176 -0.00528095 -0.0211341 -0.147293 0.220947 0.0221451 -0.0782646 0.128774 0.0105274 -0.0215883 -0.1077 -0.0304168 0.0507726 0.148638 -0.0278966 -0.0581181 0.0415207 -0.0673846 -0.12001 0.11825 -0.0811163 0.00880573 -0.0163093 -0.101928 0.0427392 -0.142493 -0.0291971 -0.0354847 -0.0746713 0.0174956 0.0634534 -0.0213212 0.030535 0.121278 0.00169408 0.123334 -0.100632 0.149975 0.0229627 -0.123427 -0.100307 0.0840446 -0.079522 -0.0681585 -0.179762 0.0074626 0.0598366 0.0882668 -0.0555211 -0.0463017 -0.0689919 0.0378989 -0.0388416 -0.0516866 -0.0488093 0.120964 0.0520719 -0.0991928 -0.0642208 -0.0209619 -0.0867491 -0.0575349 0.0468841 0.0229898 -0.0183066 0.135125 -0.0220565 -0.045497 0.14201 -0.0634546 0.0670682 0.0619891 0.19208 -0.0660743 -0.012407 0.236331 -0.0512517 0.102266 0.0363723 -0.0582428 -0.0725701 -0.0453928 0.0761839 0.067095 0.0105131 -0.0474088 -0.00214248 -0.050328 -0.129954 -0.0358577 -0.0344872 0.0299847 -0.014518 0.127537 -0.143662 -0.0993053 -0.00443189 0.0647417 -0.357364 0.123024 0.0450084 -0.0354819 -0.194528 0.0387518 0.0531955 -0.00997037 0.083162 0.185375 -0.188216 0.0203285 -0.057858 0.0165142 0.0144118 -0.0800963 0.0971855 0.0579171 -0.0994373 0.0408902 0.0747473 0.122134 0.0213138 0.0141494 -0.00282194 -0.0234163 -0.0411605 -0.0723282 -0.0648511 0.260247 0.0839784 0.0534524 -0.15147 0.0785873 -0.0549853 0.0612211 -0.0759292 -0.0594715 0.0970009 0.162973 -0.128737 -0.0318802 -0.0122952 0.0381159 -0.0316208 -0.0412301 0.0336971 -0.0767193 -0.101825 0.122557 -0.143048 0.108841 -0.101741 -0.00226773 0.102348 0.00171947 -0.0316066 0.108457 0.0700234 0.0137493 0.0271429 -0.0612302 0.0273084 0.0902313 -0.204039 0.0428135 -0.165202 0.04047 -0.117412 0.0291156 0.0247851 0.138704 0.13679 -0.00720256 -0.0806461 0.110772 0.0638829 -0.0532783 -0.0576291 -0.0702094 -0.215856 0.0172221 -0.0409525 -0.170286 0.0450648 -0.0224581 -0.165884 -0.0437988 0.0182195 -0.166011 -0.108278 0.0263289 -0.143377 0.13241 0.158814 -0.019312 -0.0499985 0.0108207 -0.058799 -0.0432912 -0.0142573 -0.0571946 -0.0880398 0.0281662 -0.0178855 0.0372868 -0.0802488 -0.0809918 -0.107148 0.0743069 0.0473036 0.0506897 -0.102402 -0.0864991 0.0380007 0.0704802 0.0175024 0.0202227 0.0239496 0.111891 -0.0191197 -0.0238875 0.0316601 -0.0917936 -0.0964496 0.0654495 -0.134388 -0.0400122 -0.0820153 -0.0161858 -0.120563 -0.216471 0.119865 0.0616167 0.149687 -0.175019 0.18112 -0.118058 -0.142816 -0.0132089 0.0377575 0.00116794 0.162301 -0.0732611 0.0570758 -0.065219 -0.0513904 -0.0373168 0.00220872 0.173127 -0.101234 0.0139463 -0.00536816 0.150791 0.00239451 -0.1233 0.0510341 0.0935826 -0.00192183 -0.131202 -0.0684316 0.144778 0.025271 0.073386 0.27874 -0.123301 -0.0903596 0.0434787 -0.0435192 0.157824 0.110013 -0.027928 -0.0823173 -0.106708 -0.124975 0.125841 0.111462 0.170802 0.157544 -0.112901 -0.10048 0.0663453 0.0363505 0.0948864 -0.084059 0.0984354 0.00550576 0.0542993 0.00901527 -0.0478504 0.0134175 -0.179137 -0.0399033 0.194256 -0.00105605 -0.0104226 0.19135 -0.0325949 -0.187038 0.116764 -0.152716 -0.00629228 -0.0672876 0.0478621 0.0382298 0.0522167 0.025428 -0.142747 0.00231394 0.0697118 0.123255 -0.0680939 -0.0664955 0.160538 0.162303 0.0623143 0.0815974 0.0601524 0.0197306 0.0368628 0.00890663 -0.300735 -0.0619017 0.0186439 0.095285 0.00889499 0.000582465 0.161596 0.0387043 0.165999 0.00803574 -0.0262632 -0.0892736 -0.0308683 0.151077 -0.119421 0.00293191 -0.117721 0.092111 -0.0810751 0.0136411 -0.0182787 -0.102694 -0.0838965 -0.0714354 0.103998 -0.198845 -0.0323677 -0.0934034 -0.0149275 0.00651591 0.0159883 -0.0258589 0.0226845 0.137346 0.0477836 -0.0237991 -0.157862 -0.000166972 -0.0987395 0.132905 0.050379 0.0834517 0.090859 0.119069 -0.0312805 0.239743 0.0676406 -0.0958612 0.0964296 -0.0445814 0.144045 -0.104807 0.0919928 0.0708767 -0.110611 -0.00236576 -0.0355506 -0.0227524 -0.0900318 -0.190323 -0.0203552 -0.0110899 -0.051002 -0.116461 0.177173 -0.062651 -0.0258356 0.217611 -0.0996046 -0.00301973 -0.0919662 -0.0995123 0.0570291 0.0183112 -0.0918014 0.00979214 -0.0149981 -0.0369443 -0.00522941 -0.0930027 -0.0965827 0.0331585 0.00766369 0.0272088 0.0402784 -0.0383966 -0.128672 -0.0129292 -0.0848683 0.0624249 0.0639697 -0.0708871 0.0102862 0.0495862 -0.145842 0.0625139 0.0210708 -0.0162055 0.108232 -0.0164005 0.0329983 -0.0334743 0.0516688 0.156239 -0.00923407 0.0374864 0.115168 0.202639 0.0480639 0.073658 0.153155 0.00291983 0.044855 -0.0706974 0.0229014 -0.0601523 -0.214968 -0.0332436 -0.0462377 0.0512846 -0.0616214 -0.102362 0.0618326 0.0962175 -0.0256362 0.0649809 0.0152332 0.12969 0.00458636 0.0902306 0.0128354 -0.00265635 -0.0761234 -0.205045 0.0937417 0.196445 0.00132539 -0.0688835 0.0541914 -0.0431692 -0.0039122 -0.0089355 -0.0199612 -0.180824 -0.0735831 0.126332 -0.018171 -0.145742 -0.102135 0.0527077 -0.049044 -0.156102 -0.04634 0.0195526 -0.206819 0.0889559 -0.0423848 -0.208402 0.0636957 0.0378826 -0.152138 0.080454 -0.10382 -0.0904533 0.0856969 -0.0586637 0.0908051 0.0775882 -0.0198013 -0.0221319 0.222039 0.0246074 -0.162166 -0.2261 -0.308659 -0.22018 -0.121673 0.0683381 -0.0235263 0.0407795 0.162871 -0.0385985 0.0282058 -0.0288868 0.054226 -0.00946711 0.0499673 0.0300635 -0.0832935 -0.0180025 -0.0120039 0.225976 0.106983 0.199792 -0.129054 0.00223778 0.142404 -0.159577 0.104698 0.0630652 -0.0739095 0.0331945 0.163469 0.106415 0.00152961 0.027279 0.14111 0.00333331 0.096659 0.0842581 -0.0691499 -0.0441422 -0.0969846 -0.0921273 0.0257663 -0.119162 -0.0476305 0.0263892 0.0233415 -0.024753 0.0578323 0.00776044 -0.0211399 0.0706079 -0.0383635 -0.00623579 -0.0777036 -0.000188565 0.0386778 -0.0865323 0.152397 0.0392884 -0.0488115 -0.144407 0.0192504 0.000152089 -0.0689528 -0.00607186 -0.0534288 0.0372691 -0.106444 0.18806 0.0257555 0.167594 0.0306881 0.058742 -0.0220813 0.0149459 0.00141512 -0.0722644 0.0937705 -0.035645 0.0435805 0.038969 -0.0890684 0.156998 -0.0343991 -0.0184462 -0.158182 0.154248 0.151105 0.0291868 -0.0620399 0.0548342 0.0379833 -0.0816661 0.0866513 -0.186817 -0.0136576 0.0985205 -0.173917 -0.0328385 0.114361 0.0736178 -0.112223 -0.00386798 -0.0702572 -0.0364738 0.0900922 0.152156 -0.145384 0.0314729 -0.0375914 0.0356396 -0.108118 0.0299914 0.0559841 0.0153849 -0.0249463 -0.013043 0.0482106 -0.147888 -0.169694 -0.0059601 -0.0551457 0.0242847 -0.03499 0.0101363 0.136137 0.0903354 0.172828 0.159739 -0.0178264 -0.0162624 -0.0106067 -0.125387 -0.112844 -0.139281 -0.0154383 0.101585 -0.0695957 0.0220353 0.142328 0.0385582 -0.142228 0.0661736 -0.122502 -0.118588 -0.00807264 0.0511265 0.0801269 -0.0993715 0.0223497 0.047614 -0.0105537 -0.091887 -0.121314 0.060983 0.098911 -0.0756974 0.0747774 0.0604918 0.00204221 -0.0449331 0.0109464 0.0543947 0.0793829 -0.209985 -0.0237659 0.0613476 -0.0398896 0.0493372 -0.070152 0.0447073 -0.0268499 -0.0245632 -0.0732937 0.0462054 0.0675623 0.0564113 0.0137181 -0.0477765 -0.0272248 -0.157899 0.0574548 -0.0214668 -0.0913492 -0.0201863 -0.10617 -0.0750725 -0.0481759 -0.085945 0.00538514 -0.0793463 0.0494295 0.0675642 0.0748256 -0.134187 -0.119456 -0.11572 -0.0477833 -0.0900621 -0.0730299 -0.0708958 0.00216442 0.0663501 0.00724395 0.0810878 -0.0502678 -0.146837 0.122801 0.0656661 -0.0735913 0.0483803 0.0738609 0.0199458 0.0768643 -0.00277482 -0.0342389 0.0678272 -0.000295214 0.0551154 -0.0289756 -0.105421 0.119718 -0.112911 0.0167765 -0.0600045 0.110493 0.0368613 -0.0963311 0.00185384 0.0520076 0.031463 0.0280201 -0.0471793 -0.015852 0.155706 -0.210599 -0.158523 0.0665372 -0.145056 -0.0772637 0.151701 -0.0605175 0.0341534 0.0963119 -0.17443 0.124571 -0.00930753 0.051348 -0.0555163 0.055317 -0.00798795 -0.15762 0.00177661 0.0218079 0.00777639 0.153028 0.0656205 -0.0539103 -0.112643 -0.0445269 0.257622 -0.08469 -0.086893 0.0383697 0.136953 0.0123461 -0.00866101 -0.0119749 -0.0594634 -0.0444094 -0.0433166 0.152187 0.0704287 -0.0207485 0.0010887 0.00975505 -0.0427905 -0.133085 0.0502511 -0.0162875 -0.0250672 0.0576346 0.0933899 0.0203484 -0.129741 -0.106619 -0.0448064 -0.191518 -0.12335 0.0297273 0.0406905 0.0799414 -0.155279 -0.106467 0.0752427 0.0435012 0.0190174 0.00603257 -0.0529892 0.0584559 -0.164815 0.0957078 -0.0441333 -0.0683279 0.0830265 0.169302 -0.0359168 0.0910544 0.1068 0.0278364 0.0884956 0.00891244 0.13481 0.0154554 0.098846 0.093587 0.0140575 0.188119 -0.248093 0.0417017 -0.0594075 -0.0190453 0.11368 0.0300112 0.0263271 -0.153447 -0.0854893 -0.0158815 -0.0154122 -0.0335792 -0.042924 0.00632861 -0.0419605 -0.0142353 -0.1253 0.0752374 0.158778 -0.154118 -0.176844 0.103743 -0.113748 -0.0585532 -0.0317872 0.0199224 -0.0102705 0.16626 0.0356393 0.0651538 0.232661 0.149165 0.203721 0.028741 -0.143388 0.231219 0.106885 -0.105366 0.076855 -0.0908357 0.0512234 0.0888477 -0.0427833 0.0137252 -0.12809 -0.215877 -0.101683 -0.139534 0.0195251 0.101992 0.0771348 -0.202948 -0.015098 -0.0480236 -0.0148605 0.0329751 0.142485 -0.07596 -0.211933 -0.132587 -0.0843911 -0.150438 -0.0373315 -0.0392772 0.130648 -0.0304669 0.00621034 0.111891 0.0665172 -0.0213197 -0.121568 -0.00706547 0.0427282 0.0624431 0.0726126 0.055288 -0.0984787 0.0152422 -0.137697 0.0460246 -0.0462643 0.0315579 -0.100339 0.0669354 0.142008 -0.0272798 0.0539791 -0.148823 -0.0148458 -0.0113186 0.0581752 0.0681683 0.0416195 -0.139095 -0.0734279 -0.00608186 -0.0340934 0.032714 0.0500271 -0.121827 0.0410342 -0.0641501 -0.067774 0.117237 -0.0807188 -0.00679527 0.132865 0.0170958 -0.00664651 -0.00167132 0.18881 0.0718488 -0.0469601 -0.136869 0.0636928 -0.0310652 -0.00810514 -0.144378 -0.12492 0.090179 0.0429864 0.179887 -0.0276706 0.0610928 -0.015875 0.0697289 -0.0163712 -0.0791849 -0.0666458 -0.00863618 -0.0724681 -0.09514 0.18411 0.218969 -0.060075 0.0485097 0.106013 0.0394716 0.0328235 0.0582829 0.0178329 0.160324 0.0960398 -0.00195636 0.0102477 0.170356 0.0501048 -0.0157471 0.0280263 0.0257555 0.112008 0.0400939 0.126404 0.0157771 -0.0722417 0.0340317 -0.0523097 -0.0707512 -0.150121 -0.035823 0.0175039 0.019241 0.0876603 0.0369661 -0.111627 0.00888373 0.139459 -0.0099634 0.195028 0.113012 -0.0473334 -0.106861 0.0575823 0.0454645 0.0864447 0.280727 -0.0372672 0.153863 0.125963 0.0427075 -0.0899124 0.0309643 0.127325 0.102914 0.0828682 -0.0815732 -0.0639585 0.111105 0.142267 -0.133353 0.0199392 -0.0523633 0.107586 -0.00144582 0.0570998 0.0133548 -0.0574014 -0.0752598 0.0252587 -0.018947 -0.133769 0.137811 0.00516606 -0.0501324 -0.0713391 0.0073456 0.033063 -0.205723 -0.00267476 0.0471521 0.00860839 -0.0144371 0.151184 0.148966 -0.0506374 -0.07373 0.00179163 -0.0790159 -0.063463 -0.0736837 -0.127706 0.0466123 0.0678043 -0.237016 0.0868664 0.0377017 0.0292952 0.102535 -0.146478 -0.10102 -0.116244 -0.00852857 -0.0136325 0.0505574 0.0271773 -0.0627381 -0.0424953 -0.00534707 0.0625344 0.00416941 0.0952062 -0.112055 -0.0733543 0.205696 0.0645756 -0.00241926 -0.11273 0.0662956 0.0425905 -0.119396 0.033809 0.060759 0.13324 0.136828 -0.080243 -0.197235 -0.133795 -0.166051 -0.0878748 0.0778022 -0.0194521 0.0734479 -0.0133496 0.0289455 0.0454435 -0.0853153 -0.192624 -0.118051 -0.0417519 -0.320471 -0.056628 0.0266162 -0.136801 -0.0723177 0.0372522 -0.0981004 0.00752463 0.128543 0.0460391 -0.0689186 0.101463 0.0411962 -0.0724778 0.052718 -0.0027763 -0.141162 0.0542113 0.00449504 -0.0751448 0.00174917 0.021735 -0.0173925 0.038805 0.053263 -0.100194 -0.0300309 0.0546408 -0.0435577 -0.0498233 0.0564404 0.0389526 0.0503543 -0.134533 0.0728821 -0.00558467 -0.0176202 -0.0870302 0.197286 0.0386278 0.126044 -0.0413742 0.0105617 0.12768 0.0491947 -0.0438609 -0.0282546 -0.0345774 -0.236787 0.0276245 0.102216 -0.0807265 -0.0652573 0.034501 0.113003 -0.00248229 0.108122 -0.0564644 0.0344741 0.0181179 -0.00236901 -0.0579108 -0.0475293 -0.0668037 -0.0695468 0.104071 -0.0799427 0.0683003 -0.129178 -0.116286 -0.0278458 -0.0632569 0.0298296 0.0557508 -0.0423925 -0.023433 0.0559589 0.028184 -0.0407791 -0.0378288 -0.0878271 0.0134828 -0.0945819 -0.0579328 0.0183463 0.00364445 0.022287 0.118318 0.106271 -0.0296179 -0.00294426 0.0186764 -0.0173506 -0.0693904 0.103937 -0.0572178 0.0728877 0.018459 -0.0587784 0.112458 0.0841116 0.0798715 -0.0107892 0.0306264 0.0787534 0.0657696 -0.00950028 -0.102645 -0.0109654 0.056127 0.0234055 0.0516176 0.0843636 0.0386409 -0.0729538 0.0512075 0.0737286 -0.0747659 0.00687455 0.0761006 -0.230088 -0.0160429 0.0515554 0.0269535 -0.110276 0.088755 -0.23743 -0.0445302 -0.130267 -0.245423 -0.264132 -0.145796 -0.00281311 -0.0247587 -0.0360218 0.158936 -0.0895301 0.0142052 -0.194862 -0.11186 0.124355 0.102676 -0.14981 -0.0990473 -0.0523408 0.05883 -0.136378 -0.0589608 -0.0454396 0.0189829 -0.0196959 0.182714 -0.151172 -0.0712308 0.077957 0.00164116 0.129989 0.224209 -0.0147778 -0.0453053 0.0177989 0.00333298 -0.141193 -0.038232 0.0238866 -0.038035 -0.0176772 0.142694 0.00980173 0.0680854 0.0392866 -0.267105 -0.127361 -0.0647034 0.069042 0.0521215 -0.0270713 0.0184181 0.0254546 -0.140465 -0.0925489 0.00917586 0.0265144 -0.0331735 -0.0368366 0.229629 -0.0477629 -0.160827 0.0690252 -0.0375748 0.0143345 -0.0196327 0.0968976 0.0520516 0.0661544 -0.0213733 0.0259516 0.173584 0.156127 -0.0784096 0.0671261 0.00960529 -0.0228138 0.00279198 0.104004 -0.0210841 0.0120962 0.071377 0.0860459 -0.0852315 0.0965873 -0.265101 -0.0709139 0.0146402 -0.0304277 0.0430859 -0.00738812 0.163047 0.0302434 -0.0804565 0.0300125 -0.134072 0.099691 0.138766 0.188744 -0.190853 -0.0579497 0.0199243 0.0183524 -0.0126276 0.198827 0.108305 0.105018 -0.0727343 -0.0485177 -0.0703096 -0.000285157 0.0329789 -0.064136 -0.102868 0.100175 0.0555635 -0.0140836 0.0405723 0.209806 -0.0149748 -0.0332636 0.121474 0.101482 0.0251574 0.0209514 -0.0308378 -0.116219 -0.102127 0.103485 0.0351933 0.0737508 -0.11001 -0.0881784 0.0684524 0.130434 0.0718978 -0.044561 0.0329304 0.113892 0.217385 -0.0922399 0.0303485 -0.0654462 0.039027 0.0904464 -0.125168 0.0603595 -0.0994192 -0.0412288 0.115218 -0.17302 -0.0654396 -0.067217 0.00758405 0.0524333 -0.00356592 -0.108016 0.0476633 0.0805515 -0.228681 0.0299296 0.0992072 0.049865 -0.0585805 -0.0132608 -0.150128 -0.00852009 -0.153107 0.0927996 0.00377885 -0.155893 -0.137607 -0.18179 0.0511726 0.0607329 -0.0838948 -0.206358 -0.0126639 0.056931 0.0706323 0.272825 -0.0334271 -0.00284765 0.0338213 0.119052 0.00515914 -0.114415 0.0453224 -0.0874593 0.117208 -0.0609167 0.00315984 -0.0571506 -0.12046 0.0346259 -0.0243248 0.00975376 -0.0685489 -0.115683 0.00709494 -0.0457514 -0.118584 -0.0701551 -0.180652 -0.0812604 -0.0156957 -0.0138416 -0.118411 0.011795 -0.00726146 -0.0626956 -0.0767186 -0.206286 -0.0244431 0.00282077 -0.0449248 0.169512 0.0288052 0.0438061 0.0858179 -0.018182 0.139972 -0.276064 -0.0943529 0.0129036 -0.0143375 0.153323 -0.139362 0.0988626 0.00917562 -0.188307 -0.114742 -0.13273 0.0460093 -0.0743188 0.0575631 -0.0411216 0.0103166 -0.0942616 0.150959 -0.0652256 -0.0410436 0.078336 0.11377 -0.112822 -0.0635634 -0.236211 -0.153713 0.0126682 -0.134468 0.106318 -0.0747182 0.0223918 0.0617712 -0.0498551 -0.112287 -0.0667036 0.0337946 0.0240192 0.170609 -0.00211157 0.0722779 0.00150916 -0.00929852 0.0596397 0.0222884 0.221099 0.055273 -0.0540969 -0.0368027 0.0811622 -0.133237 0.0983334 0.0943262 -0.0773379 -0.00387597 0.107702 0.14692 0.0693705 0.157079 0.0113107 0.0541673 -0.00181286 0.0386697 -0.0500634 -0.00114709 -0.101511 -0.0141848 -0.0438062 -0.0509291 0.163572 -0.0423259 0.0681071 0.0754887 -8.11775e-05 0.0598724 -0.0742065 0.0771202 0.0149387 -0.204591 -0.0562243 -0.136663 -0.069005 0.109252 0.0206562 -0.0723702 -0.109563 -0.0706439 -0.0563314 0.0171169 -0.320656 0.0275838 -0.112579 -0.0331511 -0.0188275 -0.121792 -0.0417786 -0.131685 0.0229442 0.128888 -0.0320784 -0.16683 0.0345643 0.101514 0.000515732 -0.0197397 -0.0835378 0.0360499 0.00529534 0.0371112 -0.100039 0.188649 -0.0357072 -0.110825 -0.0175982 0.0550835 0.00332384 0.047743 -0.0548807 -0.094852 -0.0100387 -0.106432 -0.0619852 0.0519819 0.0748481 -0.031916 -0.0765666 0.0763323 -0.0549969 -0.0242275 0.136218 -0.137898 -0.0474104 -0.219159 -0.235078 -0.0556127 -0.105682 0.108948 -0.177373 0.0808731 -0.0453086 -0.0129896 0.0447747 -0.161808 0.0331342 0.0700175 -0.12462 -0.104663 0.0462563 0.203001 -0.00927568 -0.118384 0.140253 -0.0202979 0.0504941 -0.0761017 0.0657923 -0.0395896 0.0771313 -0.0350441 0.0492004 0.0104663 0.127596 -0.149746 -0.0612078 -0.11094 0.101892 -0.053345 -0.0691875 -0.0130256 0.145153 -0.0306117 0.130773 -0.0166044 0.130954 0.00552309 0.0425239 -0.0134397 0.0492121 -0.0132146 0.103534 -0.00856782 0.12564 0.0967604 0.0466268 -0.128981 -0.117827 0.0787544 0.0184321 0.0204719 -0.124861 0.0160365 -0.0443864 0.00130524 -0.00630987 -0.0345792 0.0108483 -0.0651406 0.201742 -0.0964488 -0.0885348 -0.00534502 0.0238962 0.0397388 -0.0984666 -0.0791351 -0.00306987 0.112916 0.303951 0.0628753 0.123285 -0.034012 0.0983257 0.144592 0.136988 0.0519699 -0.0863835 0.0185975 0.136617 -0.125244 0.0262085 0.0368105 0.0906187 0.0642466 -0.0797641 -0.154125 0.104157 0.209894 -0.0797413 0.0828097 0.0702001 0.00372342 -0.0854352 -0.026064 -0.0449708 0.0247681 -0.191813 0.0445656 0.121851 0.00365963 0.129585 -0.185875 -0.0248504 0.074277 0.036986 0.073695 0.00607427 -0.157491 0.020687 -0.00894055 0.122131 -0.188119 0.0394762 0.045815 -0.0373138 0.00241089 -0.104933 -0.0630373 -0.166375 -0.0256572 0.0686005 -0.10762 0.0160727 -0.0275712 -0.19121 0.0816041 -0.075497 0.154046 0.027402 0.0136039 -0.0958678 -0.133798 -0.241961 -0.105496 -0.101337 -0.240059 0.122715 0.0105857 0.0843127 -0.0306043 0.02539 -0.135956 -0.0282455 0.0209115 0.0263597 -0.148961 -0.0762535 0.0767679 -0.0150092 -0.229707 0.0132183 -0.0931356 -0.044207 -0.102958 0.0975552 -0.00615403 0.119563 0.0472117 0.188157 0.0246809 -0.0645894 -0.128995 0.0103599 -0.111614 -0.0251768 0.054858 0.161815 -0.12028 0.125712 0.0952682 0.118271 0.0742678 0.0131964 -0.134246 0.0325768 -0.0415559 -0.27539 -0.146973 0.16408 -0.0174096 -0.136538 0.0941629 0.0487343 0.0241518 -0.172555 -0.031933 0.102088 -0.134505 0.0146461 0.0497564 0.0904585 0.0521302 0.109402 0.0485951 0.0382047 -0.0129999 -0.00687759 -0.0459968 -0.0272113 0.0456613 -0.0832825 -0.0267117 0.0972345 0.064792 -0.0700423 0.0501399 -0.0496458 -0.0730084 0.0567624 -0.166052 0.00230793 -0.0117644 -0.10093 -0.0310564 0.061474 0.0873907 0.123633 -0.0223011 0.0783557 0.0248199 0.103624 -0.0351113 0.0538758 -0.120308 -0.319061 -0.1625 -0.0786069 -0.0434686 0.0349148 0.0663151 0.129404 0.0151411 -0.0682083 -0.0190944 0.0973348 -0.0417566 0.0181359 0.0295276 -0.0272897 0.0548364 -0.0944006 -0.0440344 -0.0313023 -0.100103 -0.0693755 0.00741514 -0.0531087 -0.0305266 -0.0824549 0.0867949 -0.163007 0.0280696 0.0812122 0.0415887 0.0143834 -0.113816 -0.162375 -0.030421 -0.10536 -0.144444 0.0162566 0.0924862 0.106294 -0.0385168 -0.125341 0.0608649 0.0117166 -0.0627744 -0.0189257 -0.172681 -0.0196778 0.00481065 -0.0605352 -0.00237394 0.166918 0.0624358 -0.0915881 0.109839 0.0433833 -0.093953 -0.0591388 -0.0635979 -0.0738997 -0.0724998 0.0900654 0.0543129 -0.0893325 0.0689437 0.015718 0.187515 0.114931 0.0261842 -4.4934e-05 0.0848898 -0.0360721 0.104639 -0.0285856 -0.0530069 -0.14982 -0.122905 -0.0466524 0.00367782 -0.0835652 -0.0471697 0.130466 -0.0128869 0.0240213 -0.118189 0.074459 0.0533888 0.0975894 -0.185422 -0.161875 -0.0687582 -0.109506 -0.0180209 0.0407001 -0.0626764 -0.00854927 -0.0817864 -0.0954431 -0.124892 -0.0663011 0.151932 0.143297 -0.176849 -0.0140193 -0.0434838 0.0250223 -0.0333063 -0.0219462 0.0536285 -0.154389 0.0989957 0.0133706 -0.0783345 -0.118398 -0.0114046 0.0510763 0.0455714 -0.123035 0.0402533 -0.0113005 -0.0311676 -0.0452936 0.111256 0.01813 -0.165259 0.00822765 -0.0431502 0.0451052 -0.12524 0.0166547 -0.109672 -0.191978 -0.153575 0.00110646 0.16592 0.0268773 -0.141486 0.00721479 -0.282353 -0.103816 0.021103 -0.256827 -0.112002 -0.0226274 0.177197 0.155807 0.27882 0.0754892 -0.0455537 -0.183163 0.0320906 0.107495 -0.0335255 0.0284991 -0.0414897 0.0684926 0.127495 -0.127395 0.0821989 0.00771893 0.0955317 -0.10538 0.055928 0.0247566 0.0809832 0.051619 -0.0572721 -0.0334994 -0.0916549 0.0159266 0.0414745 -0.00487981 -0.00866656 -0.0934745 -0.0567737 0.0700693 0.022927 0.211866 -0.0437003 0.0392416 -0.0637416 0.0749962 0.0851013 0.0760662 -0.0724965 0.0311881 0.00879482 0.00204509 0.0693613 0.0387343 -0.0432285 -0.0563825 0.0233984 0.139015 -0.075193 0.0109262 0.0467891 -0.00473629 0.09012 -0.0536684 -0.00446334 -9.13998e-05 -0.139976 -0.0370832 0.0877851 -0.133689 0.0048442 -0.0395254 0.110633 -0.0705238 0.00148186 -0.118506 0.0599032 0.0207813 0.084502 0.124155 -0.022838 0.0437568 -0.113318 -0.0193733 -0.0256743 -0.0619368 0.00385848 0.0269529 -0.0923212 -0.128579 0.186692 -0.00691356 -0.0495453 -0.0317937 -0.118544 0.0998437 -0.00878585 -0.0135969 -0.0305695 -0.00173785 0.0569205 0.0930731 -0.00443606 0.107363 0.0599005 0.0941364 -0.0996076 -0.0784298 -0.0969144 0.0222626 -0.0971421 -0.0492394 -0.114789 0.120638 -0.0920622 0.059193 0.00262732 0.0176401 -0.00246806 0.114388 -0.0368291 0.069088 -0.142599 -0.0798227 -0.0525842 0.0974196 -0.0985389 -0.139908 -0.110777 0.0196826 -0.0885793 0.17333 -0.15435 -0.223545 -0.111527 0.00459837 0.0759314 0.121544 0.103625 0.0316487 -0.0709186 -0.010542 0.0914547 -0.0892965 -0.0879358 0.263837 0.0254768 -0.0292592 0.00482703 0.0810677 0.134793 -0.0370588 0.0390532 0.108865 -0.0214613 -0.0376038 0.17112 -0.0891758 0.0143656 0.0543474 -0.0372113 0.0184315 0.0361126 -0.032393 -0.000438504 0.137923 0.0823779 0.0444708 0.0587867 0.124432 -0.166401 0.00147515 -0.0325902 0.050315 0.040006 0.0347037 -0.0876674 0.0370687 0.0732957 0.0691933 -0.0455912 -0.0366201 0.0578422 -0.0296146 -0.209296 0.0234619 -0.0848697 -0.0447427 0.00924183 0.0613376 0.0601735 0.0331509 0.108567 -0.149558 0.0395353 -0.225962 -0.054934 0.0193013 0.0156513 -0.167918 -0.00880569 -0.0649423 -0.035426 -0.0368265 -0.0499381 0.00068974 -0.010749 -0.045281 0.0830342 0.0112826 0.010813 0.0308735 0.00191376 0.0408464 0.142793 -0.102001 -0.0726024 -0.049338 0.00662217 0.0489487 0.0587107 -0.0699176 0.209911 -0.0536219 0.121784 -0.1397 0.0914803 -0.098698 0.00359893 -0.027452 -0.105676 0.0406866 -0.188002 0.137654 0.00798267 -0.14035 -0.0706556 -0.0370251 -0.0335887 -0.107911 -0.00229057 0.0998751 -0.123716 0.203799 -0.0475849 0.120759 -0.0651752 -0.0635663 -0.111065 -0.000661312 0.105262 -0.204584 0.134139 0.132114 0.0394025 0.134984 -0.197361 0.0500718 0.0619316 -0.195576 -0.305693 -0.0284457 -0.00709848 0.00511924 -0.0803829 0.0560208 -0.00114981 -0.032739 0.0723151 0.0337553 0.0433099 -0.134419 0.0097577 0.212122 0.0783917 -0.0194007 0.057836 0.0710274 -0.0618629 -0.0812035 -0.0466701 0.0439363 -0.0902488 0.0464582 -0.116984 0.000400482 0.0419411 -0.199849 -0.120969 0.135963 -0.119805 -0.0256524 -0.00156905 -0.0537873 -0.0169966 -0.0107058 0.01661 -0.0374037 0.12347 -0.035546 0.0943358 0.0339465 0.107119 0.00649074 0.055385 0.0984871 -0.116556 0.0277945 -0.0308476 0.0638929 0.0865809 0.20869 0.134544 0.120309 0.177629 0.0887467 -0.0876208 0.00304193 0.0691958 -0.0367397 -0.12229 -0.135489 0.134021 0.0750497 0.017937 0.0354322 -0.0013452 -0.0575373 -0.0761333 0.00423996 -0.0749638 0.0438084 0.017461 0.229218 -0.00618491 -0.104539 -0.165109 -0.106142 0.19089 0.0205969 0.00926918 0.0585014 0.126431 -0.0241788 0.02014 0.181524 0.135507 0.0385053 -0.0293771 -0.0661991 -0.0170034 -0.0468716 -0.0191011 -0.171801 0.093573 0.00613509 0.0513266 -0.129443 0.0511229 0.0153055 0.0658531 -0.0150361 -0.0556156 0.183144 0.0535165 0.0130389 0.0356979 -0.215063 -0.0952743 -0.149043 0.0457242 -0.0526413 0.0547777 -0.106089 0.0139803 -0.0349209 0.0411887 -0.107858 -0.164809 0.0141535 -0.0446274 0.00549208 -0.115247 -0.177746 0.00331187 -0.128947 0.00289927 0.140605 0.0910511 0.0683858 0.0687779 0.00375938 0.0385783 -0.223117 -0.0241022 -0.07564 -0.0605829 0.188023 -0.197458 0.121908 0.0238963 -0.0547248 0.0437156 0.157615 0.0452789 -0.0386391 0.160847 0.0769017 0.0256632 0.0816633 0.135393 0.0740432 -0.157515 0.197557 -0.144769 0.0355098 -0.178548 -0.0501218 -0.0101762 -0.23065 0.0551478 0.0647273 -0.166446 0.110263 0.0354194 -0.0531593 -0.226665 -0.000994402 -0.138317 -0.0477399 -0.0401378 -0.0324937 -0.136835 0.0353476 -0.0751064 -0.106029 0.00703888 0.0144907 0.0382386 0.0861979 0.144526 0.0851264 -0.176654 -0.0354845 -0.292823 -0.136828 0.0457599 -0.0138942 -0.0333207 -0.12643 0.246101 0.0356557 -0.0167028 -0.0191717 0.0119884 0.080028 -0.0645654 -0.128164 -0.097629 -0.132682 -0.0595891 0.0180037 -0.12421 -0.125799 0.0119708 -0.0944261 -0.058866 -0.0348953 -0.0686784 0.00206754 -0.146397 0.116788 0.112306 -0.0518805 0.00923343 0.033738 -0.101123 -0.0749038 -0.0887492 -0.148464 0.0704581 0.0489711 0.0675508 -0.000396631 -0.220588 -0.0804227 -0.0379729 0.186123 0.0258807 -0.045258 -0.0520834 0.151629 0.0542005 -0.089649 -0.0560875 0.0519488 0.0324867 -0.0518761 0.0871648 0.0811758 0.0753621 0.151816 -0.0324181 0.0760359 -0.0965428 -0.0142782 0.0326596 -0.0172777 0.120654 -0.0161699 0.0247723 -0.0434128 -0.00495668 -0.0564903 -0.0974628 -0.00752476 -0.0853594 -0.0310996 -0.109429 0.278684 0.0711448 -0.00314608 -0.117049 -0.0654841 0.0496095 0.0527167 -0.0161005 -0.0337757 -0.0237208 0.0262787 0.00971472 0.0644142 0.0592265 -0.100171 -0.164262 -0.0662079 -0.244144 -0.180163 0.0588279 0.0692844 -0.156356 0.0467095 0.035788 -0.0615482 -0.00226628 0.0741192 0.15193 -0.0773086 0.0310955 0.197559 0.189726 0.20567 -0.0476154 0.0607218 0.198672 0.131516 -0.071957 -0.119116 0.11895 -0.0167971 -0.0386938 0.133817 -0.00510041 0.00356763 -0.0634518 0.0102641 0.0049233 0.0813698 0.102367 0.151501 -0.0763109 -0.0692492 0.0131394 -0.0445585 -0.00843357 0.040097 -0.000662122 -0.170161 -0.0375357 -0.11516 0.0346259 0.0521593 0.191776 -0.0267444 0.142498 -0.0593411 0.0150147 -0.046149 -0.014225 0.16678 0.0185642 -0.0757955 -0.0349026 0.0183217 0.153325 0.0645995 -0.040179 0.0994726 0.288111 0.148051 -0.00507181 0.017965 -0.0382855 0.0185557 -0.0497295 -0.056752 0.0968512 0.0357143 0.00859995 0.0554578 0.107957 -0.0226461 -0.0324018 0.0711636 0.0522216 0.106029 -0.0642086 -0.030498 0.0164313 0.00330852 0.0052506 0.133313 -0.0401583 0.0733277 -0.0919006 0.0392937 -0.0275769 -0.225143 -0.00952874 -0.0270202 -0.0345767 0.00166466 0.174676 0.0542035 -0.110403 0.0431606 -0.145605 0.0531338 -0.00763558 0.0949795 0.0512135 0.131801 0.00935472 -0.118876 -0.0424752 -0.0268405 -0.128919 -0.0613253 -0.0065437 -0.0240899 0.16272 -0.150344 0.0603282 -0.00106446 -0.0314326 -0.0273557 -0.0752173 -0.0408993 -0.166634 -0.0812058 -0.23838 -0.0308864 0.0580208 -0.00755191 0.0429374 -0.0074198 0.0885393 -0.0700245 -0.0281854 0.0107169 -0.0117028 0.0582618 -0.0201541 0.100481 -0.0472153 -0.0667993 0.0915827 0.017315 -0.17661 -0.00778467 -0.0180452 -0.191884 -0.117832 -0.169313 -0.0844918 0.0720407 -0.381105 -0.143085 0.0553151 0.0368518 -0.115119 0.102786 -0.0499753 0.110867 -0.182514 0.0181858 -0.0855223 -0.0793044 -0.0402815 0.00274763 -0.132498 0.0849844 -0.0937478 0.0433205 -0.128214 0.0228241 0.0373191 0.11597 0.108195 0.0248828 0.12737 -0.0474942 -0.0470785 0.0914136 0.0411769 0.0265522 0.0989681 0.0430821 -0.013152 0.00478379 -0.119713 0.0958992 -0.0647978 -0.0869488 -0.13374 0.074349 -0.0392198 0.142189 0.177854 0.0532765 0.174452 0.0397274 0.187064 0.148847 0.215473 0.196141 0.119047 0.0822229 0.0164141 0.0840292 -0.139808 -0.0714777 0.116542 0.0977217 0.104931 0.0322808 -0.0183411 0.0294834 0.000970618 0.0899693 0.00941433 0.149468 -0.0585643 -0.0543519 -0.0343831 -0.00734657 0.151314 0.0053092 -0.0121764 0.024983 0.166804 0.10959 -0.0230611 0.00932069 -0.118147 0.112505 0.0188105 -0.106432 -0.0599632 0.154917 0.0531802 -0.0519404 0.159522 -0.0924731 -0.038991 0.186309 -0.151299 0.00529072 -0.0929309 -0.199933 0.0955727 0.0118898 -0.0207614 0.0196938 -0.0293635 -0.190647 -0.0558716 -0.0589084 0.0516301 0.100917 0.0974051 -0.0360022 0.0103739 0.10328 0.0641648 -0.0556894 0.12736 -0.0591981 0.116428 -0.0823734 -0.0409684 -0.0508288 -0.0881329 0.109949 -0.00360672 0.0710574 0.0868949 -0.186719 0.0698749 0.107423 0.207569 -0.0598766 -0.174512 0.0893501 0.0409498 0.0865877 -0.0072909 0.178756 -0.0645546 0.0682494 0.242915 0.0956095 -0.0209649 0.00648777 -0.113413 -0.0405906 0.0290039 0.0989944 -0.0224382 -0.0289072 0.0614659 0.0420126 0.0113842 0.223104 -0.065646 -0.0360756 -0.0569667 0.109122 0.208796 -0.145485 0.0251912 0.00582576 0.0580416 0.198389 -0.17178 0.0746393 0.0368025 0.0694767 0.0184872 -0.0479416 0.239858 0.0907404 0.0745755 -0.111337 -0.125328 -0.0704975 -0.0716024 -0.00721363 -0.0768693 0.0588896 -0.0513463 0.188052 -0.0777188 -0.19684 0.108757 -0.0346863 -0.0741603 0.153797 0.222511 0.0377968 0.106425 -0.00607992 -0.0172271 0.0231585 -0.0236839 -0.134176 0.00965841 -0.194501 0.0147087 0.0343101 -0.139094 0.0366278 0.101718 0.0531114 -0.121541 0.238803 0.0885593 -0.0674957 0.178952 0.024281 0.0753849 -0.0409842 0.00415047 -0.141302 -0.0497857 -0.0196136 -0.0575 -0.0389476 0.226633 0.215804 0.12313 -0.134686 -0.0579642 0.198355 -0.231598 0.0857837 0.0970793 0.0912108 -0.156389 0.000594923 -0.300293 -0.0661154 0.0277083 -0.139813 -0.0220465 0.108242 -0.0287805 0.114001 -0.0461261 -0.254237 -0.103277 -0.218052 -0.00416378 -0.145167 0.0593618 -0.160807 0.0153887 -0.0469362 -0.0395679 -0.111558 -0.299547 -0.0355911 0.0245057 -0.0297552 0.0951557 -0.0727466 -0.0583915 -0.0824229 0.00946211 -0.104644 -0.0270263 0.0101128 -0.199017 -0.0504792 -0.10434 -0.0257555 -0.0537395 0.0811719 0.095104 0.0728352 0.0366021 0.0225543 -0.0821515 0.0384498 0.0915008 0.0708681 -0.13965 -0.0134089 0.0188649 0.0655719 -0.0775469 0.0207418 0.0341266 -0.00676829 0.06802 0.108264 0.0158492 0.0622914 -0.12509 0.121185 0.0863466 0.0547731 -0.0161798 -0.144239 -0.00773496 -0.0440403 0.0516879 0.136464 0.0601494 0.075207 0.162088 -0.0200802 0.0448655 0.0514018 -0.0437888 0.0666906 0.0339094 0.0691021 0.142508 -0.0948721 -0.0294771 0.107175 0.0213808 0.045866 -0.0668546 -0.152674 -0.0153273 0.0488085 0.0153001 0.180444 -0.0531662 0.0380121 -0.158521 -0.0563266 -0.0325379 -0.117686 -0.0809106 0.00211079 0.00533992 0.0389687 -0.0157534 0.0674355 0.0423925 -0.0699707 0.112031 -0.00620407 -0.185096 -0.00598637 -0.139792 -0.0382019 -0.0210817 -0.0434209 -0.0768146 0.102274 -0.070817 -0.0829789 -0.0234449 -0.0340852 0.0205483 -0.0403508 -0.0274319 0.150633 0.104872 0.00547673 -0.132513 0.0246799 0.0194668 -0.0670217 -0.15287 -0.0630907 -0.0993607 -0.078399 -0.223971 -0.0887528 0.144956 0.0113471 0.0711117 0.144873 -0.138491 -0.0729125 -0.00312163 -0.00224452 0.0506163 0.0178376 0.0215505 -0.118073 0.0316442 0.108905 0.0306975 0.183726 -0.0290951 -0.0182072 -0.00451967 -0.131601 0.0647472 0.151953 -0.0581691 0.0349053 0.153378 -0.104037 -0.0640214 -0.0270122 0.0040327 -0.108382 -0.145883 0.0945092 -0.0937039 0.0227819 0.0514796 -0.114479 0.0217737 0.0156908 -0.0317526 -0.0530809 -0.169106 0.074767 -0.0507615 -0.250357 -0.107023 -0.0564184 -0.102792 -0.0200816 0.0317866 -0.121046 -0.0459579 -0.0571121 -0.0408353 -0.0248413 -0.133759 -0.0980598 0.0816 0.141904 0.145098 -0.0206191 0.219232 0.0307562 -0.0778797 0.0531213 -0.0827973 0.100313 -0.0529171 0.0935711 0.045652 -0.0689653 -0.0248577 -0.0285668 -0.0416908 -0.0465559 -0.0974197 0.0171517 0.0484585 -0.067216 -0.096364 0.0838695 -0.0944429 0.0304381 0.0571168 -0.114403 -0.0999371 0.103287 -0.122937 0.0129036 -0.0605452 -0.136099 -0.0209437 0.015096 0.0745491 -0.104691 0.13686 -0.0180166 -0.0627146 0.0360413 0.141994 -0.207755 0.0677372 0.131372 -0.0460641 0.0259985 -0.0204181 0.0956395 -0.0214387 0.00704864 0.0904982 -0.0795954 -0.0482264 -0.100887 0.123834 0.013035 0.102958 -0.0131739 -0.0309918 -0.112379 0.0119541 0.0101663 -0.0414194 0.0214132 -0.158998 -0.226099 0.0321274 -0.072924 0.298408 0.0205845 0.00832378 -0.119982 0.0152326 0.112628 -0.128332 -0.0485984 -0.0806595 -0.288952 -0.169384 0.00721813 0.043924 0.0752227 0.0427129 0.190527 0.135405 0.0221166 0.0308067 -0.0810702 0.0852246 0.0665838 -0.0794753 0.0247112 0.0013314 0.0186739 -0.00256799 0.122941 0.22328 0.0342595 0.0381209 0.0548788 -0.0707199 0.0229343 0.0302961 -0.100601 0.0831064 -0.132417 -0.0187433 -0.0259171 0.118644 0.0868196 0.0452174 0.0484294 -0.114141 -0.0412126 0.0920285 0.0511643 0.130283 -0.00905607 -0.0553502 -0.165735 0.0822819 -0.0107544 0.0584248 0.0893552 0.085769 0.10367 0.0706579 -0.17319 0.0958956 -0.099369 -0.130584 -0.0196821 0.030651 0.0142326 0.154217 -0.0210755 -0.0739718 0.16851 -0.0816895 -0.0463234 0.0751 -0.18 0.111813 0.120119 -0.095436 0.0472084 -0.0504429 -0.0929242 0.032349 -0.0481777 -0.100599 0.0750448 -0.111405 0.0074739 0.01801 -0.0316865 -0.0757545 0.106128 -0.0543479 -0.0468613 0.0713462 -0.0996001 -0.0897286 -0.0108782 0.00121506 -0.0344985 -0.0437932 0.0425585 -0.078531 0.0164887 -0.0816949 0.0960377 -0.14007 0.0303585 -0.106231 -0.0112944 0.102869 -0.0417665 -0.0220839 -0.0224695 0.0856561 0.125281 0.066747 -0.12445 -0.113387 -0.0411091 0.0210955 -0.00942583 0.0807223 -0.168786 -0.193833 0.072762 -0.11726 0.157512 -0.0850173 0.0788158 0.0210799 -0.087535 0.0291334 0.100548 -0.0659202 0.126249 0.0671835 -0.0185317 -0.0350253 -0.0230393 0.0506818 0.0747219 -0.0595947 -0.152314 0.0812511 0.0353972 -0.144183 0.00112763 -0.0538438 -0.0309798 0.0663243 -0.0529723 0.124325 0.13072 0.105241 0.0190952 -0.0437354 -0.0341328 -0.08124 0.155019 0.0462548 0.105915 -0.111971 -0.0183946 -0.0201808 -0.0801046 -0.113459 -0.0103131 -0.170253 0.0602724 -0.054113 -0.0883726 -0.0440654 0.0903664 0.26572 0.00585685 0.052361 0.0141869 0.0507228 -0.136377 0.0137335 0.0349476 0.0501899 -0.117841 -0.0537072 0.0365234 -0.110145 -0.14405 -0.08365 -0.0900411 0.0392238 -0.0117709 -0.0132339 -0.0966826 -0.000420389 -0.214234 -0.0943231 -0.0278267 0.150842 -0.0564259 -0.0400538 0.0821799 -0.0587252 0.0241483 -0.161564 0.137281 0.0305036 0.00157658 0.161039 0.0448248 0.0843957 -0.113097 -0.0259985 -0.0309731 -0.130617 0.00537563 -0.0285197 0.0399638 -0.0879764 -0.149933 0.12959 -0.080438 -0.100299 -0.0167136 0.29235 -0.00734255 -0.0324965 -0.176543 -0.0836729 0.00217655 -0.105517 -0.148531 0.0738678 -0.0013948 -0.0758869 -0.05415 0.0175181 0.0252682 0.0948527 0.0219336 -0.00348246 -0.266693 0.0406212 -0.0454541 0.161629 0.0434402 0.0499446 -0.18971 -0.100631 0.156175 0.0100908 -0.105936 -0.1013 -0.016903 -0.127723 -0.15916 -0.166884 0.104019 0.0149471 -0.094055 -0.157251 -0.0760952 -0.0285124 0.00970046 0.0535664 0.178042 0.0198704 -0.0517631 -0.00275403 0.16038 0.0110986 -0.122754 0.103199 -0.0851927 -0.0413873 -0.0831875 0.143587 0.106351 -0.0132466 0.11623 -0.00980695 -0.0760906 -0.122003 0.187298 -0.142365 0.0906779 -0.00427988 -0.0439624 0.0878169 0.0303115 -0.0598051 -0.0279198 -0.0672502 0.0805272 -0.128904 -0.109068 -0.0819796 0.117224 -0.122078 -0.143637 0.0542747 0.0102634 -0.178121 -0.032844 0.0037974 -0.127464 -0.0912681 0.0923879 0.241801 0.0469127 0.157538 0.131719 0.0459924 -0.0168268 -0.0708973 -0.251219 -0.156362 0.00997341 0.10194 -0.0453238 0.180478 -0.0198026 0.0773876 -0.0946307 0.00258613 0.114648 -0.0179363 -0.0847451 -0.000481772 0.0429291 -0.0285011 -0.0986656 -0.0102752 -0.104007 0.0657058 -0.14823 0.000323036 0.0129102 -0.0874007 -0.00113053 0.0519791 -0.0824075 -0.0310069 0.0101839 0.0318365 -0.0392354 -0.0539523 0.06563 0.00143525 0.0270561 -0.109795 -0.100811 -0.0366442 -0.127648 -0.0489296 -0.0326256 0.103066 -0.11453 0.0493659 -0.0265501 -0.0603859 0.102104 0.0810475 0.0338763 -0.0499634 -0.0853393 -0.0257507 -0.0286358 0.242169 -0.155932 -0.086545 0.0691484 0.0233105 0.0244442 -0.0376987 0.00794157 0.0837434 0.102718 0.0406441 0.16914 0.144976 0.160052 -0.0101076 -0.0499365 -0.0695069 -0.0100374 -0.104135 -0.0997068 -0.0750378 -0.0756744 0.0995181 0.0502138 -0.13732 -0.0355678 -0.086078 -0.0325547 0.0321155 0.0797873 -0.00469148 -0.0312097 0.124 0.0423194 0.0874709 -0.0117951 -0.0188546 0.0586034 0.126435 0.0482609 -0.0277125 0.0216118 -0.0961743 0.0531535 -0.0248231 -0.0684378 0.130416 -0.0284006 0.0609104 -0.0161557 0.126424 0.0233271 -0.0173224 -0.118508 0.167148 0.0995381 0.193001 0.00920756 0.102503 -0.0865649 0.0378764 -0.0419847 0.0944283 -0.125503 -0.287821 -0.00865554 -0.0859878 0.0463602 -0.00955517 0.0767271 -0.0563874 -0.114318 -0.280396 -0.0588547 -0.11583 0.0466855 -0.0920671 -0.0258011 -0.168281 0.0102814 -0.148138 -0.0742953 -0.0750367 0.0147869 0.119209 -0.126877 0.0964394 -0.028395 0.137766 0.0414972 0.030134 0.0766444 0.175761 0.0714794 0.105799 -0.0387413 -0.0539262 0.106851 -0.146954 -0.0695101 0.102168 0.0341831 -0.0469232 0.00983315 0.0674209 -0.0111118 0.32166 -0.00703905 0.179444 -0.0475962 0.0314722 -0.0442664 0.0905888 -0.118859 0.00353062 -0.15187 -0.0141465 -0.0441193 -0.0617707 -0.0885734 -0.00574833 -0.0554569 0.0557227 0.032465 0.0801752 0.0674265 0.0420562 -0.0067441 -0.0615696 -0.110752 0.0547257 -0.146206 -0.125428 0.12895 0.0467686 0.0864312 0.0814787 0.0930123 0.0203516 -0.0106651 -0.0155562 0.163599 0.00647784 -0.0511715 0.0653054 0.129719 0.100407 -0.011332 -0.0956375 0.186339 0.108056 0.00151294 0.121357 0.0103414 -0.0317955 -0.0944148 0.0445562 0.0313229 -0.130528 0.0524283 0.121477 0.206494 0.13574 -0.0435985 -0.123768 -0.00227515 0.169629 -0.0903112 -0.0241211 -0.0329453 -0.00761989 -0.0354499 -0.0830572 0.0396571 0.0765659 -0.024825 0.0768165 -0.0500307 0.0341408 -0.0671359 -0.0809277 -0.0559049 -0.02467 0.0389233 0.129099 0.125032 0.0708372 0.0687929 0.191138 0.0286533 -0.0252798 0.0418235 0.071833 -0.00892115 0.110334 -0.0702883 0.0146042 0.062176 0.0147494 0.0387949 0.0543003 -0.0193409 -0.0521833 -0.160177 -0.113794 -0.0170515 0.0260228 -0.138095 0.0831031 -0.158417 -0.105343 -0.00751222 0.164954 -0.065445 0.0325013 -0.109876 0.075282 0.0754077 -0.126423 -0.0666008 0.0734182 -0.154986 -0.0056267 -0.00395276 0.0726844 0.0336566 -0.0757336 0.147673 -0.0234013 -0.00722536 0.108369 0.0601243 0.156396 0.10263 0.138326 0.0754758 -0.00418694 0.209292 -0.171948 0.0525206 -0.111322 0.0778537 0.0376373 0.00695443 0.100398 -0.0114732 0.147446 0.056975 0.164616 -0.134245 -0.0226293 0.0789852 -0.0537169 0.0113301 -0.0166466 -0.130095 -0.167793 0.00158957 0.0516097 0.0704424 -0.0271583 -0.0911975 0.00815579 -0.0475886 0.166915 0.201012 -0.0195551 -0.0934991 -0.00125018 -0.0798989 0.0719784 0.129569 0.0241673 -0.0291354 0.135046 0.0088524 0.0555566 -0.127619 -0.00847927 0.0208342 -0.0141453 0.00448488 -0.0011152 -0.0657487 -0.087832 0.0883553 -0.142769 0.0582825 0.0852093 0.176541 0.10075 -0.0331728 -0.0803631 -0.0674558 0.0897375 0.0214586 -0.0678177 -0.0474899 -0.14517 0.0131161 -0.0731144 -0.0509282 0.0540733 -0.103069 -0.0331275 -0.0173365 0.0608251 0.0711701 -0.13831 -0.179966 -0.0634507 -0.0128089 -0.209829 -0.0344544 0.0226093 -0.0376055 -0.136205 0.0301733 -0.130171 -0.0296612 0.0489034 -0.0283491 0.0777273 0.186686 -0.124626 -0.206066 -0.110061 0.172978 -0.047399 0.129361 0.168298 -0.115236 0.0145258 0.0888992 -0.153403 0.0535611 -0.0545639 -0.131439 -0.0168512 -0.0313145 -0.00230184 0.0392483 -0.0137157 -0.0165514 0.0375817 0.0922456 -0.0186922 0.0306478 0.0435623 0.0594948 0.15991 -0.16332 0.197429 -0.162703 0.0353114 -0.073741 -0.100244 -0.0180148 0.060068 -0.0487022 -0.00949242 -0.00778525 0.0693525 0.0588802 -0.0404753 -0.00744633 0.0894785 -0.0492925 -0.0647464 0.0369342 0.0900996 -0.108948 -0.00390391 0.0695377 -0.0511337 -0.0852469 0.0941112 -0.0125113 -0.0351868 -0.0304714 -0.000836286 0.147042 -0.126931 0.0157703 0.0830337 -0.0739396 -0.000212565 -0.0434975 0.0160184 0.0484107 -0.0152618 0.0598819 0.0300502 0.0396845 0.0221766 -0.00184258 -0.213168 -0.0881017 0.0251375 0.0101948 -0.0302494 -0.0912374 0.139024 -0.112474 -0.076524 0.0459588 0.0304144 -0.053305 -0.0209721 0.041842 0.0129885 -0.0285729 -0.221831 -0.0788938 0.0750456 -0.0837133 0.158264 0.0844472 -0.0880107 0.0238755 -0.156818 -0.165022 0.145165 -0.0497066 0.00553165 -0.0152638 -0.0399332 0.0188198 -0.0021323 -0.0829376 0.0282782 0.0428798 0.0335537 0.0497403 -0.0305844 -0.130439 0.0998842 0.059245 -0.128409 -0.0868454 0.0537475 -0.087419 -0.0535178 -0.0189847 -0.0435015 -0.150501 0.220732 0.00766494 -0.124138 0.0716322 -0.0696041 -0.136502 0.23101 0.113283 0.115387 0.0698669 0.0163239 -0.0189079 0.0124098 0.0772617 0.0278455 0.0255483 -0.0977013 -0.12548 0.0192375 -0.0348233 -0.0640446 -0.0791017 0.0587414 -0.0161518 -0.044625 -0.0991014 -0.00546401 -0.127053 -0.0750237 0.0329392 0.00455921 0.081003 0.0588403 -0.252403 -0.234493 0.164918 -0.0105453 -0.0592059 0.0382282 0.00570808 0.195388 0.0863707 0.0562103 -0.0362175 0.0611355 -0.0456206 0.0920546 0.0209168 -0.0380975 -0.126898 -0.0744358 -0.0931047 0.0742208 -0.0535742 0.0659261 0.127111 -0.000214765 -0.16704 0.15382 0.072169 -0.117037 -0.0273197 -0.061384 0.115819 0.0375037 0.0556145 -0.0293448 -0.0663993 -0.181753 -0.0925462 0.0457264 0.0163924 -0.167051 -0.0791622 0.0422501 -0.136897 -0.0617075 0.0395093 0.0538535 -0.0731152 0.0597678 0.00841374 0.122743 -0.0495415 0.134223 0.0666178 -0.0125481 -0.0962292 -0.0386234 -0.038114 0.0589171 0.0280715 0.018459 -0.131393 -0.0169855 -0.0240488 -0.0983787 0.0243957 -0.0381565 0.11706 -0.173261 -0.0655641 0.054452 0.0587794 0.0419857 -0.148904 0.105444 0.140548 0.0234203 -0.147178 -0.0695985 0.0803791 0.144731 0.011584 -0.103218 -0.0357026 -0.0913781 -0.0105928 0.0330008 -0.0764045 -0.121708 -0.0540816 -0.00688593 0.00607157 -0.0845442 0.0727682 -0.14789 -0.000252738 0.000137715 -0.0413365 -0.139545 -0.0577562 0.0313765 0.0754154 0.172132 0.169942 -0.24495 -0.0681721 -0.0286963 -0.0849342 0.116628 -0.030439 0.021943 -0.0233634 -0.0781999 -0.00838055 -0.021104 -0.0339542 0.146989 -0.130138 -0.252148 0.00146373 0.175903 0.0575501 -0.13503 -0.0889916 0.0916621 0.103741 -0.0986686 0.109486 -0.166981 -0.0928818 -0.0266556 0.064495 0.00120842 -0.00098726 -0.117662 0.0105422 0.00848711 0.0631728 0.0511597 -0.104112 0.146197 0.0149815 0.0521145 -0.0486846 0.0752877 0.10455 0.00412275 -0.118655 -0.0158552 -0.0996925 0.168284 -0.0199132 -0.275309 0.0595039 0.224426 -0.0466305 -0.247979 -0.0462669 -0.189722 0.0790595 0.0128112 0.0665698 -0.00231069 0.0890046 0.0321076 0.0307722 0.0154748 -0.0416132 0.0582385 0.116507 -0.071136 -0.0535547 0.0575464 -0.0702626 -0.0421934 -0.0606525 0.0646976 0.0599067 0.0101228 -0.00265756 -0.255693 -0.124203 0.147019 0.0967431 -0.0907011 0.0212592 -0.127017 0.00396037 -0.082535 -0.0400295 -0.0190764 0.036802 0.102888 -0.137398 -0.120287 0.248117 0.213908 -0.00621974 -0.0579096 -0.0504958 0.109946 -0.0826984 -0.0894874 0.0166639 0.027027 0.0859264 0.020933 -0.0912818 0.0549257 0.115944 0.101509 0.0460736 -0.107393 -0.257385 0.123966 -0.0440616 0.177674 0.115315 -0.000276389 0.00350375 0.122517 -0.00343366 0.0406411 0.0617963 0.0392925 0.19466 0.0318095 0.00129422 -0.0412361 0.00738999 -0.0330422 -0.0961134 0.066342 0.0422502 -0.0144655 0.00221871 -0.0991398 -0.121882 -0.0609404 0.19234 -0.0651044 0.0937823 -0.0412984 0.191329 -0.0487707 0.0893922 -0.0499243 0.0562073 0.096164 0.0882531 -0.126045 -0.0768913 0.165437 0.0175602 0.0830271 0.00869163 -0.0541924 0.0496239 0.0177226 0.0786915 -0.00636607 0.0402944 -0.235927 -0.0667833 0.0675749 0.00835565 -0.00859923 -0.0211771 -0.114853 -0.105191 0.0883601 -0.00367824 -0.155094 0.026363 -0.0975625 0.0686756 -0.0255931 -0.0305008 -0.0414631 -0.100446 -0.0115944 -0.161778 -0.000902487 0.0736794 -0.0452845 -0.0263981 -0.00519423 -0.00983564 0.0634085 0.0386038 0.0479874 0.110305 0.040485 0.0471427 0.0855803 0.0846786 0.0690793 -0.0537012 0.0713323 -0.0662923 -0.116884 -0.138664 -0.0106912 0.105749 -0.0455149 -0.0424079 -0.0294968 0.05463 0.00824948 -0.16762 0.0876266 0.0803382 -0.0872058 0.0353883 0.140946 -0.0201645 -0.152494 0.084828 -0.0315986 -0.149138 -0.0635891 -0.0643374 -0.0751381 0.0192723 0.00897093 -0.0937777 0.0522581 -0.0292514 -0.0627761 -0.0262949 0.0581234 -0.0241679 0.021566 0.0828108 -0.0667 -0.0326672 -0.0772924 0.163043 0.126643 -0.0927661 -0.0145304 -0.0647579 0.0268728 -0.0683636 -0.138696 -0.0166156 -0.186221 -0.124039 -0.0281742 -0.0961259 -0.147134 0.138622 -0.0370035 -0.0614908 -0.13534 0.119752 -0.0851044 -0.0399032 0.0130071 0.0114207 0.0786976 -0.0403271 0.0411507 0.0453972 -0.000797379 -0.0288113 -0.140097 0.0398728 0.130175 0.030697 -0.0358677 -0.04498 0.0594061 0.0424266 0.0535896 -0.0255217 -0.00727993 0.0631466 0.0311934 0.0929739 0.0112292 0.079631 0.067881 0.0331797 0.0476644 0.0445726 -0.0262228 0.104966 -0.0393045 0.0375778 0.0842557 -0.0796853 0.00504886 0.000452929 -0.021466 -0.0856504 -0.0456801 -0.03624 -0.0439287 0.137744 0.0149693 0.0760958 0.0487597 0.108436 0.0662545 0.0679824 -0.118647 0.114741 0.00978336 0.097315 -0.0836561 -0.0724829 0.0897504 -0.0229768 0.0766006 0.0493048 0.060978 0.00313489 -0.0447912 -0.0663536 -0.0549901 0.0309875 -0.0155457 0.135148 -0.0460561 0.105111 0.00443933 -0.0263572 -0.0303758 -0.0825773 0.00251403 -0.0261773 0.0940346 0.129662 -0.0247036 -0.078308 -0.0347226 -0.0887544 0.0099719 0.0589755 -0.0859631 -0.266994 -0.00453219 -0.0471383 0.0605284 0.0598399 -0.0667877 0.0447382 -0.0925859 -0.0219825 -0.089349 0.0545362 0.0452805 0.0806908 -0.111671 0.0153973 -0.10274 -0.0410174 -0.0205186 0.0475466 0.0265189 -0.0619529 0.154012 -0.174782 0.0420942 0.019899 0.221267 -0.117362 0.019407 -0.110941 -0.137951 -0.239353 -0.0101536 0.0165136 -0.0787655 0.1102 0.176223 -0.0869294 -0.0955033 -0.0564114 0.0609434 -0.0456698 -0.126476 0.0537686 -0.0754572 -0.0241595 0.122663 -0.0173457 -0.0181451 0.0854372 -0.0107854 -0.0174889 0.0399387 -0.0585556 0.0401363 0.115037 0.0665227 0.0636466 0.137588 0.0316724 -0.0257431 -0.0718167 -0.218721 0.0261376 -0.0913905 -0.0323573 -0.13636 -0.00781151 0.146418 -0.0198988 0.0122481 -0.00116023 0.0204581 -0.0919897 0.00384008 0.0234088 0.0820918 -0.044094 0.046555 0.111487 -0.120011 -0.0273121 -0.0302353 -0.11554 0.137085 -0.0379089 -0.0415203 0.0648854 0.0636732 0.150145 -0.107299 -0.022497 -0.0916705 -0.0194378 0.128671 0.0312563 0.0187896 -0.196874 -0.00707131 0.0214924 -0.0724541 -0.0664537 -0.209946 -0.0160736 -0.0319842 -0.20591 -0.0533631 -0.0118531 0.0423655 0.114468 0.0152353 -0.0903637 -0.137377 0.154438 -0.0822802 -0.0965781 -0.087668 0.0035729 0.124432 0.0569944 0.149801 0.192505 0.154384 0.0721091 0.124596 0.0626456 -0.112259 -0.0366299 0.047117 -0.000307005 -0.0564496 -0.0605912 -0.0374123 0.136447 -0.0445079 0.150647 0.0486957 -0.141606 0.0118428 0.0504239 0.170798 -0.0598411 -0.0291559 -0.0873985 0.106776 0.0041983 0.0255204 -0.112474 -0.0274089 0.0818059 0.137561 -0.0310296 -0.132431 -0.0775629 -0.167568 -0.153968 0.0217162 0.079294 0.0299511 -0.0547049 -0.0900192 -0.0479782 0.0195617 0.302634 0.0800621 -0.034223 0.172391 0.0564794 -0.0740961 -0.0318428 -0.138603 0.123743 -0.0310225 0.00134638 0.0188968 0.0270782 -0.126308 -0.000958292 -0.0737239 -0.0638974 -0.0407243 0.0557752 -0.042894 0.0696359 0.109378 0.0341869 -0.00229397 0.00165253 -0.0245853 -0.00709612 0.0725442 0.110119 -0.185519 -0.00346249 -0.00130675 -0.0622868 -0.0202543 -0.10785 -0.00140562 -0.158745 -0.143423 0.0496897 0.103257 -0.123847 0.0435337 -0.0628597 -0.125416 -0.0383438 -0.114961 -0.0466904 0.181041 0.289887 -0.0328016 -0.0170315 0.0336591 -0.0587241 0.00596413 0.115424 -0.0508168 -0.0772765 -0.00895295 0.0467315 0.0434915 -0.0435605 0.0739644 -0.00651344 -0.0721412 -0.0516503 0.0896828 -0.145545 -0.0234228 0.00889717 -0.0173209 -0.140032 0.0778578 0.0305551 0.0782805 -0.0727521 0.0178345 -0.0249897 -0.0894818 -0.0476748 0.0344844 0.00462358 -0.104202 0.0538062 0.0148425 0.0103693 -0.159384 -0.0710151 0.129518 -0.0933638 0.0430739 0.10628 -0.117048 0.0428135 0.0505013 0.10785 -0.139641 0.0544153 0.0124303 0.280755 0.0106543 0.0779467 -0.18928 -0.103689 0.0464614 -0.0281526 0.0414817 -0.0141339 -0.0304027 0.0531523 -0.174382 0.157975 -0.157598 -0.0111991 -0.0373948 -0.074227 0.124713 -0.172261 0.00368487 -0.150665 -0.0757385 0.0575801 0.0876863 0.0610098 -0.155872 -0.0619643 -0.0167769 0.0421114 -0.0239085 -0.185543 -0.0101164 0.0874553 0.00193362 0.118584 0.0309004 0.0214206 -0.0309911 0.0186828 -0.0357696 -0.014522 -0.0479124 -0.000755389 0.0653647 0.151486 -0.0533554 -0.034752 -0.0593121 0.130572 -0.0502779 -0.106807 -0.0582792 -0.0134168 -0.0280641 -0.0823789 -0.107483 -0.104737 -0.113122 0.0759668 -0.0997518 0.0566841 0.000257513 0.0149861 -0.0227725 -0.133698 0.0276747 -0.138123 -0.00988987 0.0104241 0.0205279 0.078598 0.0206924 -0.00315845 0.00671656 0.160801 -0.0887482 0.0642403 -0.0211854 0.0635313 0.189721 0.045598 0.143449 0.108818 -0.113033 -0.054827 -0.00613679 -0.00273477 0.0392209 0.0338219 -0.079734 -0.0376945 -0.144825 -0.00845999 -0.123604 0.00315206 -0.222132 -0.0396099 0.0253753 -0.261508 0.0722276 0.084382 0.0278786 -0.0531936 0.168426 0.0688692 -0.113833 -0.123887 -0.0366641 -0.176098 0.0738231 0.0346228 0.219446 -0.0556379 -0.0444916 -0.0280681 -0.0500381 -0.00518713 -0.001613 -0.138215 0.0475883 0.0401895 -0.123331 -0.164258 0.0384651 -0.0413311 0.00649112 0.0349573 0.0491934 -0.0757053 -0.190988 -0.0496834 0.0075126 -0.0125845 0.0691784 0.205077 0.289691 0.065841 0.00636397 0.0881398 -0.0166879 0.0104526 -0.0785446 -0.0905736 -0.129151 0.060066 -0.0536111 -0.0140616 -0.0426366 0.0220406 0.0464483 -0.0994581 -0.0240825 -0.0154855 0.100004 0.015364 0.0479326 -0.197084 0.123552 -0.0974733 -0.0444487 0.0819673 -0.00891007 -0.0175982 0.0801974 0.101323 0.160201 -0.213232 0.0985912 -0.290535 0.057997 0.0693479 -0.1189 0.0187145 -0.0578658 0.00982128 0.0350838 -0.0471615 -0.0300619 -0.075433 -0.137642 -0.129054 -0.162062 -0.15006 0.0287126 0.0721967 -0.0174429 -0.0472317 -0.0839182 0.0232696 0.000557531 -0.13237 0.0562146 -0.00209908 -0.0680912 -0.00876746 -0.0799261 -0.00531799 -0.0117889 -0.134554 0.108027 0.132087 -0.115449 0.0143432 -0.0555406 0.119656 -0.0164001 0.103177 -0.0390609 0.0403983 0.0613535 0.0586889 -0.058858 -0.0105187 -0.0237562 -0.0623715 -0.0904779 0.12883 0.0869857 -0.0540999 0.0234741 -0.11824 -0.0196705 -0.0738986 -0.0634052 0.046521 0.0239212 0.0412358 0.0254869 -0.127289 0.0330676 0.0649841 0.129434 0.246998 0.009651 -0.0332202 0.115794 -0.0145132 -0.0921966 -0.0243258 0.0600527 0.139598 -0.0936814 0.0201838 0.149051 -0.0408762 -0.164463 -0.0639117 -0.185417 -0.100262 -0.0011806 -0.0235601 -0.13388 -0.10662 -0.022174 -0.0366193 0.134668 0.000349893 -0.00187533 0.123338 0.00866914 -0.0524235 0.00651052 -0.148393 0.0353804 0.0747325 0.0592305 0.136314 0.0174131 0.0267844 -0.0585236 -0.0395765 -0.0190745 0.17108 0.0249406 -0.101908 0.0877497 0.018611 0.167279 0.0207896 0.0189884 0.163667 -0.0233024 -0.0878174 -0.0867613 0.101348 -0.103015 -0.0384305 0.0288946 0.0188427 -0.0205407 -0.156882 -0.0684154 -0.115964 0.0357617 0.0675903 -0.0567125 0.0161472 -0.15377 -0.0151457 -0.089685 0.0541291 0.177894 0.151187 -0.157387 -0.323761 0.0949118 -0.0871005 0.0457266 -0.004941 0.110488 -0.163419 -0.085524 0.0173444 -0.0720118 -0.047155 -0.169036 0.0778746 -0.0479902 -0.0679247 0.0603623 0.0218396 0.032243 0.0264958 -0.197339 0.0995118 -0.164744 0.000547638 -0.0643303 -0.117618 0.0258955 -0.118922 -0.0519843 -0.0894826 0.0661802 0.127794 -0.158983 -0.0678396 -0.158636 0.306743 -0.0905356 -0.184417 -0.0401752 0.0918642 -0.0513048 -0.133751 0.00786101 0.102877 -0.178698 -0.0113392 -0.0332898 0.144682 -0.204611 -0.129301 -0.107094 -0.159221 0.172278 0.215568 -0.04519 0.00382113 0.0501815 -0.186463 -0.0517954 0.107919 -0.166077 0.0415528 0.0356898 0.0209975 0.1545 -0.224511 0.0678821 -0.212545 -0.0943922 0.108123 -0.0751861 -0.126003 0.139435 -0.158753 -0.0867909 -0.11609 -0.00389799 -0.142065 0.048385 -0.0862451 0.104999 -0.111123 -0.160078 -0.0860902 -0.0711448 0.0956996 0.034102 0.0158986 0.0625597 0.122869 -0.0111017 0.0812653 0.172317 -0.0785601 -0.143817 0.0994524 -0.090822 -0.0590689 0.0162467 -0.00670532 0.0545855 0.0835295 0.02578 -0.0709245 0.165928 -0.10399 0.00498889 -0.0724775 0.0322776 -0.183682 -0.0269199 -0.057856 0.0069082 -0.037746 0.0328337 0.131491 0.0832635 0.0075024 0.0548485 -0.00581368 0.283538 -0.0766581 0.000180877 -0.0311841 0.0386641 -0.01489 -0.0706946 -0.165475 -0.0529515 0.0729022 -0.0668427 -0.189074 0.00813943 0.014386 -0.0760291 0.0420668 -0.119435 -0.0717536 -0.0711306 -0.00702799 -0.0339638 -0.033858 0.0368567 -0.0894225 -0.296313 0.085176 -0.0447484 0.0213712 -0.210698 -0.119963 -0.0550465 0.0342173 0.0262937 0.0973416 0.011038 -0.155428 0.0143031 -0.0473695 -0.0356581 -0.223065 -0.136181 -0.0695745 0.111419 -0.0674653 0.0779525 0.0824988 0.100901 0.000182016 -0.106372 -0.0416317 -0.012698 -0.0971406 -0.0312309 -0.246122 -0.00998628 -0.124252 -0.154804 -0.0142645 0.130931 0.103396 0.167856 -0.0878133 -0.0372148 0.0416316 0.0469449 0.110698 0.0049509 -0.0292066 0.127741 0.0603324 0.0618544 -0.0745036 0.0739348 0.0183025 0.0137114 -0.148453 -0.0536908 -0.163054 -0.0544023 -0.0501191 0.0326243 -0.0290196 0.158557 0.0198022 0.0534562 0.00250459 -0.17635 -0.0390695 0.0155404 -0.138007 -0.0862947 0.139131 -0.0495285 0.124472 -0.141628 -0.0202461 0.0685372 0.123809 0.0134158 -0.022453 -0.075368 0.0567091 0.0535458 -0.0787305 0.139682 0.186991 0.00176334 -0.0233171 -0.02319 -0.0816184 0.120338 0.0327733 -0.0349968 -0.157363 -0.00281295 -0.110052 -0.0381253 0.0241929 -0.0143173 -0.0937764 0.151284 0.0309177 0.026589 -0.184114 -0.0692399 0.0462458 -0.0922128 -0.155712 -0.0345328 -0.0904418 -0.0093233 -0.199733 -0.282748 0.0194577 -0.0813317 -0.0587907 -0.122063 -0.128748 0.0458383 -0.0425994 0.0536229 -0.0463057 -0.042583 -0.106424 0.00968416 -0.012248 0.106499 0.0634072 -0.0967855 0.0406526 -0.125836 -0.0478075 0.170961 -0.0356063 0.0394644 -0.0130674 -0.110376 -0.00702649 0.0310632 -0.0834622 0.0289737 -0.0530923 -0.0478308 0.0826195 0.0126916 0.0514024 0.0398035 0.104966 0.0378341 -0.0874058 -0.0640569 0.0818552 0.173809 0.0772933 0.125244 -0.15166 -0.0420045 -0.084812 0.0934789 -0.00591876 0.0335819 0.0569149 0.155022 0.201909 -0.00794034 -0.0309622 -0.030515 0.0167765 -0.0971486 -0.0475696 0.00693352 0.0251816 0.0405522 0.158657 0.0528547 0.135451 0.051303 0.108018 0.0473022 -0.127352 -0.0427416 0.012981 0.05704 -0.0272897 0.0586223 -0.187862 -0.130846 -0.0399747 0.0687555 -0.0158368 0.0531322 -0.115381 0.0600515 0.0535115 -0.0492428 -0.11481 0.0397933 -0.0398684 -0.0571503 0.103908 0.265211 -0.0915636 -0.0350048 -0.129549 -0.15312 -0.220195 -0.0273296 -0.0352088 0.0823944 -0.0128376 -0.140268 0.0223116 0.0571581 -0.0568378 -0.106791 -0.111331 -0.0518949 -0.0654395 -0.113584 0.174228 0.12733 0.115155 -0.0421756 -0.0589488 0.0652617 -0.0155763 -0.185352 -0.02904 -0.0433044 0.0542587 -0.0795504 0.00380494 0.026071 0.00207009 -0.112773 0.169921 0.0823491 0.00869891 0.105966 -0.0874111 -0.0222949 0.168877 0.0337983 -0.0707945 -0.147409 0.0653402 0.0242058 -0.0679493 0.253833 -0.148082 -0.183392 -0.0186608 -0.172512 -0.0946011 -0.168287 0.0927298 0.0845796 0.00282408 0.0644401 0.014138 0.0124295 -0.101126 0.0712809 0.0940609 0.0297447 0.0498583 -0.0470166 0.0351699 -0.144062 -0.150472 -0.0230036 0.0447193 -0.112062 0.0311671 -0.0951403 -0.114007 -0.149142 -0.141429 0.00988128 -0.0406172 0.0127704 0.0452398 0.0539382 0.0602747 0.052856 0.124657 0.00799907 -0.0621882 -0.0588593 0.04098 0.0475366 0.0328268 -0.178336 -0.216925 0.0881329 0.0898621 0.0508692 -0.0205529 -0.0476321 0.0103076 0.0910653 0.000790473 -0.111954 -0.000472988 -0.045701 -0.129308 -0.0309389 -0.208581 -0.00178247 -0.280764 0.023135 0.0418565 0.0975698 -0.0472347 -0.0576735 -0.0436695 0.0648344 -0.0394328 -0.0317127 0.0997677 -0.0598732 -0.093782 0.037921 -0.0316726 -0.105913 0.0367661 0.0332369 0.0777619 0.0377791 0.0373788 -0.0226659 -0.134284 -0.147379 -0.0953526 -0.00111742 -0.141639 -0.0307487 -0.160046 -0.0649544 0.160305 0.0268197 -0.0316956 -0.0802922 -0.088814 -0.0108228 0.0621111 0.0508409 -0.0294607 0.184106 -0.0619774 -0.101102 -0.123452 -0.102571 -0.0522169 0.203465 -0.129781 0.0323573 0.0582556 0.149383 0.0392901 0.153488 0.0339929 0.0511258 -0.0914492 -0.187083 0.159869 0.0315971 -0.0305699 -0.134603 0.0454422 -0.106173 0.00530472 0.0411713 0.222466 0.0518551 0.181876 0.0789318 0.0767988 0.143184 0.054952 -0.00618984 0.0177883 0.0291316 -0.106778 -0.244537 -0.0798921 0.0416749 -0.0784895 -0.138994 -0.0398915 0.088129 -0.170449 0.0322694 0.108968 0.00918356 0.0387913 -0.0609024 -0.00723504 0.00896966 0.10644 0.243341 0.10507 0.0159923 -0.139727 0.00467507 0.0148228 -0.0123277 0.127699 -0.0161869 -0.126412 -0.0282305 0.111891 0.0871227 0.0276237 -0.177886 0.0533776 0.0403598 -0.164919 -0.170438 -0.0699841 -0.0786099 0.0354316 -0.154231 0.0277629 0.00295597 -0.0767701 0.0450548 0.0353902 0.038217 0.0680765 0.0656359 0.00771257 -0.057753 0.0323413 0.0264919 0.0981262 0.0368151 -0.158876 0.0870333 0.0671978 0.0529121 0.0514199 0.0315831 -0.170728 0.0750324 -0.0863356 0.017362 -0.0238007 -0.102079 0.125837 -0.103932 0.105061 0.0981398 -0.100077 0.0819014 -0.128898 -0.124856 -0.173316 0.125017 -0.0793751 0.133996 -0.0159381 0.045625 0.0416937 0.116254 -0.139846 -0.117818 -0.0295165 -0.0429198 -0.121025 -0.00755421 0.0405013 0.0939913 -0.132381 -0.0077767 0.151867 0.00134569 0.00960879 -0.0638253 -0.0975606 0.0665862 0.137836 -0.0762659 0.0372716 -0.167105 -0.0380002 -0.0400836 0.0479369 -0.000909018 -0.0161874 0.0611628 0.0517034 -0.0809791 -0.0238255 -0.135151 0.0347133 -0.00908692 0.059216 -0.0188806 -0.0487411 -0.103221 -0.0674745 0.0822925 0.00282886 -0.162732 -0.0582364 -0.235276 0.00606265 -0.0522357 -0.0774792 -0.0350491 -0.109626 -0.0574091 -0.0514747 0.047426 0.149641 -0.150153 0.0151678 -0.162102 0.0800639 -0.0340583 0.00305816 -0.0184513 -0.0376401 0.0655613 -0.114437 0.0961776 -0.082836 -0.00361489 0.158487 -0.000923578 -0.0278505 -0.0203752 -0.145211 0.134988 -0.16088 -0.145807 -0.148202 -0.173209 -0.102131 0.0338897 -0.0191902 -0.0378671 0.0113618 -0.0882239 0.109286 -0.0868982 -0.00492304 0.0435593 -0.067592 -0.0298951 -0.0294721 0.031497 -0.181747 -0.0844241 0.037345 -0.0489489 0.0339214 0.0669267 0.0624651 -0.0462785 0.0362719 -0.110862 0.100729 -0.0158692 -0.06162 -0.13387 -0.1962 -0.0300904 0.0903084 0.0456513 -0.0553331 0.113164 -0.0155261 -0.0891778 0.202773 0.0297187 -0.0198051 -0.219456 -0.23766 0.0619719 0.0507513 -0.0401065 0.142439 0.074118 -0.0159167 0.0473098 0.128294 0.0236855 0.184007 -0.152612 -0.0812528 -0.0476872 0.0179728 -0.0313268 -0.301431 -0.00756632 0.11233 0.060977 -0.0640284 0.0237323 0.0718165 0.0972198 -0.0327543 0.0678115 0.0760821 0.112779 0.123392 -0.0389033 -0.0349581 -0.129056 0.0902527 0.0477636 0.102118 0.0128102 -0.0046503 -0.0455728 -0.00215063 -0.0372798 0.191328 -0.0168681 -0.0374524 0.00616951 -0.0350179 -0.000650008 -0.182657 0.0666763 0.035222 0.0133061 0.140007 -0.106935 -0.152977 -0.0853472 0.0897384 -0.116261 0.0579984 0.131384 0.0576427 -0.227777 -0.000368215 0.0256634 -0.0282792 0.11285 -0.247423 -0.00831023 -0.141489 -0.178167 0.0921376 -0.267509 0.0173312 0.0495421 -0.0101071 0.0285916 -0.0630637 0.107871 0.114944 -0.0505001 -0.0280523 -0.01952 -0.020343 0.0120679 0.0436479 0.0316043 0.00494555 0.0715371 0.124483 -0.115555 0.0399062 -0.108313 -0.00463764 0.131172 0.0910211 -0.0541328 0.0386323 -0.0781374 -0.0788656 0.00583951 -0.0700496 0.0805883 -0.0728024 -0.0183673 0.0108968 0.0175381 -0.0567313 0.00868985 -0.101697 -0.140252 -0.0879268 -0.0365155 0.0438008 -0.0224667 0.0206492 -0.0931853 -0.0185508 0.0910647 -0.0493056 -0.0231324 -0.0167977 0.0609067 -0.0564375 0.0480273 0.00387423 -0.00929761 -0.122782 -0.06124 0.0545843 -0.055547 0.0255128 0.133167 -0.152765 -0.175347 0.0493173 -0.0557388 0.156319 0.0633244 -0.163498 -0.0296555 -0.083068 0.0852706 0.13807 0.0109398 0.0379422 0.016033 -0.104744 0.00682578 -0.0632332 -0.00657175 0.0699042 0.133021 -0.0791639 -0.0220935 -0.0252146 -0.0699536 0.177699 0.181617 -0.0924669 -0.0721279 0.0648338 -0.0716021 -0.0894352 0.00236571 -0.0151576 -0.0213059 -0.0970845 0.147758 -0.0402651 0.0129772 0.081945 0.0722474 -0.0863363 0.114987 0.00993999 0.0494032 0.0410856 -0.0243626 -0.00645621 0.0266296 0.0701718 -0.0410964 0.124264 -0.169222 -0.0795433 -0.00326253 -0.0304336 -0.162542 -0.0416428 0.0125272 -0.00756315 -0.00977498 -0.0542665 0.0350134 -0.258191 -0.115687 0.0235083 0.0437224 0.0638757 0.0642218 0.200156 -0.103494 0.0856971 0.100135 0.0758196 0.0933463 0.131904 -0.0996401 -0.0183103 0.0436483 0.0931649 -0.0835483 -0.15191 -0.0360189 -0.0127145 -0.0855913 0.0389603 -0.00701753 0.0123434 -0.102659 0.110431 -0.032945 0.154373 -0.0660874 -0.148899 0.0611813 -0.0653926 0.00978355 -0.0442051 -0.0825149 0.128368 0.141461 -0.113951 0.00752012 0.0399019 0.0740924 -0.159213 -0.0214746 0.00782545 -0.0340414 -0.0201504 0.0789477 0.0927399 0.0935098 0.0754038 -0.0659977 -0.176158 0.0207559 -0.0540511 -0.0174529 -0.25782 0.191399 -0.101519 -0.0537403 0.00386729 -0.00805592 -0.0523997 0.103683 -0.0997339 -0.119295 -0.0777528 0.0832554 0.0230248 0.0163806 0.0350699 -0.221086 0.159144 0.081744 0.116749 -0.0875677 0.160802 -0.113874 0.0200336 -0.0396999 0.184981 0.0424697 0.104223 0.158531 0.127456 0.137161 -0.0173097 -0.0344394 -0.031203 0.0364737 -0.00352747 -0.0564046 0.0937241 0.0219745 0.124085 -0.0633757 -0.15514 -0.075932 -0.0620252 0.149978 0.0801159 0.113537 -0.292704 0.0290847 -0.0499175 -0.119995 0.0206756 0.0718436 -0.0421658 0.102445 -0.18117 -0.0365227 -0.0831356 0.0938171 -0.00275182 0.0265048 -0.188544 -0.162862 0.0769578 -0.0336271 0.0253286 -0.152539 0.0850345 0.0122103 0.0225392 -0.00920228 -0.15964 -0.0539986 -0.0491109 -0.0976152 -0.0727519 0.172703 -0.107622 -0.0830626 0.0509904 -0.0186946 -0.00577214 -0.0420883 -0.00066639 -0.0943998 -0.0582156 0.0582062 0.0303797 0.181724 0.0328717 0.0264674 0.0233108 -0.0601058 0.109746 0.0836428 0.0722152 -0.0404115 0.156707 -0.0277516 0.0835682 0.0194587 0.00761569 -0.0111833 -0.0196123 0.0296416 0.11457 0.0226847 0.0115964 -0.0444194 -0.0867115 -0.0112672 0.113868 0.0777081 -0.09053 -0.036644 0.171709 0.00625613 -0.0493565 0.103491 -0.0710825 0.00709805 0.0208667 0.154335 0.0208496 0.0585765 -0.0383037 -0.0680874 0.0247046 -0.17532 -0.0654366 -0.0135205 -0.0170318 0.0178771 0.0649656 -0.022029 -0.11818 0.00390468 0.113892 -0.147013 -0.139064 0.0810939 -0.272551 0.0860627 0.0236527 0.0623311 -0.0118153 0.0888753 0.247839 0.03423 -0.148808 0.0967048 -0.0126392 -0.098743 0.0388523 -0.0290717 0.132701 -0.0387566 0.181477 -0.0313613 -0.0185355 -0.0322433 0.0935976 -0.0500832 -0.00980499 -0.180826 0.130611 -0.0243067 -0.0973868 -0.123233 -0.138059 -0.109857 -0.204902 -0.0847839 0.0140658 -0.0917123 0.0316026 -0.0487444 0.156993 0.0347952 0.0851707 0.0669478 -0.146484 0.0646791 0.105324 -0.0642944 0.0957181 -0.132863 -0.0383117 0.200374 0.200939 0.148907 0.0109754 0.0491585 -0.0540682 0.113396 0.0416111 -0.0759976 -0.0599405 -0.0778439 -0.0624862 0.0593964 0.0883919 0.0634805 -0.0458021 -0.0164227 -0.0955223 -0.238052 -0.126994 -0.140704 -0.0661931 0.0709265 -0.119461 -0.00472647 0.0167737 0.133704 -0.00456615 0.0301945 0.011206 0.181797 -0.137512 0.00656491 0.0522066 0.100204 0.106757 0.126599 -0.0702708 0.0190861 0.0822457 -0.0025056 -0.138941 0.0752864 -0.0864449 0.238558 0.0552406 -0.128594 -0.140407 0.186939 -0.0218939 0.0643668 0.0258245 -0.0811941 -0.177548 -0.0340728 -0.0143056 0.106774 -0.202198 0.0267065 0.0215714 -0.146652 -0.0393198 -0.0969025 -0.0676064 0.0577728 -0.0621099 -0.101182 -0.175337 -0.0489447 -0.111276 -0.0396099 0.210002 -0.00897968 0.0992129 0.00758775 -0.0388633 0.00190317 0.0767447 -0.114917 0.0140984 0.133433 -0.0402287 0.0661492 0.0307574 0.0797141 0.0178581 -0.171251 0.404656 -0.0391167 -0.0589946 -0.208768 -0.056441 0.0249399 -0.0111988 0.0723528 0.294013 0.025047 0.162444 -0.130206 0.0259496 -0.163612 -0.0889187 0.102681 -0.0134989 0.0710918 -0.00069646 0.0503273 0.0259682 0.169285 0.0154856 -0.0598229 0.02931 0.00337214 0.0108822 0.183217 -0.0156144 0.10188 -0.183505 0.104577 -0.0963946 -0.111822 -0.103248 -0.0254283 0.185257 -0.140067 -0.0681797 0.0453182 -0.0799566 -0.122374 -0.000295533 -0.159698 -0.130398 0.0340776 0.0924561 0.195174 0.065366 -0.0180569 0.0427897 -0.12471 -0.0383598 0.111257 -0.154736 0.117776 0.0429187 -0.194847 -0.0089669 -0.202825 0.0565757 -0.122072 -0.0413468 0.088677 -0.140431 0.171843 0.00813142 -0.161047 0.0648901 0.168521 0.0081429 -0.0868269 0.060276 0.00984656 0.167139 0.0202925 -0.0784642 -0.106261 -0.14281 0.0291695 0.0200201 0.00235349 -0.0289701 -0.0493673 0.0941871 -0.0104183 -0.0339825 -0.00763001 -0.116432 -0.13593 0.327895 -0.12457 -0.177583 0.323684 0.165018 0.0448686 0.0218036 0.132631 0.0711613 -0.0524679 0.166309 -0.0418285 -0.07274 0.00259701 0.103919 -0.103755 -0.0607249 -0.109018 0.0509994 0.0309626 -0.0539666 -0.0438308 0.128461 -0.00950828 -0.0979085 0.00919452 0.219715 -0.0257377 -0.071332 0.0524942 -0.0414268 -0.000816115 -0.129633 0.0369119 -0.0309787 -0.0420561 0.0263002 0.0623625 0.0554527 0.03542 -0.0693127 -0.176245 -0.0941391 -0.0107866 0.0510589 0.168175 0.161303 -0.0191268 -0.0865875 -0.0629191 -0.10491 -0.0934647 -0.150099 0.0352339 0.0328307 -0.061689 -0.149191 0.00159348 0.094524 0.165461 -0.0724021 0.0413069 0.198855 -0.0514117 0.00030135 0.169975 -0.0997954 -0.12046 -0.0882894 0.0392226 0.0733173 -0.0622025 -0.0575332 0.0103232 -0.0416201 -0.129026 -0.0784573 0.0164105 0.107297 0.137772 0.0734724 0.019969 -0.0529577 -0.0972209 -0.0785294 -0.062464 0.0170445 -0.0812067 0.174332 0.188456 0.0847311 -0.0772785 -0.184627 -0.0147793 0.00851198 -0.0409226 0.0832015 0.0731316 0.0660966 0.152141 0.138804 -0.108335 0.0221797 -0.149219 -0.0201049 0.0139316 0.156382 -0.0569845 0.0505014 -0.164123 -0.0370898 -0.107801 0.0471279 0.108663 0.0452255 0.0256143 0.037486 -0.169091 0.0161928 0.0158482 -0.0897143 -0.0354751 0.0444282 0.114675 -0.0383752 -0.100822 -0.00648986 0.15851 0.120127 0.0758964 0.136251 0.0613514 -0.198474 0.0502438 0.00219466 0.0113416 0.00571211 0.0017161 0.0185095 -0.0505373 0.107967 -0.0926773 0.120044 0.0629466 -0.00754901 0.156943 0.114738 -0.116176 -0.217678 0.171955 0.0183457 -0.0238255 0.0101553 0.0911519 0.0683299 -0.115081 0.134208 0.0996001 0.0648916 0.140317 -0.0644796 -0.0851881 0.158212 -0.0330226 0.0279255 0.0608955 -0.0910611 -0.132217 -0.15701 0.00163255 -0.0147735 -0.0436161 -0.101406 0.0388428 -0.067681 -0.0563637 0.021774 0.0456812 0.101433 0.139661 0.0274681 -0.0501547 0.0374774 0.128623 0.114498 -0.0968685 -0.0624083 0.0905177 0.0842587 0.0298077 -0.280995 0.0453864 -0.0269941 -0.0972765 0.143265 -0.0797446 -0.126384 0.0794767 -0.0887323 -0.203197 -0.0645385 -0.0697565 -0.105729 -0.123104 -0.0233902 -0.0302707 0.0290034 -0.04953 0.0242497 -0.154552 0.0507848 -0.226422 -0.0921366 -0.0566045 -0.101151 -0.253347 0.304587 0.049337 0.171158 -0.137921 0.0119872 -0.0534939 0.0549516 -0.0767565 0.0396272 0.020525 0.0434635 -0.205294 0.0910478 -0.00155476 0.0287797 -0.0693269 0.0638031 0.2342 0.120084 0.156563 0.109298 0.073554 -0.0980858 0.0159605 0.0627804 -0.0319044 -0.18574 0.122856 0.0426114 -0.0930479 -0.0990336 -0.0810125 -0.076535 0.0499918 0.171891 0.143813 -0.109043 -0.140501 0.00288748 -0.18163 0.0638497 -0.033785 0.0269457 -0.0417634 0.12162 0.143273 -0.0358407 -0.0090804 -0.0397314 0.0449922 0.0608791 0.11298 0.0393363 0.112457 0.119586 -0.0966421 0.176629 0.049342 -0.00706248 0.0541727 -0.129897 0.10833 -0.0403975 0.124561 0.0614272 0.0893496 -0.0587331 0.0428858 0.0937366 0.0867063 0.0145971 0.0446648 0.210419 0.0375893 0.01454 -0.0595906 0.0815082 -0.0295033 0.146006 -0.0187126 -0.0755167 0.0666865 -0.0426854 -0.16021 -0.0735539 0.00952955 0.135553 0.0133184 -0.0574902 0.0945671 -0.147344 -0.177209 -0.0275411 -0.207253 0.0917157 -0.167115 -0.0548764 -0.0708853 0.0645202 0.0100795 0.0252966 -0.077718 0.0213305 -0.0641603 0.121628 -0.0175216 -0.151885 0.0881941 0.187304 -0.0220092 0.0838789 0.0112406 0.0133308 -0.21677 -0.0233915 0.00160669 0.223245 0.0984573 0.055084 -0.164617 0.163187 -0.0996333 0.0143239 0.0781221 0.0258147 0.138367 -0.0825683 0.0256959 -0.0379529 -0.0676004 0.133774 0.0303424 0.0067031 0.0382306 -0.0673394 0.220915 0.0535558 0.180579 0.020338 0.0683547 0.0750593 -0.193604 0.0267706 0.0297468 0.026356 -0.0710535 -0.0841889 -0.0376093 0.203669 -0.0186633 0.162642 -0.0728571 0.0837219 -0.115402 -0.0184891 -0.12066 0.0993971 0.00476718 0.00183523 0.13798 -0.0292441 0.230041 0.0168498 0.123752 -0.0105109 0.0488344 0.027732 -0.131282 0.0112725 -0.00785618 -0.076959 -0.125243 0.0252268 -0.170067 0.0567215 -0.232861 0.166973 -0.00927065 0.120808 -0.0124586 0.0159403 -0.0536157 0.0491222 0.0536189 0.149868 -0.101905 0.0492498 0.0169342 0.0608375 -0.0284004 0.127192 -0.00488784 -0.068907 -0.219243 0.235525 0.110505 0.171637 0.0029213 0.096798 -0.0731909 0.0677664 0.155121 0.0530703 0.0142725 -0.0871173 -0.129098 0.0116595 0.101256 0.0870946 0.023172 -0.102863 0.07956 -0.0876229 0.0351133 0.0673886 -0.0230428 -0.0140115 -0.0085232 -0.0715699 -0.12664 -0.148344 -0.0875317 0.0332545 -0.0515324 0.0543103 0.112148 0.0339103 0.00323339 0.0257314 0.16875 -0.0874134 0.0433129 -0.170278 -0.169972 -0.0110933 0.0433328 -0.0360419 0.0338117 0.0359313 -0.0722124 -0.181652 -0.0303055 0.105615 -0.0366942 -0.00574784 -0.172467 -0.259145 -0.123451 -0.0358515 -0.06285 0.0655815 0.0163348 -0.000323223 -0.0556371 -0.0665247 -0.0820058 0.18908 -0.0340033 0.117538 0.00355135 0.135071 0.0697279 0.0324012 -0.0230677 -0.0723651 0.12728 0.0567095 -0.0175102 -0.0603464 0.0251087 0.150125 -0.0364063 0.0375016 -0.0317823 0.110642 -0.0228268 0.125487 -0.0647551 -0.064907 -0.133937 -0.043312 0.167788 -0.0654719 -0.0608982 -0.08095 0.0847226 0.0533813 0.176825 -0.000111756 0.106901 0.017101 -0.152245 0.0187801 0.119011 0.0688763 0.171983 0.0142161 -0.0662057 0.0689377 0.1385 0.074797 -0.0261393 0.0644112 -0.177734 0.0490666 -0.231613 -0.0110573 0.17684 -0.0125236 -0.0285598 -0.0574464 -0.0629473 0.0170109 -0.0707738 0.0354034 0.135123 -0.0101819 0.106982 0.0171351 0.0495414 0.0821044 0.0395363 0.0809739 0.0882135 -0.0841338 0.114469 0.0162735 -0.0832932 -0.023958 -0.00999378 -0.114476 0.175459 -0.0618762 -0.177106 -0.0541692 0.0987982 0.114753 0.0528351 -0.0469997 -0.0944928 0.0496025 -0.0786168 -0.109549 0.117641 0.0731573 -0.0354606 -0.0125892 -0.0343737 -0.0749376 -0.0570796 -0.134173 0.0162794 0.109413 0.0598551 0.116586 0.0140282 0.094809 0.047708 -0.0747845 -0.115976 0.0619145 -0.0847537 0.135233 0.0887214 -0.0346608 -0.116624 -0.0734342 0.156458 -0.0582829 0.0753626 0.0763303 -0.148257 -0.00991107 0.0841849 -0.122137 0.04562 -0.0965844 0.118092 -0.132103 0.0655567 0.0533368 -0.145834 -0.0466373 -0.0448756 0.149799 -0.051936 0.0491369 -0.228112 0.0897439 0.0609734 0.0209903 0.0947346 0.0520992 -0.187119 0.0332447 0.164301 -0.106751 -0.145525 -0.0742676 -0.0670237 0.0578678 -0.0521612 0.0733036 0.0987363 0.0283162 0.249062 -0.0355411 0.00858969 0.00257344 0.00237439 0.0707857 0.110428 -0.0682478 -0.0175023 -0.0997849 -0.00117351 0.0350236 -0.0772671 -0.128419 -0.088828 -0.0144698 0.0862656 -0.0207858 -0.0471191 -0.0136318 -0.0555657 0.0590991 0.113958 -0.053926 0.0675843 0.00970282 0.0351013 -0.248453 -0.109748 -0.13714 -0.101508 -0.0569151 0.0273977 -0.0899003 0.0864623 0.102913 -0.0361441 0.067016 0.196515 0.00221328 0.0295531 0.0493736 0.151435 0.227684 0.17335 0.101947 -0.140281 -0.16324 -0.151493 0.132869 -0.0573971 0.00989646 0.0822552 -0.0330542 -0.0200938 0.03817 -0.225864 0.0453917 0.069607 -0.0280178 -0.0787498 -0.101351 -0.28583 -0.0363261 -0.0536769 -0.0506357 0.0809106 0.0808795 0.0992182 0.00277473 -0.137956 -0.014019 -0.139813 0.107071 -0.163942 0.0579589 -0.135091 -0.00269676 0.103075 0.153855 0.00855235 -0.12104 -0.0285866 0.237206 -0.0170841 -0.0213095 0.125804 -0.137432 0.0313354 0.0471603 0.0081799 -0.0203313 0.108122 0.0403332 -0.0273772 -0.160823 -0.0679221 0.137391 0.0055315 -0.0964382 -0.205993 0.00734051 -0.0120138 -0.0454014 -0.0820737 0.0640378 -0.143325 0.06265 -0.0410554 0.00352142 0.224756 -0.0312917 -0.00304038 -0.0674248 -0.0286005 0.156461 -0.160127 -0.0606516 0.0704528 0.160845 -0.0334053 0.0350048 -0.0496744 -0.0186483 -0.0394388 0.143465 -0.00576203 0.104934 -0.0548443 0.00710179 0.1097 -0.0637127 0.0575047 0.077416 0.0946422 0.0575083 0.144181 0.0318514 -0.131197 0.0513468 -0.099784 0.0152876 0.00890934 0.0837784 0.125063 0.0441065 0.0297119 -0.0501494 0.126612 0.00176695 -0.00188562 0.055165 -0.0257418 0.00525588 0.0976567 -0.0614848 -0.00905107 -0.0134078 -0.234284 0.051947 -0.00833712 0.0680309 0.180356 0.0997876 0.195575 0.0869444 0.0802604 0.107681 0.0210901 -0.0226352 0.0646699 0.0329523 -0.019373 -0.0252294 0.208683 0.082668 -0.179961 0.0108032 -0.0292948 0.00517609 0.000226835 -0.102374 -0.129933 -0.0116199 -0.0745335 0.0306887 0.0296765 0.147268 0.074703 0.0185198 0.00374145 0.168593 0.0590162 0.05015 -0.218722 -0.0740707 -0.0582747 0.170518 0.0764834 0.0591335 0.0460163 -0.0358142 0.0648254 -0.0669532 -0.170031 0.085944 0.128334 -0.0559198 -0.0731244 0.0143607 -0.109463 -0.0589455 -0.00139234 0.187627 0.0977164 -0.0038548 -0.0988913 0.145021 0.122437 0.0329698 -0.00702285 0.0927411 0.0832463 -0.180353 0.019899 -0.00559377 -0.130415 0.0283685 0.102148 -0.11046 -0.0310392 0.049068 0.07601 0.127484 -0.0229798 0.00481844 0.186987 0.153983 -0.147544 -0.0376188 -0.0442534 0.038803 -0.035073 -0.00307557 -0.104938 -0.00828537 -0.0491432 -0.107358 0.0340901 -0.040014 0.0208501 -0.0827014 -0.063843 0.109933 -0.0534978 -0.130601 0.00158457 -0.112918 0.12544 -0.00894937 -0.0045139 0.0320074 -0.0234393 -0.0340362 -0.182015 -0.211977 -0.0259731 -0.185197 -0.0720457 -0.190521 -0.0472039 -0.0919695 -0.165235 -0.156961 0.0644147 0.117905 0.0253898 -0.0268356 -0.199623 0.0693704 0.156923 -0.151696 0.0318435 0.0529386 0.111158 -0.15767 -0.17957 0.12283 0.0496777 0.12963 0.160956 -0.15916 -0.0156795 -0.0425118 -0.0384459 0.119889 -0.0124561 -0.0884008 0.0191909 -0.0172396 -0.13894 -0.0946139 -0.0157951 -0.02608 0.112235 0.0516094 -0.0657492 0.00354891 -0.128356 -0.167903 -0.0780867 -0.0408719 0.109409 -0.0559471 0.0639085 -0.0716764 -0.0892193 -0.0290565 -0.176135 -0.122006 0.0187748 -0.261547 -0.0131655 -0.0258679 -0.102665 0.00964045 0.130823 0.0644 0.202478 -0.13232 0.171594 -0.0254072 0.108182 0.0135608 0.0530936 -0.0424379 -0.0291412 -0.0551691 -0.0695565 -0.0120483 -0.0145264 -0.131515 -0.110623 -0.0226698 0.051229 0.0324835 -0.16332 -0.0145533 0.0915815 0.0346049 -0.0298511 -0.208574 -0.0348366 -0.168391 0.0353748 0.0625732 0.0570691 0.00200639 -0.00324657 -0.122014 0.170856 -0.00078606 -0.209355 -0.230362 -0.156781 0.0426929 0.0194748 -0.0725113 -0.13528 0.185498 0.130721 -0.0966084 -0.0240299 -0.114499 -0.0810509 -0.141365 -0.0326564 -0.0170174 0.0715392 -0.138325 -0.170958 -0.123709 0.00251668 -0.145254 -0.0561462 -0.0932536 0.0535311 -0.0880832 0.162199 0.171552 -0.00751949 0.14945 -0.012248 0.0742302 0.0380745 -0.0666617 -0.0525888 0.00482117 -0.0379532 -0.0964116 0.189695 0.0339272 -0.00241591 -0.042325 0.0652701 0.041579 0.0657951 -0.0575386 -0.0604401 -0.0648347 -0.00857544 -0.0475953 -0.0348931 -0.0393523 -0.00981972 -0.1546 0.0391179 0.00039546 0.088966 -0.0746893 0.0143587 -0.0115049 -0.0686902 -0.0146922 -0.00184554 0.13183 -0.00387494 0.134171 0.0212982 0.0823921 0.0428364 -0.139414 0.0411962 0.141903 0.00774165 -0.0477893 0.0415395 -0.0481094 0.0602869 -0.0420441 0.0012068 -0.00567888 -0.0817139 -0.00457799 -0.0987603 0.123449 0.117526 -0.0173814 0.08172 0.042623 -0.0913937 -0.0270089 -0.00351575 -0.130772 -0.0836629 0.0176096 0.0131086 -0.0710875 -0.0675792 -0.121281 -0.0246364 0.0301597 -0.0851072 -0.0432306 -0.0282932 0.00430577 0.0569826 0.132001 -0.151607 0.0659435 0.0807872 -0.105009 0.117413 0.0498592 -0.0293699 -0.0857118 0.0181464 0.120533 -0.0081121 0.0846591 -0.0843118 0.087999 0.153969 0.025808 0.0876344 0.0946898 -0.0217481 -0.0479241 0.152582 -0.0926661 -0.0242486 -0.161777 0.247723 0.0120401 0.0274444 -0.0980076 0.172358 0.0411741 -0.0845704 -0.0637265 -0.0121073 0.178801 0.0944826 -0.0357035 0.0831317 0.0430575 0.0296656 0.190852 0.0415138 0.181928 -0.0588188 0.034077 0.112661 0.160707 0.0235395 -0.0486346 0.190187 0.151784 -0.0452246 -0.0470598 0.0611534 -0.0161483 -0.124152 -0.112269 -0.00573833 -0.0923816 -0.0509318 0.0825761 0.178914 0.13257 0.0100384 -0.0925832 0.0404161 -0.095004 -0.125285 0.0516133 -0.0678552 -0.000129654 0.036998 -0.0195701 0.000448542 0.127999 0.0601533 0.0573766 0.0807386 0.029676 0.0519338 -0.121992 -0.134498 0.0329902 0.24582 0.0467177 -0.120729 -0.105097 -0.121513 -0.0080349 -0.0454348 0.0571312 -0.167397 -0.128971 0.077873 0.0344038 -0.166331 0.108545 -0.0883143 0.0767767 0.0467503 -0.044107 -0.128009 -0.0423465 0.15625 -0.113013 -0.0580828 -0.0649761 -0.0684495 0.0637721 0.0349344 0.0418769 -0.035153 0.144207 0.025222 -0.0485777 -0.112597 0.0996707 0.0946026 0.105195 -0.0197535 -0.00824443 0.039418 -0.00385117 0.0366671 0.156171 -0.0981512 0.046292 -0.184197 0.0866146 -0.115669 0.0234299 0.104093 -0.0662827 0.0377794 -0.0610748 -0.0999896 -0.0746165 -0.00391302 -0.19678 0.00695348 -0.0931233 0.0752418 0.255348 -0.0204398 -0.0745784 0.0784453 0.00669823 0.0290415 0.0889222 -0.0728275 0.000395563 0.176337 0.0573359 -0.0488173 -0.10022 -0.00940665 -0.0450089 -0.111105 -0.111207 -0.2133 -0.0520997 0.0244013 0.0455462 0.00204148 -0.0758334 -0.103492 0.00343941 0.0323246 0.0604326 0.10436 -0.0135244 -0.0275316 0.111503 0.0539286 0.0238464 -0.146425 0.00882748 0.0637131 -0.0978292 0.0494496 -0.0250966 0.0696373 -0.120259 -0.127566 -0.00546331 -0.0480001 -0.0499742 -0.0378439 -0.0740807 -0.117296 -0.0619577 -0.0393279 -0.15722 -0.0117228 0.138643 -0.0534433 -0.110987 0.0172354 -0.00360217 0.147105 0.0288942 -0.0748747 -0.00264477 -0.170899 0.0377862 0.11074 0.179039 0.0383537 0.0617806 -0.123246 0.210844 -0.0220477 -0.043836 -0.150842 0.212896 0.04339 0.108182 0.0242586 -0.012255 0.02734 0.119277 0.189065 0.0297404 0.0787429 0.0731788 0.0921387 0.175329 -0.220296 -0.0849966 0.0588453 -0.0419248 -0.0400739 -0.0218287 0.0360146 0.00589251 0.107219 0.0385508 0.105052 -0.0332656 -0.0483731 0.150907 -0.147223 -0.114229 0.0110533 -0.0848365 -0.0114802 -0.0965576 -0.059164 -0.106291 0.156002 0.0342032 0.0339344 0.0330283 0.0416153 -0.00759757 -0.071242 -0.153606 0.0431678 -0.225933 -0.0217099 -0.101465 0.0259514 -0.124461 0.0798355 -0.043462 0.0519634 -0.0427351 0.108996 0.0593036 0.10857 0.0309262 0.0940034 0.0673387 -0.114612 -0.188933 0.0665545 0.149455 0.0451333 -0.0984843 0.00660197 0.129267 0.138433 0.118501 -0.0519238 0.17395 0.0422195 -0.0275343 0.0356515 0.0247705 0.0124172 -0.105753 -0.0280861 0.0445113 -0.0114274 0.0962985 0.129402 0.0924993 -0.0810462 0.0667391 0.155248 0.108586 -0.12159 -0.0251853 -0.143223 0.0952327 -0.0326155 -0.0438867 -0.00446366 0.0590186 0.0530567 -0.0898705 0.107095 -0.015124 0.0599862 0.0186478 0.0600286 -0.0594703 0.172312 0.0307307 0.0597754 -0.00937844 -0.121063 -0.0284649 -0.146011 0.140635 -0.0619697 -0.0231152 -0.158494 -0.153093 0.022618 0.147864 -0.0768922 -0.206856 0.0214186 0.0907335 0.0473658 0.137331 0.0158971 -0.0621412 -0.144159 -0.167379 -0.0142533 -0.17604 -0.0127931 0.101701 0.0377793 -0.0146169 -0.0926002 -0.127669 -0.021198 -0.0559917 -0.000602765 0.137245 -0.033064 -0.0887695 0.0582118 0.0817228 0.0839011 -0.0607975 0.0876544 0.0851158 0.0706223 -0.0173883 0.0886231 0.0978731 -0.0697726 -0.14887 -0.0150768 0.0405842 0.00884281 0.0129556 0.0860981 0.0457041 -0.014715 -0.0869522 -0.128105 0.150658 -0.0890994 0.0438275 -0.033972 -0.028756 0.0388158 -0.0338256 -0.0555387 0.063381 -0.164346 -0.0607061 0.0481048 -0.110312 0.0714154 0.0581547 0.0461229 -0.118946 -0.116675 -0.0215715 -0.0392813 -0.0348979 -0.0180169 -0.0660103 -0.141807 0.0570197 0.0279221 -0.0346475 -0.143761 0.13479 -0.102083 -0.100325 -0.122411 0.0094082 0.0335107 -0.0119711 -0.114615 -0.21569 -0.179962 0.049502 -0.0293455 0.0749538 0.00505243 -0.0712283 0.121802 -0.0551682 0.0598915 0.0122417 -0.0447585 0.139758 -0.012652 -0.0781208 -0.18981 0.0967688 0.000432853 0.00374304 -0.0552097 0.278811 -0.11009 -0.00533871 0.00962196 -0.0468559 0.0271195 -0.0902621 0.135699 0.00935951 -0.250135 -0.140827 -0.121186 0.115251 -0.128883 -0.0483701 0.0522092 -0.144648 -0.0907776 -0.147147 -0.045768 -0.0684675 0.0120222 -0.0645111 0.0570903 0.0937153 0.0319973 -0.0676181 -0.0851327 0.164176 -0.0894319 -0.0382118 0.13904 0.0347693 0.0457544 -0.0647939 0.0174374 -0.207909 0.0887071 0.120518 -0.139337 0.0279632 -0.0216669 -0.00826288 -0.00826885 0.00931258 0.0238539 0.0163095 -0.0311872 -0.087264 -0.0410921 -0.0487512 0.0697235 0.00569902 0.0727025 -0.067969 -0.02301 -0.0692381 0.115325 0.104416 -0.0683375 -0.119873 -0.0166734 -0.109589 -0.191687 0.0172752 0.0134677 0.0502103 -0.0160062 0.0534045 -0.173479 -0.0819708 -0.139756 0.116691 -0.0012691 -0.00205584 0.0996901 0.028445 -0.150573 0.137447 -0.0545648 0.133275 -0.0896785 -0.0489279 0.0112701 0.00277448 -0.0121662 -0.0442079 0.0726409 0.0171133 0.0954624 -0.0942104 0.0201777 -0.0295243 0.06017 -0.0598781 -0.126045 0.00295213 -0.00852929 -0.0244239 -0.0402902 -0.127386 0.0152786 -0.0163545 0.0241975 0.00311697 0.0976358 -0.0253421 -0.135155 0.10909 -0.0259827 -0.0165697 0.0370089 -0.0367283 -0.00325119 -0.126731 0.0610842 -0.0685883 0.151263 -0.012365 0.00633467 0.108831 -0.169453 0.0807062 -0.161131 -0.0792891 0.0671149 -0.030457 -0.128522 -0.0269031 0.00408191 -0.14045 0.161261 0.0851816 -0.0601385 -0.0205062 -0.00342519 0.0268923 0.0323191 -0.0257023 0.0512047 -0.0502741 0.0893047 -0.218853 -0.0531728 -0.0714186 0.0716345 -0.0444906 -0.0386711 -0.086166 0.0990455 -0.0832843 -0.171238 0.0709573 -0.0598029 0.15528 0.0357987 0.0413387 -0.0278163 -0.0197398 0.0445601 -0.0890768 -0.00392635 0.0472353 -0.0663722 0.109953 0.0895449 0.0555239 -0.0852044 -0.0297708 -0.222637 0.0686266 -0.0451722 0.125776 0.0484595 0.153829 -0.0831142 -0.0766983 -0.0210269 -0.0576515 0.0516356 0.15344 -0.124965 -0.0297173 -0.111329 0.0632474 -0.120825 0.094666 0.0551348 -0.0652889 0.0581484 0.0203378 -0.121316 0.0880507 0.0666841 -0.0545968 -0.12559 0.0445274 0.0161079 0.0635836 -0.0371572 0.0160377 0.0756698 0.0403332 -0.0894044 0.0434031 0.0271665 0.123154 0.0872121 -0.0558003 -0.0158618 -0.0520007 -0.113154 -0.0794507 -0.0732966 0.055129 -0.117566 0.0230166 0.151452 -0.111601 -0.0814913 -0.00440371 0.0310194 -0.017528 0.0374794 0.0142258 -0.104111 0.0476178 0.0387833 0.095183 0.0093762 -0.0105141 0.131202 0.0223908 -0.00268426 0.137773 0.113314 0.14061 -0.0798206 0.140181 0.0422251 0.0888992 0.012265 -0.0279415 -0.0228777 0.112079 -0.0830905 -0.0833945 -0.141766 -0.00399082 0.1781 0.00149837 -0.00702442 -0.0936741 -0.100393 -0.0688823 0.0227989 -0.00274211 0.00454714 -0.10265 -0.0583777 -0.0513285 0.00892507 -0.00422328 0.0687489 0.00291785 0.0310223 -0.041234 0.13414 0.0150145 0.20969 0.0353771 -0.207879 0.0671723 -0.0912662 0.0018157 -0.0209333 -0.0263871 0.0925854 0.0430071 0.0714873 -0.0323451 -0.133784 0.131589 0.153924 -0.0325982 0.00578883 0.0997886 -0.0635966 0.0693371 -0.0890628 0.057882 -0.0635342 0.0409858 -0.112762 -0.0741355 0.0401008 0.0561119 0.0142978 0.106962 0.058686 -0.0578077 -0.0330141 -0.0915378 -0.0372472 -0.223259 -0.0902143 0.108307 -0.0165599 0.0504455 -0.0218823 -0.0370941 0.036104 -0.0654738 -0.132172 -0.0237982 -0.00623371 0.0181266 -0.00775805 0.102716 0.0275128 0.129455 -0.0907763 0.125023 -0.0174596 0.170329 -0.15552 -0.0200775 0.0505961 -0.0299676 -0.00218394 -0.00188578 -0.0123713 0.0833004 -0.280393 0.0609261 -0.0133605 0.219484 0.0681077 -0.115563 -0.120781 0.0952702 -0.0991031 0.0508993 -0.0233235 0.243032 -0.0639915 0.0526915 0.0912856 0.00808951 0.00561381 -0.166741 -0.0378419 0.0103111 -0.167337 0.125838 -0.000764978 -0.0250781 -0.0150416 -0.0185532 0.0280901 0.158474 0.00501009 0.0697359 -0.0820711 -0.0512807 0.112137 -0.0762837 -0.0120812 0.0919324 -0.0533014 -0.0261882 0.00574778 -0.108557 -0.00932671 -0.0817161 0.0891338 -0.0431775 0.0161962 -0.0549778 -0.141648 0.183029 0.0154945 0.0164109 -0.197731 -0.063307 -0.0685541 -0.106917 -0.0704478 0.0463749 -0.0389911 -0.0605775 -0.0966583 0.0850489 0.172021 0.0990926 0.1628 0.0931313 -0.055479 -0.0915785 -0.108589 -0.00566595 -0.0298516 -0.00389019 0.076324 -0.149543 0.212971 -0.129426 -0.0714852 -0.155422 -0.100688 -0.0428887 0.0339369 -0.129889 0.0564289 0.038235 0.158318 -0.0553777 -0.053188 -0.0920525 -0.000960736 0.0662949 -0.115292 -0.0123687 -0.0163709 -0.0987794 0.0420148 0.0517351 0.0376397 -0.0119559 0.15463 0.0232554 -0.0877954 -0.0353678 -0.0259707 -0.0544615 -0.0119924 0.0157748 0.00518467 -0.0673138 -0.131569 0.173153 0.161508 -0.01627 -0.203686 -0.130777 -0.149015 -0.212033 0.243646 -0.052469 -0.0416156 0.022591 0.0661712 -0.115448 0.0144172 0.225944 0.143789 -0.169661 0.0487808 -0.0550409 0.0485494 0.0207933 0.0162366 -0.0687235 0.0785451 0.0781764 -0.00269778 0.059675 0.046822 -0.096816 0.0944826 0.0202988 -0.0309413 0.109325 -0.0576687 -0.0625262 -0.0753721 0.0496628 -0.0534288 -0.26821 -0.0375572 -0.0860451 8.28738e-05 -0.135511 -0.0122644 -0.170727 0.00662701 0.118954 -0.0510683 0.0154832 -0.0293342 -0.0498486 -0.0309633 0.0365969 -0.0751746 0.15586 0.0494705 -0.012824 0.0532511 0.0244558 0.0581267 0.0516381 -0.1007 0.0784409 -0.113578 0.0280744 0.0614015 0.0855188 -0.142637 -0.09041 -0.0519265 0.166332 -0.0472308 0.0677565 -0.146071 0.114924 -0.099288 0.0326219 0.00756206 -0.140534 -0.0875041 -0.0472783 -0.129364 -0.0865108 0.0376406 -0.126095 -0.0670409 -0.021681 0.125014 0.119725 -0.0446115 -0.140812 0.046202 0.134678 -0.039233 -0.00572535 -0.104609 0.0423998 -0.10023 0.161721 0.0157145 -0.0618617 0.156736 -0.0320193 0.172337 0.16262 0.0870184 -0.109345 0.118625 0.000357691 -0.0955478 0.00166153 -0.176714 -0.106392 0.0429651 0.094479 0.0277078 -0.0230301 0.023317 0.102022 0.174909 0.0472671 0.150627 -0.0302697 0.151367 0.0296265 0.00467592 0.0680416 0.0606499 -0.0383819 0.173443 0.0264497 0.17562 0.0817325 -0.0565577 0.0170044 -0.103274 -0.00157635 -0.0468206 0.164347 0.0722573 0.109461 -0.0882207 -0.068307 0.0141949 -0.0864398 -0.0195923 -0.148877 -0.0237675 0.0227246 -0.00786475 0.0758172 -0.0133418 0.152737 -0.0232071 0.115697 0.00142731 0.0677613 0.0713407 -0.0832272 -0.0393171 0.0865359 0.160972 -0.0784961 0.157388 0.197967 -0.183768 -0.169638 -0.00428361 -0.189186 0.0499589 -0.0509274 -0.0136661 0.00040981 -0.257003 -0.100584 -0.115186 -0.200558 0.0137916 0.015069 0.0948677 0.175489 0.0824838 0.156999 -0.0602603 -0.098108 0.0415882 -0.0084854 -0.196316 -0.16281 -0.0189261 0.0483668 -0.0834321 -0.0668469 -0.149675 0.0489632 0.0321412 -0.0183905 0.0514465 0.132496 -0.0208674 0.0811769 0.0887267 0.00728646 0.112428 -0.0758978 -0.0996485 -0.136868 0.0775566 -0.0462222 -0.0193147 0.0191757 -0.106912 0.16962 -0.0569267 -0.0837179 0.148166 0.0555158 -0.235825 0.0148273 -0.142829 0.0739723 -0.0421036 0.142665 0.0579898 -0.026217 -0.192122 0.0854395 -0.0190539 0.0116324 0.0916024 0.0710995 -0.137607 0.210277 -0.0939757 -0.269238 0.102696 -0.0715308 -0.178545 -0.150324 0.0471422 0.0951666 -0.0936816 -0.223464 -0.124468 -0.0600089 -0.19575 -0.0269968 -0.100326 -0.137113 0.0550361 -0.0904399 -0.0133754 0.0722857 -0.0532794 -0.252413 -0.0143508 -0.068591 -0.0122732 0.0430806 0.0469728 0.0548528 -0.0110512 0.157358 -0.178955 -0.0307187 -0.0143372 0.0480663 -0.134986 0.0880484 0.0309295 0.0731552 0.0277922 0.0618903 -0.0476242 0.0284874 0.15004 0.0115778 0.0757986 0.190308 -0.0215845 -0.0250983 -0.186682 -0.0792458 -0.0326896 0.00724579 0.0213169 -0.143735 -0.00941505 0.020365 -0.0447267 -0.148344 -0.0271536 -0.0652311 -0.0620282 -0.0721643 -0.0464982 0.00413619 -0.0658889 0.0287485 -0.065875 -0.117968 -0.051941 0.0857355 0.0468079 -0.157299 -0.023735 0.0466855 0.149522 -0.033366 -0.0562362 0.0754059 0.0204099 0.153948 -0.00542827 -0.0903908 0.159263 -0.0300031 0.00903064 0.0129899 0.0755777 -0.139766 -0.0467392 0.117143 -0.141742 0.0328055 0.0623609 -0.265158 -0.0746083 -0.161724 -0.0625423 0.067227 -0.0782846 -0.0422428 -0.11071 -0.213229 0.0286174 0.178679 0.00320896 -0.0667947 0.0407152 0.00789409 -0.0985227 0.0139303 0.000423124 0.257158 -0.00655433 0.216714 0.177927 0.0350413 -0.0858423 0.0796575 -0.145609 -0.0761118 0.0263951 -0.0733302 -0.0934165 -0.0472613 0.0294869 0.0945129 0.1246 0.0467002 0.0768616 -0.00225336 0.0225138 -0.102568 0.210078 -0.0771401 -0.132632 -0.000759486 0.0109754 -0.0113269 -0.039427 -0.0275121 -0.0294494 0.289744 0.00233773 -0.0760332 0.0684486 0.1805 -0.0724331 0.0499768 0.134161 -0.0614713 -0.0916221 -0.0216136 -0.133428 0.0338046 -0.032905 -0.0214651 0.0921501 -0.018085 -0.144254 0.012198 0.00745456 -0.018528 -0.0346791 -0.0654008 0.0874445 -0.0017471 -0.0329294 -0.143533 0.0788275 0.134161 0.164842 -0.12932 0.0839815 0.068249 0.0687535 0.0448723 -0.103406 0.139183 -0.148777 -0.0755877 -0.0300058 0.0706171 -0.0971894 -0.0530009 -0.128829 0.00114616 0.0512245 -0.0746445 0.116371 -0.132228 0.0193365 0.00119095 0.0610152 -0.0269731 -0.0259691 0.0753419 -0.174268 0.0390607 0.080871 0.0415121 -0.0938568 0.023117 -0.194268 -0.0891873 0.166027 0.0125977 0.00915153 0.130352 -0.0810932 0.0373949 0.00846574 -0.147077 -0.154078 0.0190726 0.00791191 -0.0269882 0.0755263 -0.0106014 -0.0211665 -0.0977516 -0.00574616 -0.0980103 