-0.0161363 -0.123366 0.0804611 -0.126348 0.00607784 0.0925056 0.00620125 -0.0625953 0.0572779 0.0264989 0.248688 0.0441157 0.123059 0.0952966 -0.0168423 -0.0360974 -0.0732438 0.159528 -0.106259 -0.306859 -0.0881517 -0.0588363 -0.226996 0.0156959 -0.0925996 0.0066507 -0.016672 -0.0797034 -0.00833842 0.106904 0.0525667 -0.0792556 0.169269 0.0942096 -0.0435415 0.0788316 0.151571 0.0162455 -0.0225473 0.142419 -0.150613 -0.0213425 -0.0504554 0.0213941 0.203829 0.00446951 -0.0416318 -0.0398078 -0.0799631 -0.185996 -0.110637 0.0942354 0.128029 -0.152008 -0.107089 0.185707 0.0199981 -0.0138401 0.169872 -0.231044 0.0679068 0.00318762 0.0645302 -0.13838 0.13573 0.0736935 -0.159572 -0.00909107 0.115626 -0.0229098 -0.0431243 -0.111359 -0.00377692 -0.115298 0.0968711 -0.00339306 0.0115632 -0.00376869 0.0118768 0.143998 -0.00902303 0.162197 0.130281 0.0491953 0.0196094 0.0199032 0.0278637 -0.204018 0.12531 -0.0219483 0.103546 0.123894 -0.0706508 0.0157653 0.241042 -0.0068544 0.0891616 -0.340844 0.154663 -0.0290854 -0.0594419 -0.0522589 -0.0687099 0.189091 0.104239 0.0558491 -0.142887 0.0663929 0.0622842 -0.0181159 -0.107556 -0.1163 -0.0837887 0.109101 -0.039907 0.144339 -0.041652 -0.0382487 -0.0555887 -0.0292566 0.14727 0.0720696 0.0904889 0.159777 -0.191899 0.0991333 0.00946706 -0.113358 0.200565 0.0891097 0.0213046 -0.0207796 -0.227255 0.068884 0.298175 0.102768 -0.219893 -0.116046 -0.24961 -0.128839 -0.0122273 -0.0182965 0.144382 0.108494 0.240337 -0.0649409 -0.138957 0.0345979 0.0383709 -0.257416 -0.025464 0.129967 0.165474 -0.0603081 0.118956 0.0952439 0.0166978 0.039794 -0.00253827 -0.03952 -0.187026 0.0195154 0.163583 0.0840161 -0.107312 -0.173246 -0.0950207 -0.0521616 -0.073019 -0.110304 0.236801 -0.308086 0.0158361 -0.0574753 -0.233695 0.0795044 -0.0150913 -0.0837118 0.0100026 0.179399 -0.0441268 -0.0472933 -0.122863 0.0203729 -0.0820353 -0.205414 0.00998825 0.0193087 0.208625 -0.0682491 0.0188897 -0.189044 -0.0517802 -0.164283 0.0816722 0.0387412 -0.0845861 0.104577 0.0853993 0.0942666 -0.0165845 -0.00554171 0.0682973 -0.134935 -0.143992 -0.0785978 -0.0367886 -0.0313679 0.0402265 0.00854534 -0.0170586 0.00763323 -0.0225881 0.00225456 -0.0863602 -0.0081494 -0.0924074 0.0545953 -0.0366326 -0.11273 0.0834547 -0.215806 0.0739714 0.105007 -0.0309406 0.0618768 -0.202847 -0.0442096 -0.204658 -0.0880965 0.00338625 -0.178177 0.044466 0.0675859 -0.103356 -0.270766 -0.138088 0.0489727 -0.18302 0.133576 0.134733 -0.00904933 0.121385 -0.184291 -0.188878 0.0434027 0.0681864 -0.0343475 -0.0549448 -0.136468 -0.00111149 -0.159342 0.0425491 -0.010413 0.0763072 -0.20243 0.0871386 0.015697 0.0931552 0.0540919 0.0698116 0.171439 -0.0524014 0.00310254 0.162237 0.148675 -0.0395555 -0.0996551 -0.02869 -0.0320889 -0.0147166 0.0240605 0.00515847 0.0316995 0.0138911 0.104314 0.0645909 0.162709 -0.124065 0.0303599 0.152519 0.320593 0.0865638 0.252793 0.118915 0.235718 0.0350765 -0.299541 0.0387932 -0.0363237 0.274106 0.144988 0.0133341 0.206735 -0.0142957 0.23031 -0.117009 0.112463 0.0286056 -0.210153 0.0634238 -0.163151 0.0429636 -0.0203789 0.0630166 0.0225598 0.0429957 -0.0779509 0.146541 -0.0806695 0.0990607 -0.212376 0.167336 -0.00648496 -0.0220226 -0.0211484 -0.13757 -0.215189 -0.054488 0.0266887 -0.207491 0.0229748 0.154927 0.0453119 0.0205717 0.0817127 -0.0138134 0.0256005 -0.0376596 0.0285634 0.211121 -0.0936528 0.0724315 0.0846982 -8.87873e-05 0.117124 0.187139 -0.103076 0.00599258 -0.0861732 -0.11189 0.174325 -0.000317536 -0.431983 -0.0140893 -0.0882562 0.0384471 -0.155663 -0.212401 0.139499 -0.123691 0.0413361 -0.0486928 0.132922 0.255672 -0.0356478 -0.0607959 0.139113 -0.0996787 -0.0428118 -0.143901 0.133422 0.0839043 0.0245851 -0.198527 0.0166136 0.0553337 0.128224 -0.134026 -0.0164631 0.129569 0.0779332 -0.112513 -0.130823 -0.105364 0.094903 -0.0751586 -0.0181209 -0.216938 0.196517 -0.106366 -0.154051 -0.106903 0.280199 0.125603 0.0439338 0.0233251 -0.152307 0.0995417 0.0729837 0.153119 0.16967 -0.235673 0.0461919 -0.202811 -0.0561143 0.0459037 -0.242307 -0.171506 0.0630488 0.0554941 -0.0497105 0.171639 0.123035 -0.0624939 0.227532 -0.0555248 0.0212031 -0.0930545 -0.0678721 0.024235 0.0973958 0.0765814 0.207753 -0.161669 -0.0333929 -0.10637 -0.0922834 0.0636803 -0.00298357 0.0817346 -0.0779219 0.0125768 0.0623734 0.00346845 -0.12819 -0.118595 0.00588948 -0.120718 0.184364 0.115804 0.0528884 -0.030848 -0.0891399 0.0805295 0.199137 -0.0274451 -0.0307432 0.0988797 0.0470609 0.158622 -0.133948 -0.088969 0.0958533 -0.103075 0.0479239 -0.0535318 0.149356 -0.0333274 0.0208457 -0.0835133 0.048227 0.0642411 -0.0366958 -0.203811 0.129332 0.0594394 -0.0775096 -0.15968 0.168128 0.0578973 -0.0506081 0.115827 -0.0550786 0.0965642 -0.243924 0.0238177 0.0336358 -0.246261 -0.114645 0.00932936 0.0265662 0.0381534 0.140459 -0.0997412 -0.0635009 -0.049907 0.176232 0.0758278 -0.15107 -0.055104 -0.0696077 -0.090196 -0.00692133 0.0442226 -0.183829 -0.0606917 -0.185593 -0.00741667 0.0622741 0.0328077 0.120471 0.176112 0.133821 -0.120633 0.0138029 -0.00307027 -0.135124 -0.0329693 0.0984602 0.0432826 -0.0339328 0.206963 -0.0759759 -0.284344 -0.0865165 0.18205 -0.345192 -0.0979395 0.188559 -0.0915462 -0.189821 0.0967037 0.162694 -0.248637 -0.0182119 -0.0401035 -0.132589 -0.137505 -0.0647909 -0.16101 0.00749409 0.279725 0.0325957 -0.0643712 0.0349935 0.303042 0.100428 0.0886782 0.0537544 0.136966 -0.112439 0.130847 -0.250299 0.172087 0.157683 -0.0129267 -0.0393767 -0.0536863 -0.151348 -0.0968459 0.156395 -0.040578 -0.103417 0.0677724 -0.243429 -0.0923905 0.00302073 0.00949549 -0.138072 0.127028 0.00364277 -0.08486 -0.10094 -0.0762858 0.0157595 -0.0239035 -0.00329746 -0.172449 -0.0612772 0.0794764 0.129608 -0.111809 0.0395354 0.0468147 -0.127057 -0.355255 0.16743 -0.015648 -0.103469 0.0747837 0.0267899 0.00755732 -0.133356 0.00592989 0.112762 0.082309 -0.0221238 0.181383 0.0283989 -0.0716405 -0.142778 -0.0380604 0.0490429 0.0364332 0.090022 -0.112066 -0.020507 -0.0868213 0.120058 0.0767331 0.149091 -0.0315016 -0.157854 -0.0470926 -0.143907 -0.140249 -0.163754 0.127805 -0.176456 -0.210185 -0.0197432 -0.109604 -0.100554 0.127952 0.0202953 0.0921342 -0.0021857 0.144022 -0.0910927 0.0722844 0.140194 -0.0188822 0.0307732 0.0522444 -0.093486 -0.0195588 -0.0458587 0.0386031 -0.148262 0.163616 0.0163996 0.0613099 0.0283565 -0.00961021 0.00820206 0.0933024 0.113227 -0.0829559 -0.111977 -0.0303316 0.0866533 0.00139121 0.104293 -0.115692 -0.109038 -0.0806369 -0.235776 0.121658 0.0577383 0.196357 0.0212658 -0.0779929 0.161752 0.111081 0.149305 -0.113729 -0.123209 -0.0201421 0.0307373 0.0421158 0.142244 -0.174002 -0.186603 0.214209 0.0515831 -0.20702 0.040701 0.0395465 -0.0541609 0.0586944 -0.124309 -0.032352 -0.0912197 -0.186771 -0.0103977 0.0895843 -0.039832 0.0416991 -0.0129569 -0.140382 0.0158167 -0.109189 -0.00678547 -0.0630723 -0.130323 -0.069654 -0.0949997 -0.0929273 0.0864672 0.100042 0.326861 -0.121165 -0.218563 9.6774e-05 0.0832852 0.154428 -0.0332395 -0.0533638 0.120409 0.028414 -0.0709996 -0.05552 -0.0461989 0.0509802 -0.0198309 -0.00880638 -0.0381449 0.12904 0.00787046 0.0240605 0.0137538 0.0728706 0.128778 -0.151121 0.190307 -0.084462 -0.295097 -0.0576248 0.11622 -0.280753 -0.104815 0.242668 -0.0517063 0.228712 0.0943428 -0.141455 0.124031 -0.0728928 -0.0901773 -0.0186678 0.202126 -0.00857859 0.0293 -0.016071 0.23495 0.146076 0.00413605 0.169871 -0.0499234 0.254673 -0.0632382 -0.0965729 0.109914 0.06526 -0.0655609 0.131644 -0.0471942 0.0605825 -0.044352 -0.0583541 0.177643 -0.197758 -0.137448 0.0637941 -0.0557202 -0.00948137 0.0540149 -0.0702391 0.188684 0.0154221 0.00469113 -0.128622 0.0882846 -0.0993555 0.0510119 -0.080995 0.0212789 0.0784761 -0.0956046 0.062602 -0.0520856 -0.0832475 -0.100305 0.0485477 0.12893 0.204523 -0.0375652 -0.103002 -0.0224863 -0.178181 -0.0429185 0.0866738 0.251883 -0.241729 -0.0441652 -0.0523395 0.0860008 0.0858272 0.0480688 0.0170405 -0.155178 -0.106882 0.0915425 0.0795999 -0.0617656 -0.257074 -0.0206706 -0.0586669 -0.10367 0.13881 0.0404578 0.0474945 -0.158862 -0.0539467 -0.0987982 -0.0413893 -0.0115142 -0.0947035 0.057246 0.212799 0.0746186 -0.143167 -0.017316 0.227742 0.192941 0.0117729 0.208178 0.295843 -0.0868303 -0.102278 0.1495 -0.132819 -0.034183 0.114225 -0.0540747 -0.0786416 -0.0102519 -0.137082 0.0699246 -0.116069 0.16966 0.0236424 -0.025639 0.199217 0.0349158 0.211647 0.0522724 0.11488 0.123417 -0.137129 -0.0510094 0.12732 -0.122494 -0.153756 -0.00339671 0.0203524 -0.183434 0.148079 -0.136192 0.14304 0.0444094 -0.0578412 -0.031955 0.075516 0.0716373 0.00266714 -0.00745708 -0.12839 -0.13479 0.0702154 0.0913435 -0.0450924 -0.0909455 0.109791 0.0350799 0.14257 -0.0551071 -0.0625042 0.0214449 -0.200184 0.111064 -0.0752163 -0.0544702 -0.041369 0.0221696 -0.0666691 -0.0800305 -0.062494 -0.12514 0.0662102 0.0262609 0.072223 0.136311 -0.066161 -0.0853883 0.000103388 -0.0497596 -0.0275302 0.0354981 0.074098 -0.0632653 -0.132348 0.0323819 -0.0308873 0.0675828 0.156452 -0.120113 -0.219052 0.126083 -0.106564 -0.132584 0.059543 0.0197705 -0.0783804 0.115492 -0.0294315 -0.0147266 0.00787568 -0.165358 0.252057 0.0924535 -0.0559268 -0.0302881 -0.0130576 0.080356 0.0611835 -0.0713395 0.0250111 0.141782 0.113266 0.147965 -0.152126 -0.00350426 -0.0503996 -0.207085 0.289094 0.064642 -0.0920117 0.140693 0.0101772 -0.0334941 -0.125722 -0.0461831 0.0899267 0.194297 -0.0220574 -0.0716892 0.0323314 -0.112534 -0.149973 0.175629 -0.098296 -0.000825545 -0.0252737 -0.124535 0.0523518 -0.183841 -0.026209 -0.0336216 -0.0953286 0.0226387 0.070312 -0.0321364 0.0433841 0.172232 0.0115637 0.157488 -0.135771 0.172914 0.0222273 -0.159561 -0.10181 0.109433 -0.109045 -0.0896273 -0.229251 0.00122568 0.0589961 0.128213 -0.0645543 -0.0552733 -0.0660566 0.0156528 -0.0499474 -0.0615148 -0.0257161 0.113998 0.0666925 -0.122545 -0.090721 -0.0761303 -0.120011 -0.0442148 0.0624636 0.0180752 -0.0363914 0.162591 -0.0492975 -0.102338 0.183279 -0.0871564 0.0590159 0.0427907 0.211534 -0.109504 -0.0545806 0.287745 -0.0814826 0.102498 0.0135812 -0.101634 -0.0949569 -0.0502 0.131372 0.0998211 0.0177405 -0.0508306 -0.0122393 -0.0590714 -0.160917 -0.0256598 -0.0416484 0.0471836 -0.02059 0.14879 -0.19624 -0.118079 0.0236744 0.106773 -0.437725 0.135328 0.0453671 -0.0410076 -0.225575 0.058596 0.0461649 -0.0201653 0.102833 0.197122 -0.278134 0.0292344 -0.0493051 0.0062756 0.0186617 -0.103804 0.120198 0.0533561 -0.124865 0.050495 0.0962185 0.137989 0.0230614 0.0128114 -0.0201463 -0.0644804 -0.0645173 -0.0888704 -0.0951218 0.316834 0.10727 0.068281 -0.193531 0.100507 -0.0702866 0.0783471 -0.0970142 -0.0760316 0.12405 0.208387 -0.164486 -0.0406943 -0.015719 0.0486998 -0.0404205 -0.0530203 0.0476723 -0.0948705 -0.112722 0.102995 -0.178781 0.143775 -0.113054 -0.0452049 0.131454 0.00756468 -0.029843 0.0905434 0.083325 0.0160842 0.0415752 -0.115945 0.0348933 0.115295 -0.260712 0.0547048 -0.211088 0.0517106 -0.150023 0.0372023 0.0316689 0.17723 0.174784 -0.00920315 -0.103046 0.141539 0.0816263 -0.0680765 -0.0820911 -0.0743112 -0.259333 0.0525295 -0.0435681 -0.201787 0.0885594 -0.000774592 -0.196741 -0.0464592 0.0420301 -0.207209 -0.123052 0.0404909 -0.180592 0.169837 0.198733 -0.0407158 -0.0531292 0.0123189 -0.0724312 -0.0581513 -0.00314279 -0.0891714 -0.0966056 0.0493607 -0.0196794 0.029751 -0.0924626 -0.0827171 -0.13894 0.0774751 0.0487941 0.0923158 -0.102618 -0.074587 0.0263902 0.095962 0.0343568 0.0944021 0.00683395 0.132538 -0.0240352 -0.000693508 0.0231476 -0.144175 -0.129574 0.107347 -0.171714 -0.0511259 -0.104795 -0.0206813 -0.15405 -0.276596 0.153157 0.0787307 0.191263 -0.223632 0.231426 -0.150849 -0.182484 -0.0168779 0.0482445 0.00149228 0.212781 -0.0933187 0.0690142 -0.0740873 -0.0455939 -0.0392599 -0.0107287 0.204588 -0.0899981 0.0361769 -0.0346345 0.172111 0.0353 -0.129899 0.0406391 0.133148 -0.00671975 -0.166227 -0.0874541 0.192525 0.0126651 0.0911371 0.349983 -0.147377 -0.12829 0.0384794 -0.0710271 0.192279 0.132529 -0.0397514 -0.135081 -0.138454 -0.141362 0.175803 0.153039 0.235693 0.224949 -0.140296 -0.115279 0.101324 0.0622991 0.125656 -0.0996403 0.152596 0.00111603 0.0584473 0.0107474 -0.0459955 0.00116844 -0.21504 -0.0391669 0.169176 0.00317265 -0.0149293 0.225124 -0.0736725 -0.249837 0.153699 -0.226407 -0.00128854 -0.0416297 0.106746 0.0738266 0.0550872 0.0486235 -0.183871 0.000418256 0.0946662 0.161932 -0.074522 -0.0627644 0.238807 0.196202 0.047944 0.113161 0.0851103 0.0460297 0.0536002 0.06042 -0.37717 -0.0406882 0.00615019 0.0850293 -0.00734673 -0.00108086 0.189809 0.000392825 0.221478 -0.0228785 -0.0736755 -0.128513 -0.0502694 0.186591 -0.188819 -0.0235366 -0.161384 0.152387 -0.0767649 0.0334222 -0.0606921 -0.0825466 -0.0604998 -0.070059 0.0848447 -0.189616 0.0547068 -0.0647355 -0.0176071 0.0244306 0.0824851 -0.00294872 0.01371 0.159548 0.0973965 -0.0201724 -0.201722 -0.00521149 -0.130143 0.197672 0.0665808 0.103822 0.0943418 0.136552 -0.0543741 0.28661 0.0732136 -0.118027 0.107655 -0.0799028 0.17667 -0.138783 0.108879 0.0824611 -0.153148 -0.00575328 -0.070611 -0.0359438 -0.123218 -0.248938 -0.038106 -0.0286327 -0.0718837 -0.175512 0.216682 -0.114765 -0.0298068 0.292009 -0.121875 -0.029575 -0.112925 -0.1456 0.0474573 0.00349115 -0.0886933 -0.00675943 0.00430164 -0.0755422 0.0278849 -0.0928345 -0.130971 0.0264701 -0.00690588 0.0314475 0.0254122 -0.0648668 -0.179166 -0.0251918 -0.121813 0.0653144 0.0811721 -0.117214 0.0348411 0.0942841 -0.158876 0.0956002 0.0369436 0.0217491 0.197649 0.0306363 0.0997735 0.00788391 0.110859 0.20882 -0.0229605 0.0748034 0.170183 0.252329 0.0900441 0.0835947 0.179347 -0.0400697 0.0754926 -0.0135396 0.103132 -0.0185913 -0.214672 0.0433859 -0.0195104 0.0865777 -0.0236698 -0.0453815 0.11358 0.112215 0.0317622 0.146311 0.0645775 0.186771 0.0697437 0.292443 0.0736934 7.81762e-05 -0.058544 -0.122833 0.178214 0.29889 0.0423495 -7.65341e-05 0.082262 0.020698 0.010263 0.0381404 -0.0403157 -0.162797 -0.0328288 0.151989 -0.0263883 -0.192656 -0.130631 0.0753658 -0.0562818 -0.204826 -0.0676296 0.0219509 -0.267312 0.115352 -0.0452263 -0.258307 0.0767876 0.0360778 -0.195285 0.0754986 -0.0693632 -0.0202507 0.148818 -0.0997801 0.0766999 0.116233 0.0224411 -0.0640563 0.230691 0.03936 -0.148778 -0.164982 -0.282354 -0.216987 -0.100704 0.0895953 -0.0153592 0.0464409 0.193271 -0.030531 0.0353566 -0.0468131 0.0603013 0.0111827 0.0868806 0.0959523 -0.0758775 -0.113811 -0.110325 0.256979 0.0721788 0.244945 -0.210801 -0.0611997 0.14567 -0.230658 0.0452503 -0.0164703 -0.114634 -0.0126905 0.11389 0.0394853 -0.066398 0.021639 0.114738 -0.0306764 0.0818296 0.0816505 -0.118015 -0.0856667 -0.144198 -0.141334 0.00240017 -0.184827 -0.0892239 0.00420207 0.00164245 -0.0506328 0.0517596 -0.018565 -0.0553309 0.0673309 -0.0741788 -0.039213 -0.119734 -0.0222245 0.0228265 -0.139074 0.172429 0.025642 -0.0945775 -0.208527 -0.00384743 -0.0364351 -0.120764 -0.030279 -0.0916511 0.0558414 -0.133756 0.251332 0.0391948 0.22217 0.0479476 0.0891295 -0.0241351 0.0192714 0.00948961 -0.0915273 0.123543 -0.0425607 0.068351 0.0503952 -0.115445 0.20896 -0.042388 -0.0173896 -0.193844 0.208793 0.188816 0.0314286 -0.0770212 0.0652452 0.0508922 -0.102076 0.116145 -0.243086 -0.0271397 0.127525 -0.226542 -0.0439201 0.144081 0.101353 -0.147984 -0.0137814 -0.0889707 -0.0503965 0.110829 0.189558 -0.173222 0.0381151 -0.0536295 0.0502538 -0.138003 0.0391971 0.0732428 0.0297051 -0.0320266 -0.0233861 0.0638184 -0.192026 -0.218658 -0.00856703 -0.0648364 0.0266384 -0.0535934 0.0120199 0.165276 0.109132 0.213955 0.208257 -0.0304008 -0.031155 -0.0136407 -0.167892 -0.147636 -0.179538 -0.0166177 0.117266 -0.103225 0.0220279 0.168193 0.0421082 -0.188801 0.0818396 -0.169068 -0.169582 -0.0165942 0.0526032 0.0914514 -0.137785 0.0286333 0.0481719 -0.030735 -0.124319 -0.166819 0.0651226 0.113291 -0.0910706 0.0857319 0.0638936 0.00047192 -0.0644081 0.00740937 0.0639451 0.105578 -0.285289 -0.0545565 0.0625609 -0.0728737 0.0421286 -0.109631 0.0443306 -0.055868 -0.0582395 -0.113065 0.031036 0.0603801 0.0459318 0.00302851 -0.0865281 -0.0636447 -0.220955 0.0457236 -0.0510572 -0.138239 -0.0417783 -0.166592 -0.129408 -0.0876107 -0.144174 -0.0211522 -0.128985 0.0408504 0.0552232 0.0580774 -0.197867 -0.186165 -0.179787 -0.0926091 -0.134777 -0.124342 -0.126866 -0.0237822 0.0526535 -0.0238712 0.070497 -0.07781 -0.214904 0.12538 0.063054 -0.120359 0.0360035 0.0698919 0.0113284 0.0982162 -0.00354314 -0.0437462 0.0866689 -0.00037425 0.070427 -0.0370208 -0.134703 0.15297 -0.144273 0.0214387 -0.0766682 0.141186 0.0471019 -0.123087 0.00236875 0.066453 0.040202 0.0358031 -0.0602829 -0.0202542 0.198954 -0.269093 -0.202554 0.0850182 -0.185345 -0.0987239 0.193836 -0.0773257 0.0436398 0.123063 -0.222878 0.159171 -0.0118924 0.0656104 -0.0709334 0.0706837 -0.0102036 -0.201396 0.00227206 0.0278645 0.00993632 0.195534 0.0838497 -0.0688815 -0.143927 -0.0568914 0.32918 -0.10821 -0.111025 0.0490294 0.174995 0.0157778 -0.0110637 -0.0152979 -0.0759768 -0.0567443 -0.055348 0.194457 0.089993 -0.0265089 0.00139393 0.0124668 -0.0523128 -0.162627 0.0510832 -0.0374056 -0.0490706 0.0422059 0.0777403 -0.00244495 -0.195796 -0.154746 -0.0326214 -0.28847 -0.140974 0.043091 0.0697753 0.0781048 -0.18797 -0.152414 0.0766407 0.022531 0.0175908 -0.0274834 -0.108829 0.0345362 -0.220769 0.0856499 -0.0819957 -0.0869299 0.0698405 0.12487 -0.0872562 0.077316 0.176494 -0.00314073 0.101167 -0.0167501 0.165101 -0.0181217 0.0982726 0.0990681 -0.0100364 0.220946 -0.326826 0.0612637 -0.066889 -0.0303946 0.134789 0.0467858 0.0732566 -0.124173 -0.0967677 -0.033403 0.0263467 -0.0546021 -0.0808804 -0.0262092 -0.0494055 -0.0232632 -0.121341 0.0868159 0.209459 -0.198282 -0.18499 0.134977 -0.151844 -0.0557687 -0.0625721 0.0348291 -0.0400168 0.195632 -0.0226207 0.0867973 0.274841 0.152391 0.205338 0.032189 -0.194459 0.261374 0.106938 -0.116483 0.0976746 -0.114877 0.0690127 0.113847 -0.0626903 0.00749819 -0.175671 -0.291426 -0.13986 -0.188595 0.017227 0.120881 0.0862581 -0.273173 -0.0361718 -0.0726088 -0.0538686 0.0797778 0.142573 -0.0668204 -0.262059 -0.148385 -0.141712 -0.128297 -0.0416539 -0.0634535 0.144266 0.0388921 0.00614388 0.12437 0.0651259 0.0234682 -0.156006 -0.0104055 0.0518295 0.0745111 0.0897953 0.0656551 -0.131506 0.0213656 -0.17406 0.0563236 -0.0654058 0.0419446 -0.127848 0.0773691 0.181116 -0.0336349 0.0773476 -0.116055 -0.0277886 -0.00930712 0.0799793 0.101226 0.0107753 -0.168811 -0.119016 0.0188851 -0.0433393 0.088611 0.0704782 -0.133521 0.0925154 -0.074219 -0.0632819 0.160534 -0.0912861 0.0344888 0.153668 -0.00963595 -0.00990892 0.0593758 0.203195 0.0696315 -0.0138046 -0.107375 0.0717658 -0.0210332 0.0549752 -0.0952288 -0.105208 0.140631 0.101917 0.221501 -0.00589308 0.140289 -0.0156266 0.118364 0.0130207 -0.0603221 -0.0720463 0.0931748 -0.0668227 -0.121688 0.23967 0.333543 -0.0665213 0.0681361 0.140236 0.0638481 0.0534817 0.0825819 0.0312248 0.210734 0.128025 -9.7062e-05 0.0214731 0.226093 0.0722824 -0.0124174 0.0414847 0.0367052 0.198061 0.0954858 0.21659 0.0802245 -0.0340074 0.00543057 -0.0371238 -0.0403131 -0.16946 -0.0585092 0.085032 0.0121161 0.161903 0.0494098 -0.10382 0.0241111 0.211392 0.00402601 0.256229 0.16201 -0.0378322 -0.137742 0.0542047 0.0657243 0.0585184 0.275051 -0.0631444 0.183335 0.138445 0.0363966 -0.120317 0.0436537 0.184025 0.107123 0.0882599 -0.0935566 -0.0657574 0.118237 0.119408 -0.17897 0.0318527 -0.059092 0.0857432 0.0401609 0.0671908 -0.0122203 -0.104612 -0.0774045 0.0418135 -0.0226712 -0.159322 0.200937 0.0158954 -0.0355884 -0.0651332 0.0119527 0.0669277 -0.240118 0.020947 0.0443836 0.0300005 -0.00604028 0.175353 0.159803 -0.0650191 -0.0691869 0.0466492 -0.065123 -0.0933394 -0.0987412 -0.157818 0.0643328 0.0728292 -0.309256 0.113913 0.0608151 0.0231304 0.115618 -0.197081 -0.115207 -0.150794 -0.0143896 -0.0124952 0.0572075 0.0343803 -0.0865644 -0.059051 -0.0306724 0.10547 0.0154728 0.110073 -0.155779 -0.107232 0.223718 0.039942 -0.0267234 -0.0634235 0.161331 0.0862753 -0.114149 0.122924 0.111062 0.153789 0.167652 -0.0698654 -0.225865 -0.160842 -0.196421 -0.0796163 0.133862 -0.00445436 0.0991701 -0.00768548 0.0490231 0.114287 -0.0505687 -0.239799 -0.152326 -0.0249431 -0.38609 -0.0415532 0.053505 -0.136654 -0.0633162 0.0798484 -0.12382 0.013253 0.163542 0.058699 -0.0873239 0.120952 0.0450649 -0.0984221 0.0644667 -0.00556528 -0.177324 0.071972 0.0192767 -0.0819504 0.0202679 0.0453254 -0.0124768 0.0621692 0.0764465 -0.0908447 -0.0420272 0.0839597 -0.0418804 -0.0373475 0.0796512 0.0843519 0.0669125 -0.162617 0.114311 0.0322387 -0.0117114 -0.076346 0.293464 0.079096 0.16219 -0.0363107 0.032844 0.181732 0.0840602 -0.0368817 -0.033553 -0.0379029 -0.295681 0.0454194 0.138079 -0.0911774 -0.0717563 0.042264 0.146668 0.00453737 0.14827 -0.0200026 0.0882566 0.0580771 0.00677531 -0.0205024 -0.0442173 -0.074233 -0.074475 0.184393 -0.0598183 0.102105 -0.16117 -0.12278 -0.0288334 -0.0887622 0.0267761 0.096729 -0.021711 -0.0214296 0.0621385 0.0786891 -0.0246415 -0.0326199 -0.114929 0.0736186 -0.0840451 -0.0656231 0.0211924 0.0393169 0.0514362 0.141613 0.132866 0.0217181 0.0414902 0.0338618 -0.0477543 -0.0412694 0.120039 -0.0833645 0.0542344 0.0392075 -0.0719184 0.131916 0.0976261 0.098527 0.00169308 0.0452921 0.110947 0.102991 -0.0056 -0.127498 -0.0120286 0.0967927 0.0474231 0.0820085 0.128991 0.0637724 -0.0867631 0.0720813 0.0875374 -0.111628 -0.0088295 0.0833085 -0.31382 -0.0794754 0.0817102 0.0781802 -0.104004 0.103721 -0.208059 0.0256639 -0.11286 -0.223448 -0.197894 -0.109979 0.00270764 0.0499944 -0.0156964 0.158052 -0.155698 0.0199862 -0.235185 -0.123075 0.195732 0.116633 -0.19725 -0.120085 -0.0510893 0.0818899 -0.154507 -0.038555 -0.026847 0.0429611 0.00761969 0.277339 -0.166962 -0.085463 0.118213 0.0205928 0.1767 0.301433 0.017034 -0.0302438 0.0316634 0.0393544 -0.176387 -0.0585767 0.0244265 -0.0917203 -0.0911949 0.104552 -0.0249377 0.0643119 0.0280328 -0.363519 -0.169861 -0.100712 0.0680777 0.0571716 -0.0529789 0.00664339 0.0151716 -0.180269 -0.13169 -0.0037991 0.0273192 -0.0555194 -0.0614579 0.279791 -0.0553972 -0.208417 0.0813008 -0.0454844 0.0148223 -0.0298385 0.118916 0.0785093 0.087624 -0.0276411 0.0424493 0.221319 0.196071 -0.102915 0.102573 0.0205008 -0.0238946 0.016458 0.133714 -0.0274054 0.0144203 0.108438 0.118731 -0.101176 0.137746 -0.330682 -0.0889328 0.0222579 