-0.00545448 -0.0486172 0.0305993 -0.0480838 0.00148786 0.0333101 0.00150291 -0.0235519 0.0206851 0.00897555 0.0950184 0.0166239 0.0456588 0.0350351 -0.00571726 -0.0150627 -0.0307305 0.0585144 -0.0418521 -0.119512 -0.034558 -0.0233251 -0.0901264 0.00225252 -0.0400088 -0.0898611 -1.15084 -1.05756 -1.18476 -0.0551326 0.498993 -0.3946 -0.898579 -0.0468646 -0.137864 0.45756 0.383965 -0.0680686 0.970947 -0.0972027 0.393565 0.373423 0.284279 -0.079229 -0.0690925 -0.892092 0.176805 0.119167 0.178245 -0.324906 -0.849941 -0.580001 -0.286238 -0.443289 -0.484351 -0.353206 -0.275656 0.735004 0.391959 0.111154 0.260104 0.567121 0.41347 0.128298 -0.0987814 0.0296356 0.175267 0.0201647 -0.505988 -0.0627518 0.136409 0.206236 0.728477 -0.456171 -0.795484 -0.0535042 -0.151767 -0.15397 -0.28449 -0.0326275 -0.0294496 0.262233 -0.045307 0.3236 0.00543419 0.0175025 0.533351 -0.159491 0.083079 -0.0875555 0.11223 0.0861905 -0.095296 -0.563403 -0.190141 0.00331466 0.128028 -0.561518 -0.326978 0.0173452 0.0780222 -0.113525 -0.359211 0.0891376 0.125735 0.138593 0.256914 0.40317 0.368484 0.433149 -0.055968 0.625038 0.810797 -0.0725707 0.142008 0.565916 0.388625 0.241018 -0.0574015 -0.287947 -0.224569 -0.102215 -0.00994493 0.108164 -0.366377 -0.608748 -0.532092 0.442385 0.323227 -0.501972 -0.916455 -0.218136 0.0922639 -0.20979 0.116005 -0.538783 0.0859955 0.215266 0.0327812 -0.00857434 -0.436235 0.333048 0.0781002 0.490548 0.636747 -0.00181069 -0.17365 0.56958 0.287229 0.240075 -0.00690227 0.0536564 0.0702307 -0.0176788 0.0472377 0.0364111 0.011046 0.0180594 0.000367479 -0.00981735 -0.0657388 0.0101839 0.0646483 0.0391811 -0.0370383 -0.0635311 -0.0290107 -0.0138998 -0.0221839 -0.0371293 0.100473 -0.111568 0.0113639 -0.011909 -0.0808094 -0.350073 -0.513239 -0.125694 -0.212194 0.781499 -0.156223 0.279238 0.274792 0.216658 0.0389537 -0.597744 -0.748562 -0.937197 0.332757 0.350696 0.287938 -0.905816 -0.593256 0.0955008 0.405319 -0.17762 0.512927 1.03654 0.131237 -0.0831076 -1.16898 -0.562571 -0.265931 -0.163499 0.0602977 -0.432654 -0.376476 -0.310704 0.048743 0.332821 0.294013 0.588494 -0.392 0.35999 0.794823 0.263441 0.870396 0.375725 -0.313347 0.633232 -0.0447617 0.250321 -0.223258 -0.300655 -0.112599 0.0257021 -0.0705532 -0.0122122 -0.0750136 -0.0279816 0.00645895 -0.0667605 0.0186896 0.0321251 -0.0343234 -0.0999208 -0.0465502 0.0244794 -0.0730884 0.0508003 0.0566888 0.0016376 0.0501086 -0.0649307 -0.0679137 0.0046906 0.011601 -0.0163507 -0.0321301 -0.0629831 -0.657731 -0.565236 0.444846 0.888691 0.38114 -0.590347 0.00433058 0.165689 0.139404 -0.140486 -0.178456 -0.175212 -0.224491 -0.16936 0.0990038 -0.594389 -0.614498 -0.173793 -0.395177 0.273972 -0.357374 -0.657807 0.0867277 -0.076609 0.620021 -0.78841 -0.181012 0.135396 0.117124 -0.0859729 -0.445834 -0.0380109 -0.378094 0.17976 -0.434285 0.144047 0.404969 0.247149 -0.12064 0.108769 0.139593 -0.0996563 -0.295247 -0.0849223 0.315484 -0.316321 -0.183116 -0.316394 -0.784114 1.41326 0.0233999 -0.0635184 0.0141745 -0.00956966 0.0239098 0.00831011 0.0166886 -0.0310783 0.0545806 -0.0329286 0.0354566 -0.0819964 0.0628568 -0.00168201 -0.00966723 -0.00938256 -0.053902 -0.0848261 -0.022734 0.00781965 -0.0797732 0.00795386 0.0568021 0.0158192 0.00534507 -0.121429 -0.920577 -0.0868715 -0.0846027 -1.18273 -0.522073 0.0791868 -0.259542 0.0205717 -0.646121 0.595677 0.865916 0.346442 0.456831 -0.199277 0.481979 -0.118612 0.488409 0.367389 -0.525765 0.326603 0.372296 0.373114 0.181723 0.438491 0.500038 -0.879235 -0.0953676 0.582256 -0.800909 0.161143 0.0899693 0.421719 0.880227 -0.172941 0.396684 -0.135309 -0.03434 0.115911 -0.548241 0.137314 -0.648362 -0.562633 -0.000504225 -0.600237 -1.04858 -0.637316 -0.658962 -0.633821 -0.20909 -0.325119 0.837455 -0.59198 -0.497579 -0.127923 -0.00928157 0.675791 -0.183717 0.262587 -0.0121492 -0.108643 -0.121839 -0.477132 -0.239127 -0.20971 0.196744 -0.660684 -0.256783 -0.192801 -0.234193 -0.0965167 -0.511806 -0.714545 -0.407598 -0.0162294 0.000670622 0.344322 -0.0347604 0.173052 -0.0447248 0.0843398 -0.181903 -0.02269 -0.112392 0.0176891 0.00630833 -0.0213963 -0.0452633 0.0371161 -0.0354542 -0.022345 -0.0431172 -0.0626213 0.00784968 -0.0154827 0.0273311 -0.0716575 -0.0125647 -0.0547739 -0.0145012 0.271867 0.0555717 -0.132032 0.968419 -0.377846 0.0798025 -0.224307 0.335759 0.38397 0.462226 -0.0975612 -0.753322 -0.168418 -0.318803 0.24338 -0.855613 -0.176776 -1.29774 -0.287065 0.160706 -0.220208 -0.590937 0.21982 0.228258 -0.416725 -0.172644 -0.232048 -0.17479 -0.0918556 -0.716803 -0.527248 0.0282481 -0.219618 -0.0309687 0.654227 -0.333794 -0.0335459 0.0814687 -0.0580677 0.3876 0.546134 0.151329 0.0861563 -0.0980629 0.739899 0.331325 0.151753 0.0251225 -0.0172209 -0.0622106 0.0404617 -0.331733 -0.433067 -0.2242 -0.30727 0.443714 -0.209295 -0.0818913 0.211475 -0.380006 -0.294156 0.405402 0.00339063 -0.0979666 -0.132067 0.44902 0.482315 -0.146255 0.0296919 0.0776015 -0.395851 -0.0657351 -0.568758 -0.183468 0.26333 -0.640865 -0.292854 -0.52489 -0.0588561 -0.0105504 -0.312807 0.400714 0.2029 0.0491353 0.68172 0.378744 -0.0989746 -0.645363 0.316233 -0.0752722 0.327635 0.0763438 -0.482614 -0.239328 0.0405391 0.237538 0.441396 1.43942 0.298019 -1.2689 0.0160718 0.115211 0.0388943 0.0379333 0.0193169 0.0533076 -0.0384152 0.0527403 -0.0845462 0.0668316 0.0673595 -0.00172668 -0.00857456 -0.00751826 -0.0548439 -0.0357256 0.0890206 -0.00883117 -0.0280007 0.0302295 -0.0835015 -0.0319805 0.00088582 -0.000345044 -0.0436914 0.182941 -0.290082 -0.530527 -0.287556 -0.201087 -0.275304 0.132594 0.0613347 -0.167213 -0.0483054 -0.0184188 0.357072 -0.0422722 0.380944 0.0105269 0.0670142 0.161713 -0.249973 -0.548549 0.0702852 0.254628 0.143036 0.340436 -0.305614 0.0104137 -0.795456 -0.226777 -0.272402 -0.353869 0.73819 -0.324791 -0.152813 -0.873711 -0.426821 0.185518 0.401185 0.319736 0.0550945 0.138333 0.0682025 0.53041 0.610071 0.0202618 -0.241032 -0.141467 0.220113 0.264389 -0.117675 -0.645535 -0.690722 -0.258565 0.479352 0.232418 0.834125 -0.755283 0.169998 0.119045 -0.173349 0.339079 -0.609601 -0.183121 0.362087 0.0482726 0.27707 -0.5374 -0.0986842 0.527751 0.740813 0.66266 -0.502842 -0.226226 -0.134026 -0.153074 0.686251 -0.464199 0.441141 -0.166817 0.199683 0.250024 0.0581594 0.139211 -0.930912 -0.574564 -0.362469 -0.872378 -0.666565 0.282349 -0.454183 0.292896 -0.49024 -0.105009 0.903814 0.701008 0.932308 -0.333965 -0.159041 -0.377587 -0.324909 0.333378 -0.174918 0.0907124 0.206111 0.45777 -0.000908789 0.0172728 0.078081 -0.456693 0.0461338 -0.134776 -0.144229 -0.0549385 -0.197938 -0.398158 -0.423348 -0.195833 -0.0737944 0.115901 -0.166741 -0.198359 -0.10956 -0.142041 -0.459555 -1.04264 -0.194183 -0.0661001 -0.049822 -0.0224282 -0.0295418 -0.0299916 0.0350335 0.0394678 0.128579 -0.0470821 -0.0794436 0.00602908 0.0365167 0.0564127 -0.0183179 -0.0233211 0.0397647 0.0109049 -0.0250691 -0.0223079 -0.0196383 0.0142461 -0.0115913 -0.00922433 -0.0149229 0.0493816 0.00229063 -0.715806 -0.127267 0.00133929 0.177421 -0.331206 -0.60362 -0.281017 -0.110609 0.329633 0.155259 0.422346 0.423656 0.750194 0.217062 -0.0176089 0.222653 -0.010577 0.477897 -0.245622 0.225624 -0.0949036 -0.55033 -0.156208 -0.176528 0.0513398 -0.500769 -0.434274 -0.445384 -0.315641 0.37133 -0.232804 0.0445637 0.945315 -0.0724798 -0.297681 0.0463017 -0.106643 -0.364935 0.233044 -0.33903 0.0591577 0.00239129 -0.306671 -0.222187 -0.00713668 0.00279352 -0.547388 -0.0539702 -0.510668 0.407646 -0.556724 0.63951 -0.30236 0.152495 -0.0961548 -0.725048 0.238801 0.011324 -0.430017 -0.535667 0.488623 0.0816487 -0.347348 0.49531 0.123468 -0.718754 0.543268 -0.169493 0.472263 -0.144831 0.258161 0.607346 0.553246 -0.149045 0.412934 -0.837399 -0.734616 -0.264732 0.267888 1.11322 -0.208679 -0.320238 -0.231145 0.17588 0.880574 -0.180044 -0.252406 -0.181614 -0.339683 -0.108181 0.11204 -0.42935 -0.371378 0.632331 0.356172 -0.32475 0.701074 0.289781 0.367913 0.072054 1.01493 -0.726032 0.00955263 0.666174 -0.663961 -0.11405 -0.346148 0.0697109 0.451021 -0.0724682 -0.243386 1.00183 0.0508674 -0.171952 0.216922 0.546872 -0.436621 -0.357988 -0.652598 0.0830277 -0.0601298 0.464026 -0.274676 -0.392972 -1.17463 0.128448 -0.240968 0.279966 0.649398 -0.301303 -0.0918283 -0.0560916 0.295623 0.725081 -0.593486 -0.0401677 0.206168 0.269072 0.360986 -0.539401 0.764607 0.0722873 0.220343 0.0978604 -0.761171 0.311461 0.295639 0.439314 0.985335 0.207607 -1.32544 -0.943477 -1.32731 0.194772 0.180124 -0.130645 -0.131156 0.43062 0.660563 0.13519 -0.725469 0.043461 1.11463 0.661245 0.246832 -0.515744 -0.0381908 0.0641355 -0.0745297 -0.268744 -0.123837 -0.0802492 -0.923075 -0.644067 0.303024 0.758026 0.116804 0.239677 -0.300414 0.109788 -0.0393564 0.302242 0.163013 -0.266122 0.0653199 0.599532 0.0362424 0.152381 0.180414 0.14651 -0.113676 0.329065 0.0959194 -0.0407545 -0.168516 -0.937427 -0.127478 -0.149251 -1.18318 -0.535878 0.0996082 0.0334187 -0.0214737 -0.0258501 0.0390387 0.0308492 -0.0135772 -0.0469521 0.0117964 0.153313 0.0359362 0.0665502 -0.0637133 0.00121208 0.117202 -0.0759759 0.0745996 0.014395 -0.0360737 0.261769 0.00632856 -0.049915 -0.0424906 -0.015428 0.239023 0.527284 -0.842479 0.182375 -0.155289 -0.200098 0.411866 -0.236934 -0.046452 -0.0803941 0.089899 0.514924 -0.0656879 -0.162786 -0.506581 -0.211135 -0.288319 -0.517626 -0.238333 -0.245446 -0.258731 -0.00183985 0.0705348 0.425802 0.0565653 0.537192 -0.227334 -0.0650494 -0.100021 0.489228 0.403348 -0.332418 -0.618482 -0.197821 0.302261 0.00193963 0.0864261 0.13595 0.122253 -0.443865 -0.21031 -0.267069 -0.161153 0.304202 0.385085 -0.381285 0.0258985 -0.540395 -0.392274 -0.776742 -0.0707883 -0.967083 -0.384355 -0.343393 0.325397 0.381436 -0.276769 -0.578404 -0.639263 -0.179152 0.288364 0.0220655 -0.224167 0.156194 -0.128122 0.28193 -0.635249 0.303041 0.659193 -0.139247 0.161875 -0.395993 -0.317673 0.299682 -0.544887 0.205602 -0.0613718 -0.0183647 -0.0177605 0.0189645 -0.00616417 0.0596113 -0.0724924 -0.0439341 0.00103883 0.0395932 -0.167668 0.0547548 0.0220583 -0.0122575 -0.0849471 0.0153418 0.0176135 -0.00490132 0.0423079 0.0800294 -0.103146 0.0136552 -0.0266455 0.00225108 0.00796572 -0.218239 0.512405 0.390619 0.559832 0.770851 -0.269931 0.0325016 -0.0692245 0.101075 0.463463 -0.193105 -0.0255705 -0.137804 -0.0216402 0.965993 -0.263837 -0.0990085 -0.126704 0.76767 0.579309 -0.461844 0.356125 0.257497 0.692424 0.578135 0.573092 0.0550872 -0.183036 -0.23786 -0.0638543 0.217206 0.0510403 0.00887512 -0.20314 -0.011917 0.461352 -0.116485 0.2639 0.125635 -0.280234 -0.0424109 0.413628 0.341894 0.229152 0.131213 0.387403 0.366463 0.204305 -0.38766 -0.211226 0.0996662 0.0546328 -0.100497 0.0152416 0.114739 0.0930402 0.25212 -0.0473666 0.0888047 0.337346 0.16235 -0.0527555 0.00616444 0.0336045 0.0301178 -0.0890013 -0.233802 -0.272147 -0.0322586 0.120946 0.0336567 0.0328592 -0.020565 -0.0429392 -0.0775319 -0.216426 0.00514225 -0.0372257 -0.217118 0.0586887 -0.138458 -0.037404 0.153853 0.184789 0.17176 -0.105262 -0.0123265 -0.0112695 0.329895 0.116525 -0.251918 0.0525537 0.290015 0.237368 0.0170538 -0.246124 0.0712549 -0.0600307 0.0199151 0.0498369 0.58123 0.477978 0.36597 -0.0555817 -0.0281446 0.129608 0.205893 0.586938 0.0996827 -0.229922 0.544937 0.0889916 1.15779 0.440318 -0.544583 -0.295784 -0.60909 0.256264 -0.73415 -0.941334 0.152725 0.466195 0.485172 0.518371 0.169971 0.0184973 0.000572173 0.0815814 -0.0357788 0.0264604 -0.0284055 -0.0174809 -0.0150524 -0.00411343 0.0784403 -0.0345057 0.0138705 -0.0132791 0.0659885 0.0135343 -0.0498041 0.0155814 0.0510498 -0.00257633 -0.0637323 -0.0335304 0.0738151 0.00485589 0.0349426 0.134185 0.800604 0.27955 0.497108 0.139108 -0.63253 0.531522 0.406883 0.356589 -0.000823997 -0.864773 0.356444 0.556744 0.561159 0.473185 -0.557536 0.151126 0.782297 0.644835 0.506239 -0.251093 -0.21792 -0.072608 -0.223142 -0.117697 -0.690436 1.0964 0.0458009 0.34753 0.488263 -0.200024 0.135301 0.554725 0.467568 0.0744029 -0.657172 -0.250465 -0.279896 -0.00926215 -0.261489 -0.585794 -0.284092 -0.592007 -0.555101 -0.0660294 -0.284172 0.0293167 -0.60298 -0.353036 0.345196 0.988932 0.0184674 0.044144 0.0309506 0.0159873 0.0199026 0.0182692 -0.141915 -0.0165463 0.000402047 0.0310849 -0.00470306 -0.00110292 0.0683284 0.00367979 0.0883748 -0.00950125 -0.0301093 -0.0497229 -0.0130271 0.0681464 -0.0680627 -0.00938811 -0.0619548 0.0582541 -0.0294596 0.703977 0.262024 -0.149818 -0.160812 0.338223 0.0536831 0.447692 0.0996095 -0.409314 -0.156954 -0.423142 0.651105 0.371969 0.0795737 -0.0389021 -0.667139 0.44814 0.0719962 0.118226 0.0315407 -0.119804 0.358841 0.053783 0.505383 0.127227 0.113971 0.0458987 0.070286 -0.0728316 -0.450997 0.240144 -0.0902903 0.250974 0.000424128 -0.547903 0.120123 -0.63131 -0.316133 0.0361392 -1.17568 -0.217425 -0.292767 -0.0505907 0.185996 -0.487315 0.9924 0.358172 0.782142 0.619609 -0.234079 -0.00914187 -0.0320091 -0.0517 0.0229764 0.00594405 -0.0284666 0.00345415 0.00422584 -0.0189877 0.0157113 -0.0305827 -0.0459349 0.0162443 0.00375442 0.0133295 0.0197323 -0.0188104 -0.0630367 -0.00633398 -0.0415768 0.0305818 0.0313386 -0.0347274 0.00503926 0.0242922 0.849876 -0.0194857 -0.871528 0.0501909 0.629285 0.00803301 -0.025544 -0.354777 0.359171 0.969018 -0.521244 0.244074 -0.0957803 -0.210385 0.431287 0.04063 0.165281 0.0883124 -0.59201 0.237378 -0.0765808 0.203163 0.00319597 -0.504925 0.269863 0.0532622 0.0603074 0.627252 -0.188054 0.628252 0.0458756 -0.156765 0.085007 0.0603558 0.527328 0.285192 -0.0379963 0.199084 -0.185803 0.774054 0.00626465 -0.300818 -0.0934591 0.0488506 1.18437 0.255132 0.744074 1.07492 0.129596 0.675265 0.552456 0.0719428 0.148121 -0.103705 0.198498 0.302278 -0.147167 0.312993 -0.23749 0.247979 0.610203 0.478521 0.41409 -0.173941 0.590678 0.514589 -0.407393 0.395867 -0.120686 0.313907 0.773806 -0.113843 0.101603 -0.156129 0.315365 0.010429 0.102872 0.119826 0.00323405 -0.0336963 -0.105196 -0.141473 -0.194135 -0.022508 0.00468857 0.039886 0.153908 0.0405678 0.0932628 0.0557717 0.0643633 0.174042 0.114143 0.0660283 -0.00377325 -0.0152125 0.0649648 0.189284 0.0135818 0.144522 0.0834708 -0.250123 0.334481 -0.345321 0.661318 0.574758 0.0480554 -0.480163 -0.757414 0.20033 0.220756 0.0577912 0.247893 -0.252639 0.729944 0.440985 -0.293311 0.102589 0.159402 0.773303 0.477575 -0.438838 0.0976307 0.15593 0.15603 0.0834819 0.201188 0.111109 0.000790456 0.0772512 -0.0454212 0.126978 0.0931993 -0.0112317 -0.0586343 -0.174223 0.119959 0.0688318 -0.00801802 0.0621582 0.0757805 0.187896 0.0125414 0.045623 0.247328 0.0288297 -0.00171585 0.096318 0.052653 0.668249 -1.17669 0.460962 0.337374 -0.0400414 0.323745 -0.959882 0.657987 0.412686 -0.0818892 0.404279 -0.740074 0.263064 0.285651 0.0472215 0.48779 -0.740929 0.226413 0.122287 0.220462 0.517603 -0.269022 0.0779989 0.708446 0.28697 0.155139 0.749881 -0.405305 -0.170368 0.591813 -0.453159 0.304012 -0.00889318 -0.466357 -0.351434 -0.0730241 0.720917 -0.365128 0.000330141 -0.0946444 -0.115601 0.432109 -0.458691 -0.252993 0.146108 0.436453 0.661657 -0.754994 -0.779286 0.316876 -0.112683 -0.0209902 0.0142074 0.0198948 0.023865 0.0743192 0.0559023 0.142349 0.124182 0.0213571 0.000740554 0.0304475 -0.0208553 0.0023033 0.0083343 0.0105567 0.0585636 -0.00368601 0.0630965 0.145704 0.0488565 -0.0186336 0.0967134 0.00281599 -0.0203624 0.020885 0.0992605 0.129132 -0.133036 0.0287313 0.270432 -0.0248772 0.0850114 -0.0151723 -0.0245108 0.236745 -0.103386 -0.334053 -0.0427462 -0.293486 0.0704821 -0.138143 0.0589093 0.0685178 -0.0173554 0.387415 0.139724 -0.0437676 -0.0343699 0.0117294 0.208989 -0.176455 -1.0138 -0.449576 0.107085 0.0155099 -0.0904326 -0.453546 -1.04369 0.0199912 0.0175144 -0.062369 -0.345772 0.161851 -0.303035 -0.0497358 0.0667144 0.229183 -0.15753 -0.100133 -0.142583 0.574781 0.630355 -0.230608 -0.192112 1.07599 0.423483 0.180214 0.555376 0.19947 -0.762959 0.50719 0.176892 0.162511 0.0396015 -0.414316 0.14185 0.399562 -0.00218238 0.54969 -0.281235 0.750095 0.306476 0.329759 0.0941889 0.0447177 0.0165265 -0.116322 -0.0436879 -0.226976 -0.217841 -0.816393 0.364644 -0.138341 -0.435535 1.15517 -0.132222 0.0484135 0.6449 0.110312 1.31754 0.206857 0.705302 0.472301 0.235401 0.660183 -0.0139005 0.036868 -0.085191 -0.0256953 0.490228 -0.328454 -0.28217 -0.374761 -0.207447 0.89106 0.142483 0.0611974 0.278689 0.0266645 0.51946 0.116649 0.140981 0.215063 0.132158 0.841713 0.0139249 0.104576 -0.00679628 0.101084 0.75878 0.274013 0.137758 0.0470455 0.206011 0.914261 0.39171 0.379052 0.488937 0.944723 0.284023 0.074556 0.0345029 -0.0101646 0.00053335 0.00477898 -0.020057 -0.0623522 0.0195855 -0.0143415 -0.0188141 0.0161818 0.0298058 -0.000937423 -0.0750695 -0.0593305 -0.0125073 -0.110601 -0.0540503 0.0165213 0.026752 0.0299457 -0.0720689 -0.0584362 0.0293844 0.00863839 0.0444352 0.369222 0.037861 -0.124804 0.123348 0.202553 0.353504 0.399089 0.0165544 0.0650116 -0.0029686 0.193063 0.139635 -0.265365 0.311623 0.178111 0.3737 -0.170843 -0.362688 0.2424 0.185056 0.290312 -0.00160002 0.229035 0.133943 0.474367 -0.631116 0.309826 0.562154 -0.247461 0.344681 -0.30146 -0.663927 0.438892 -0.0691459 0.223224 0.183041 -0.101753 -0.0201364 -0.789781 0.591673 0.314132 0.179972 0.264683 -0.713843 0.715268 -0.498416 0.0534943 0.453552 0.118098 1.05317 -0.580864 -0.49385 -0.792416 -0.0893024 0.345043 -0.415913 0.165777 -0.184471 -0.202153 0.418124 -0.566468 -0.21703 -0.365948 -0.284245 0.589539 -0.783776 -0.127287 -0.285056 -0.507902 1.16804 -0.371307 0.168771 0.00402313 -0.213634 -0.911218 0.333646 0.225382 0.715468 0.436685 -0.0854806 0.613305 0.0368174 0.216907 -0.14633 -0.11857 0.422552 0.0327882 -0.381086 0.473018 -0.587083 -0.330843 -0.122121 -0.436412 -0.152482 -0.680952 0.331098 0.342732 -0.178887 0.47612 -1.01207 -0.229571 -0.868356 -0.494722 -0.0124454 -0.513148 -0.382602 -0.145179 -0.234539 -0.108777 0.0426965 0.0533063 -0.0308762 -0.0314593 -0.0490342 0.601502 -0.161659 0.41111 0.963451 0.408626 0.503299 0.214132 0.246863 0.616503 -0.288268 -0.307355 0.496374 0.353608 0.59848 0.365193 -0.882861 0.372933 0.264023 0.295134 0.0589222 -1.01293 0.384677 0.322752 0.108928 -0.0155624 -0.376889 0.170203 0.0830267 -0.195865 -0.289858 -0.350523 0.407492 0.268847 -0.251353 -0.200517 -0.233482 -0.0756744 -0.697547 -0.52367 0.910427 0.325368 0.521708 -0.341257 0.221634 0.685762 0.3692 0.740997 0.376515 -0.0714898 -0.174344 0.764333 0.724179 0.588468 -0.131614 0.285952 -0.504904 0.31794 -0.325641 -0.0931573 0.874058 -0.0649879 0.111463 -0.251479 -0.0190105 0.19717 -0.415029 0.70838 0.00509113 0.0247275 0.350286 -0.388967 0.222084 0.0865031 -0.12831 -0.0895438 -0.252048 -0.0401327 -0.201423 -0.321983 -0.179639 -0.174575 0.246735 0.124939 -0.12288 0.12616 0.0490434 0.00682015 -0.0518287 0.0255641 0.129975 0.0357428 0.0336216 -0.0433347 -0.0255835 0.0285604 0.0484892 -0.0650243 0.00960153 -0.0251983 0.0286436 0.0165083 0.0215785 -0.00956661 -0.0305305 -0.0394181 0.01469 -0.0128155 -0.0727398 0.0966793 0.0475192 -1.27046 1.07549 0.135573 0.399781 -0.0599285 -0.894152 0.468738 0.222486 0.542141 0.208019 -0.686179 0.242685 -0.00422569 0.416669 -0.27853 -0.445403 0.205939 0.00449125 0.362562 0.227488 -0.388675 0.239742 0.146412 0.614829 0.1384 0.0387031 0.428345 0.204984 0.00379727 0.43792 -0.190672 0.892864 0.50864 -0.029148 0.397581 0.0192922 -0.104376 0.380993 0.491315 0.251764 -0.581921 -0.470283 -0.32405 -0.214647 0.5694 0.0462134 0.405548 0.0969573 0.434594 0.552357 0.305163 -0.447906 -0.00307583 -0.171473 0.0792883 0.116834 0.0565516 -0.148261 0.00305059 0.104944 0.442948 0.190316 -0.193151 -0.140021 0.0989087 0.456116 -0.444459 -0.455885 -0.332249 0.198039 0.268082 -0.527479 -0.168493 -0.214475 0.449024 0.0225136 -0.0333729 0.0497941 0.0201377 -0.0355461 0.0265296 -0.00134685 -0.0691728 0.0266517 0.00232264 -0.0368022 0.000804104 0.0108939 -0.00859143 0.0190544 0.0261669 -0.0382875 -0.0206576 0.0261203 -0.0228794 -0.0198627 0.0244963 0.0282949 0.0228492 -0.0660458 0.683475 -0.325298 0.40288 -0.00205229 0.261435 0.385904 -0.339819 0.483673 -0.0157188 -0.0956745 -0.082661 -0.510918 -0.90224 -0.307196 -0.249398 0.34237 -0.160552 -1.13715 -0.526957 -0.0507157 0.26729 -0.032574 -0.192697 -0.538431 -0.0368512 0.239881 0.344406 -0.603982 -0.502956 -0.371023 0.111621 0.139764 -0.706412 -0.361425 0.516411 0.190476 -0.159113 -0.297258 -0.799926 0.689413 0.927085 0.301009 -1.17786 0.239582 0.412167 -1.226 -0.495768 -0.566059 0.795914 0.334321 -0.0641532 0.23016 -0.181866 0.228522 0.0334475 0.0292094 0.284013 -0.250931 -0.366774 0.338125 -0.211793 -0.145569 -0.357633 0.0368523 -0.103441 -0.0857881 0.152955 -0.0732991 0.0921922 0.269222 0.113245 -0.0721312 -0.359637 -0.29133 0.000763144 0.166932 -0.259329 0.0961444 0.327661 0.180362 -0.333869 -0.438274 -0.182775 -0.185911 0.407903 0.0673555 0.228333 -0.198582 0.141525 0.0161751 0.0700607 -0.0483167 -0.11746 0.293241 -0.062332 -0.68181 -0.475656 -0.0784995 -0.263167 0.578716 0.571472 0.282518 -0.16501 0.0374095 -0.575113 -0.12134 -0.296451 -0.0516562 -0.451677 -0.644858 -0.467734 0.377631 -0.556562 -0.0170795 0.18374 0.378005 -0.298953 0.436332 1.30131 0.0798855 -0.00812167 0.17227 0.923836 -0.388979 -0.668694 -0.0162049 0.00801594 0.00887762 -0.0712891 -0.0233085 0.00805703 -0.0316445 -0.0276381 0.048059 -0.00318219 0.0333552 0.019245 -0.130856 -0.0623925 -0.0316992 0.0338237 0.0255273 -0.0132684 0.00902063 0.012465 -0.0688186 -0.0453394 0.00449321 0.0129885 -0.0162583 0.0687278 0.339372 0.275134 -0.400481 -0.422844 0.540901 0.12553 0.783313 0.529869 -0.0904818 -0.709336 0.435963 0.013031 0.277996 -0.0324408 -0.669025 0.655557 0.501656 0.180778 -0.479778 -0.127397 -0.481397 -0.873783 -0.249039 -0.189343 -0.286616 -0.733545 -0.879498 -0.519238 8.90342e-05 -0.157848 0.356887 0.230937 -0.210595 -0.590529 0.304741 0.304373 0.280817 0.482333 0.196901 0.213405 -0.00498608 -0.0893011 0.889255 0.0269812 -0.433301 0.703656 0.554726 0.21236 -0.341503 -0.0237715 -0.0344484 -0.000143473 0.016152 -0.0314175 -0.0504016 0.0490713 0.0272153 -0.00690241 0.0194335 0.102782 -0.00733911 -0.0162983 0.0595082 0.0497077 0.0123248 0.0102641 -0.0150984 -0.0569353 -0.0500715 0.0506986 0.0172411 0.0361255 -0.0538947 -0.0431983 0.559655 -0.296576 1.07659 -0.693104 1.22141 -0.430548 -0.491428 -0.0501815 0.0392434 0.398542 -1.08515 0.558254 0.0833507 -0.640456 0.423226 -0.70156 -0.0372606 0.472382 -1.00298 -0.664058 -0.416166 0.488766 0.0303698 -0.366305 0.165482 0.525713 -0.127524 -0.20896 -0.411262 -0.175318 0.155198 0.0910952 0.350195 -0.75704 0.166484 -0.171346 -0.364184 1.11419 0.38902 1.0028 -0.595821 -0.291074 -0.121114 0.200161 0.272569 -0.55015 -0.415543 -0.154097 -0.0550505 0.144344 0.0165688 0.058317 0.00252283 -0.0560527 0.0221946 -0.0428524 0.0574147 -0.029848 0.00154574 -0.0279974 -0.0590171 0.0169563 -0.0119198 0.00477436 -0.0335947 -0.0566833 0.00346843 -0.0224192 -0.0580977 -0.0343741 -0.0885144 -0.0398205 -0.00769491 -0.00679097 -0.0580128 -0.149267 0.980443 0.211413 -0.260323 1.26883 -0.574244 0.0884366 0.0844263 -0.744044 -0.187379 0.152694 0.759533 0.212629 0.182922 0.198981 0.363832 0.272404 0.230818 -0.154736 0.524301 -0.672652 -0.291715 -0.66249 -0.797886 -0.393997 -0.460306 -0.345415 -0.387839 0.0168284 -0.461427 -0.131855 0.329372 0.409358 -0.220623 -0.471752 0.394297 -0.0901008 0.292535 0.411795 -0.48365 0.759657 1.08658 0.82087 -0.377305 -0.108284 -0.00700129 0.0571969 -1.3695 -0.96283 -0.126592 -0.562611 0.503512 0.558611 0.954266 -0.484565 -0.289685 -0.538846 -0.368287 0.749837 -0.2241 -0.190537 -0.782172 -0.193784 -0.232913 -0.582827 1.09205 0.18616 -0.262611 0.383215 -0.001412 0.729508 -0.254765 -0.69893 0.0018659 -0.106932 0.0814307 -0.0174239 0.250261 -0.155191 -0.013529 0.0166464 -0.0458571 0.402374 0.0869113 0.0143374 0.0528657 -0.0550022 0.0693115 -0.109713 -0.05586 0.0651762 -0.147237 0.00672305 -0.0384381 -0.0365938 0.0714566 0.0202853 0.0161764 -0.0465505 -0.0547352 0.000999207 -0.627152 -0.648358 0.524913 0.0753477 0.313454 -0.152711 0.0687843 0.337159 0.400259 -0.171961 -0.927372 0.000346165 0.203087 0.596101 0.1016 0.258285 0.0221646 0.387187 0.321023 -0.109072 -0.0570577 -0.316847 0.286689 -0.794256 -0.139005 -0.0680512 0.116924 -0.0453836 0.524099 0.141936 -0.202495 -0.0800839 0.0744546 0.0738774 -0.627302 0.0540167 -0.0958367 -0.00134674 -0.603364 -0.0723844 -0.287355 -0.0409904 -0.057317 -0.00654158 -0.176035 -0.300339 -0.14243 -0.0322879 0.318292 0.667895 0.484424 1.02277 0.265836 0.0903495 0.326886 0.243959 -0.436146 -0.00124097 0.0505899 0.436578 -0.545954 -0.995647 0.163627 0.0927378 0.347644 -0.999972 -0.284302 -0.354878 -0.361483 -0.616762 -0.128792 -0.169276 -0.236324 -0.380687 -0.00589432 0.322246 0.229369 0.0677391 0.20219 0.218773 -0.0543534 0.938527 0.121971 0.216738 -0.00152385 -0.0555772 0.626068 0.0867279 0.719444 -0.365091 -0.127358 -0.280306 -0.306023 0.499741 -0.396602 -1.44178 -0.971442 -0.16935 -0.391469 0.00901748 0.0100889 -0.0607719 0.0167736 -0.0207344 -0.00271882 -0.00700624 -0.0121206 0.00444213 -0.0347832 0.0780731 -0.0411387 -0.0437755 -0.0154926 -0.00480946 0.0446546 -0.0626519 -0.033571 -0.040398 0.0388847 0.129236 0.0229845 0.0447208 -0.0313974 0.0298647 -0.115642 -0.0625288 0.0828909 0.314395 0.0183507 0.249921 -0.151146 -0.337984 0.475109 0.0247188 0.0614176 -0.34002 0.0468918 -0.159296 -0.161441 -0.405104 -0.171773 -0.148347 0.535854 -0.419221 0.240803 -0.451545 0.523352 -0.130827 0.0237073 -0.492979 0.87724 0.615074 0.132297 0.317086 -0.522076 0.291238 0.0761134 0.44889 -0.0697668 -0.546316 -0.397597 -0.497886 -0.383407 0.295046 -0.0643922 -0.60597 -0.296708 0.641402 -0.179919 -0.37374 -0.399879 -0.223443 -0.19152 -0.244043 0.211733 -0.565541 -0.249133 -0.0813645 0.786508 0.144211 -0.128205 -0.118372 -0.457215 0.442707 -0.06372 -0.0790294 -0.182156 -0.545102 0.66477 -0.711278 -0.475715 0.0699918 -0.393247 0.469356 -0.193702 -0.246737 0.233175 -0.578511 0.788645 -0.0697491 -0.351465 0.177287 -1.05258 -0.288094 -0.504831 0.208313 0.696634 0.0607971 -0.183637 0.930442 -0.157226 0.134781 0.229938 0.286464 0.963618 -0.578031 0.528111 -0.425137 -0.115544 0.667334 -0.669016 -0.160669 -1.05054 -0.87193 0.0460223 0.106468 0.25733 -0.340307 0.00277152 0.205689 -0.0644541 -0.0812495 -0.120013 -0.000971431 -0.00694543 0.0743766 0.139964 -0.187229 -0.107542 -0.00277699 -0.372291 -0.518257 -0.366434 0.0141594 0.195924 0.304763 -0.283127 -0.16549 -0.112211 -0.0177504 0.0212122 -0.0429185 -0.0152451 0.042379 0.0357266 -0.0322386 0.0208769 -0.0350427 -0.0378359 0.0225215 -0.0788403 0.00178563 -0.0191372 -0.0365962 -0.00469802 0.049837 0.029915 0.0569637 -0.0307122 0.0369451 0.00899098 0.0546371 -0.0201886 0.0381955 -0.371801 0.136154 -0.314952 0.311822 -0.123019 0.319549 0.158302 -0.210161 -0.0477289 0.0244315 0.124042 -0.0352773 -0.124624 0.125287 0.0424233 -0.167192 0.0342256 0.0965927 0.228266 -0.349476 -0.107417 0.302229 -0.402511 0.119501 0.186129 0.214088 -0.630916 -1.39362 -0.243548 0.168924 -0.328342 0.215156 -0.538282 0.0500016 1.32311 -0.168259 -0.102902 0.238256 0.401011 0.142751 0.30514 -0.246753 -0.581314 -0.0289842 0.0352825 -0.245565 0.473283 0.146701 0.310215 -0.137172 0.247563 0.219913 -0.668538 -0.253648 0.419693 0.0311201 0.427047 -0.398932 0.245439 -0.161238 0.348386 0.544455 0.361018 1.05902 -0.412668 0.256368 0.180706 0.178648 1.17826 -0.0481905 -0.728487 -1.08767 -0.588307 -0.0415157 -0.488466 0.687782 0.518693 -0.296221 -0.527961 -0.967112 0.642139 0.788064 -0.0078929 -0.0532837 -1.59681 0.334719 -0.429444 -0.101571 0.799635 -0.685162 0.0603815 0.894481 0.238017 0.386966 -0.439261 -0.403743 -0.168103 -0.467524 0.385779 -1.00089 0.336631 0.13797 -0.270004 -0.796474 0.567468 0.184269 0.204109 -0.70211 -0.231922 -0.663168 -0.113855 -0.0262322 -0.0468661 0.0608756 0.347393 0.736493 0.320864 0.0104762 -0.276724 0.170566 0.454205 -0.952296 0.226329 -0.441334 -0.443113 0.192458 -0.0743294 -0.466825 -0.353077 0.824086 -0.144304 -0.240059 0.0780759 -0.644963 0.891426 0.335103 -0.293751 0.0058319 -0.413589 0.702641 0.514749 0.342075 -0.0359996 -0.232637 0.38783 0.55306 -0.190645 -0.309373 -1.03256 0.383812 -0.284115 0.249475 0.798971 -0.240356 -1.21395 -0.0837406 0.330452 0.448235 -0.386101 -1.01805 0.784191 0.411449 -0.364776 -0.0799153 -0.287753 -0.577438 -0.0970394 -0.837711 0.5372 -0.227099 -0.00321286 0.732694 0.581948 -0.360829 -0.764861 0.100831 0.388134 -0.0290696 0.433981 -0.0887992 0.204412 0.140938 0.0476068 -0.276039 -0.0936254 0.168406 0.0545911 -0.0670326 -0.222043 0.0535496 -0.184192 -0.2967 -0.237227 0.0477743 0.259658 -0.259869 -0.608047 -0.034353 -0.676792 0.103707 -0.00218706 0.0185598 -0.0743335 -0.00526894 0.278182 -0.0654982 0.0680733 -0.0362413 0.0540727 -0.119811 0.000705826 -0.0652472 0.00311445 0.0105138 -0.19813 0.0608234 -0.0347981 -0.00634242 -0.056269 -0.109327 -0.0125779 -0.0414079 -0.00899734 0.00976912 0.164427 0.402474 -0.3228 -0.176067 -0.066661 0.215049 0.445959 0.336678 -0.00453228 -0.0158527 0.0386749 0.19606 -0.673931 0.0622149 0.237402 0.610825 0.168896 -0.194601 -0.193265 -0.0684997 0.78843 -0.731959 -0.459082 -0.347395 -0.18577 -0.177094 -0.843525 -0.623507 -0.601995 0.226683 0.049373 0.240104 -0.139721 0.357766 -0.00812036 -0.154662 0.307188 0.306102 0.272246 0.748091 0.594439 0.336689 -0.21226 0.316435 -0.753979 -0.0791648 -0.408594 0.826949 0.355184 -1.08052 -0.313013 0.139996 0.191393 0.157681 -0.786115 0.0514962 0.121581 0.422268 0.362591 -0.296501 0.075537 0.0199214 0.427022 -0.144164 0.367513 0.134189 0.0702092 -0.595829 -0.0571041 0.444416 0.796882 -0.943421 0.000545016 -1.08216 0.312503 0.484803 -0.000214822 0.0675645 0.0403568 0.021738 0.0287995 0.0609588 -0.0815193 0.000722673 -0.0159659 0.0246492 0.0195989 0.0170013 -0.0429481 0.0181599 0.0359074 0.0338977 -0.0223351 -0.0181444 0.0280132 -0.0145081 -0.102534 0.0114939 -0.0415775 -0.0219194 0.00452756 0.386096 0.727019 -0.550675 -0.0791728 -0.542204 0.0223744 0.697188 0.0210044 -0.660419 0.200376 -0.246932 -0.203064 -0.0841751 -0.658731 -0.439979 0.224048 0.0669924 0.0548254 -0.553065 -0.219821 0.646982 -1.06487 0.0599333 -0.0356372 -0.283302 0.645581 -0.325738 0.792124 0.809082 1.15412 0.339988 -0.212804 -0.695984 -0.74129 -0.100865 -0.17154 -0.835333 -0.00395766 -0.386856 -0.083064 -0.50287 -0.660141 0.0474395 -0.202449 0.0376314 0.0557329 0.118456 -0.335089 -0.206563 1.23761 -0.0552516 -0.0730361 0.0553572 -0.0467769 0.182903 -0.00448949 -0.261425 0.114545 -0.113339 -0.548681 -0.0452356 -0.0836226 0.0901889 -0.2147 -0.0915986 0.0124544 0.393001 0.260504 0.0664915 0.129711 -0.205865 -0.412864 0.0281777 0.1933 0.382695 0.497568 0.341137 0.336397 0.163725 -0.167998 0.431851 0.0730024 -0.429875 0.0794473 -0.298087 -0.42164 -0.682328 -0.726857 0.223498 -0.477881 -0.116768 -0.338349 -0.458547 0.166909 -0.149855 0.426951 -0.0563362 0.0902468 -0.0378029 -0.563516 -0.132456 0.375502 -0.145808 0.228428 0.411168 0.178314 0.0977129 -0.179275 0.169516 0.30878 0.00969986 -0.159866 -0.22533 0.530529 0.0952346 -0.135534 0.652933 0.364227 0.28202 0.520307 -1.40637 -0.949432 -0.419181 -0.822809 -0.434398 0.0606773 0.021289 -0.0412352 0.0148315 0.0399238 -0.015894 -0.0511447 -0.0515285 0.0798751 0.04476 0.0136851 0.0320612 0.00327612 -0.0356854 -0.0356127 0.00786946 -0.0451313 0.0125628 0.0144754 0.0853849 -0.020026 -0.0515377 -0.0931836 -0.0755734 0.0895976 -0.0534155 0.580357 -0.176482 -0.346489 0.194589 -0.0346934 0.282992 -0.96266 0.121155 0.793607 0.355273 0.0791452 -0.638755 -0.17512 -0.115281 0.0827139 -0.141306 -0.091462 -0.662259 -0.311983 0.141286 0.261284 -0.0364735 0.837111 -0.0176199 0.112137 0.155938 0.218109 0.262495 -0.501329 -0.279912 -0.384158 -0.595891 -0.505038 0.221922 -0.530373 -0.144787 -0.25286 -0.371887 0.366157 -0.139135 -0.655928 -0.186816 -0.445775 0.601056 0.514131 -0.102305 -0.177668 0.233276 0.35646 0.0319428 0.0230991 -0.0144982 0.0176243 -0.111017 -0.0104508 -0.0432805 -0.0296817 0.0921116 -0.0962589 0.0597223 0.0117021 -0.0268096 0.021399 0.0772151 0.0221837 -0.0189292 0.0787973 0.0312122 0.0125717 0.0400067 0.0663286 0.0362719 -0.0567484 0.0908988 0.349509 -0.269468 -0.148935 -0.417624 -1.37072 0.0176162 -0.174881 0.102353 -0.284755 0.370396 0.740978 -0.31654 -0.41456 -0.3925 0.0287915 0.595037 0.302063 -0.482834 -0.48737 0.250657 0.91725 0.304606 -0.0555798 -0.692738 0.161272 0.289093 -0.525153 -0.0441841 -0.419264 -0.284346 0.37897 -0.472117 0.475776 -0.465138 -0.176647 0.169632 0.13938 -0.23439 0.189277 -0.25955 1.09434 0.418125 0.229879 0.139436 -0.669934 0.446269 0.0310836 -0.0695203 -0.246377 -0.736827 0.00586445 -0.0462591 -0.0288383 -0.0170951 -0.0336454 0.00101288 -0.0717195 0.0572143 0.0550186 -0.0254161 0.00452345 0.0165282 -0.0333662 -0.0413554 -0.034763 -0.0621907 0.0382104 0.0185343 0.0330764 0.00543903 -0.0941852 -0.0393324 -0.0282492 0.073691 0.0123966 0.316391 0.374779 0.789386 0.663867 0.0735677 0.168906 -0.0798332 0.106357 -0.536239 -0.790247 0.474092 -1.29763 -0.324384 0.396702 -0.300219 -0.000892351 0.049875 0.12231 0.626752 0.239364 0.461115 0.0594946 -0.35157 0.541299 -0.329053 -0.420691 1.04752 -0.820279 -0.952135 -0.474 0.135073 0.695076 -0.663633 -0.648514 -0.00551956 -0.394165 1.04888 0.87784 0.0801869 -0.12412 -0.277083 0.148245 0.464107 0.352596 -0.188735 0.100498 0.0628315 0.335883 -0.315892 -0.373759 0.0569325 -0.246941 0.0684168 -0.472294 0.527203 0.316285 -0.379423 0.279284 -0.0192236 0.856348 0.265077 0.431436 -0.0313467 -0.413534 0.472009 -0.608593 0.456838 -0.0112314 -0.273008 0.250933 -1.09094 1.08316 1.34132 0.19089 0.0690279 -0.0970358 -0.116818 -0.0845312 -0.0154796 -0.00840609 0.032071 -0.002765 0.0846851 0.130767 -0.0349333 -0.00626155 0.0599134 -0.00594992 -0.0894205 -0.0401057 -0.0823168 -0.0423098 0.0099436 0.0246466 -0.0660538 0.0555191 -0.0544402 -0.0181306 -0.0551111 -0.00932503 -0.288816 -0.174639 -0.220906 0.208189 -0.362827 0.408746 0.411743 -0.544955 0.0135855 -0.149984 1.00774 1.30627 0.064476 0.334735 -0.633493 -0.0258595 -0.18627 -0.057041 -0.302881 -0.627852 -0.0114689 0.259826 -0.178026 -0.955508 -0.166037 0.449268 0.0120704 -0.115164 -0.0458396 0.0185302 0.23817 0.0904595 0.084513 -0.137338 -0.384351 -0.128193 0.189963 -0.0845272 -0.289725 -0.736586 -0.849331 -0.0521367 -0.0766375 0.0155871 -0.583833 -0.279831 -0.0785697 -0.059008 0.022144 0.299823 0.565439 0.128844 0.0380607 -0.0280715 0.270574 -0.522192 -0.327643 -0.0301133 -0.0645648 -0.116827 0.343157 -0.488255 0.267005 -0.134954 0.0151022 -0.245962 -0.0962543 -0.333421 -0.402274 -0.241277 0.229662 -0.0822149 0.188973 0.204357 0.0166283 0.485674 0.472612 0.448877 -0.644031 -0.348178 0.325817 -0.04683 -0.531646 -0.200707 0.388018 -0.418687 0.280477 -0.482728 -0.474086 -0.235233 0.816739 0.273264 -0.559028 -0.111692 0.325445 -0.148908 0.991977 -0.502563 -0.784295 1.011 0.0355492 -0.0414149 0.0410946 -0.0422982 0.0662042 -0.0687542 -0.0590188 -0.0819555 -0.0426044 0.0312605 -0.0201926 -0.10605 0.00403415 -0.0786661 0.0173498 -0.0715897 -0.0145329 -0.00306434 0.00769926 0.0443007 -0.0387807 0.00161848 -0.0778423 -0.0485534 0.0276458 -0.119312 -0.0968681 0.334954 -0.0335073 -0.0920309 -0.0436165 -0.000765572 0.3069 0.416651 -0.0996275 -0.039215 0.215354 0.0963542 0.489802 0.105212 0.456279 0.0878749 0.0299237 -0.249245 -0.321318 -0.0754656 0.079604 -0.0495421 -0.170336 -0.322009 0.611424 0.522215 -0.0124811 -0.853039 0.0233275 0.17299 -0.465421 -0.223924 -0.415292 0.492564 -0.00634596 -0.134952 -0.825587 -0.720933 0.729563 0.223374 0.274622 0.458048 0.0361391 -0.0379488 -0.134195 -0.614771 -0.0817843 0.665562 0.346231 0.0120315 0.713449 -0.392692 -0.569298 -0.111819 -0.148007 1.48164 -0.0482129 0.621746 0.427246 0.575404 -0.152425 -0.310078 0.476901 -0.136514 0.48752 0.0361729 -0.163596 0.353664 -1.42253 0.550891 -0.260438 0.0514913 0.22463 -1.0251 -0.229652 -0.402373 -0.337997 0.259598 -0.289029 0.375299 -0.0937665 -0.236213 -0.0947775 0.182312 -0.180679 -0.891223 -0.402105 -0.215761 -0.179953 -0.093374 0.0323931 -0.383238 -0.318334 0.191327 0.395263 0.75443 0.881857 -0.279061 -0.0603451 -0.0797965 -0.354236 -0.307095 0.277588 -0.510665 -0.0675365 -0.0121268 0.339312 -0.219595 -0.414251 0.244998 -0.0838307 0.306948 -0.133984 -0.401062 -0.132702 0.677273 0.642815 0.149881 -0.541169 -0.115601 0.158416 0.728209 -0.25959 0.042853 -0.0739761 0.0113406 -0.00147407 0.0169512 0.0983177 -0.0841347 0.0365538 0.0180352 0.0342435 0.008989 -0.0234274 0.117465 0.0448508 0.0361876 -0.0546728 -0.0614584 -0.0344141 -0.0351466 -0.00370126 -0.0380577 0.0289313 -0.0381073 0.08362 -0.0356858 -0.0912993 0.572716 0.514899 0.273411 -0.236772 -0.185872 0.510948 0.35215 -0.293673 -0.0153627 -0.0367851 -0.257155 -0.289201 -0.404192 0.107542 -0.612791 -0.144066 -0.473857 -0.382179 -0.0643125 -0.363802 0.172273 0.619674 -0.169224 0.356176 -0.145296 0.846914 0.146098 0.805309 -0.422647 0.982553 0.372872 -0.263183 -1.1235 -1.12857 -0.654654 0.269944 -0.305917 -0.0368901 0.150796 0.510337 -1.22907 0.0328809 0.220213 0.115807 0.098586 -0.935176 0.60353 0.296452 -0.17567 -0.0398337 -0.546758 -0.161709 0.826901 0.258203 0.796859 0.281198 -0.588259 -0.879051 -0.265873 -0.13795 -0.2735 -0.212489 0.123086 -0.898238 -0.310993 0.444658 -0.13436 0.0921571 -0.304672 -0.358703 0.771212 0.612814 0.305381 0.222196 -1.04281 0.558489 -0.0820992 0.230441 0.0276711 0.13345 -0.445856 -0.383438 -0.260713 0.0830654 0.387754 -0.158756 0.120477 -0.107773 0.223234 -0.18402 -0.0217268 0.442438 0.416963 -0.320068 -0.315522 0.337282 -0.502274 0.130267 0.362942 -0.241008 0.177683 0.145121 0.241931 0.534845 0.159336 -0.0072333 0.169986 0.727722 0.396472 0.159214 -0.368752 -0.307082 -0.090122 0.222124 -0.735239 -1.17916 1.26825 -0.235232 -0.111237 -0.111578 -0.836519 1.35313 -0.414136 -0.339259 1.62443 0.621883 0.519276 0.516308 0.843128 -0.215335 0.0248122 -0.302109 -0.135135 0.0527005 -0.213342 0.453352 0.187916 -0.090671 0.0211386 -0.779912 -0.308595 -0.460562 -0.409384 -0.0815305 -0.413769 -0.122366 -0.443033 0.17657 0.482032 -0.369299 0.570275 0.075698 0.172478 -0.419782 -0.253856 0.245669 -0.856484 0.0512261 -0.31351 -0.412627 -0.2802 -0.178646 -0.823641 -0.334569 0.574299 -0.33693 -0.0724763 0.655687 -0.040624 -0.0837598 0.294436 -0.0496028 -0.101829 0.657595 -0.0887536 -0.147562 -0.166536 0.333806 0.331434 0.105634 -0.276723 -0.384975 -0.101435 0.104853 -0.155227 -0.481486 -0.467613 -0.243674 0.168153 -0.0546646 0.222779 -0.693427 -0.206844 -0.124345 -0.19234 1.55447 -0.737972 -0.547837 0.214168 -0.148789 0.0317027 0.0704677 -0.0264066 0.0108422 0.0900856 -0.051756 -0.0331601 -0.0138045 -0.000742523 -0.0881552 -0.0725 0.0464742 -0.0463956 0.00993123 -0.0847003 -0.0577725 -0.00487583 0.0572489 -0.0202613 -0.129281 -0.0829627 0.0394777 -0.00381393 -0.127572 -0.171755 0.705746 0.0680972 -0.0549116 -0.271212 -0.264969 0.233003 0.173551 -0.246986 -0.121409 -0.530475 -0.221465 0.460567 0.181177 -0.0528947 -0.733874 0.0836702 -0.0261202 0.308417 0.304463 -1.24189 0.0877423 0.25351 0.269044 0.411647 -0.662564 0.511664 -0.456927 -0.456332 -0.648396 -0.614424 0.212607 -0.438429 -1.07442 -0.330553 -0.571726 0.538885 0.302356 -0.508094 -0.4894 -0.450731 0.484088 0.402586 0.0640332 0.39391 -0.609517 1.0463 -0.219426 0.214663 0.595948 -0.381262 0.0309451 -0.0838743 -0.2553 -0.0845704 -0.436588 -0.0407037 0.15208 0.0568722 -0.260732 -0.0962073 -0.0254766 -0.145397 0.312783 -0.124376 -0.157499 -0.198742 -0.0831525 0.111833 0.537374 -0.284835 -0.0205127 -0.0696075 0.199025 0.537033 0.232007 -0.0210591 0.0105103 -0.0788069 -0.112103 0.0129419 -0.0372101 0.14346 0.00639504 0.00309533 -0.0603956 0.00507701 0.0533111 -0.062639 -0.024265 -0.0388975 -0.141269 -0.0829808 0.00353601 0.0215181 0.0368514 0.020925 0.0933388 0.0663347 0.0108349 0.0150922 0.100429 0.231857 0.482613 0.0216036 -0.0620631 -0.139206 -0.931796 -0.282956 -0.0664797 -0.00601289 0.708079 -0.195635 0.187092 -0.625551 -0.125935 -0.255535 -0.780521 0.58196 0.130258 0.0342512 -0.168247 0.465973 -0.496859 0.798418 0.381678 -0.370304 -0.178335 0.0652965 0.164989 -0.203555 0.548362 0.0158808 0.220956 0.591311 -0.213877 -0.578197 0.190317 0.221425 0.61134 0.15954 -0.145232 -0.0544992 0.763589 0.600444 -0.474254 0.73234 -0.609126 0.539616 -0.242279 -0.646514 0.194147 -0.350493 -0.0574454 0.0779653 -0.174713 0.0321056 -0.370355 0.11738 0.118757 -0.287992 0.0853636 -0.0273419 0.0560904 0.024817 0.177025 -0.222513 0.0863847 0.16667 0.611297 -0.272523 -0.0955962 0.31955 0.791385 0.453971 -0.213121 -0.533062 0.102433 -0.253393 -0.0912462 -0.430253 0.148905 0.170721 0.252005 -0.159504 -0.480648 0.107678 -0.237579 0.147247 -0.362929 0.218148 0.122654 -0.119703 -0.229998 -0.443856 0.567787 0.633048 0.526381 -0.114828 0.281458 0.210931 -0.318676 -0.066441 -0.393621 -0.277624 0.193312 0.0598365 -0.0468942 -0.680035 0.0694648 0.544595 -0.044632 0.0438497 -0.0426701 -0.554294 0.189183 -0.343647 -0.118357 -0.398472 -0.585038 0.111771 0.360247 0.661231 -1.03313 0.657143 0.188302 -0.0645917 0.0126763 -0.0255181 -0.0244091 0.0428556 -0.0207871 0.0685187 0.0690171 0.0722804 0.0114684 -0.0214142 -0.016982 -0.0398466 0.0759258 0.0226007 0.0515912 -0.0549877 -0.00905787 -0.0100358 -0.0395854 -0.0555277 -0.00516301 -0.0834758 0.029376 -0.0265498 -0.445 -0.630234 -0.426304 0.671558 0.294484 -0.453061 -0.349264 -0.468396 -0.200892 0.329904 0.200383 -0.187802 0.153856 -0.334122 -0.0299407 0.200924 -0.188439 -0.158675 -0.572322 0.440856 0.491665 -0.661545 1.01509 -0.0678663 -0.0918232 -0.0652289 0.328032 0.19544 -0.243089 0.0453779 0.365473 -0.250528 -0.238588 0.0937883 0.098181 0.0180457 -0.345213 -0.00280528 0.0126492 -0.45544 0.196446 0.25658 0.342922 0.0496734 -1.09341 0.330205 0.201233 0.113295 -0.221774 0.0788423 -0.0438681 -0.0364526 0.0332601 0.143908 -0.00144353 0.01702 -0.0504043 -0.041646 -0.00103674 -0.020576 -0.0464056 0.0272447 0.000621817 -0.00953873 -0.0146244 0.0124099 0.0495223 0.0322459 -0.00304724 -0.003665 -0.108979 0.00413651 -0.0205399 0.070943 0.0240546 -1.38347 0.737922 -0.492065 -0.283335 -0.97795 0.253028 0.100269 0.210302 -0.594825 0.003991 0.855225 -0.712198 0.258151 0.130203 -0.353555 0.89768 -0.256311 -0.087054 0.427686 0.430212 0.214643 -0.3357 0.338302 0.694234 0.0571147 0.0509708 0.389448 0.250368 0.580243 0.70613 -0.179816 -0.126719 -0.88173 0.256902 0.441131 0.113267 0.266166 -0.77398 -0.285475 0.123237 -0.134718 0.0346984 -0.0581719 -0.619421 -0.131819 -0.21026 -0.00501376 0.154187 -0.771573 0.385906 -0.0379751 0.0587724 -0.0568441 -0.0601381 0.0205564 0.0167813 -0.0769715 -0.0117912 -0.00190153 -0.042973 -0.052086 0.0479935 0.102926 0.0190805 0.0631073 0.0630469 0.0186122 -0.00275572 -0.0381829 -0.123079 -0.0798974 0.0006444 0.0508305 -0.0258843 0.0831454 -0.549718 -0.0137505 -0.181065 -0.720268 0.167778 0.30182 -0.233558 0.235186 0.463827 0.850359 -0.436667 0.00834991 0.00385189 -0.715005 -0.264736 -0.853371 -0.307204 -0.487655 -0.414911 0.000935893 0.243559 0.394897 0.983335 0.437378 0.512571 0.62102 -0.0166852 0.0791702 -0.167283 0.801211 -0.370508 -0.754195 -0.311612 -0.381673 -0.29345 -0.00732934 -0.293315 -0.740527 -0.689067 -0.257954 -0.123277 0.240077 0.00605667 0.210309 -0.485971 1.46012 0.811176 0.992675 1.11228 -0.117992 0.834961 -0.923012 -0.121713 0.151868 -0.0924289 0.47707 -0.467772 -0.667575 -0.436928 -0.477096 -0.0790997 0.122034 0.060049 0.918876 -0.0302098 -0.592314 0.179482 -0.0907352 0.260885 -0.109212 -0.0567465 0.566654 0.296976 0.573277 -0.204649 -0.00204388 -0.16624 -0.011345 -0.0433509 0.0929721 -0.0737415 0.224879 -0.250543 -0.119296 -0.0186874 0.0516022 -0.01586 -0.142029 -0.0681138 -0.0376954 -0.0172948 -0.0536668 -0.076611 0.0697634 0.013027 0.0064357 -0.0606284 0.0307912 0.0448649 0.00872896 -0.238955 0.126556 0.205727 -0.760219 0.3643 -0.736921 0.405525 0.0867232 0.191846 -0.339773 -0.333336 0.770774 0.174866 0.126075 -0.615323 -0.359131 -0.0434721 0.598391 0.376947 -0.636478 0.0113376 -0.517141 -0.14401 0.285345 0.268759 -0.41522 0.0439813 -0.0599037 0.0645359 0.0849453 0.0687019 -0.205332 -0.0988059 0.0359115 0.236525 0.554132 -0.205001 0.12422 0.263798 0.525646 -0.0100463 0.0608897 -0.0976008 0.00225345 -0.494828 -0.430881 0.0196027 0.0542046 -0.0219081 -0.862193 -0.321705 -0.963911 -0.989781 0.140381 -0.512861 0.123686 -0.347896 0.133202 0.22354 -0.342812 0.145299 0.614644 0.0186972 0.649507 -0.370835 0.246124 0.571636 0.282002 0.419132 0.144371 0.749456 0.315702 -0.0685119 0.350133 -0.28893 -0.194705 0.310008 0.447193 -0.428156 0.0461772 -0.256002 -0.678829 -0.205166 0.187972 -0.746881 -0.350364 -0.325256 0.0653211 0.549523 -0.0590645 -0.840331 0.436505 0.480327 0.264987 -0.319735 -0.216291 0.497457 0.728183 0.804526 0.568317 0.00685809 -0.0155453 -0.0397948 0.0230265 0.0179003 -0.0632623 0.0255166 0.0607166 0.100506 0.0651584 -0.0237479 -0.0946147 0.0116491 0.081971 -0.0464327 -0.0101631 -0.0247265 -0.0228749 -0.029449 -0.0495685 0.0138357 0.0395518 -0.0199293 0.0347821 -0.0284603 0.0442014 0.00108889 -0.227496 0.043519 -0.0194817 0.0852679 -0.15237 -0.108197 -0.167054 0.130106 0.178808 0.211509 0.35282 0.0196973 0.102933 -0.489882 -0.0372217 0.0174147 -0.0403624 0.149008 -0.33562 0.389796 -0.696294 -0.0698708 -0.179936 0.832271 -0.0105426 0.0467682 0.720698 0.112425 0.336948 -0.196653 0.941064 0.552983 -0.233678 0.449632 0.272233 0.276094 0.592073 -0.51924 -0.561072 -0.990401 0.0635517 -0.328207 0.202917 -0.236364 0.0632819 0.747189 0.109689 -0.149652 -0.643525 -0.823793 -1.00758 -0.637421 1.55606 -0.321115 -0.314301 0.307865 -0.845819 0.358136 -0.324239 -0.932155 -0.0682033 -0.45975 0.867482 -0.301868 -0.480672 -0.679845 -0.453524 1.03888 0.355493 0.525591 0.426464 -0.0404808 0.718001 0.37813 0.195823 0.282521 -0.12112 -0.206207 -0.052103 -0.0873506 -0.114001 0.089771 -0.0755123 0.605139 0.463599 0.254898 -0.616827 0.268106 -0.780552 -0.475364 -0.286837 0.173085 0.240448 -0.748852 0.0498622 -0.114888 0.387507 0.589937 -0.228546 -0.17753 -0.460634 0.159864 -0.00497293 -0.305947 0.477912 -0.0523862 0.122599 -0.143455 -0.129502 -0.326169 0.0737846 0.126552 -0.0631544 -0.215748 -0.157791 0.517073 0.16217 -0.106839 -0.418687 -0.425677 -0.364083 -0.355583 0.00164168 -0.0504931 -0.0162291 -0.00849311 0.0297981 0.0348661 -0.0677578 -0.0881648 -0.0310844 -0.00627504 -0.102795 -0.0168791 0.0110762 -0.0184229 -0.0611401 0.013268 -0.0597707 -0.0252447 0.0279161 -0.0211069 0.0377649 0.0729197 -0.0586998 -0.095402 -0.0657967 0.0681264 0.331903 -0.699089 -0.390062 -0.144583 0.132179 0.0535841 -0.0653003 0.491435 -0.086064 -0.224849 -0.0095908 -0.308398 -0.448169 -0.433985 0.158212 -0.0152174 0.552195 0.414257 0.274631 -0.0166084 0.0303829 0.0632223 1.03039 -0.108773 -0.136551 -0.6177 0.581827 0.56898 -0.0450144 -0.183641 0.0723313 -0.0295743 0.963439 0.663519 0.364033 0.0770324 -0.351974 -0.446704 -0.611429 0.700037 0.322301 0.195409 0.162462 -0.0887651 0.853072 0.981119 -0.88268 -1.20021 -0.839356 -0.554894 -0.049489 -0.229355 0.221775 1.02862 -1.06018 -0.292341 -0.269281 0.682259 0.593708 0.399296 -0.400755 -0.212092 -0.0372201 -0.675928 0.185918 0.0200543 0.417234 0.215225 -0.928407 0.579556 -0.521141 0.159813 0.0212237 0.548407 0.350973 0.298506 -0.0660589 -0.0147871 -0.075228 -1.14946 -0.124337 -0.489815 0.040992 -0.0259598 0.210812 -0.297423 0.24778 -0.13974 -0.738544 -0.292204 -0.403356 -0.0727555 -0.0913141 -0.471976 0.183494 0.533035 0.443656 0.425783 -0.120639 0.246911 0.572135 0.555048 0.389876 -0.230405 -0.236513 0.700888 0.0703559 0.344072 -0.242991 0.0425254 0.616805 -0.629287 -0.280093 -0.765659 0.369889 0.0487103 -1.45036 -0.727288 -0.0668909 -0.443552 -0.061326 -0.310141 -0.27925 0.280032 0.49675 -0.442771 -0.260161 -0.209901 -0.909262 -0.144293 0.330491 0.216328 -0.460334 -0.477455 0.17379 0.0525559 -0.127851 -0.688977 -0.535692 0.817726 -0.26919 0.385812 -0.0397685 0.207879 0.922373 0.274056 0.304632 0.0901003 -0.0309411 0.434943 0.644129 0.492244 0.255145 0.825583 -0.0961769 -0.146572 0.00199726 -0.847576 0.017017 0.023633 -0.154256 -0.672255 -0.667334 -0.247089 -0.542362 0.584871 -0.445211 -0.731452 0.00324457 -0.254 1.19863 -0.215864 0.103694 0.523509 -0.405384 -0.396489 -0.368461 -0.305085 -0.979875 -0.254205 0.538308 0.021675 -0.392813 0.150829 -0.066409 -0.553724 -0.0996564 -0.203396 -0.0667552 0.149428 -0.0301416 0.649388 0.654257 -0.135835 0.261148 -0.395829 1.21454 1.3626 1.57913 0.787681 0.0521717 -0.0412508 0.0548987 0.0391726 -0.276062 -0.0549737 -0.0346461 -0.0131408 0.00362917 0.112007 -0.00162125 -0.084473 -0.0183313 -0.0121667 0.209895 0.0119513 -0.0690716 0.0363044 -0.0897154 0.0559057 0.0266703 -0.0198357 -0.00736966 -0.0838562 -0.196166 -0.308101 0.0965933 -0.268571 0.0160203 0.329784 -0.234346 -0.592558 -0.0922678 -0.0311524 0.346632 0.00287289 0.0843606 -0.286648 -0.0455655 0.737056 0.135073 0.297325 -0.0899219 -0.208468 0.432562 0.254115 0.142937 -0.118944 -0.488318 0.817102 -0.271412 0.138037 0.953854 0.249798 -0.122377 0.0131898 0.192612 0.165754 0.0733716 0.049358 -0.765548 -0.972354 -0.401327 -0.535481 -0.011441 0.0990883 0.167273 -0.331644 0.062055 0.672731 -0.222896 -0.750963 -0.605515 0.709463 1.05128 0.193855 0.19498 -0.0493283 0.70624 -0.161093 0.0704966 0.425773 0.17615 0.631239 -0.22124 -0.398357 0.0751215 -0.0138425 0.258546 -0.0354119 0.229666 0.175782 -0.496354 -0.444162 -0.299963 1.09619 0.53873 0.147196 -0.589042 -0.59937 0.0410544 -0.00187059 -0.0982631 0.0266301 0.0648671 -0.0247972 -0.0614277 -0.00490812 -0.104198 0.0403057 -0.00362641 0.0390941 -0.00809857 0.0304664 0.00355627 0.0149404 0.0145594 -0.0201656 0.0327036 0.0710091 -0.0323725 -0.0254777 0.0201933 -0.0262996 -0.0150533 -0.901308 0.163607 0.39614 0.623971 -0.253774 -0.512559 0.861852 0.857914 0.865965 -0.305876 -0.68248 0.517805 0.97275 0.496399 -0.0184129 -0.46671 0.636177 0.290319 0.113383 -0.239194 0.80421 0.205986 0.313275 -1.08988 -0.258115 -0.260383 0.596845 0.215459 0.159124 -0.0418373 -0.786025 0.383497 0.204701 0.551288 -0.384026 -0.110277 0.39708 -0.613129 0.142322 -0.147384 -0.368008 -0.175046 0.0891738 -0.413014 0.00574164 -0.0189233 0.217759 -0.478737 0.461997 -0.043773 0.0263516 0.205656 0.504125 -0.0349723 0.00207448 -0.0908144 0.0363158 0.188912 -0.0361756 0.0279145 0.0427693 -0.195891 0.0931524 0.0439233 0.190554 0.203559 -0.272239 -0.113139 -0.158428 0.0652738 0.168854 -0.18869 -0.0239989 0.104961 -0.218238 -0.167775 -0.0814349 0.231614 -0.114356 0.430604 -0.230563 -0.120038 -0.156208 -0.339617 -0.055997 0.368257 -0.0857007 -0.257578 -0.164801 0.0422472 -0.420224 0.0195333 0.151811 -0.306751 -0.0676065 0.110108 -0.0423174 0.0232 -0.164256 -0.0374974 0.086472 -0.4729 -0.266455 -0.257036 0.449793 0.554626 0.282378 0.19382 0.269701 -0.01361 0.467052 -0.530672 -0.646396 -0.538726 0.0872595 0.86599 0.0119571 -0.559957 -0.732926 -0.228102 0.933746 -0.0995469 -0.510812 -0.0510489 0.428175 -0.0574509 -0.0681152 -0.00523758 0.0518061 -0.0222977 -0.0207755 -0.0144504 0.0267631 0.0040414 -0.0821166 0.0429281 0.0393575 -0.0427219 0.0173366 0.0690493 -0.00987854 -0.0747064 0.041557 -0.0160271 -0.073516 -0.0316326 -0.0320481 -0.0373377 0.00892657 0.00381717 -0.124686 0.0115932 -0.0354977 0.17239 -0.0751997 -0.34796 -0.72158 0.00760153 -0.664046 -0.296813 0.382733 -0.0994352 0.97236 -0.304148 0.256035 -0.13348 -0.291872 -0.293072 0.288409 0.158756 -0.00720906 0.32985 -0.970284 -0.518694 1.05233 0.171984 0.792409 0.33647 -0.00735478 0.411026 0.344697 0.142539 0.365484 0.463696 0.680115 0.0919713 -0.127945 0.405768 -0.150955 -0.286879 -0.1844 -0.0803334 0.0532145 -0.176415 0.0707152 -0.317426 -0.525621 0.138719 -0.066707 -0.806349 -0.012503 -0.00356643 0.0309354 0.0152812 0.0454036 0.00550115 0.039011 0.032268 0.0153189 0.0226388 0.0212731 -0.0141975 0.0504418 -0.0198943 0.0131613 0.0403425 -0.0396975 0.00192641 -0.000264975 -0.0109119 -0.0423954 -0.0228543 -0.0247819 -0.0217921 0.0671148 0.438482 0.118194 -0.800662 0.683516 0.464034 0.628513 0.0965081 -0.482296 0.988634 -0.4754 0.0316129 0.114251 -0.214708 0.971553 -0.187653 0.517755 0.193397 -0.00748662 1.2279 -0.348807 -0.225505 -0.166007 -0.439624 0.08271 -1.03264 -0.0641464 0.54714 -0.103013 0.0808896 0.262567 -0.196204 0.837244 0.150507 1.00822 0.53061 -0.374252 0.241158 -0.235741 -0.3651 0.126032 -0.313409 0.170897 0.257641 0.0627305 0.567689 -0.202865 0.0746689 -0.144979 1.18824 -1.21351 -0.0425308 0.0319931 0.0251304 0.0407179 -0.0571061 0.0100789 -0.0481001 -0.017506 -0.0139284 0.0191283 0.0104256 -0.0308184 0.075906 -0.0839501 0.022862 0.0110647 0.1072 -0.0561484 0.0121849 -0.0521906 -0.0694209 -0.115519 6.71596e-06 0.0092027 -0.0402113 -0.375504 -0.305623 0.0816542 0.274378 -0.994625 0.672871 0.123633 0.125708 0.606871 -0.123501 -0.234573 -0.372655 -0.131091 0.0361505 -0.00937847 -0.179229 0.03942 -0.499831 0.0552561 -0.454665 -0.209197 -0.696311 -0.572936 0.0979454 -0.534906 -0.362657 0.0913047 0.422703 0.793692 0.299784 0.162257 -0.164351 0.0347234 0.307932 0.384255 -0.490344 -0.521272 -0.554237 0.0792469 0.39998 -0.349736 -0.378084 -0.487233 -0.296455 0.213056 -0.836147 -1.07663 -0.459938 0.354085 0.137051 -0.447187 -0.196825 -0.00173534 -0.1375 0.0566799 -0.821162 0.858173 0.525343 -0.107805 -0.172313 -0.466875 -0.0378166 0.13552 -0.077546 -0.135948 -0.508615 0.148625 0.00521499 -0.102357 -0.143254 -0.271631 -0.799209 -0.322297 -0.219766 0.0344935 0.0239246 -0.0973171 -0.211068 0.100575 -0.0156203 0.0430479 -0.025517 -0.0068832 0.112087 0.0744362 0.0725572 0.150084 0.20186 0.150521 0.0564922 0.018709 -0.0899921 -0.0403144 0.0633245 0.0203348 -0.0387893 -0.014458 -0.0438281 0.166885 -0.0355594 0.118202 0.936833 0.335653 -0.618299 -0.300024 -0.397363 -0.529729 0.454049 -0.188066 -0.353949 -0.54054 -0.534467 -0.360682 -0.224104 -0.17553 0.869252 0.358515 0.52302 -0.467688 -0.271039 -0.173165 1.29903 0.354712 0.0528116 0.961942 0.0118543 0.13999 0.0733678 0.169198 0.0080833 0.13693 0.326802 0.186111 -0.0218705 -0.436467 0.682194 0.0855236 -0.0320607 -0.0235479 0.457845 0.272128 -0.0622414 0.154577 -0.0316027 0.078603 0.323002 0.0710859 0.0736264 0.0899514 -0.230628 0.202308 0.325111 0.11226 0.0736296 0.0578733 0.549354 0.0333554 -0.12928 -0.357521 0.423049 -0.0666209 0.00274454 0.140932 -0.687013 -0.172796 -0.0719261 -0.0772945 0.422273 0.038136 -0.193538 0.303175 -0.301522 -0.0412951 -0.5062 0.300981 -0.298267 -0.416335 -0.32818 0.439237 0.395183 -0.392181 0.47709 0.0951207 0.132884 -0.227917 -0.282589 0.48794 0.560318 -0.23402 -0.333072 -0.395295 -0.205424 1.07781 0.264301 -1.0763 -0.208256 0.486382 -0.0562673 -0.716543 0.352648 0.00375191 0.0474395 -0.0583906 0.00870726 -0.00410253 -0.0355376 -0.026817 0.0181357 -0.00425176 -0.0557936 0.0317947 0.0496851 -0.0125431 -0.102955 -0.0291846 0.071589 -0.0383602 0.0254892 0.0331083 -0.0711267 0.0208868 0.0153534 0.0492245 -0.0679573 0.0250609 0.0822074 0.517421 0.397544 -0.11307 -0.0790555 0.0738957 0.0269087 0.194253 -0.506547 -0.164547 -0.0049559 0.0252521 -0.601422 -0.201737 -0.0464341 0.400889 -0.0237773 0.307894 0.361745 0.0698316 -0.0510832 -0.12509 0.0608548 0.558438 0.317004 0.0498039 -0.310878 0.046782 0.275542 -1.18654 0.584909 0.822952 1.03829 -0.135976 -0.432352 -0.0596225 0.309418 0.902793 0.553863 -0.451986 -0.253635 0.486761 -0.022171 -0.146456 0.255485 -0.0192437 0.131792 -0.0100274 0.11861 -0.26182 0.0238517 -0.093919 0.856871 0.141566 -0.62595 -0.266089 -1.24575 -0.163647 0.368896 -0.288007 -0.378399 0.62778 0.319351 -0.213525 -0.537958 -0.224746 0.181797 -0.349793 -0.238475 0.330022 -0.316708 0.099428 -0.559924 -0.10882 0.178185 0.464942 0.21375 -0.183578 0.910973 -0.380184 0.278581 0.912553 -0.311714 0.308358 -0.353289 -0.928217 -0.372032 -0.0612644 0.122954 -0.591889 -0.0853846 0.0934703 -0.538294 -0.275491 -0.411272 0.320958 0.603278 0.112886 0.736708 -0.424957 0.00488769 0.326905 -0.31624 -0.246092 -0.01477 0.00488705 -0.144845 -0.515885 0.150345 -0.143367 0.0498211 0.318086 -0.0653238 0.493349 -0.0413442 0.0337671 -0.354032 -0.484908 0.150539 -0.103608 -0.0371119 0.0461254 0.292069 -0.0500802 -0.0683878 -0.00485537 0.0109489 0.0342955 0.0296157 -0.0281359 -0.0847152 -0.025791 0.00767839 0.00602846 0.0453907 0.090126 0.103495 -0.0138338 0.00842978 0.0562611 -0.0109599 -0.020019 -0.0222622 -0.0352609 -0.0441388 0.0194423 -0.026264 -0.00688873 -0.0208876 0.0107976 0.133214 -0.355705 0.317626 0.0564247 0.377739 -0.273599 -0.545283 -0.419773 -0.165977 0.00332301 -0.465544 0.0282823 0.26054 0.207193 0.286926 -0.016494 -0.40538 -0.462238 0.266519 0.156785 -0.246134 -0.378867 -0.372413 -0.490991 0.0229832 -0.421787 1.17612 0.0124574 0.52303 -1.20012 -0.241713 0.186907 0.226802 -0.0809278 -0.562099 -0.376765 0.677991 0.632759 -0.148496 -0.0872638 -0.13108 -0.355377 0.320312 -0.059373 -0.41165 -0.496857 0.571867 0.761054 0.81502 0.227632 -0.0990836 0.369169 0.488718 -0.194784 0.0608574 0.410219 0.496018 0.423437 0.103331 0.489284 -0.478249 0.336444 0.120905 0.319335 0.692001 -0.599674 -0.278447 -0.230046 -0.257071 0.351551 -0.855994 -0.00737822 -0.346231 -0.675778 0.916822 0.0288733 -0.0902971 0.223691 -0.367452 0.302674 0.0603524 -0.224207 0.357083 -0.238221 0.187128 0.409212 -0.0536535 0.497797 0.33045 0.789194 0.908259 -0.437302 -0.235858 0.142458 0.540594 0.555405 -0.906678 -0.75483 -1.03262 0.444079 -0.942561 0.231132 0.332237 0.313762 0.165818 -0.0576644 0.432704 -0.302539 0.0751525 0.473695 0.00777542 -0.123903 0.356132 0.563404 -0.088618 -0.744175 0.466216 0.780874 0.187432 -0.0281995 -0.158654 -0.762943 0.516087 0.295842 -0.0529774 -0.130718 -0.342205 -0.318679 -0.692002 -0.454714 0.619764 -0.0308898 0.0106596 0.0468443 -0.430972 0.249401 -0.43067 0.148748 0.303131 -0.347247 -0.249094 -0.678714 0.0474521 0.181317 0.300329 -0.513696 -0.329706 -0.526742 -0.268127 -0.634074 0.670231 0.227628 0.627072 0.250648 0.434088 -0.23828 0.294957 0.135999 -0.0656653 0.68007 0.0437383 -0.468357 0.338266 0.0936145 0.264923 0.0970245 -0.233286 0.329326 -0.363235 0.450538 -0.779792 -0.684569 0.831384 0.00810965 -0.0601604 -0.274289 -0.148588 0.0843023 0.296156 -0.13848 -0.0292857 -0.796632 0.318041 0.359684 -0.143016 0.70513 0.107096 0.154712 0.0526413 -0.00268983 0.290215 -0.141952 -0.0784305 0.611353 -0.0441183 0.350812 0.0216408 -0.662626 0.174544 -0.363306 -0.0238743 0.0663641 -0.0630784 -0.0134264 -0.148544 -0.0610228 0.0714375 0.155008 -0.0113937 -0.0704715 0.0344207 -0.0502307 0.0205014 0.073201 -0.0978577 0.0474245 0.161874 0.0292882 0.0969276 -0.158191 0.0345545 0.0240339 -0.020637 0.0544186 -0.0958872 -0.0479583 0.0132812 -0.0238848 0.0743409 -0.193422 0.00087539 -0.112379 0.10055 -0.324064 -0.119414 0.0824222 -0.0263742 0.160302 -0.0615346 -0.0885888 0.44251 0.298934 0.0908823 -0.0328494 -0.0542418 0.836106 -0.192867 -0.320742 -0.618217 -0.484673 0.641934 0.511291 -0.0237897 -0.203033 -0.353176 0.157404 0.0473716 0.168806 0.0346505 0.293437 -0.190488 0.344157 0.103518 0.00864439 -0.293831 0.0153367 0.219918 0.0749568 -0.0519461 -0.264204 -0.476588 0.212757 0.406092 0.0838213 -0.517844 0.336711 0.371338 0.52876 -0.0444125 -0.241297 -0.0258352 -0.330378 0.162783 0.17689 -0.166859 -0.0605494 -0.230858 -0.00953619 -0.298084 -0.327884 0.0737223 0.377352 0.342286 -0.0839507 -0.466576 0.0611482 0.374295 0.401429 0.421253 -0.72848 