-0.0142579 -0.126789 0.0797477 -0.125496 0.00380281 0.0868605 0.00390331 -0.0614584 0.0539191 0.0233053 0.24771 0.0432799 0.119082 0.0913639 -0.0149437 -0.0393521 -0.0802354 0.152511 -0.109234 -0.311718 -0.090142 -0.0608744 -0.235152 0.00579908 -0.104448 -0.00164324 -0.0215459 -0.0792658 -0.00865219 0.100015 0.0438559 -0.0875026 0.163455 0.0939894 -0.039107 0.0783706 0.141211 0.00532642 -0.0333712 0.134136 -0.153314 -0.0153016 -0.0550015 0.00834347 0.19506 -0.00130798 -0.0474186 -0.0367805 -0.070802 -0.186216 -0.115265 0.092919 0.128779 -0.154691 -0.113364 0.183063 0.0184992 -0.0189064 0.165322 -0.232654 0.0661728 -0.00165485 0.0601272 -0.139703 0.130205 0.0649336 -0.167568 -0.0133717 0.109756 -0.0255333 -0.0487714 -0.122354 -0.0157962 -0.128508 0.0869251 -0.00961938 0.0111682 -0.00782412 0.00211589 0.133074 -0.018512 0.154755 0.128547 0.052552 0.0154023 0.00678872 0.0147165 -0.216182 0.115445 -0.026391 0.108474 0.115527 -0.0866113 0.00486882 0.233735 -0.014305 0.0904877 -0.333201 0.156888 -0.0308665 -0.0577722 -0.0481393 -0.0677562 0.18697 0.106726 0.0572606 -0.144812 0.0653815 0.0642715 -0.016078 -0.107956 -0.11537 -0.082183 0.106982 -0.0448045 0.140262 -0.0417674 -0.0393661 -0.052433 -0.0319939 0.139623 0.0637733 0.081258 0.154119 -0.193075 0.104623 0.00813673 -0.119991 0.193163 0.0836695 0.0182778 -0.0172878 -0.217727 0.0671795 0.288064 0.0932629 -0.227875 -0.121471 -0.248878 -0.117898 -0.0181704 -0.0311172 0.136829 0.105457 0.237719 -0.0583245 -0.125161 0.0322917 0.0318592 -0.253611 -0.0268333 0.125398 0.161348 -0.0574557 0.121895 0.0967404 0.0287682 0.0406601 -0.0100832 -0.0369684 -0.180068 0.0233966 0.166427 0.0963048 -0.103421 -0.171741 -0.0911408 -0.0482842 -0.0623014 -0.100479 0.258115 -0.299378 0.0208863 -0.0475309 -0.224188 0.0861553 -0.00522972 -0.0583482 0.0233339 0.192193 -0.0280785 -0.0383582 -0.115079 0.0306925 -0.066168 -0.190463 0.0318883 0.0329795 0.218844 -0.06312 0.0282052 -0.171655 -0.0392519 -0.146844 0.102298 0.0483153 -0.0849446 0.0998876 0.0907912 0.0942932 -0.0196232 -0.00815337 0.0718141 -0.129488 -0.140466 -0.0640692 -0.0339747 -0.037467 0.0447755 0.0164035 -0.0105246 0.0130388 -0.00781714 0.00826314 -0.0828728 -0.0023231 -0.0878635 0.0683673 -0.0236232 -0.0883833 0.0955603 -0.207818 0.0865987 0.115922 -0.0209669 0.0748705 -0.173443 -0.02778 -0.188309 -0.0685588 0.0136253 -0.167317 0.0583285 0.087588 -0.0842273 -0.244748 -0.120193 0.0613076 -0.174235 0.146997 0.156099 0.0075612 0.143572 -0.159544 -0.177339 0.0230402 0.0430964 -0.050348 -0.0783322 -0.164672 -0.0306522 -0.184238 0.028518 -0.0256153 0.0713414 -0.220722 0.0587375 -0.00397643 0.0751452 0.0430348 0.0584675 0.169788 -0.064499 -0.0127607 0.147072 0.1302 -0.0419246 -0.101241 -0.0179469 -0.0356961 -0.0235744 0.018386 -0.00428099 0.0257186 0.0130354 0.120939 0.0672611 0.162896 -0.121876 0.0209005 0.146749 0.319739 0.093187 0.257711 0.129719 0.236188 0.0273848 -0.30791 0.0368201 -0.028776 0.276179 0.151401 0.0208754 0.1985 -0.0384502 0.190866 -0.14146 0.0985723 0.0149835 -0.214937 0.0471096 -0.184282 0.00996869 -0.0482037 0.0517038 0.0149567 0.0417588 -0.0820631 0.12786 -0.103086 0.0763235 -0.212344 0.167723 -0.00151563 -0.0159602 -0.0283682 -0.149057 -0.229167 -0.0546619 0.0353622 -0.193225 0.0323225 0.14999 0.041242 0.0169142 0.08733 -0.00129659 0.0466823 -0.0194081 0.0325685 0.206154 -0.0926212 0.088565 0.103236 0.022563 0.137332 0.184192 -0.105254 0.00804703 -0.0756447 -0.0966535 0.189048 0.0147077 -0.450536 -0.0475131 -0.107932 0.028504 -0.166079 -0.214318 0.124953 -0.138177 0.0144809 -0.0714992 0.125621 0.25138 -0.0343948 -0.0629855 0.129038 -0.114322 -0.05923 -0.138359 0.1383 0.0927717 0.0342469 -0.195002 0.0149053 0.0498601 0.134962 -0.118896 0.00349712 0.143229 0.0847467 -0.10539 -0.124604 -0.0908621 0.115067 -0.0468873 0.00596128 -0.199491 0.204343 -0.093794 -0.12795 -0.0792906 0.310449 0.152541 0.0543612 0.0340405 -0.138933 0.119385 0.0972949 0.175324 0.19119 -0.265064 0.000124751 -0.234836 -0.0758747 0.0264274 -0.25347 -0.194065 0.0374773 0.0160488 -0.0846143 0.154689 0.110918 -0.0697827 0.21741 -0.075563 -0.00475292 -0.120311 -0.070778 0.0227058 0.0993224 0.0791082 0.202087 -0.172705 -0.0475992 -0.105553 -0.0821371 0.0779611 0.00575605 0.0808568 -0.0782577 0.0117319 0.0722136 0.0205539 -0.103436 -0.0982474 0.016224 -0.119717 0.191011 0.137349 0.0780107 -0.00296866 -0.0648518 0.0851544 0.203622 -0.0192577 -0.0141433 0.120864 0.0671932 0.177549 -0.121155 -0.074518 0.104395 -0.0846856 0.0706178 -0.0299505 0.159244 -0.0173354 0.0349666 -0.067936 0.0638703 0.076476 -0.0178871 -0.20062 0.145681 0.0703665 -0.065362 -0.141161 0.183005 0.0790346 -0.0464764 0.128639 -0.0392651 0.109315 -0.223155 0.0441407 0.0500744 -0.241148 -0.0918331 0.0295752 0.0448433 0.0580262 0.160698 -0.0759207 -0.0633863 -0.0237255 0.197318 0.0979682 -0.12355 -0.0327565 -0.0429531 -0.0820639 0.0220165 0.0697979 -0.159366 -0.0327675 -0.159588 0.0228344 0.0778388 0.0332631 0.122766 0.172902 0.141933 -0.107428 0.0298397 -8.43768e-05 -0.13165 -0.0309421 0.102791 0.0481891 -0.0312893 0.217909 -0.0804308 -0.279623 -0.0870407 0.183138 -0.337026 -0.0923016 0.201307 -0.0956345 -0.188533 0.101461 0.164825 -0.238227 -0.00736249 -0.0326414 -0.136441 -0.126635 -0.0549448 -0.153199 0.0170322 0.289855 0.0474004 -0.073657 0.0498432 0.314568 0.11326 0.106833 0.0670237 0.155216 -0.113034 0.148943 -0.233705 0.188392 0.176451 0.00444044 -0.0165463 -0.0457773 -0.149298 -0.0946105 0.152996 -0.0339118 -0.0934734 0.0791584 -0.24758 -0.0891901 0.00317749 0.0123042 -0.135552 0.126558 0.0106127 -0.0960382 -0.0975144 -0.0792391 0.0144422 -0.0184145 -0.000484354 -0.16264 -0.0713745 0.0801618 0.131988 -0.112312 0.047775 0.0552041 -0.122384 -0.364102 0.177547 -0.00769727 -0.0978888 0.0823488 0.0351304 0.0198694 -0.148168 0.0196666 0.123087 0.0934245 -0.00577371 0.192842 0.0438979 -0.0782926 -0.124931 -0.0215177 0.0649126 0.0548693 0.106516 -0.0909082 -0.0171321 -0.095568 0.102873 0.0776061 0.134976 -0.0417438 -0.160982 -0.0710891 -0.155397 -0.162968 -0.169988 0.109893 -0.190855 -0.223738 -0.0454249 -0.118341 -0.1139 0.122481 -0.00385306 0.0728096 -0.0146366 0.121125 -0.0949602 0.0560009 0.132241 -0.0338631 0.0122241 0.0368848 -0.114305 -0.0221202 -0.0568153 0.0346985 -0.164538 0.143346 0.0024367 0.0315907 0.0342738 -0.0112595 0.0159446 0.0824136 0.0936462 -0.091417 -0.13494 -0.0331643 0.0795215 -0.00352187 0.0903207 -0.130169 -0.122129 -0.107211 -0.239507 0.10931 0.0638789 0.187603 0.0173121 -0.0741402 0.143044 0.10435 0.131128 -0.114492 -0.135708 -0.0288011 0.0234485 0.0213541 0.138831 -0.182151 -0.186131 0.196006 0.0389219 -0.212242 0.0238496 0.0419193 -0.0639742 0.0569649 -0.131938 -0.0431212 -0.0984533 -0.200872 -0.00647458 0.0850618 -0.0366061 0.0323588 -0.0256326 -0.146117 -0.00715153 -0.0970475 -0.00189647 -0.0481282 -0.134382 -0.0821714 -0.0955955 -0.108957 0.0892564 0.0983162 0.3284 -0.128819 -0.225687 -0.00535481 0.0631407 0.131549 -0.0633652 -0.0641893 0.0956097 0.0104218 -0.080251 -0.084674 -0.0735844 0.0132338 -0.0390964 -0.0393277 -0.0625508 0.106998 -0.0250385 -0.000878139 -0.0151836 0.0531125 0.091117 -0.181049 0.168592 -0.115298 -0.314735 -0.088711 0.093616 -0.309053 -0.134497 0.217192 -0.0821501 0.210181 0.0676963 -0.159722 0.0932318 -0.105879 -0.115264 -0.0582528 0.19106 -0.026172 0.0217562 -0.0426293 0.201354 0.125222 -0.0296062 0.149138 -0.0747387 0.232806 -0.0947073 -0.126277 0.0827744 0.0259002 -0.0673248 0.130038 -0.0485891 0.0592747 -0.0445097 -0.0585374 0.177369 -0.199646 -0.139365 0.0623023 -0.0570063 -0.00962241 0.0539013 -0.0704774 0.186748 0.0134415 0.00285027 -0.130204 0.0879841 -0.0995278 0.0508154 -0.0829874 0.0192299 0.0763299 -0.0974757 0.0623392 -0.0523022 -0.0834018 -0.102343 0.0463868 0.126849 0.202518 -0.0380045 -0.103264 -0.0226298 -0.180135 -0.0449267 0.0846019 0.249867 -0.242088 -0.0444619 -0.0525981 0.0840381 0.0839112 0.0460662 0.0151117 -0.155374 -0.107122 0.0911827 0.0778472 -0.0633437 -0.258429 -0.0219384 -0.0587869 -0.103816 0.138571 0.0385901 0.0456055 -0.160312 -0.055187 -0.0989027 -0.0414595 -0.0117141 -0.0966057 0.055303 0.211006 0.0730874 -0.14343 -0.0174554 0.227574 0.190986 0.00976557 0.206085 0.294021 -0.0870687 -0.102478 0.149352 -0.13481 -0.0362954 0.11219 -0.0560426 -0.0790698 -0.0105098 -0.137233 0.0680171 -0.118034 0.167626 0.0216475 -0.0260043 0.198918 0.03464 0.209707 0.0503761 0.112899 0.121505 -0.137327 -0.0512516 0.126949 -0.124175 -0.155277 -0.00471499 0.0191072 -0.183549 0.147927 -0.136452 0.141246 0.0425748 -0.0592563 -0.0331767 0.0754104 0.071554 0.00244116 -0.00929261 -0.130278 -0.136547 0.068692 0.0910719 -0.0452512 -0.0911432 0.107903 0.0331308 0.140514 -0.0569088 -0.0627385 0.0212329 -0.200361 0.109129 -0.0772806 -0.0564752 -0.0433194 0.0217361 -0.0669394 -0.080213 -0.0643551 -0.127071 0.064199 0.0242751 0.071853 0.13599 -0.0664769 -0.0872915 -0.00176983 -0.0517251 -0.0294452 0.0352858 0.0738278 -0.0636769 -0.119151 0.0463458 -0.0237028 0.075597 0.155645 -0.117429 -0.224343 0.136906 -0.0937055 -0.12841 0.0638192 0.0181012 -0.0816031 0.0948688 -0.0179313 -0.00459199 0.0080907 -0.162267 0.245086 0.0866562 -0.0736004 -0.016075 -0.00882376 0.0748661 0.0600911 -0.0736104 0.0205546 0.119947 0.121452 0.151506 -0.151353 -0.00639229 -0.0538988 -0.214005 0.266987 0.0673705 -0.0919387 0.13356 0.00878865 -0.0420457 -0.132383 -0.0661577 0.0918797 0.192616 -0.0292112 -0.0745877 0.0196164 -0.124081 -0.166807 0.192525 -0.0803291 0.0098195 -0.0143114 -0.122227 0.0590065 -0.184931 -0.0110778 -0.0164181 -0.087085 0.0300287 0.0723135 -0.0315994 0.0263355 0.189108 0.0265251 0.162682 -0.128538 0.169982 0.020315 -0.173118 -0.0809724 0.119856 -0.109024 -0.0853289 -0.225799 0.00165335 0.0409756 0.144392 -0.0534303 -0.0471332 -0.0620014 0.0183164 -0.0510404 -0.0790177 -0.0143292 0.122339 0.0675992 -0.116403 -0.0920001 -0.0763274 -0.134775 -0.0327813 0.0703215 0.0190804 -0.0309711 0.158494 -0.0531316 -0.113339 0.198625 -0.0709108 0.067255 0.0503427 0.209742 -0.107375 -0.0605628 0.300038 -0.067903 0.106305 0.0157599 -0.105775 -0.101308 -0.0744656 0.142896 0.10971 0.01638 -0.051318 -0.0231123 -0.0692461 -0.184269 -0.011726 -0.0378603 0.0395926 -0.0252962 0.14226 -0.206846 -0.148136 0.0330719 0.111203 -0.437637 0.129125 0.0365048 -0.0549267 -0.257377 0.06258 0.0474084 -0.0276045 0.098479 0.183631 -0.292219 -0.000992845 -0.0465375 0.00659308 0.010995 -0.109235 0.103886 0.035217 -0.151828 0.0590638 0.108146 0.142154 0.0196314 0.0226383 -0.0130704 -0.0720394 -0.0672079 -0.0806599 -0.0914382 0.303535 0.107647 0.0750864 -0.201699 0.0931589 -0.0680948 0.0756499 -0.110444 -0.0709627 0.123298 0.193744 -0.173472 -0.0449736 -0.026148 0.0345228 -0.0426236 -0.0514234 0.0334773 -0.101669 -0.118826 0.0959881 -0.193048 0.135081 -0.108411 -0.0577205 0.12163 0.00588569 -0.0385852 0.0762526 0.08269 0.0163294 0.0293533 -0.121603 0.0362643 0.11161 -0.270139 0.0549506 -0.207166 0.0467772 -0.13923 0.0531723 0.0407727 0.178678 0.190383 0.00301101 -0.107326 0.140351 0.0935605 -0.059186 -0.0903059 -0.0680434 -0.247 0.0472191 -0.0486385 -0.195732 0.0913325 -0.0084278 -0.185113 -0.0413297 0.0316032 -0.213144 -0.121586 0.0363999 -0.188322 0.175223 0.207744 -0.0491751 -0.0556847 0.012718 -0.0714444 -0.0649285 -0.00310935 -0.0762445 -0.102204 0.0454035 -0.0130438 0.0301423 -0.0974752 -0.0730785 -0.12914 0.0734676 0.0500686 0.103089 -0.0960919 -0.073929 0.0369442 0.109948 0.0376532 0.108326 0.0264602 0.145424 -0.0209908 0.0150123 0.0335767 -0.151592 -0.125895 0.124374 -0.15784 -0.0564285 -0.0978614 -0.00913308 -0.161678 -0.275582 0.165744 0.0882863 0.188203 -0.209604 0.237354 -0.162872 -0.181271 -0.00727186 0.0527811 0.000834176 0.222577 -0.0822552 0.0600228 -0.0673367 -0.0346915 -0.0275081 -0.00797697 0.211862 -0.0728823 0.0313341 -0.0270994 0.191351 0.0489956 -0.123611 0.0594656 0.149589 -0.00796086 -0.151441 -0.0623178 0.213213 0.0258292 0.111831 0.371656 -0.140001 -0.126574 0.0439384 -0.0700628 0.204971 0.139709 -0.0539588 -0.144903 -0.135063 -0.130146 0.181602 0.176072 0.242798 0.21129 -0.155158 -0.114723 0.10951 0.0788556 0.152919 -0.083658 0.153727 -0.00779005 0.055492 0.020615 -0.0373501 0.0205406 -0.199633 -0.0405498 0.15579 0.000336078 -0.0112143 0.228987 -0.0474489 -0.238805 0.154952 -0.235347 -0.0103193 -0.0445642 0.111714 0.0924909 0.0626334 0.0485684 -0.183017 -0.0114172 0.0869505 0.155191 -0.0647314 -0.0547312 0.237261 0.193009 0.0529497 0.12295 0.0895942 0.0619778 0.0639257 0.0491161 -0.38304 -0.0334606 0.0212403 0.0944808 0.0198253 0.00977751 0.17967 -0.0112391 0.225684 -0.0101411 -0.0522033 -0.0966412 -0.0298941 0.191331 -0.193857 -0.0215806 -0.146074 0.165896 -0.051913 0.0535524 -0.058502 -0.0927974 -0.0577033 -0.0604478 0.0947712 -0.157112 0.0704873 -0.0594316 -0.0235841 0.0220635 0.087033 0.00925051 0.038817 0.172052 0.100752 -0.0156028 -0.205951 -0.00455678 -0.128917 0.214125 0.0795887 0.10579 0.0948695 0.128748 -0.0556664 0.282657 0.0822068 -0.113454 0.0898447 -0.0956373 0.171782 -0.133989 0.109245 0.102777 -0.148469 -0.022184 -0.0911154 -0.0441774 -0.121426 -0.237793 -0.0149404 -0.0155478 -0.0745775 -0.190384 0.206116 -0.111518 -0.0277724 0.307245 -0.110565 -0.035485 -0.132008 -0.155042 0.0451219 0.0020649 -0.0664757 -3.88112e-05 0.00152827 -0.0903419 0.0133347 -0.1002 -0.130654 0.0418742 -0.00279246 0.0277357 0.0207759 -0.0803234 -0.189048 -0.0346431 -0.113492 0.0708382 0.0769179 -0.124073 0.0212143 0.0836398 -0.169149 0.0793865 0.0166532 -0.00431661 0.179248 0.0206115 0.0932048 -0.00726836 0.102253 0.191568 -0.0534317 0.0556639 0.152344 0.246162 0.0837576 0.0769058 0.17012 -0.0584511 0.0615418 -0.0259745 0.0952915 -0.0301469 -0.21601 0.0379812 -0.0298665 0.0733018 -0.0354739 -0.057105 0.098289 0.107712 0.0213647 0.125728 0.0523819 0.177767 0.0636594 0.281601 0.0643441 -0.00873376 -0.0736937 -0.131237 0.171083 0.298559 0.0421167 0.00596194 0.0789273 0.00607848 0.00280091 0.0443244 -0.0308949 -0.153533 -0.02819 0.152221 -0.0321611 -0.190332 -0.120257 0.0891117 -0.0515922 -0.191725 -0.0632386 0.0125987 -0.265427 0.117203 -0.0306059 -0.244137 0.0918571 0.0490381 -0.192104 0.0828498 -0.0627396 -0.00833247 0.158085 -0.0787689 0.093186 0.127594 0.0304475 -0.0569217 0.238727 0.0448798 -0.131101 -0.152988 -0.280906 -0.206619 -0.0905522 0.103249 -0.0053175 0.0594395 0.207348 -0.0232 0.0489612 -0.0347097 0.0800039 0.0318865 0.115053 0.114944 -0.0678551 -0.0995164 -0.0967605 0.274884 0.0914549 0.259162 -0.201682 -0.0587158 0.157392 -0.211704 0.0678766 -0.00144078 -0.0914728 0.000328974 0.113502 0.0509462 -0.0561666 0.0454678 0.139236 -0.00482595 0.104152 0.0940628 -0.10094 -0.0709537 -0.123065 -0.121565 0.0337044 -0.159248 -0.0691713 0.0214546 0.0164322 -0.0340176 0.0667274 0.00809819 -0.0352327 0.0761859 -0.0570759 -0.0219696 -0.0977601 -0.00346922 0.0439086 -0.118251 0.185058 0.044586 -0.0757743 -0.180809 0.0249426 -0.000778706 -0.0957964 -0.0183418 -0.0734068 0.0469522 -0.136069 0.240659 0.033107 0.217501 0.0421233 0.0752815 -0.0290095 0.0183641 0.00105467 -0.0923306 0.123562 -0.0427077 0.0561688 0.0492713 -0.114154 0.200286 -0.0434527 -0.0199865 -0.199728 0.197539 0.192833 0.0370741 -0.079844 0.0703356 0.0521616 -0.101948 0.110563 -0.23894 -0.0176464 0.125482 -0.222207 -0.0388678 0.148555 0.093523 -0.143639 -0.00534631 -0.0901209 -0.0471325 0.117669 0.196725 -0.186299 0.0401056 -0.0486315 0.0445798 -0.138695 0.0413208 0.0738357 0.0195837 -0.0320614 -0.0163424 0.0621615 -0.188703 -0.213123 -0.00424279 -0.0697902 0.0306979 -0.0450716 0.0124208 0.174045 0.119461 0.224007 0.204986 -0.0228383 -0.020751 -0.0136181 -0.159686 -0.140295 -0.17522 -0.0189008 0.130008 -0.088791 0.0278037 0.182186 0.0532499 -0.178888 0.084876 -0.156378 -0.151343 -0.0105021 0.0653593 0.105866 -0.123975 0.0285311 0.0609984 -0.0135734 -0.117582 -0.155465 0.0808964 0.129339 -0.0966664 0.095818 0.077056 0.0018633 -0.0579519 0.0174612 0.0723063 0.101882 -0.268776 -0.0302699 0.0789082 -0.0506253 0.0670487 -0.0860221 0.057804 -0.0349571 -0.0319607 -0.094313 0.0591713 0.0906016 0.0753747 0.0184025 -0.0614108 -0.0350041 -0.201967 0.0740011 -0.0232719 -0.113775 -0.0250213 -0.13577 -0.096084 -0.0619234 -0.109461 0.0111142 -0.0983627 0.0634648 0.0861861 0.0954724 -0.171769 -0.152555 -0.144159 -0.0578899 -0.115143 -0.0934685 -0.0908912 0.00253027 0.0843163 0.0124835 0.106677 -0.0641529 -0.18772 0.156327 0.0830972 -0.0945267 0.0655049 0.0973458 0.0259592 0.0729981 -0.0252512 -0.0629025 0.0715453 -0.00588737 0.0652955 -0.0421986 -0.159883 0.125564 -0.167843 0.0032962 -0.0914891 0.127723 0.0367942 -0.152323 -0.0200498 0.0373059 0.0240437 0.0190489 -0.0745992 -0.0320236 0.160929 -0.295085 -0.223311 0.061548 -0.20274 -0.119344 0.175751 -0.112899 0.0152304 0.0984434 -0.240232 0.130524 -0.0326126 0.0509579 -0.103782 0.0436445 -0.0403112 -0.22 -0.0248768 0.0025305 -0.00801521 0.168097 0.065209 -0.0802181 -0.158214 -0.0686277 0.314385 -0.118184 -0.132639 0.0312459 0.158469 0.00305116 -0.0141007 -0.0170923 -0.077285 -0.0789001 -0.0798619 0.172628 0.0732329 -0.0399416 -0.0100789 0.00490678 -0.0782943 -0.181602 0.0230805 -0.0522208 -0.0648638 0.0293046 0.0683803 -0.0375338 -0.219041 -0.174459 -0.0555989 -0.305068 -0.160974 0.0266824 0.0361868 0.0514507 -0.212245 -0.169286 0.0474861 0.00186218 0.00484497 -0.0582058 -0.134268 0.00514405 -0.239263 0.0574637 -0.108024 -0.103827 0.044616 0.108858 -0.0971254 0.0636105 0.164667 -0.0179167 0.0923155 -0.0404953 0.14566 -0.0348973 0.0877665 0.097903 -0.0116194 0.219775 -0.350578 0.0356325 -0.0883421 -0.0448065 0.123648 0.0367102 0.0655757 -0.150927 -0.115894 -0.0597768 0.0151088 -0.0671691 -0.0917396 -0.0354916 -0.0840394 -0.0449495 -0.137805 0.0690005 0.197622 -0.215268 -0.200914 0.103863 -0.174425 -0.0751077 -0.0725462 0.0116348 -0.0565131 0.184487 -0.0489968 0.0667794 0.251623 0.142129 0.184593 0.0125785 -0.207544 0.241232 0.0971277 -0.119385 0.0929988 -0.118469 0.0612152 0.10968 -0.0730387 -0.000487513 -0.170555 -0.298855 -0.145908 -0.196038 -0.00133653 0.115669 0.088916 -0.264088 -0.0398214 -0.0754504 -0.0579384 0.066899 0.141957 -0.0629599 -0.25358 -0.151392 -0.13836 -0.126176 -0.0546446 -0.0548963 0.149405 0.0524144 0.0106821 0.129646 0.0742042 0.0184183 -0.13976 0.00517552 0.071151 0.0750496 0.103223 0.0772347 -0.129563 0.0347688 -0.149588 0.0819683 -0.0704279 0.0556856 -0.103445 0.0745488 0.182976 -0.0179232 0.0929978 -0.115478 -0.020306 0.000538404 0.0740238 0.0805919 -0.00830299 -0.176193 -0.138873 0.00382848 -0.0592522 0.0629847 0.0548913 -0.141585 0.0889427 -0.0904288 -0.0760506 0.14743 -0.110769 0.0235812 0.146084 -0.0129644 -0.024967 0.0535282 0.196329 0.0489234 -0.0151331 -0.111805 0.0744349 -0.0277437 0.0525545 -0.0935262 -0.116496 0.148397 0.109172 0.231774 -0.0149402 0.14685 -0.010047 0.114872 0.0175635 -0.0442609 -0.056343 0.0770706 -0.0603074 -0.104561 0.230329 0.326291 -0.0602323 0.073884 0.129794 0.0627974 0.056016 0.0693772 0.0134354 0.194507 0.122569 -0.0205449 0.00571347 0.208288 0.0434175 -0.0246861 0.0365133 0.0362062 0.183348 0.0836867 0.203078 0.0596244 -0.0411131 0.00186187 -0.0361591 -0.0535253 -0.17378 -0.0644843 0.0640087 0.0152972 0.162725 0.0569495 -0.1076 0.0237633 0.214723 -0.00556083 0.269205 0.176001 -0.0211237 -0.14206 0.0662731 0.0749443 0.0588299 0.285801 -0.0390499 0.206514 0.128621 0.0482971 -0.0978318 0.0395161 0.183304 0.121732 0.101767 -0.0974107 -0.0594287 0.126594 0.111562 -0.182714 0.0216852 -0.0661609 0.0882112 0.0486344 0.0695272 0.00255887 -0.0959283 -0.081252 0.0296297 -0.0276704 -0.153663 0.197457 0.0206485 -0.0239078 -0.0657385 0.00870393 0.0683537 -0.23479 0.0255427 0.0496473 0.0346571 -0.0138228 0.16617 0.153574 -0.0709299 -0.0748393 0.0485821 -0.0639352 -0.110288 -0.113436 -0.169176 0.0500466 0.0603239 -0.311365 0.111426 0.0412564 0.00492997 0.0969866 -0.205869 -0.132107 -0.154464 -0.0155265 -0.0280081 0.0477122 0.0246046 -0.0984219 -0.0742678 -0.0406806 0.100674 0.00295517 0.0996275 -0.156513 -0.102737 0.22186 0.0516882 -0.018899 -0.0700979 0.145554 0.0775698 -0.11295 0.115149 0.111974 0.164505 0.164637 -0.0767425 -0.228418 -0.159941 -0.196659 -0.078306 0.137734 -0.0146898 0.0857882 -0.0181035 0.0389301 0.103733 -0.0530484 -0.240098 -0.172528 -0.0444119 -0.402782 -0.0610658 0.0352311 -0.143819 -0.0671101 0.0572428 -0.146405 -0.00984968 0.149957 0.0367395 -0.0955412 0.118443 0.0270347 -0.111984 0.050602 -0.0216074 -0.196922 0.057018 0.0127999 -0.0977677 0.00606168 0.0414556 -0.0102187 0.0589843 0.0875052 -0.0871335 -0.0538008 0.0627228 -0.0557259 -0.0403337 0.069145 0.0833806 0.0720462 -0.173271 0.0992478 0.0219287 -0.0174812 -0.0820724 0.290659 0.0761403 0.142411 -0.0599079 0.012452 0.162659 0.0656432 -0.0456212 -0.0418246 -0.0691141 -0.32682 0.0169849 0.107397 -0.119464 -0.0876444 0.0302851 0.113247 -0.0304509 0.113132 -0.0454525 0.0552246 0.0400808 -0.00351461 -0.0490327 -0.0693737 -0.0999279 -0.10207 0.153931 -0.0836288 0.101682 -0.152579 -0.112478 -0.0216115 -0.0757043 0.0406303 0.111301 -0.0239661 -0.0135495 0.0720774 0.0791176 -0.0149831 -0.0233643 -0.104389 0.065789 -0.0800155 -0.059545 0.0195372 0.0446444 0.0590662 0.149544 0.119532 0.0160766 0.0401807 0.0244471 -0.0508866 -0.0416572 0.12104 -0.102774 0.0431471 0.0321575 -0.087402 0.126564 0.0964712 0.0977799 -0.022275 0.028878 0.098386 0.0839385 -0.0122075 -0.131207 -0.01412 0.0716524 0.0299017 0.0659773 0.107724 0.0493394 -0.0933056 0.0653251 0.0941818 -0.0955488 0.00872257 0.0971559 -0.294091 -0.0595724 0.101731 0.0829991 -0.0887106 0.120942 -0.201075 0.0417832 -0.0976036 -0.207629 -0.199144 -0.0989093 0.0156162 0.0545746 -0.00433772 0.171281 -0.143059 0.0125436 -0.234397 -0.118233 0.191735 0.118707 -0.192961 -0.115295 -0.0650217 0.0767218 -0.156122 -0.0489669 -0.0274499 0.0461287 0.0104271 0.258559 -0.177766 -0.0929257 0.103944 0.0186931 0.177093 0.302636 -0.00289657 -0.0422635 0.0209358 0.0230991 -0.185957 -0.0608635 0.0209151 -0.0825704 -0.0721158 0.125267 -0.00840567 0.0868755 0.05013 -0.341293 -0.162744 -0.0826767 0.088112 0.0664185 -0.0347029 0.0234705 0.0324949 -0.179485 -0.118251 0.0116459 0.0337488 -0.0425072 -0.0471613 0.293349 -0.0610191 -0.20554 0.0881579 -0.0481359 0.0181877 -0.0251422 0.123746 0.0664756 0.0845746 -0.0273659 0.0330555 0.221732 0.199361 -0.100275 0.0857162 0.0122442 -0.0291559 0.00345448 0.132812 -0.0269876 0.0153371 0.0911194 0.109932 -0.108896 0.12334 -0.33876 -0.0906812 0.0186069 