-0.00862428 -0.0768496 0.0483866 -0.0760274 0.00235251 0.0526678 0.00237631 -0.0372389 0.032706 0.0141916 0.150237 0.0262847 0.072193 0.0553953 -0.00903979 -0.0238163 -0.0486176 0.0924953 -0.0661843 -0.189011 -0.0546679 -0.036887 -0.142519 0.00351946 -0.0632908 -0.000934671 -0.0130631 -0.048078 -0.00522545 0.0606776 0.0266442 -0.0529997 0.0990437 0.0569675 -0.0237203 0.0475435 0.0856221 0.00326761 -0.0201734 0.0813611 -0.0929903 -0.00927066 -0.0333039 0.00510484 0.118291 -0.000740521 -0.0287023 -0.0223006 -0.0430047 -0.112942 -0.0699063 0.0562382 0.0780563 -0.0937433 -0.0687278 0.110865 0.0111536 -0.0114767 0.100207 -0.14101 0.0400828 -0.00105382 0.0364153 -0.0847292 0.0788504 0.0393599 -0.101568 -0.00824189 0.0663977 -0.0155766 -0.029585 -0.0742757 -0.00967856 -0.0779507 0.052621 -0.00597738 0.00663705 -0.00489206 0.00115844 0.0805574 -0.0111616 0.0938818 0.0779345 0.0318602 0.00937686 0.00417254 0.00897437 -0.130987 0.0700462 -0.0159918 0.0657658 0.0700676 -0.0524604 0.00301479 0.141759 -0.00860982 0.0547966 -0.201995 0.095094 -0.0188682 -0.0350494 -0.0291501 -0.0410342 0.1132 0.0646362 0.0346836 -0.0878363 0.0395645 0.0389529 -0.00978609 -0.0655264 -0.0700095 -0.0498518 0.0648351 -0.0271209 0.0850656 -0.0253334 -0.0239168 -0.0318078 -0.0193979 0.0846489 0.0386904 0.0492687 0.0934335 -0.117073 0.0633858 0.00492222 -0.072722 0.117013 0.0506409 0.0109821 -0.0106284 -0.132144 0.0406274 0.174522 0.0564216 -0.138181 -0.0736968 -0.151009 -0.0716448 -0.0111265 -0.0189488 0.0828917 0.0638832 0.144045 -0.0355017 -0.0760226 0.0227497 0.0218243 -0.150373 -0.0110637 0.0846603 0.110928 -0.0280783 0.0745692 0.057464 0.0173593 0.0284582 0.000481978 -0.015615 -0.103952 0.0161023 0.102218 0.0619507 -0.0585715 -0.100461 -0.04587 -0.0219778 -0.0350856 -0.0587066 0.158852 -0.176404 0.0179636 -0.018829 -0.127771 0.0588628 -0.000926836 -0.0347744 0.0180568 0.119037 -0.0132503 -0.0160091 -0.0670702 0.0203591 -0.0351894 -0.111613 0.0171238 0.0262428 0.139935 -0.040957 0.0162369 -0.101857 -0.018964 -0.0891568 0.0628761 0.0349439 -0.0535389 0.0573185 0.0531803 0.0574625 -0.00862191 0.00309753 0.045645 -0.083793 -0.0924672 -0.0446893 -0.0221009 -0.0217093 0.0285552 0.0103013 -0.0106037 0.00261939 -0.00716327 0.00348397 -0.0526952 0.00230072 -0.051013 0.0376679 -0.019196 -0.0575256 0.0565969 -0.127491 0.0564372 0.0729579 -0.0128773 0.0406386 -0.111554 -0.0193092 -0.118607 -0.0442428 0.0102125 -0.105558 0.0295517 0.0507943 -0.0542508 -0.157989 -0.0736024 0.0387051 -0.115563 0.0803223 0.0896328 0.00259639 0.0793091 -0.102664 -0.107381 0.00741742 0.018339 -0.0365124 -0.0508652 -0.0996194 -0.0126171 -0.110588 0.00585928 -0.0299627 0.0304381 -0.141956 0.016284 -0.0473636 0.0335025 -0.0195969 0.0322136 0.0442746 -0.0821229 -0.0536519 0.127971 0.0798622 -0.0217776 -0.0469206 -0.0138346 -0.0228798 -0.00957398 0.0380489 -0.00974319 -0.0634635 0.0635652 0.103923 0.0695965 0.0552259 -0.0519192 -0.0138829 0.17535 0.217108 0.0559765 0.174269 0.135879 0.0674612 -0.0541473 -0.213385 -0.025097 -0.0323233 0.189744 0.0329114 0.0124617 0.0774171 -0.0172944 0.107957 -0.0415775 0.10579 0.0382586 -0.15782 0.0380729 -0.0851572 0.0278022 -0.112355 0.0150524 0.00857765 0.0475425 -0.108935 0.0851315 -0.022824 0.0514187 -0.199184 0.117885 0.0436234 -0.0191693 -0.0645087 -0.0696574 -0.171899 -0.0643225 -0.042375 -0.126133 0.0125762 0.089812 0.0250124 0.00845129 0.0465485 -0.011839 0.0145211 -0.0254507 0.0130443 0.124404 -0.0592517 0.0403339 0.0468755 -0.00231924 0.0679737 0.0983906 -0.0916778 0.0501809 -0.0622444 -0.0158351 0.0683484 -0.00126517 -0.282069 0.0646897 -0.125003 0.000589087 -0.140208 -0.0811471 -0.0129306 -0.144365 -0.0708347 -0.0120952 0.032949 0.147746 -0.0189051 -0.0262524 0.0368791 -0.0483721 -0.011937 -0.0436217 0.0788637 0.0630564 0.036784 -0.0984629 0.00570312 0.0115267 0.0570144 -0.103915 -0.0172484 0.0863106 0.0598465 -0.0661684 -0.087629 -0.0758636 0.0585167 -0.0151731 -0.00352508 -0.131432 0.0664475 -0.0654708 -0.0775736 -0.0778735 0.0750577 0.0490876 -0.0604077 -0.00134154 -0.058336 0.0343167 -0.0111638 0.118842 0.169819 -0.169046 0.0347765 -0.0516789 0.058583 -0.0191543 -0.142884 -0.0499758 0.110329 0.0286861 -0.087615 0.103566 0.0800549 -0.0341371 0.102204 -0.0342041 0.0182276 -0.052017 -0.087941 0.00986616 0.0637764 0.0488695 0.0768995 -0.102492 -0.0212742 0.000301904 -0.048341 0.118591 0.0192756 0.0963504 -0.000753099 0.0268682 -0.039857 0.0599829 -0.0742864 -0.0630331 -0.0167072 0.0159818 0.051269 0.0293451 -0.00569369 -0.132967 -0.133383 0.0354501 0.187657 -0.108944 -0.116244 -0.00891924 0.0122953 0.0880039 -0.0413199 -0.0134771 0.0717137 -0.0871281 0.00487619 -0.0452403 0.115721 0.0368346 0.050699 -0.0553634 0.0251133 0.0755131 0.0303633 -0.12168 0.0719318 0.0716673 -0.0394005 -0.126807 0.0135278 0.110042 -0.035494 0.0268242 -0.0833298 0.0651433 -0.134033 0.0247016 0.0268904 -0.137085 -0.0586799 0.0124654 0.0212454 0.0381687 0.0942328 -0.0538367 -0.0267054 -0.0188483 0.114759 0.053316 -0.076908 -0.0275958 -0.0363358 -0.0413137 0.00917886 0.0352615 -0.102899 -0.0204489 -0.106677 0.00166856 0.0535225 0.0220126 0.0722917 0.105438 0.0905525 -0.0717314 0.011408 0.00938441 -0.0794179 -0.0226748 0.058288 0.0372206 -0.0180326 0.129489 -0.0357104 -0.168146 -0.0534995 0.107805 -0.201253 -0.0538929 0.12256 -0.0458278 -0.112265 0.0618138 0.100178 -0.141906 -0.00605549 -0.0222 -0.0708584 -0.0794411 -0.0399659 -0.0997926 0.0159706 0.174102 0.0228336 -0.0326625 0.0306097 0.187908 0.061172 0.0629208 0.0318829 0.0823005 -0.0593879 0.0850625 -0.150505 0.102866 0.104442 -0.0071907 -0.020345 -0.0234304 -0.0875356 -0.0550552 0.101734 -0.013884 -0.0582132 0.0375142 -0.143071 -0.0616483 -0.00751029 -0.00095008 -0.0768945 0.0727144 0.0017019 -0.0422262 -0.0582162 -0.0543798 0.00176108 -0.00638626 0.00410984 -0.104305 -0.0319948 0.0539539 0.0809584 -0.0651874 0.0360557 0.037049 -0.0708616 -0.201302 0.106537 -0.00842938 -0.062416 0.05801 0.0230684 0.0105706 -0.0675937 0.00861759 0.0702391 0.0551929 0.00286868 0.113722 0.0181852 -0.0250621 -0.0727432 -0.0207149 0.0303015 0.0393876 0.0663455 -0.0644628 0.00203936 -0.0452023 0.0800662 0.0459535 0.0868668 -0.00831806 -0.0832382 -0.0232015 -0.0828948 -0.0825537 -0.0956724 0.0780715 -0.100224 -0.117697 -0.000559703 -0.058777 -0.0582634 0.0851055 0.0168065 0.0651238 0.00714242 0.0968785 -0.0505653 0.0443371 0.0880012 -0.0141872 0.0243064 0.0383184 -0.0495318 -0.00903105 -0.0270367 0.0248274 -0.0914228 0.102284 0.0187601 0.0399952 0.0227773 0.00709633 0.0219101 0.0654224 0.0800291 -0.0336742 -0.0520825 -0.00944052 0.0591119 0.0112173 0.0682789 -0.060065 -0.0526028 -0.0393887 -0.14049 0.0713796 0.0407761 0.116211 0.0197307 -0.0370784 0.102875 0.0716746 0.0898173 -0.0673299 -0.0758193 -0.00491396 0.0260919 0.0315317 0.0914689 -0.103283 -0.110345 0.12711 0.0377374 -0.125319 0.0257515 0.0176937 -0.0443993 0.0291151 -0.0843447 -0.0239743 -0.0582496 -0.11775 -0.00423364 0.0491336 -0.0289989 0.0194285 0.0012089 -0.0815294 0.00555512 -0.0628869 -0.00434388 -0.0316207 -0.0799399 -0.0386797 -0.0519025 -0.0505676 0.0519153 0.0584513 0.198893 -0.0799941 -0.130486 0.00825525 0.051868 0.0885504 -0.028981 -0.0367674 0.063464 0.0112928 -0.0443399 -0.0351197 -0.0305309 0.0168022 -0.0221764 -0.0149283 -0.0221035 0.0735551 -2.45928e-05 0.011643 0.00450935 0.034281 0.0621653 -0.0936761 0.116013 -0.0507953 -0.182589 -0.0415709 0.0635342 -0.182926 -0.0663887 0.146351 -0.0333011 0.134419 0.0499644 -0.0918553 0.0635672 -0.0491112 -0.0568911 -0.0135659 0.120512 -0.00963734 0.0163516 -0.0197571 0.139334 0.0894374 0.00170566 0.097569 -0.0373204 0.149777 -0.050015 -0.0619462 0.0657896 0.0367416 -0.0408135 0.0787896 -0.0294725 0.035939 -0.0269861 -0.0354552 0.107546 -0.121023 -0.0844518 0.0377644 -0.0345116 -0.00576474 0.0327302 -0.0426565 0.113227 0.00815169 0.00173391 -0.0789373 0.0533458 -0.0603292 0.0308098 -0.0502995 0.0116761 0.0462412 -0.0590928 0.0377341 -0.0317368 -0.0505424 -0.0620091 0.0281592 0.0769391 0.122729 -0.0231007 -0.0626104 -0.0137836 -0.109228 -0.0272725 0.0512532 0.151463 -0.146796 -0.027015 -0.0319249 0.0508679 0.0508258 0.0278788 0.00909923 -0.0942161 -0.0649941 0.0551558 0.0470913 -0.0385387 -0.156822 -0.0134445 -0.0357355 -0.0630547 0.0838646 0.0232528 0.0275741 -0.0973304 -0.0335906 -0.0601241 -0.0252043 -0.00722589 -0.0587245 0.0333633 0.127916 0.0443069 -0.0869498 -0.0105818 0.137959 0.115779 0.00592006 0.124932 0.178241 -0.0527826 -0.0621242 0.0905397 -0.0817245 -0.0220029 0.0680113 -0.033974 -0.0479475 -0.00648875 -0.0832565 0.0411889 -0.0715866 0.101551 0.0130982 -0.0157927 0.120558 0.0208898 0.127062 0.030463 0.0683979 0.0735144 -0.0832832 -0.031129 0.0769271 -0.0752892 -0.0941653 -0.00288725 0.0115826 -0.111292 0.0896734 -0.0827221 0.0856518 0.0258679 -0.0359144 -0.020123 0.0457491 0.0434061 0.00146066 -0.00565296 -0.0789995 -0.0828056 0.0416312 0.0551777 -0.0274979 -0.0553243 0.0653942 0.0200618 0.0850609 -0.0345391 -0.0380739 0.0127985 -0.121572 0.0660698 -0.0469162 -0.0343031 -0.0263129 0.0131529 -0.0405354 -0.0485821 -0.0390841 -0.0770794 0.0389483 0.0147324 0.0435079 0.0823754 -0.0402617 -0.0528887 -0.00116279 -0.0314202 -0.017856 0.0213758 0.0447575 -0.038602 -0.0936096 0.0129107 -0.0221465 0.0395366 0.0951703 -0.0730064 -0.134585 0.0638811 -0.0704957 -0.082869 0.0365483 0.0136826 -0.0457337 0.0700978 -0.0297938 -0.0120501 0.0049458 -0.099323 0.157374 0.0604685 -0.0333449 -0.0313941 -0.0117279 0.0486421 0.0390426 -0.0397597 0.0192893 0.0883223 0.0566733 0.0866962 -0.0931078 0.00197134 -0.0234089 -0.120071 0.178073 0.029076 -0.0562349 0.0887604 0.00986562 -0.0135694 -0.0703456 -0.023359 0.0437678 0.117538 -0.012148 -0.0428313 0.025143 -0.0649788 -0.0897733 0.0937237 -0.0651422 -0.00265438 -0.0159464 -0.0744638 0.0324976 -0.112523 -0.0278095 -0.0252042 -0.0591538 0.014721 0.0449407 -0.0169467 0.0269474 0.0931946 0.00510833 0.0968926 -0.0807244 0.110039 0.0186436 -0.0955439 -0.0741952 0.0634285 -0.0651998 -0.0517922 -0.13492 0.00546853 0.0385023 0.06617 -0.0412204 -0.0335006 -0.0355778 0.016937 -0.0243424 -0.0341348 -0.0254124 0.0691909 0.0445218 -0.0701701 -0.0477498 -0.0399767 -0.0680033 -0.0373274 0.0380769 0.0124941 -0.0127727 0.0725163 -0.0600423 -0.0463205 0.0957977 -0.0654382 0.0202383 0.0635693 0.122216 -0.0640551 -0.0378889 0.201832 -0.0713795 0.0413723 0.0144914 -0.0435343 -0.0616629 -0.0380318 0.0810391 0.0656516 0.0133262 -0.040554 0.0420652 -0.00174504 -0.0961187 -0.0237191 0.0246243 0.0476578 -0.0298313 0.0752726 -0.0910898 -0.0812295 0.0290713 0.0655249 -0.289846 0.135733 0.0321793 -0.011723 -0.156332 0.0480964 0.0260881 0.0119596 0.0430867 0.168104 -0.155951 0.0363797 -0.0677466 0.0177151 0.00652274 -0.0472237 0.0876921 0.053274 -0.0817687 0.0589232 0.0622308 0.101577 0.023094 0.020675 0.00300943 -0.0381665 -0.0371623 -0.0671532 -0.0528764 0.186827 0.065029 0.0413932 -0.117322 0.0609294 -0.042609 0.0474954 -0.0588117 -0.0460917 0.0752012 0.126328 -0.0997142 -0.0246696 -0.00952913 0.0295227 -0.0245035 -0.0321417 0.0362452 -0.0413824 -0.0996669 0.109026 -0.121994 0.155591 -0.0907103 -0.00200392 0.0702797 0.0457627 -0.0359939 0.0930387 0.0496608 0.0251279 0.0117693 -0.0650634 0.0125383 0.0433444 -0.178704 0.0555973 -0.120333 0.0145582 -0.0839766 0.0603289 0.021815 0.11474 0.0879843 0.026035 -0.0730262 0.0865005 0.0240491 -0.0340835 -0.00661439 -0.0431007 -0.149319 0.0651762 0.0126917 -0.118432 0.0566508 0.00215082 -0.114022 0.00352587 0.0171758 -0.116721 -0.0771144 0.059263 -0.10774 0.104792 0.127186 -0.0190542 -0.0458943 0.023358 -0.0385891 -0.0219101 -0.0256564 -0.0282771 -0.0630793 0.0510163 -0.00513224 0.0610366 -0.0460391 -0.0319376 -0.0882193 0.0882609 0.0290833 0.055904 -0.0625401 -0.0445847 0.0159586 0.0591148 0.0206432 0.0579464 0.00630993 0.0808679 -0.0175624 -8.00656e-05 0.0140576 -0.084955 -0.0814663 0.064587 -0.156532 -0.0419773 -0.0235554 0.0156492 -0.108876 -0.193138 0.121192 0.0844535 0.130039 -0.119876 0.174192 -0.0777705 -0.101863 -0.029016 0.0348875 -0.0138961 0.15091 -0.0527813 -0.00886024 -0.00620859 -0.0555466 -0.0556899 -0.0703974 0.197218 -0.0694124 0.0257075 -0.0535171 0.192415 -0.031364 -0.150433 -0.027767 0.134135 -0.0189409 -0.084581 -0.0182986 0.118723 0.0256493 0.0600351 0.217865 -0.0687574 -0.0640171 0.0112813 -0.0357216 0.109367 0.0829597 -0.0272941 -0.0848677 -0.0907399 -0.0914071 0.102104 0.0879324 0.140031 0.128949 -0.0806339 -0.0745168 0.0575853 0.0323653 0.0735 -0.0623054 0.0866574 0.00635982 0.0320174 0.00350468 -0.031025 -0.00157283 -0.131778 -0.0306683 0.109056 -0.00112368 -0.0116178 0.133568 -0.0470139 -0.15349 0.0862127 -0.133488 -0.00282445 -0.0278067 0.0608871 0.0427626 0.0315363 0.0321307 -0.0772914 0.0146807 0.0519451 0.123796 -0.0362581 -0.0516197 0.133856 0.134258 0.062449 0.0672273 0.10072 -0.0123462 0.0238077 0.0159958 -0.215247 -0.0512262 -0.0249375 0.0348818 -0.0285947 0.00172869 0.115463 -0.0312714 0.081895 0.0107211 -0.042051 -0.105789 -0.0508543 0.0733328 -0.129866 -0.0180691 -0.116896 0.0071402 -0.063562 -0.0110892 -0.0168509 -0.0978157 -0.00647221 -0.0171215 0.0555496 -0.156796 0.0386476 -0.031902 0.0187835 -0.0290768 0.060217 0.0216662 0.0617175 0.0426132 -0.00691426 -0.0711927 -0.15902 -0.0555032 -0.112896 0.0966739 0.0466864 0.0226768 0.0222701 0.0688202 0.0143237 0.152946 0.0476857 -0.0560833 0.125108 -0.0344703 0.111668 -0.080942 0.070356 0.0550293 -0.0854195 -0.00102079 -0.0275823 -0.0176277 -0.0694277 -0.14705 -0.0156896 -0.00874178 -0.039441 -0.0897474 0.137054 -0.0563758 0.00778912 0.133244 -0.0647671 -0.0427397 -0.0693271 -0.0573071 0.10088 -0.0179651 -0.0388959 0.0749911 0.0749802 -0.0375869 0.0646107 0.0165742 -0.00101633 0.0175822 0.0462377 0.0325923 0.0235077 -0.026989 -0.0890126 -0.0290699 -0.0530234 0.0330863 0.033699 -0.0775828 -0.018742 0.0953054 -0.0512489 0.0896713 0.0550314 -0.0429085 0.101532 -0.0195609 0.0442206 -0.0914078 0.0138691 0.0897478 -0.0226188 -0.00477289 0.058678 0.136999 -0.0125335 -0.0129958 0.118362 -0.0454807 0.00783032 -0.0206499 0.129212 -0.0032194 -0.0944459 -0.0265152 -0.00134579 0.0314361 -0.0632749 -0.100295 0.0634182 0.0406687 -0.0358121 -0.0467362 -0.0530689 -0.0179967 -0.0474841 0.167722 0.0593842 -0.0101625 -0.0473385 -0.0782007 0.11928 0.166337 0.0131317 -0.00010248 0.0585007 0.00130805 -3.72737e-05 0.0402012 -0.0308899 -0.103462 -0.0145224 0.0680316 -0.0716416 -0.176518 -0.157018 0.00915472 -0.100999 -0.13307 0.0288251 0.0495393 -0.188601 0.0139869 0.00531256 -0.117548 0.0391166 0.0671013 -0.000421566 0.0509855 0.0283072 0.103286 0.207987 -0.0373672 0.0920891 0.144551 0.0103931 -0.0631751 0.233244 0.0733909 -0.111053 -0.250237 -0.28426 -0.268208 -0.176779 0.0504632 -0.0182275 0.0316078 0.105022 -0.0511849 0.0115761 -6.09327e-06 0.0756224 -0.0315435 0.0205015 0.0251194 -0.0645228 0.0308901 0.0161173 0.242961 0.173049 0.167834 -0.106823 -0.0205739 0.106445 -0.123047 0.0401878 0.00392196 -0.0493615 0.0130905 0.0857911 0.0401084 -0.0242321 0.0254932 0.0827849 0.00134323 0.0730986 0.065266 -0.0535633 -0.0341924 -0.0751239 -0.0713615 0.0199585 -0.0923023 -0.0368945 0.020441 0.0180802 -0.0191736 0.0447967 0.00601121 -0.0163749 0.0546927 -0.0297162 -0.00483022 -0.0601889 -0.000146062 0.0299597 -0.0670277 0.118046 0.0304327 -0.0378092 -0.111857 0.0149113 0.000117808 -0.0534106 -0.00470324 -0.0413857 0.0288685 -0.0824511 0.14567 0.0199502 0.129818 0.0237709 0.0455014 -0.0171041 0.011577 0.00109615 -0.0559758 0.0726343 -0.0276105 0.0337573 0.0301852 -0.0689921 0.12161 -0.0266454 -0.0142884 -0.122527 0.11948 0.117046 0.022608 -0.0480559 0.0424744 0.0294217 -0.0632583 0.0671198 -0.144708 -0.0105791 0.0763136 -0.134716 -0.0254366 0.0885835 0.0570241 -0.0869278 -0.00299612 -0.054421 -0.0282525 0.0697851 0.117859 -0.112614 0.0243788 -0.0291182 0.0276063 -0.083748 0.0232312 0.0433651 0.0119171 -0.0193234 -0.0101031 0.0373438 -0.114553 -0.131444 -0.00461668 -0.0427157 0.0188108 -0.0271032 0.00785154 0.105451 0.0699735 0.133872 0.123733 -0.0138083 -0.0125968 -0.00821589 -0.0971246 -0.0874088 -0.107887 -0.0119585 0.0786873 -0.0539086 0.0170685 0.110247 0.0298671 -0.110169 0.0512578 -0.09489 -0.0918577 -0.00625304 0.0396024 0.062066 -0.0769728 0.017312 0.0368817 -0.00817484 -0.0711754 -0.0939695 0.0472372 0.0766161 -0.058635 0.0579223 0.0468567 0.00158189 -0.034805 0.00847905 0.042134 0.0614897 -0.162654 -0.018409 0.0475196 -0.0308983 0.0382165 -0.0543395 0.0346301 -0.0207978 -0.0190266 -0.056773 0.0357906 0.0523335 0.043696 0.010626 -0.0370075 -0.0210882 -0.122308 0.0445043 -0.0166281 -0.0707588 -0.0156363 -0.0822386 -0.0581509 -0.0373169 -0.0665727 0.00417131 -0.0614614 0.0382879 0.052335 0.0579596 -0.10394 -0.0925303 -0.0896361 -0.0370128 -0.0697618 -0.0565687 -0.0549157 0.00167655 0.0513945 0.00561114 0.0628103 -0.0389373 -0.113739 0.0951215 0.0508648 -0.0570036 0.0374752 0.0572124 0.01545 0.0595388 -0.00214937 -0.0265213 0.0525387 -0.000228671 0.0426922 -0.0224444 -0.0816591 0.0927328 -0.0874608 0.012995 -0.0464793 0.0855874 0.0285526 -0.0746178 0.00143598 0.0402849 0.0243712 0.0217043 -0.0365449 -0.0122789 0.12061 -0.163129 -0.122792 0.0515395 -0.11236 -0.0598482 0.117507 -0.0468766 0.0264551 0.0746029 -0.135113 0.0964925 -0.00720958 0.039774 -0.0430028 0.0428483 -0.00618744 -0.122092 0.00137615 0.0168923 0.00602356 0.118535 0.0508294 -0.0417587 -0.0872528 -0.0344904 0.199553 -0.0656006 -0.067307 0.0297211 0.106083 0.00956326 -0.00670879 -0.00927575 -0.0460602 -0.0343994 -0.0335529 0.117883 0.0545538 -0.0160717 0.0008433 0.00755623 -0.0317128 -0.0985873 0.0309565 -0.0226741 -0.0297477 0.0255857 0.0471273 -0.00148221 -0.118693 -0.0938098 -0.0197294 -0.174876 -0.085461 0.0261286 0.0422945 0.0473474 -0.188922 -0.0859385 0.107335 0.101098 -0.0301322 0.00542115 -0.00444811 0.140825 -0.198617 0.015082 -0.0238345 -0.0183491 -0.0177348 0.0361921 -0.0416247 0.0787074 0.0697095 -0.00829056 0.111629 0.0954956 0.0915954 0.0134193 0.0568783 0.131974 0.0215391 0.0657311 -0.263681 0.0315111 0.0206385 -0.0766497 -0.00968982 0.0730421 0.0492895 -0.0375832 -0.0113687 0.00224383 -0.0262401 -0.0350943 -0.0507232 -0.0309361 -0.0177793 0.00536394 -0.0859623 0.0122727 0.168722 -0.0860352 -0.125273 0.0122337 -0.0975254 -0.0401147 0.0374785 0.0403841 -0.044659 0.0959286 -0.0069669 0.0219888 0.128149 0.102374 0.133599 -0.00420261 -0.214221 0.0771376 0.0234893 -0.102952 0.0592103 -0.0696424 0.0418348 0.0690149 -0.0332249 0.011323 -0.0990529 -0.167294 -0.0788287 -0.108492 0.0160758 0.0788598 0.0595355 -0.15689 -0.0107957 -0.0370902 0.0255372 0.0641569 0.0922955 0.0192031 -0.134243 -0.119166 -0.106397 -0.144368 -0.0600137 -0.00368924 0.0588896 -0.00375809 0.0336793 0.144576 0.0186999 -0.0172556 -0.134896 0.0092401 0.0588733 0.117306 -0.000756001 0.0255655 -0.0670765 0.0237462 -0.114482 0.0318509 -0.0107741 0.0573178 -0.154998 -0.0145514 0.0632801 -0.000598539 0.0880152 -0.0534113 -0.0478158 -0.0236001 0.0368223 0.0339118 -0.0204299 -0.169252 -0.0415523 0.0173239 -0.0874999 -0.000345707 0.10601 -0.0687103 -0.0165027 -0.0987011 -0.0385812 0.0492575 -0.117063 -0.0392551 0.107831 0.0367245 -0.0121168 0.0117567 0.167957 0.12514 -0.0176191 -0.0779046 0.115336 0.0361991 -0.0846977 -0.167264 -0.0708108 0.0806166 0.053032 0.125504 -0.0159149 0.0794205 -0.0137336 0.0674419 -0.0072967 -0.0444223 -0.0491726 0.0497147 -0.0512668 -0.0807423 0.143598 0.196983 -0.111332 0.0457869 0.166213 0.181075 -0.0896459 -0.0774222 -0.0570753 0.126637 0.0533014 -0.0421679 0.0338679 0.121029 -0.150912 -0.0708695 -0.0152035 0.0548608 0.00793035 -0.0586337 0.0750292 0.00255995 -0.0980872 0.0375073 0.0601715 0.0704125 -0.0865153 -0.00301329 -0.002874 -0.0250092 0.223083 0.0386264 -0.21667 -0.062915 0.0968661 -0.073371 0.130303 0.0881732 -0.0690062 -0.168694 -0.0287232 -0.0446414 0.0656085 0.188546 0.0256315 0.143272 0.00104636 0.0695934 -0.00507153 0.0728994 0.10219 0.0540178 0.0453985 -0.0633537 -0.0518133 0.0608517 0.0634605 -0.111889 0.0168789 -0.0397862 0.0489636 0.026099 0.0410007 -0.00496923 -0.0639096 -0.0474443 0.02304 -0.0165763 -0.0968462 0.120628 0.0114786 -0.0205396 -0.03827 0.00627862 0.0405888 -0.14487 0.0137875 0.0273155 0.0164004 -0.00456846 0.104912 0.094718 -0.0218225 -0.00889394 0.0598456 -0.0320644 -0.0659073 -0.0769856 -0.0814622 0.0390179 0.0223963 -0.19765 0.0307737 0.0413778 0.0526291 0.0906608 -0.0935085 -0.0595048 -0.0970828 -0.00211688 0.0111848 0.0633871 -0.0209206 -0.114344 -0.0739707 -0.00375935 0.016364 -0.010788 0.0194327 -0.0715139 -0.0415948 0.218988 0.0786805 0.0621997 -0.0799096 0.142104 0.0362143 -0.105309 -0.0230504 0.0624144 0.0568136 0.0744337 -0.0797453 -0.0679663 -0.0948267 -0.104127 -0.0766296 0.154651 0.0426438 0.064283 -0.0801871 -0.015212 0.0164946 -0.0363476 -0.199872 -0.0987315 -0.0305205 -0.205049 -0.00635353 0.0314403 -0.05526 -0.0223895 0.046054 -0.0666418 0.0296407 0.118644 0.0355971 -0.0527632 0.0786913 0.0318444 -0.0562033 0.041947 -0.00212955 -0.109372 0.04214 0.00367242 -0.0581894 0.00130249 0.0172247 -0.0135842 0.0301277 0.0413735 -0.132223 -0.09059 -0.00203704 0.00955672 -0.0350327 0.110415 0.0593018 0.0511863 -0.0429854 0.0805339 -0.0797811 -0.0467419 -0.0368155 0.121301 -0.0177328 0.0447633 -0.0465419 -0.00725475 0.097403 0.0312999 -0.0952547 -0.0113442 -0.0143034 -0.182355 0.0462405 0.0767844 -0.0276655 -0.0325797 0.056179 0.13181 -0.00992839 0.0738119 -0.0377773 0.0848293 -0.0329093 0.0358139 -0.0445984 0.0510473 -0.0648115 -0.044383 0.0851728 -0.00226412 -0.0272139 -0.0709786 -0.129344 0.0491677 -0.100652 -0.00315706 0.118892 0.0211405 0.0119847 0.082581 0.102672 -0.0282834 -0.0601924 -0.0923438 0.0193722 -0.102928 -0.120267 -0.0142192 -0.0457806 -0.0032047 0.0417664 0.0817834 0.0209568 0.0261142 0.0157817 -0.0306267 -0.0126919 0.0700486 -0.0609209 0.0236637 0.0304169 -0.0570729 0.0765221 0.0622253 0.0695215 -0.0157034 0.0143831 0.0613315 -0.00112359 -0.0991016 -0.0879189 -0.0159187 -0.00234063 -0.00130764 0.0367488 0.0760611 0.0538238 -0.0631786 0.0888745 0.114183 0.0146379 0.0485233 0.0719228 -0.118578 0.0996123 0.18603 0.224756 0.0368802 0.115177 -0.0773228 0.00390195 -0.116697 -0.271993 -0.268521 -0.187132 -0.090917 -0.030149 0.0121188 0.198871 -0.0547888 -0.0734232 -0.171164 -0.088473 0.0667006 0.0960549 -0.0364921 -0.0619339 -0.0349647 0.0362237 -0.0825794 -0.00770329 0.00915064 0.0125284 -0.0391668 0.124049 -0.119954 -0.0563348 0.0630093 0.0115576 0.107283 0.183542 -0.00170837 -0.0256225 0.0127788 0.0139976 -0.11262 -0.0368345 0.0126756 -0.0500516 -0.0436818 0.0760181 -0.00506785 0.0527855 0.0304312 -0.206904 -0.0986517 -0.0501208 0.05348 0.0403672 -0.0210042 0.0142631 0.0196564 -0.108812 -0.0716822 0.00710437 0.0205069 -0.0256886 -0.0285541 0.200562 -0.0933942 -0.129866 0.0828753 -0.0259153 -0.0333107 -0.0281588 0.0748457 0.00633143 0.0120153 -0.0106102 0.0249967 0.122359 0.0691863 -0.0417339 0.0583969 0.0655734 -0.0250255 -0.0532987 0.0449682 0.0139362 0.00266058 0.0165315 0.0372214 -0.0907682 0.0233916 -0.226927 -0.0739927 0.0380933 -0.0212621 0.0445554 8.13446e-06 0.0212526 -0.083083 -0.136073 0.0216887 -0.252233 -0.00878825 0.0688122 0.0860822 -0.294732 -0.0718796 0.010908 0.026058 -0.147786 0.0901936 0.0694919 0.0912334 0.00736121 0.0504257 -0.189646 -0.0473485 0.0395348 0.0281524 -0.103 0.0260961 0.0197914 0.0282656 0.00764338 0.18193 -0.026915 -0.0187069 0.0649955 0.0842541 0.0194873 0.016229 -0.0238868 -0.0900226 -0.079107 0.0801616 0.0272606 0.0571272 -0.0852134 -0.0683025 0.0530231 0.101034 0.0556918 -0.0345168 0.0255078 0.0882205 0.151551 0.0793318 -0.0884762 -0.0237497 0.0107053 0.239035 -0.146803 0.0174496 -0.118132 0.155662 0.0586334 -0.109403 -0.11246 0.103964 -0.0153558 0.0603713 -0.0202847 -0.185662 0.0800835 0.0654104 -0.214794 -0.0622446 0.0842604 0.0515249 -0.124396 -0.0968964 -0.101246 -0.0139639 -0.147804 -0.00665657 0.0148088 -0.134379 -0.173805 -0.182018 0.0696783 0.132823 -0.165689 -0.105356 -0.0280239 0.0922635 -0.0821587 0.298081 -0.0211903 -0.0230401 -0.0731581 0.213845 0.0345901 -0.0917599 0.0733361 -0.0723425 0.100641 0.00674802 0.0299325 -0.0342587 -0.127317 0.0460249 0.0118385 0.0831269 -0.0627134 -0.0775949 0.0230005 0.0297501 -0.0598693 -0.0406993 -0.141776 -0.065722 -0.0158939 -0.0135566 -0.0928377 0.00838694 -0.00194792 -0.0547286 -0.0602794 -0.161356 -0.0204245 0.00289223 -0.0351747 0.129124 0.0220902 0.0325796 0.0766503 0.0895576 0.0927256 -0.28205 -0.111965 0.0540402 0.0632183 0.100623 -0.193924 -0.00536133 0.0117221 -0.106829 -0.0766249 -0.202665 0.0540949 -0.0674832 0.132848 -0.155079 -0.113019 0.02248 0.313903 -0.135809 -0.189773 0.0680274 0.229294 -0.167113 -0.207757 -0.242927 -0.001152 -0.0427893 -0.116671 0.106968 -0.0603015 0.118847 0.0287669 -0.109904 -0.0827673 0.01953 0.0394346 0.0105689 0.0919564 0.0324748 0.00470125 0.0439746 0.0208896 0.0595237 -0.024236 0.121218 0.0430774 -0.0420486 -0.0285889 0.0630446 -0.103312 0.0762 0.0729133 -0.0599735 -0.00297138 0.0833205 0.113759 0.0537223 0.121651 0.00880714 0.0419098 -0.00113759 0.0438307 -0.0297066 0.0175273 -0.0652038 0.00746418 -0.0327944 -0.0392968 0.136863 -0.0184474 0.0704542 0.0687877 0.000691022 0.0357919 -0.0433025 0.054879 0.0390934 -0.149432 -0.0163911 -0.0848868 -0.0173567 0.0887845 0.0227693 -0.0396781 -0.0658969 -0.0485455 -0.0266942 0.014321 -0.225497 0.0183345 -0.0844324 -0.0163165 -0.00308079 -0.112906 -0.0114838 -0.109688 0.00332617 0.0827724 -0.0168342 -0.15359 0.0110023 0.0705221 0.00823697 -0.0355268 -0.0766313 0.048609 0.0271976 0.0190605 -0.0913513 0.148175 -0.0172817 -0.0837445 0.0275259 0.0446269 -0.00147966 0.042408 -0.0134726 -0.0552387 -0.00628289 -0.0568869 -0.0366729 0.0270336 0.0584895 -0.0225454 -0.0333462 0.0315935 -0.0889594 -0.0637442 0.0770273 -0.0941245 -0.0673954 -0.203233 -0.17939 -0.0348147 -0.123039 0.0641647 -0.144869 0.0218717 -0.108003 -0.0611875 0.000831535 -0.125333 0.0255365 0.0538513 -0.0970481 -0.080898 0.0359243 0.156859 -0.00815077 -0.0917109 0.108734 -0.0166505 0.038387 -0.0584583 0.0509126 -0.030884 0.0585515 -0.00383912 0.0367921 -0.014694 0.102246 -0.105698 -0.0607876 -0.0913895 0.0894373 -0.0202938 -0.0716086 -0.00734542 0.122578 -0.0381866 0.0647515 -0.0195178 0.11273 0.00522347 0.0365376 -0.0220047 0.0154795 -0.00341263 0.0937725 -0.0178771 0.0763158 0.0894677 0.0501256 -0.103382 -0.109174 0.0536932 0.00717832 -0.00652827 -0.121713 0.0180482 -0.0342035 -0.009559 0.00350426 -0.0320314 0.00803709 -0.0574201 0.145816 -0.0750398 -0.063804 -0.0186464 0.00132754 0.0335811 -0.0709713 -0.0529838 -0.04182 0.0838031 0.228878 0.0618107 0.104761 -0.0494788 0.0671245 0.116448 0.101837 0.0248924 -0.0642756 0.0274487 0.113263 -0.120929 0.0510906 0.0494917 0.0931768 0.0368374 -0.0249029 -0.0870363 0.0495806 0.116781 -0.0544745 0.0798491 -0.00647262 0.00786486 -0.0369949 -0.0181378 -0.0628617 0.0856622 -0.112782 0.0382144 0.045564 -0.0193344 0.0579282 -0.232517 -0.0879382 0.0965308 0.0123334 -0.0124149 -0.0442465 -0.0847828 -0.0125235 -0.0772687 0.0461352 -0.146215 -0.0471292 -0.0720742 -0.115207 -0.00162225 -0.0356649 0.0282322 -0.038426 -0.0632313 0.0539243 -0.0364955 0.100129 -0.0694236 -0.133798 0.118842 -0.0144476 0.083588 0.0756849 0.070364 0.00540452 -0.0871591 -0.160273 -0.0563409 -0.0690278 -0.162742 0.112031 0.0225355 0.0675651 -0.00267449 0.0286297 -0.0831791 -0.0208463 0.0283122 0.00664857 -0.117495 -0.0645331 0.0569127 0.00697281 -0.164882 -0.00519782 -0.0858893 -0.0215776 -0.0667647 0.0757792 -0.0158965 0.109197 0.0317379 0.132914 0.0329834 -0.0257989 -0.0853291 0.0163738 -0.0867534 -0.0102031 0.0320658 0.117822 -0.0808212 0.113584 0.0640446 0.0982739 0.0756584 0.0270345 -0.0898513 0.0434243 -0.0209787 -0.194894 -0.108909 0.133298 -0.0121092 -0.116966 0.0738742 0.0365534 0.00473213 -0.125817 -0.0140021 0.0995763 -0.126077 0.00714919 -0.0150962 0.0914834 0.0320584 0.0917394 -0.0086735 0.0029981 0.00607066 -0.0793249 -0.079686 -0.105988 0.0936318 -0.0665434 -0.028502 0.0532824 0.0859373 -0.0781531 0.0306087 -0.0271899 -0.0230025 0.0956848 -0.0916466 -0.00152681 -0.0832945 -0.0712608 -0.00635757 0.0727798 0.0182298 0.0763829 -0.0213617 0.0724384 -0.020776 0.0600744 -0.0151019 0.0793687 -0.133491 -0.24173 -0.0839239 -0.0304537 -0.0532358 0.0241229 0.00868796 0.100272 -0.0132756 -0.0601444 -0.0244891 0.126528 -0.0417086 -0.000306025 -0.0353372 0.010619 -0.0218097 -0.0863487 -0.0653381 -0.0273637 -0.0775138 -0.0537254 0.0058983 -0.0408373 -0.0236519 -0.0635575 0.0672814 -0.125503 0.0218565 0.0629287 0.0322359 0.0116829 -0.0882076 -0.125464 -0.022887 -0.0810094 -0.123617 0.0378635 0.0461506 0.109453 -0.0777711 -0.0428779 0.0655486 0.0654153 -0.0654373 0.022362 -0.159672 -0.00337213 -0.0785196 -0.0375762 -0.0104055 0.162593 0.0976434 -0.0605475 0.0921283 0.0433906 -0.0490102 -0.0315827 -0.0140848 -0.0522132 -0.0801796 0.05808 0.0453202 -0.0676863 0.060593 -0.0118261 0.104513 0.0705302 0.0388361 -0.0134499 0.0640689 0.00694002 0.0472993 -0.0590912 -0.0278911 -0.147066 -0.106218 -0.0787067 0.0417422 -0.084839 -0.00431211 0.082892 0.00705608 0.0399852 -0.0989754 0.0858753 0.0658177 0.0707605 -0.139494 -0.0949321 -0.0450416 -0.10338 0.0369549 0.0674465 -0.0141922 0.0466212 -0.0173536 -2.87243e-05 -0.0228979 -0.0326468 0.0907009 0.0640503 -0.118337 -0.0186094 -0.0461086 0.0125165 -0.0501146 -0.0739475 0.0476868 -0.125621 0.0877852 -0.00313845 -0.0670089 -0.0697059 0.0306389 0.0504221 0.113902 -0.0901456 0.0282413 0.00172753 0.000934241 -0.0719946 0.0984462 0.0735244 -0.19486 -0.0294558 -0.091085 0.0649482 -0.115218 -0.0428762 -0.0754353 -0.143345 -0.232559 -0.0703438 0.0304064 -0.0886058 -0.17447 -0.0437376 -0.281594 -0.104644 0.0125918 -0.221108 -0.145225 0.0106055 0.176124 0.236571 0.264478 0.0696343 0.0123794 -0.15058 -0.0155961 0.149347 0.0133555 0.0352308 -0.0665645 0.113232 0.053326 -0.090719 0.0155432 0.0453161 0.0257366 -0.123088 -0.00673669 0.0251059 0.0670451 0.0397416 -0.0283479 -0.0283638 -0.0747687 0.0175959 0.0358277 -0.00733058 0.0125402 -0.0626573 -0.0480749 0.0376782 0.0129922 0.158878 -0.0354519 0.0330535 -0.049374 0.0580918 0.0659192 0.0589206 -0.0561556 0.0241582 0.00681244 0.00158412 0.053727 0.0300034 -0.0334846 -0.0436737 0.0181243 0.10768 -0.0582443 0.00846341 0.0362427 -0.00366872 0.0698067 -0.0415714 -0.00345729 -7.0798e-05 -0.108425 -0.0287246 0.067998 -0.103555 0.0037523 -0.0306162 0.0856959 -0.0546275 0.00114784 -0.091794 0.0464008 0.0160972 0.065455 0.0961703 -0.0176902 0.0338939 -0.0877758 -0.0150065 -0.0198872 -0.0479761 0.00298877 0.0208777 -0.0715117 -0.099597 0.144611 -0.00535522 -0.0383776 -0.0246273 -0.0918241 0.0773386 -0.00680549 -0.0105321 -0.0236791 -0.00134613 0.0440904 0.0720941 -0.00343616 0.0831632 0.0463987 0.0729177 -0.0771557 -0.0607514 -0.0750696 0.0172445 -0.0752459 -0.0381407 -0.0889152 0.0934457 -0.0713111 0.0458507 0.00203512 0.013664 -0.00191175 0.0886049 -0.0285277 0.0535153 -0.110457 -0.0618304 -0.0407316 0.0754609 -0.0763279 -0.108372 -0.0858071 0.0152461 -0.0686132 0.134261 -0.119559 -0.173157 -0.0863883 0.00356189 0.0588162 0.0941478 0.0802678 0.024515 -0.0549333 -0.00816581 0.0708405 -0.0691688 -0.0681148 0.204368 0.0197343 -0.0226641 0.003739 0.0627947 0.10441 -0.0287056 0.0302505 0.0843263 -0.0166239 -0.0291278 0.132549 -0.0690752 0.0111275 0.0420973 -0.0288238 0.014277 0.0279727 -0.0250915 -0.000339664 0.106835 0.0638097 0.0344469 0.045536 0.0963843 -0.128893 0.00114265 -0.0252443 0.0389738 0.0309885 0.0268814 -0.0679069 0.0287133 0.0567746 0.0535969 -0.0353148 -0.0283658 0.0448044 -0.0229394 -0.16212 0.0181735 -0.0657398 -0.0346576 0.00715869 0.0475119 0.0466102 0.0256786 0.084096 -0.115847 0.0306239 -0.175029 -0.0425517 0.0149507 0.0121235 -0.130069 -0.00682086 -0.0503041 -0.0274408 -0.0285257 -0.0386819 0.00053427 -0.00832613 -0.0350745 0.064318 0.00873943 0.00837574 0.0239145 0.00148239 0.0316395 0.110607 -0.0790098 -0.0562376 -0.038217 0.00512951 0.0379155 0.0454771 -0.0541579 0.162596 -0.0415354 0.0943333 -0.108211 0.0708604 -0.0764511 0.00278772 -0.0212643 -0.0818566 0.0315157 -0.145626 0.106626 0.00618335 -0.108715 -0.0547296 -0.0286795 -0.0260177 -0.0835873 -0.00177427 0.0773629 -0.0958301 0.157862 -0.0368591 0.0935396 -0.0504845 -0.0492383 -0.0860305 -0.00051225 0.081536 -0.15847 0.103904 0.102335 0.030521 0.104558 -0.152875 0.0387854 0.047972 -0.151492 -0.236789 -0.0220339 -0.00549846 0.00396534 -0.0622644 0.0433935 -0.000890641 -0.0253595 0.0560151 0.0261468 0.0335477 -0.10412 0.00755828 0.164309 0.060722 -0.0150277 0.0447996 0.0550176 -0.0479188 -0.0628999 -0.0361505 0.0340329 -0.0699064 0.0359863 -0.0671279 0.0178931 0.0595512 -0.133742 -0.0842032 0.113432 -0.0780705 -0.0114368 0.008338 -0.0425258 -0.00239183 -0.0226804 0.0201181 -0.0328786 0.103795 -0.0389669 0.0269663 -0.00313265 0.0500656 -0.0293336 0.0113473 0.0526817 -0.108236 -0.00652229 -0.0423921 0.0243643 0.0372926 0.136122 0.0854166 0.0609637 0.0959393 0.0336608 -0.0651986 0.0234506 0.063125 -0.0251306 -0.0808669 -0.0814736 0.126294 0.0707717 0.021638 0.0506931 0.00518 -0.0564236 -0.0563086 0.0124427 -0.0713589 0.0198635 0.0228877 0.135005 -0.0316638 -0.0814883 -0.147336 -0.119492 0.141666 0.036917 0.00177432 0.0164826 0.0717466 -0.0282223 -0.000516551 0.108903 0.103623 0.0419242 -0.0199675 -0.038093 -0.0293693 -0.0350634 -0.0237738 -0.123766 0.0579295 0.00052081 0.0393919 -0.102415 0.0145645 -0.0170329 0.0424718 -0.00982673 -0.065719 0.115861 0.0413588 0.0096599 0.0270903 -0.166554 -0.0736964 -0.115589 0.0352505 -0.0405892 0.0423665 -0.0821929 0.0108097 -0.0270822 0.0319384 -0.0835802 -0.127712 0.0110796 -0.0117676 0.0144881 -0.107326 -0.136487 0.0151375 -0.091984 -0.00865361 0.107716 0.0587472 0.050506 0.0365229 -0.0229206 0.0278742 -0.175533 -0.0151846 -0.0684326 -0.0469273 0.145642 -0.15295 0.0944292 0.01851 -0.0423897 0.0338614 0.122088 0.0350729 -0.0299297 0.124591 0.0595678 0.0198786 0.0632561 0.104875 0.0573536 -0.0897225 0.14373 -0.068799 0.0836872 -0.114299 -0.0440669 0.0222611 -0.152226 0.0592704 0.0411217 -0.12075 0.090901 0.0339406 -0.0466144 -0.152686 0.0214032 -0.0881334 0.0026613 -0.0121928 -0.00571368 -0.104326 0.0401828 -0.0492525 -0.0796936 0.00221923 0.0194535 0.0409012 0.0685321 0.110591 0.0809685 -0.111596 -0.0280225 -0.204835 -0.0355112 0.0212802 -0.0156517 -0.0134869 -0.0417749 0.187538 0.0240247 -0.0215117 0.0135284 -0.0224085 0.039795 -0.0451339 -0.0708823 -0.0986068 -0.0897242 -0.0461575 0.0139456 -0.0962123 -0.0974434 0.00927252 -0.0731421 -0.0455974 -0.0270298 -0.0531981 0.00160151 -0.113398 0.0904638 0.0869921 -0.0401864 0.0071522 0.0261334 -0.0527567 -0.0653886 -0.0549651 -0.0983321 0.0604159 0.0293053 0.0522983 0.00859985 -0.14892 -0.0621899 -0.0446659 0.116516 0.0196007 -0.0448474 -0.0661699 0.0716115 0.0323206 -0.0751188 -0.041659 0.0461622 0.0166582 -0.0359881 0.0640991 0.0687214 0.0389204 0.0995297 -0.0509331 0.0556185 -0.0881981 -0.0318861 -0.00595036 -0.0204897 0.101401 0.0162194 0.0235419 -0.0365698 -0.00260823 -0.00787586 -0.061003 0.00139225 -0.0599096 -0.0012619 -0.07778 0.190181 0.0551858 0.00798836 -0.0902052 -0.0655456 0.0503142 0.0237262 0.0139632 0.0107621 -0.00134672 0.0359407 0.0180663 0.0721109 0.0582589 -0.0507796 -0.147422 -0.0367918 -0.165075 -0.125907 0.0642466 0.077245 -0.101989 0.112902 0.0703756 -0.0251508 -0.00445874 0.0804421 0.0857933 -0.0827965 -0.0466557 0.0335382 0.0464324 0.087322 -0.141414 -0.0494222 0.0428217 0.108237 -0.0117872 0.0498798 0.208218 0.0654659 0.0739381 0.205899 0.0893341 0.0351914 -0.0259843 0.0341106 -0.0595431 0.0355229 0.000628026 0.0566292 -0.0473408 -0.0064145 0.116377 0.0557814 0.0625855 0.0060317 0.0572219 -0.119696 -0.017705 -0.132483 0.0147636 0.000694977 0.11649 -0.00219995 0.0908032 -0.0767932 0.0326152 0.0603029 0.0366965 0.137046 0.0721211 -0.110517 -0.0352595 -0.0739338 0.0731965 0.0275387 -0.0818312 -0.0566234 0.135458 0.126491 -0.0916591 -0.107076 -0.102885 0.0292342 -0.0386203 -0.0442259 0.0743895 0.0275467 0.00663202 0.0428272 0.0833178 -0.0176927 -0.0245947 0.0550665 0.0404253 0.0818614 -0.0501654 -0.0237324 0.0118353 0.00260633 0.164241 0.109771 0.0126864 -0.0681608 0.0198697 -0.0767469 -0.0309962 -0.155304 -0.064674 -0.107583 0.0233041 0.120895 0.097988 -0.0141567 -0.132688 0.046154 -0.124788 0.101729 0.0499351 0.142544 -0.00511318 0.126345 -0.0334045 -0.0827737 -0.0487045 -0.0901983 -0.124812 -0.0422672 -0.034182 -0.04824 0.117676 -0.0692748 0.00176674 -0.0436037 -0.124065 -0.0697231 -0.0533305 -0.0618243 -0.178003 -0.128752 -0.106864 0.00154227 0.141639 0.0268015 0.123289 0.0272869 0.159339 0.0223044 -0.118577 -0.0923118 -0.14123 -0.00834206 -0.0483177 0.0657131 -0.0412559 -0.0611423 0.0959463 0.135902 -0.00556102 0.119634 0.0497897 -0.0389425 0.0496075 0.0636538 -0.00496793 0.111638 -0.244427 -0.0815139 0.0646138 0.03044 -0.0633022 0.0823899 -0.0666658 0.095317 -0.0862616 -0.0114784 -0.0775806 -0.0355118 0.0529926 0.023637 -0.0903991 0.229224 0.0554467 0.0604199 -0.132382 -0.00311822 0.0425144 0.0749334 -0.023765 -0.0991383 -0.0225655 -0.0231437 -0.210898 -0.0105802 -0.043849 -0.0376076 -0.134699 -0.23679 -0.211268 -0.0333317 -0.12846 0.11474 0.0557566 -0.0393533 -0.121733 0.0664604 0.0489872 0.173754 0.00631225 -0.0104671 0.178508 0.191645 0.193348 0.213849 0.238287 0.111943 0.0475415 0.062873 -0.0188228 0.0682714 -0.166484 -0.0632205 0.0367732 0.084095 -0.0109564 -0.0117564 -0.121631 -0.111187 0.00885947 0.0993739 0.037526 0.118651 -0.0091172 0.005126 -0.0236124 0.0141206 0.112669 0.0208778 -0.00114835 0.0382572 0.112247 0.10275 -0.00291888 0.0108892 -0.0934234 0.106851 0.00603458 -0.07905 -0.0565911 0.104717 0.0163647 -0.0247474 0.115136 -0.0915668 -0.0568282 0.160433 -0.080258 0.00654397 -0.0721608 -0.134808 0.0584648 0.0161367 -0.0578307 0.0351708 -0.0175484 -0.129428 -0.0240789 -0.0087497 0.104546 0.1105 0.0792781 -0.0125518 0.084241 0.13457 0.0765051 -0.0671882 0.0876389 -0.0258472 0.115231 -0.0531134 -6.78139e-05 -0.0191813 -0.0452067 0.0761408 0.0358524 0.125162 0.132176 -0.0851307 0.147679 0.185033 0.222461 0.0787317 -0.162904 0.0664616 -0.0189732 0.0696626 0.0105496 0.182871 -0.0892533 0.0459338 0.220041 0.137968 -0.0222419 0.0058085 -0.0734739 0.0522433 0.0886953 0.127034 -0.111613 -0.140039 -0.0404811 -0.0231834 -0.0540922 0.0949882 -0.128284 -0.129912 -0.081837 0.0629294 0.14424 -0.200723 -0.050145 -0.0498889 0.00985756 0.0643022 -0.133029 0.0577967 0.0285162 0.0541437 0.0142129 -0.037042 0.185729 0.0709153 0.0572176 -0.0864453 -0.0971742 -0.0544135 -0.0555716 -0.00585221 -0.0601746 0.0457444 -0.0955248 0.0335794 -0.0903746 -0.0332301 0.0850679 0.000945847 -0.0468445 0.16641 0.190431 0.0799659 0.155091 0.0395824 -0.127039 -0.0067292 0.025365 -0.0796432 0.00792062 -0.143799 -0.00961942 0.0610757 -0.103537 0.0660492 0.107126 0.0727977 -0.042094 0.229851 0.106896 0.0544761 0.180341 0.0480303 0.0316037 -0.00776846 -0.00950646 -0.103755 -0.0223267 -0.00024636 -0.0624067 0.0222908 0.192574 0.158098 0.0629011 -0.0924755 -0.0610721 0.213186 -0.186767 0.0567699 0.008152 0.0946409 -0.0764554 0.105976 -0.138829 0.0611094 0.0124423 0.01296 0.058863 0.191884 -0.0398133 0.0697285 -0.0679239 -0.096412 -0.0619012 -0.164791 -0.0181681 0.0117315 0.0374342 -0.138813 0.0230912 -0.0364907 -0.0361951 -0.0911962 -0.222891 -0.048042 -0.00365601 -0.0435122 0.0980505 -0.0608007 -0.00679977 -0.066481 0.010457 -0.0747455 -0.0788492 -0.0610874 -0.275697 -0.104806 -0.144738 0.0119838 -0.0474144 -0.0809828 0.0399722 0.104064 0.164312 0.0600084 -0.0946601 -0.0460429 0.0172353 0.0441485 -0.19587 -0.0628536 -0.0330226 -0.0152873 -0.143859 -0.113999 -0.106969 0.0253404 0.0841165 0.0221232 -0.135028 -0.0188439 0.136487 0.27638 0.0923038 0.0343465 -0.00763705 -0.142284 -0.056646 -0.077105 0.0695062 0.175327 0.0475292 -0.00826753 0.10954 0.0165151 0.09632 0.0319974 -0.0733194 -0.0436191 0.0050512 0.0342042 0.103751 -0.0597062 -0.00298692 0.084853 0.00863403 0.021107 -0.0428718 -0.113397 -0.0472741 0.0253771 0.0289564 0.141351 -0.0457991 0.0322797 -0.114209 -0.0423851 -0.0257367 -0.0918211 -0.0638354 0.00151802 0.00438374 0.0285896 -0.0127455 0.0524811 0.0324016 -0.0553023 0.0866573 -0.00537069 -0.143404 -0.00437083 -0.109114 -0.0292321 0.0272902 0.0587473 -0.0617468 0.0659199 -0.0474999 -0.0412396 -0.0277858 -0.0449217 0.0297487 -0.0196891 -0.0358931 0.139296 0.0890037 0.02625 -0.0961144 0.0646349 0.00517589 -0.0852595 -0.166455 -0.0744646 -0.127543 -0.112871 -0.200072 -0.0682399 0.0482463 -0.0269765 0.0677406 0.183417 -0.110255 -0.099617 0.0437925 0.0391964 0.129371 0.0484913 -0.0781804 -0.175439 0.0780966 0.121812 -0.00357949 0.114935 0.0802453 0.0534685 -0.00561378 -0.112959 0.128616 0.153554 -0.0501732 0.0361616 0.112144 -0.133051 -0.133687 -0.0689645 0.0259167 -0.0709166 -0.0959012 0.134115 -0.100693 -0.0314338 0.0372078 -0.0893814 -0.0340129 -0.0409077 -0.0688582 -0.0734247 -0.130989 0.0579229 -0.0393186 -0.193926 -0.0828995 -0.0437025 -0.0796204 -0.015555 0.024621 -0.093754 -0.0356014 -0.0442453 -0.0316176 -0.0192392 -0.103611 -0.0759648 0.128928 0.0554076 0.0304234 -0.0397062 0.245143 0.0574955 -0.0630571 0.0546548 -0.0152445 0.0231154 -0.0416942 0.0598194 0.0357659 -0.0898933 -0.088075 -0.0519864 0.001396 0.00949863 -0.138669 -0.0349905 0.0836174 0.058877 -0.0231896 0.0949275 -0.0649211 0.0504329 0.0506022 -0.050305 -0.0737561 0.0698819 -0.0976117 0.0421983 0.0115686 -0.210501 -0.146264 -0.0267948 0.166962 -0.121839 0.0398108 -0.0237666 -0.0187705 -0.100171 0.0378657 -0.143876 0.0688124 -0.0176084 -0.0824801 -0.00113153 0.0425655 0.11203 -0.072666 0.000274836 0.111569 -0.129182 -0.106447 -0.0798026 0.087672 -0.0678089 0.0194479 -0.00190715 0.000514026 -0.0847921 -0.0291263 0.0239533 -0.0318167 0.0198726 -0.126994 -0.17697 0.0216795 -0.0591673 0.228126 0.0120143 0.00480179 -0.0964944 0.009688 0.0882304 -0.098199 -0.0388277 -0.0616087 -0.224105 -0.143343 -0.0204056 -0.0915085 0.00619182 0.0946237 0.199504 0.185142 0.110187 -0.0258632 -0.100889 0.0596098 0.0529686 -0.119639 -0.0612423 -0.0313401 -0.0287333 0.0888251 0.275151 0.126612 -0.044857 0.0364127 -0.0344172 -0.204321 -0.0847682 -0.00596295 -0.156705 -0.0464462 -0.144167 0.0399597 0.00321248 0.0438968 0.121712 0.0086213 -0.0131378 -0.14076 -0.0562493 0.172788 0.103834 0.136956 0.078578 -0.026672 -0.160747 0.0647335 -0.00579027 0.00118649 -0.00940545 0.00330438 0.0348867 0.054132 -0.134447 0.0730601 -0.077399 -0.101501 -0.0153259 0.0237659 0.00984933 0.118096 -0.0177869 -0.0612466 0.126443 -0.0628269 -0.0367065 0.0568097 -0.140264 0.0915 0.0760278 -0.0775104 0.0445897 -0.0267178 -0.0840075 0.0436946 -0.0302222 -0.0835318 0.0457027 -0.0734242 -0.000490075 0.00500132 -0.0280746 -0.0283098 0.0608 -0.0227826 -0.028431 0.038172 -0.0902227 -0.0625642 -0.0176467 0.04692 -0.00608823 -0.0207352 0.0547579 -0.00226022 0.064093 -0.0311168 0.0994764 -0.0533267 0.0528591 -0.111487 0.00486479 0.099804 -0.0544849 -0.017914 0.0157282 0.108182 0.117205 0.0402672 -0.0620279 -0.0525908 -0.0302997 0.0386656 0.0335476 0.12059 -0.0879066 -0.154757 0.0751504 -0.0507964 0.0586539 -0.0293677 0.0913434 0.0661274 -0.0818645 0.0251373 0.10323 -0.00863011 0.0858416 0.0895864 -0.00218463 0.0323566 0.00878359 0.000458907 0.0217242 -0.0609568 -0.163781 0.0467359 0.0620137 -0.093418 -0.00921224 -0.0526298 -0.00411672 0.0533982 -0.0758969 0.113111 0.137148 0.0712487 -0.0130442 -0.0338588 -0.026851 -0.0630029 0.120049 0.0357349 0.0815728 -0.0869431 -0.0143217 -0.015868 -0.0625899 -0.087797 -0.00816344 -0.131987 0.0464476 -0.041979 -0.0685449 -0.0626793 0.0863578 0.254897 -0.0364633 0.0662038 0.0641177 0.0803009 -0.16904 0.0280734 0.104564 0.0633648 -0.13319 -0.0192828 0.100818 -0.0406077 -0.0912255 -0.0863144 -0.0633508 0.0372235 0.00360601 -0.0208745 -0.0579819 0.0498215 -0.158201 -0.0673489 -0.00387068 0.160431 -0.035793 -0.0461671 0.079338 -0.00993187 0.00992278 -0.146932 0.121988 0.0658058 0.0288016 0.125328 0.0727728 0.122719 -0.0903529 -0.0484744 0.0201888 -0.094107 -0.00826677 -0.0335564 0.0515852 -0.0337026 -0.123965 0.108884 -0.0258786 -0.0121887 0.0435981 0.248841 0.0438872 0.0506235 -0.0875675 -0.0602612 0.0262496 -0.0173728 -0.0804176 0.04241 0.0160333 -0.00628758 -0.011188 0.0206273 0.0776217 0.0512627 -0.00501275 -0.00446863 -0.171664 0.008291 -0.0314746 0.114722 0.0387354 0.0135045 -0.109152 -0.0499978 0.0916881 0.00217173 -0.00408173 -0.152382 -0.0906395 -0.107692 -0.156941 -0.157994 0.0698185 0.0420902 -0.0787964 -0.15179 -0.0592173 0.0297403 -0.00338442 0.0291762 0.228925 0.053515 -0.0759721 -0.026018 0.125485 0.0356395 -0.11727 0.0729192 -0.125334 -0.0179115 -0.0913668 0.0982511 0.0578843 0.0101025 0.0795039 -0.0121702 -0.0840984 -0.0627696 0.121319 -0.109473 0.0743439 0.00717978 -0.0363167 0.0770874 0.0476806 -0.0175963 -0.021707 -0.0103361 0.089811 -0.0689181 -0.0870546 -0.0345919 0.154768 -0.0684209 -0.11232 0.032515 0.0264084 -0.121692 -0.0186404 -0.00298107 -0.0679722 -0.082319 0.0759071 0.162762 0.0301785 0.0997813 0.099696 0.0294323 -0.00426227 -0.0602952 -0.194787 -0.126329 0.0010189 0.0804137 -0.0409267 0.131464 -0.0252386 0.0506674 -0.080305 -0.00668347 0.0810795 -0.0320765 -0.0687809 -0.014768 0.0192253 -0.0285402 -0.0767342 0.0310098 0.0057909 0.0912364 -0.0890672 -0.0254602 0.0363281 -0.0378938 -0.00169889 0.00734145 -0.0523923 -0.0308819 0.000992522 -0.00312332 -0.0437308 -0.110902 -0.00147503 -0.0356459 -0.0212261 -0.0594405 -0.0630868 -0.0722254 -0.0770037 -0.035129 -0.0359782 0.0840148 -0.0817901 0.0443738 -0.0383951 0.00801264 0.101639 0.0520058 -0.0171908 -0.0904314 -0.0482781 0.0308186 0.0206694 0.0951549 -0.159743 -0.0548885 0.0919262 -0.0427143 0.0366172 0.0244498 0.062433 0.0350646 0.088467 0.0732282 0.16916 0.10113 0.118614 -0.0027277 -0.0583721 -0.058778 -0.00369517 -0.0719212 -0.0906326 -0.0693479 -0.0747816 0.0712676 0.0452965 -0.0805302 -0.0456816 -0.0608984 -0.029619 0.0248906 0.0618072 -0.00425699 -0.0241661 0.0960863 0.0327862 0.0669285 -0.00919139 -0.0146392 0.0454125 0.0973172 0.037425 -0.021388 0.0167131 -0.0752635 0.0410029 -0.0519121 -0.128262 0.100802 -0.0699272 0.0442569 -0.00842271 0.118799 -0.00992862 -0.00179602 -0.119637 0.129023 0.0815081 0.131793 -0.00736582 0.0981776 -0.0737197 0.0510877 -0.0215154 0.104809 -0.0899439 -0.24166 -0.0140069 -0.0735821 0.035366 -0.0193953 0.0394325 -0.0528773 -0.0896278 -0.206542 -0.0427939 -0.125993 0.0119194 -0.101841 -0.0639832 -0.185658 0.0284254 -0.152027 -0.0841268 -0.0831536 0.00958672 0.0838859 -0.0935546 0.0829278 -0.0265442 0.150421 0.0768572 0.0666277 0.125556 0.0590917 -0.0280386 0.0186756 -0.0414508 -0.0882774 0.0294336 -0.150891 -0.11871 0.033796 -0.0156084 -0.0853436 -0.0392658 0.0955784 0.0677595 0.304364 0.0217531 0.128479 -0.0384082 0.0478908 -0.0153539 0.0741327 -0.0842846 0.0241628 -0.104129 -0.0228653 -0.0233822 -0.0387919 -0.0697366 -0.00982894 -0.0570221 0.0207077 0.0102523 0.041326 0.0414883 0.0649629 -0.0134874 -0.040038 -0.0574694 0.10666 -0.137139 0.0172452 0.113054 0.114902 0.114764 0.0449113 0.0696591 -0.0144978 -0.0775113 -0.0436817 0.132566 -0.0148312 -0.0333754 -0.0313599 0.0937744 0.0647922 -0.0332917 -0.150689 0.197905 0.109057 0.0651613 0.0715789 0.0540644 -0.100288 -0.14369 0.0722887 0.0440686 -0.0590259 0.0552552 0.132055 0.2129 0.171338 -0.0175418 -0.0486592 0.0132343 0.167675 -0.049848 0.0155171 -0.0317458 0.0197113 -0.0241514 -0.0768163 0.0223845 0.0626832 -0.0182384 0.0548964 -0.0397859 0.0276342 -0.0495377 -0.0701425 -0.0467224 -0.0205475 0.0350861 0.0939859 0.0935983 0.0477135 0.0514503 0.143667 -0.023588 -0.0239858 0.0128037 0.0349597 -0.0413858 0.0805733 -0.0733083 -0.00409543 0.0305508 0.00573965 0.00638646 0.0315275 -0.0385206 -0.0312737 -0.125037 -0.0791174 -0.0172622 0.065331 -0.0386539 0.0531895 -0.128966 -0.0716247 0.0556652 0.115866 -0.0219885 0.0585334 -0.0226314 0.0336754 0.0627973 -0.0801383 -0.0348462 0.039064 -0.132332 -0.0555524 0.00888904 0.00832115 -0.0160009 -0.0742537 0.12608 -0.0181278 0.0506825 0.125845 0.130284 0.0974728 0.105181 0.0717921 0.0423842 -0.0069065 0.135769 -0.111366 0.0597391 -0.0902377 0.024004 0.0172871 0.0319018 0.0695909 -0.027309 0.14272 0.0679372 0.0792055 -0.132543 -0.0444267 0.0725777 -0.0400415 -0.00527977 0.00109147 -0.0293989 -0.125986 0.00400308 0.062949 0.101422 -0.00808566 -0.0389469 0.0103271 -0.0577412 0.111631 0.0946239 -0.0503466 -0.106307 -0.00121295 -0.0623767 0.0554004 0.0997591 0.0186565 -0.0228992 0.103906 0.00651286 0.0427997 -0.0988031 -0.0075691 0.0156754 -0.0110275 0.00329908 -0.00126398 -0.0514026 -0.037167 0.0952088 -0.0444268 0.0561659 0.167649 0.204346 0.0812958 0.00443342 -0.0184218 -0.0911574 0.000619111 -0.0467343 -0.0812205 -0.12462 -0.193905 -0.0385165 -0.083633 -0.0501048 0.0369731 -0.0601495 -0.0679422 -0.0183384 0.0821623 0.107914 -0.120054 -0.129048 -0.0359822 0.0246017 -0.168765 -0.02774 -0.00593182 -0.0180426 -0.1206 -0.00041983 -0.10319 -0.0710216 0.0445638 -0.0214972 0.0480291 0.132793 -0.0664899 -0.151198 -0.142412 0.108781 -0.0367238 0.0670992 0.052518 -0.0815314 0.047652 0.107241 -0.120147 -0.0223016 -0.0138053 -0.0922854 -0.0459157 -0.0699697 -0.0340101 0.0329248 -0.0243635 -0.00911911 0.0256502 0.123482 -0.0033618 0.0353813 0.00491993 0.0758723 0.102189 -0.117775 0.121692 -0.12218 0.00688239 -0.0564206 -0.0852218 0.00729285 0.0218173 -0.0398624 -0.0204417 -0.000821319 0.00401169 0.040002 -0.08819 -0.0458553 0.0667193 0.0450053 -0.120632 0.0420813 0.134074 -0.00436597 -0.0162486 0.0713182 -0.0264957 -0.0735113 0.0444062 -0.0396818 -0.101797 -0.0885489 0.079881 0.103464 -0.0767875 -0.00849457 0.127283 -0.205239 -0.115533 -0.0428076 -0.0613852 -0.0645869 -0.0508278 0.0510879 -0.0625062 -0.00741125 0.0593844 0.0710068 -0.163077 -0.034671 0.0627382 0.0470963 -0.0486538 -0.00528734 0.174716 -0.0384682 -0.0820785 0.0336589 0.0266795 -0.082581 -0.0781855 -0.0685942 -0.0749819 -0.0767521 -0.148539 -0.051154 0.0245042 -0.0626486 0.124605 0.0653621 -0.0752889 0.0130529 -0.103104 -0.120569 0.0917591 -0.0574813 -0.00399307 -0.0370589 -0.0536197 0.0124621 0.0237334 -0.0508457 0.0409813 0.0378461 0.0181609 0.0388242 -0.00762487 -0.0916204 0.0715509 0.0504137 -0.089441 -0.0682419 -0.0038544 -0.084347 -0.0152577 -0.00886354 -0.0624302 -0.151671 0.123741 -0.0262491 -0.0771412 0.0813728 -0.0708238 -0.103321 0.219516 0.090143 0.106386 0.0765488 0.0487798 -0.0223628 -0.00660627 0.0989788 0.0413668 -0.0109821 -0.138172 -0.110507 0.0224857 -0.0310233 -0.0337404 -0.0596883 0.0551221 -0.0333449 -0.024378 -0.00858175 -0.0122435 -0.120911 -0.054907 0.0773595 0.0332434 0.0388942 0.0265728 -0.170139 -0.140631 0.121512 -0.00498509 -0.0249821 0.0915623 0.00558785 0.164325 0.0880068 0.133745 -0.0292023 -0.0163609 -0.0142571 0.0776857 -0.00787841 -0.0662695 -0.0892087 -0.0872424 -0.115163 0.0322689 -0.0495351 0.0799009 0.114517 0.0537421 -0.125037 0.155731 0.0779856 -0.0713241 -0.0240731 -0.0475765 0.0905708 0.0289651 0.0432204 -0.0230986 -0.0505753 -0.140699 -0.0717158 0.034595 0.0132658 -0.12938 -0.0612623 0.032744 -0.106205 -0.0480758 0.0306971 0.0941815 -0.0854404 0.00838136 0.0530909 0.181274 -0.0919795 0.0757184 0.0554903 0.0889434 -0.108097 -0.0188175 -0.0176666 0.104044 0.0389413 -0.004283 -0.125471 0.000219422 0.00846691 -0.10588 0.00565547 -0.0342711 0.106436 -0.153573 -0.0313205 0.0236035 0.0446633 0.0409465 -0.0778538 0.0470084 0.0540086 0.0123412 -0.0773427 0.0108567 0.0878828 0.14795 -0.0140932 -0.0320296 -0.0156248 -0.0450842 -0.0247359 0.0541136 -0.137397 -0.0919807 -0.039004 0.0167669 -0.0399296 -0.0236984 0.0766761 -0.106994 0.00460371 0.0209844 -0.0424456 -0.100459 -0.0737985 0.0178115 0.0729877 0.109564 0.0647632 -0.171391 -0.021221 0.00582108 -0.0725973 0.0762353 0.00160211 0.0524978 -0.0130478 -0.0537737 -0.0016725 0.0270961 -0.0254455 0.115244 -0.10526 -0.123545 0.020349 0.0794141 -0.00629878 -0.0350883 -0.0693277 0.00107753 0.0253851 -0.0815349 0.058808 -0.175433 -0.044972 -0.000298636 0.0182035 -0.0414018 -0.0482275 -0.0778419 -0.0384787 0.0580066 0.0746076 -0.0244302 -0.0384225 0.140189 0.0388325 0.0683926 -0.0998616 -0.0304417 -0.0514347 0.011751 -0.196745 -0.0650161 -0.146734 0.21846 -0.0446569 -0.187689 0.0455135 0.367878 -0.0341078 -0.201503 0.0149496 -0.155557 -0.00804771 0.00801936 0.0872907 -0.0162533 0.0303684 -0.00231625 -0.0317927 0.0109582 -0.0669828 0.0713571 0.101677 -0.0532923 -0.0173381 0.0618368 -0.0285605 -0.0236878 -0.0440799 0.0622326 0.0524234 0.0170956 0.0248196 -0.180261 -0.0783046 0.146944 0.104152 -0.0559452 -0.000510912 -0.0861701 0.0331979 -0.041767 -0.0232546 -0.0150655 0.0281655 0.0794248 -0.106613 -0.0934713 0.191809 0.165422 -0.00493033 -0.0450892 -0.0392595 0.084967 -0.0642133 -0.0694083 0.0127953 0.0208072 0.0664332 0.00644875 -0.0883917 0.0343522 0.106799 0.0659229 0.0242467 -0.114946 -0.207278 0.0852627 -0.0410322 0.118264 0.0880382 -0.00696043 0.00235701 0.0843853 0.00467212 -0.024934 0.0176422 0.0437738 0.123332 -0.020759 -0.023604 -0.0213628 -0.0323371 -0.0729538 -0.106545 0.0697959 0.00945175 -0.0466886 -0.00940999 -0.0336366 -0.100542 -0.115011 0.126342 -0.164473 -0.0222141 -0.0712077 0.149952 -0.115614 0.0291434 -0.093027 0.0265121 -0.0166455 0.0355442 -0.144333 -0.0695747 0.0324987 -0.0101359 0.08701 0.0361676 -0.0131259 0.0339718 0.0312118 0.088176 0.0238013 0.075995 -0.186736 -0.0673317 0.0426521 0.0187763 -0.00974754 -0.0384957 -0.0900352 -0.0654431 0.0684385 -0.00285359 -0.120137 0.0204207 -0.0755771 0.0531915 -0.0198243 -0.0236258 -0.0321172 -0.077805 -0.00898118 -0.125313 -0.000699057 0.0570719 -0.035077 -0.0204468 -0.01785 0.0308244 0.0135601 -0.0563547 -0.00363876 0.0969951 -0.0162939 0.0252354 0.0478519 0.077009 0.0137061 -0.0231477 0.057888 -0.0468719 -0.129962 -0.0905012 -0.0443316 0.0688504 -0.069059 -0.0425803 0.00496977 0.0536194 0.0132418 -0.0877949 0.0415069 0.0520853 -0.0959833 -0.00261339 0.0963937 -0.0143521 -0.150562 0.0440001 -0.130347 -0.149926 -0.147225 -0.123868 -0.135213 -0.0195114 -0.053937 -0.138685 -0.0564165 -0.0433511 -0.0805963 -0.0551681 -0.0433804 -0.0354656 -0.00866187 0.0354092 -0.111236 -0.0500913 -0.12666 0.108489 0.0441694 -0.0856247 -0.0465106 -0.0527446 -0.0502575 -0.0883298 -0.146482 -0.0036234 -0.213095 -0.127706 -0.0506457 -0.0475213 -0.114755 0.112801 -0.0341008 -0.0497294 -0.106895 0.091615 -0.0726111 -0.0340721 0.00927154 0.00752365 0.0546323 -0.0342667 0.0305453 0.0339539 -0.00828077 -0.023349 -0.0795115 0.0594941 0.171488 0.0580053 0.0147879 0.0193436 0.122936 0.105897 0.0614797 -0.0270367 0.0304536 0.0690953 0.0445142 0.0780937 0.0464998 0.0558948 -0.0483312 -0.149655 -0.160746 0.0226819 -0.103557 -0.0762012 -0.200202 -0.0376111 -0.0493807 -0.218935 -0.156445 -0.0484766 -0.126696 -0.193208 -0.141007 -0.0404251 -0.0494771 0.0925952 0.0114963 0.00914281 0.0819138 0.146823 0.117222 0.130088 -0.0600057 0.0828562 0.0108873 0.0829491 -0.0328735 -0.0606614 0.0590725 -0.0590363 0.0590499 0.0377073 0.0469501 0.00241029 -0.0347836 -0.0515233 -0.0427907 0.0237471 -0.0121836 0.104516 -0.0358775 0.0812012 0.00328321 -0.0205857 -0.0236852 -0.0640898 0.00202474 -0.0183315 0.0689469 0.0975482 -0.0206366 -0.0662288 -0.0316978 -0.0646304 0.0106492 0.0392772 -0.0669417 -0.205379 -0.0057591 -0.0421965 0.0445448 0.0466852 -0.0457651 0.0440403 -0.061644 -0.0110934 -0.0672894 0.0505452 0.0397031 0.0643216 -0.0903039 0.0159107 -0.0760884 -0.0277037 -0.0220442 0.0302054 0.0164439 -0.0487671 0.11985 -0.132954 0.0360084 0.0173812 0.169251 -0.0889044 0.0192041 -0.0825781 -0.109787 -0.182673 -4.25863e-05 0.0144865 -0.0635784 0.0801473 0.135676 -0.0640467 -0.0667398 -0.0334696 0.0502751 -0.0378547 -0.0943215 0.0495896 -0.0618868 -0.0236771 0.0936232 -0.00823667 -0.0114086 0.0645893 -0.0313979 -0.0332814 0.0248016 -0.0542782 0.0358943 0.0935005 0.0529863 0.0498212 0.111036 0.0242912 -0.0203005 -0.051071 -0.170319 0.0201738 -0.0690909 -0.0203074 -0.107271 -0.0079503 0.114721 -0.015032 0.00951068 -0.000857572 0.015778 -0.0712874 0.00297735 0.0181197 0.0634439 -0.0341653 0.0360509 0.0863293 -0.092988 -0.0211408 -0.0234528 -0.0894943 0.106081 -0.0294007 -0.0325293 0.0489945 0.0479001 0.110982 -0.0800128 -0.0149482 -0.078969 -0.0188671 0.0997996 0.0195821 0.00863523 -0.15296 -0.0165666 0.00549405 -0.0590279 -0.0541124 -0.162679 -0.012547 -0.0248358 -0.159519 -0.0413883 -0.00918523 0.0327568 0.0886313 0.0117878 -0.0700202 -0.106443 0.119621 -0.0638083 -0.0748828 -0.067996 0.00267663 0.0896342 0.0379736 0.110712 0.139015 0.111389 0.0533737 0.0915524 0.0404842 -0.0903845 -0.0388203 0.0287491 -0.00225121 -0.0499686 -0.0595492 -0.0414288 0.100143 -0.0502317 0.101343 0.0222231 -0.122025 0.00134117 0.0258243 0.116673 -0.051047 -0.0274521 -0.0814738 0.0708558 -0.00363325 0.0152393 -0.0954324 -0.0332111 0.0572983 0.100739 -0.0214476 -0.096828 -0.0677076 -0.141483 -0.108425 0.0207049 0.0513581 0.00876665 -0.0461326 -0.0696525 -0.043669 -0.0125172 0.192885 0.0380094 -0.0362867 0.133125 0.0433516 -0.0576382 -0.0249016 -0.107544 0.0957341 -0.0242046 0.000854892 0.0145646 0.0209039 -0.0979259 -0.000830642 -0.0573478 -0.0497667 -0.031842 0.0429326 -0.0317687 0.0515401 0.079968 0.0229651 -0.00145318 -0.00914617 -0.0213716 0.00654218 0.0551484 0.0730914 -0.142029 0.00541852 0.0119253 -0.040451 -0.0113482 -0.0804893 0.000848998 -0.119583 -0.107464 0.0401183 0.0810966 -0.0896546 0.0346646 -0.0457512 -0.10495 -0.0285581 -0.0827979 -0.0346167 0.131116 0.213198 -0.0250849 -0.0126362 0.0294068 -0.0433877 0.007478 0.092496 -0.0371916 -0.0592559 -0.00490333 0.0396109 0.0346584 -0.0309801 0.0625125 -0.00177552 -0.0569516 -0.0443411 0.0672409 -0.112227 -0.00406634 0.00398246 -0.00301812 -0.111063 0.0603179 0.0148419 0.0750366 -0.0540645 0.0353388 -0.0003484 -0.0561794 -0.0330666 0.0443581 0.0181329 -0.0735513 0.0505178 0.0332372 0.0239721 -0.104061 -0.0245353 0.132244 -0.0675115 0.0365919 0.0888074 -0.0516194 0.0659189 0.0371449 0.0944756 -0.0700361 0.0740779 0.0130105 0.208393 0.0261046 0.0732171 -0.140772 -0.0811872 0.0638282 -0.0183279 0.0299107 -0.00697941 0.00746005 0.0670772 -0.116388 0.130476 -0.0982105 0.000857193 -0.0178279 -0.079916 0.110041 -0.126435 0.00433949 -0.0805576 -0.00608066 0.0345045 0.0327825 0.0486518 -0.112107 -0.036139 -0.0559217 0.0296678 0.00209672 -0.133032 -0.0568701 0.0589523 0.0132509 0.0860586 0.0597112 0.00765201 0.00216039 0.0240542 -0.00371245 -0.00862208 -0.0265514 0.0107378 0.0774652 0.103267 -0.0218891 -0.0277699 -0.033069 0.0768578 -0.0392971 -0.0823983 -0.0452314 -0.0101565 -0.021636 -0.0635208 -0.0833311 -0.080957 -0.0876527 0.0588586 -0.0777448 0.0443574 6.20903e-05 0.0111057 -0.017977 -0.10337 0.0637692 -0.126973 -0.0137785 -0.00330838 0.0440704 0.0207734 -0.00847685 -0.0109535 0.0270562 0.105976 -0.0976762 0.0291632 0.0194827 0.0417451 0.127573 0.0251151 0.133986 0.093763 -0.0925148 -0.0376062 0.01235 0.00848794 0.0182311 0.0432595 -0.0394959 -0.0029341 -0.110962 0.00793916 -0.0814916 0.0183611 -0.186221 -0.0226466 0.0622973 -0.196806 0.0921472 0.0510473 0.0306591 -0.0521932 0.14952 0.0281999 -0.0964219 -0.0921794 -0.00605072 -0.157557 0.0509087 0.0413204 0.197695 -0.0651577 0.0125127 -0.000235914 -0.0394711 -0.0207247 0.0121354 -0.0948721 0.0209839 0.0013316 -0.0882063 -0.109597 0.00465144 -0.0326721 0.0190829 0.0509165 0.0304519 -0.0649695 -0.132762 -0.0425506 0.0124501 0.00952887 0.0727427 0.141643 0.164882 -0.0221611 0.0151176 0.0855041 -0.0173857 -0.0314097 -0.0314891 -0.0600569 -0.0697701 0.0314048 -0.0461975 -0.0164799 -0.0630329 -0.0235278 0.0560562 -0.0766996 -0.0315406 -0.0175099 0.0798049 0.0166151 0.0317039 -0.153777 0.11347 -0.0796633 -0.0159172 0.0589035 -0.0160865 -0.0398026 0.00786314 0.0979737 0.0741065 -0.224251 0.0580338 -0.202978 0.0612886 0.0344939 -0.104536 0.0787461 -0.0129068 0.00674749 0.0270352 -0.0226809 0.00741381 -0.0390147 -0.101566 -0.105717 -0.0672185 -0.0813795 0.0458778 0.0656325 0.0426726 0.000645376 -0.0515962 0.015952 0.0435802 -0.090739 0.0617978 -0.00892428 -0.047424 -0.000281436 -0.0537466 0.0209509 0.020613 -0.094928 0.0770799 0.102961 -0.0522651 0.0280772 -0.0360816 0.0889853 0.0125146 0.0841817 -0.0231802 0.0255078 0.0588339 0.0912275 -0.0414528 -0.054764 -0.0284344 -0.00871637 -0.0701776 0.0744934 0.078748 0.017433 0.0451315 -0.100487 0.0147708 -0.00419095 -0.0281445 0.0532334 0.0222439 0.0298997 0.0237535 -0.0966484 0.0137366 0.0319168 0.0649933 0.162793 -0.0120549 -0.0266073 0.0593164 -0.0460594 -0.104413 -0.0409655 0.0113937 0.0623731 -0.0532398 0.0591762 0.137309 -0.0194681 -0.118038 -0.0128735 -0.131986 -0.0635192 0.0149245 0.0350522 -0.0645489 -0.0717362 -0.0162901 0.0254242 0.134888 0.0135254 0.0132565 0.0744911 0.00856084 -0.0199597 -0.00775223 -0.157388 -0.015735 0.0568769 0.0494816 0.0806234 -0.0159629 0.0280135 -0.044474 -0.0496335 -0.0485601 0.139666 0.00624594 -0.0579018 0.0414187 0.00574715 0.113858 0.021203 -0.0221108 0.116486 -0.0395074 -0.0554057 -0.12119 0.0819567 -0.0917393 -0.00941892 -0.0212673 0.0133331 -0.0157904 -0.121516 -0.0525361 -0.0887691 0.0279233 0.052606 -0.0438803 0.0126362 -0.119076 -0.0114816 -0.0695011 0.0426292 0.137937 0.116959 -0.121933 -0.250827 0.075532 -0.049933 0.0524749 -0.0445846 0.066243 -0.113407 -0.0543204 -0.00998147 -0.0730982 -0.0287276 -0.129231 0.04007 -0.0541357 -0.03448 0.0603147 0.00400612 0.0317778 0.0292923 -0.148258 0.081338 -0.126142 0.000703239 -0.0438334 -0.0929632 0.0177152 -0.0874185 -0.0462106 -0.0696902 0.0455299 0.0921006 -0.126745 -0.0577487 -0.149062 0.192173 -0.0576166 -0.137248 -0.0424608 0.038819 -0.0194987 -0.0892634 -0.0180738 0.077018 -0.10035 0.0408852 -0.0406786 0.0876739 -0.117518 -0.0360566 -0.0738358 -0.0977979 0.132339 0.124764 -0.0279438 0.0377217 0.0438955 -0.140598 -0.0355749 0.121114 -0.102483 0.063158 0.0468546 0.045772 0.15234 -0.124043 0.0535009 -0.113213 -0.0760107 0.0871793 -0.00406065 -0.0419826 0.106416 -0.153182 -0.0595973 -0.00557946 0.014678 -0.115121 0.0174252 0.00322 0.149384 -0.124395 -0.131382 -0.0669049 -0.0610275 0.0692926 0.00803559 0.00436325 0.0376364 0.0836318 -0.0272714 0.0582587 0.125693 -0.0621161 -0.134783 0.0764396 -0.0869349 -0.0608288 -0.00807228 -0.0589798 -0.023429 0.0684423 0.00999205 -0.0665207 0.106754 -0.0529653 0.00266929 -0.0819785 0.0115672 -0.0893727 0.0110513 -0.0615872 -0.0250246 0.0572044 0.0085621 0.0999933 0.0626598 0.0153756 0.0253183 -0.025074 0.201917 -0.0714855 -0.0113543 -0.0258501 -0.00932622 -0.0251108 -0.0831392 -0.155817 -0.0678815 0.0414292 -0.0375664 -0.100587 0.0255629 0.0218809 -0.041837 0.0828233 -0.0586415 -0.0302997 -0.0279787 0.0670656 0.01455 -0.00477634 0.0341344 -0.0427512 -0.190346 0.0862965 -0.0338198 0.00681211 -0.172925 -0.0656218 -0.036057 0.0294675 0.0259028 0.0898431 0.015989 -0.114134 0.0218184 -0.0551885 -0.0191527 -0.158595 -0.108839 -0.0564784 0.138488 -0.0458144 0.0669642 0.0953224 0.0916906 0.0238157 -0.0539809 -0.0187914 0.0434867 -0.0241571 0.0137791 -0.136859 -0.0255643 -0.0484781 -0.115602 0.0127215 0.156195 0.101263 0.11169 -0.0421412 -0.0251258 0.00166605 0.061994 0.0523146 0.0712766 0.033589 0.156741 0.0951264 0.0551485 -0.0382766 0.0858071 0.032781 0.0277856 -0.0867908 -0.078568 -0.104809 -0.0503774 -0.00714532 0.0160597 -0.0204547 0.165161 0.0303369 0.0701204 0.0239387 -0.123771 -0.0162114 0.0318753 -0.106897 -0.034903 0.0945942 -0.0971917 0.109396 -0.108555 7.55975e-05 -0.00416412 0.142777 0.0450471 0.0210952 -0.0895736 0.0999474 0.0106791 -0.0862057 0.0753503 0.154431 0.00144686 -0.0182387 -0.0188855 -0.0648892 0.0932836 0.0252226 -0.0271146 -0.122604 -0.00228503 -0.0853472 -0.0298965 0.0173055 -0.0107488 -0.0728632 0.117126 0.0234281 0.0275773 -0.143794 -0.126642 0.0697462 -0.0790987 -0.0736096 -0.0462741 -0.0300254 -0.0595455 -0.128264 -0.295166 0.0442141 -0.140906 -0.0585201 -0.143345 -0.0676168 0.0814282 -0.0270718 0.0393034 -0.0433901 0.00385386 -0.0510115 0.0610008 -0.058708 0.111842 0.0479097 -0.0236237 0.0157679 -0.137001 -0.0776661 0.120474 -0.0792139 -0.0206928 -0.011421 -0.111727 0.0104502 -0.0123923 -0.0692593 0.0130727 -0.0395473 -0.0223009 0.0539235 0.000676572 0.0716342 0.026543 0.102386 0.0194052 -0.041409 -0.0693396 0.0356079 0.0850917 0.0464551 0.0594378 -0.154457 -0.0870719 -0.0602349 0.101871 0.00661969 0.00496146 0.0691889 0.166275 0.181949 -0.0110423 -0.0514803 0.0210038 0.0168521 -0.0653507 -0.0499515 0.00270519 0.00438138 0.0545676 0.0785843 0.0356232 0.117549 0.0500175 0.0877181 0.0465502 -0.0792919 -0.0181374 0.0301093 0.129483 0.0290465 0.00189955 -0.143659 -0.0676849 0.025928 0.114763 0.0482554 0.0730213 -0.045347 0.0212274 0.0498098 -0.122825 -0.161275 0.00454669 -0.0453823 -0.0389503 0.0688835 0.236322 -0.0123628 -0.087465 -0.17493 -0.177519 -0.17262 -0.020222 -0.0677936 0.0681534 0.0319468 -0.0749628 0.0363223 0.0689521 0.018139 -0.0290539 -0.048846 -0.037125 0.00544777 -0.0608371 0.137752 0.0886537 0.162559 -0.00967369 -0.0235462 0.0656154 0.058352 -0.16386 -0.0329092 -0.0405402 0.100811 -0.0514257 -0.000778968 0.0188231 -0.0259444 -0.0733906 0.126768 0.0857007 -0.00937777 0.0654072 -0.080521 -0.0477057 0.0721335 0.0233211 -0.0506915 -0.110983 0.0197562 0.00374985 -0.0557114 0.184974 -0.111331 -0.143255 -0.0220375 -0.139244 -0.0721505 -0.123905 0.0738874 0.0666865 0.0043777 0.052869 0.0155087 0.0134858 -0.0778523 0.107853 0.126617 0.0636243 0.0725701 0.0033834 0.102349 -0.0630795 -0.105559 0.0297259 0.0900048 -0.0304789 0.0414806 -0.0599812 -0.063796 -0.0859559 -0.101053 0.0754332 -0.0551533 0.0317368 0.0634046 0.0345065 -0.0111649 0.036881 0.126421 0.0217446 -0.0889812 -0.0370679 0.0742626 0.0969351 0.000652136 -0.159419 -0.16584 0.0958428 0.0833374 0.0695296 -0.00353184 -0.0719956 0.0375206 0.0920924 -0.0399333 -0.0605567 0.0128024 -0.0482473 -0.138509 -0.0129762 -0.148213 -0.0151846 -0.259559 -0.00730182 0.0475637 0.0684288 -0.0471219 -0.0528401 -0.0541857 0.0604426 -0.0614546 -0.00271151 0.0323826 -0.0735944 -0.120745 0.00926612 -0.0625648 -0.119583 -0.0193377 0.0256118 0.0601735 0.0292569 0.0288277 -0.017574 -0.104047 -0.114154 -0.0739068 -0.000880085 -0.109673 -0.0238975 -0.124162 -0.0503237 0.124152 0.0207608 -0.024636 -0.0849976 -0.0206566 -0.00870421 0.0510004 -0.0119912 -0.0374744 0.17357 -0.0960378 -0.0856952 -0.128178 -0.121935 -0.106451 0.145094 -0.116401 -0.0370966 0.0205902 0.157367 0.0646335 0.139353 0.0389173 0.0648333 -0.0659521 -0.14164 0.130664 0.0588426 0.0106534 -0.0992097 0.0254593 -0.0515218 0.00809796 0.0174137 0.123347 0.0789778 0.114217 0.0294724 0.0309305 0.0984061 0.0384445 -0.0389927 -0.000923893 0.0207163 -0.103128 -0.241497 -0.128426 0.0331942 -0.104836 -0.141371 -0.0966874 0.093126 -0.134258 0.00372026 0.0666109 -0.00788754 0.0321957 -0.0815402 -0.0427897 0.00226531 0.0736341 0.117698 0.0297513 0.0185962 -0.0745667 -0.0279259 -0.00765487 -0.0195434 0.0628613 -0.0109961 -0.108954 -0.0483637 0.0670617 0.0725885 0.00159172 -0.146011 0.0415975 0.0399147 -0.136982 -0.130322 -0.0558803 -0.0374638 0.0378644 -0.0751605 0.0451695 0.0264518 -0.0641475 0.0561471 -0.0202374 0.0814559 0.0872445 0.0978267 -0.00457967 -0.0900823 -0.0255135 0.0584691 0.0177316 -0.0481201 -0.184195 0.089224 0.0894351 0.00595607 0.0424864 -0.00512444 -0.0566354 0.0528781 -0.088823 -0.000375293 0.0538204 -0.0962213 0.102339 -0.139963 0.106998 0.057836 -0.0658204 0.0607813 -0.0935448 -0.0834221 -0.146943 0.120143 -0.0925612 0.10473 -0.01833 0.0584578 0.00751163 0.0815282 -0.108922 -0.0938642 -0.0403426 -0.0518121 -0.08983 -0.0100643 0.0116703 0.0581033 -0.11787 -0.0242252 0.0874527 -0.00510733 -0.0069166 -0.0515255 -0.0753107 0.0508764 0.100485 -0.0638263 0.0203086 -0.13137 -0.0347757 -0.0310486 0.0371318 -0.000704122 -0.0125387 0.0473765 0.0400493 -0.0627261 -0.0184552 -0.104687 0.0268888 -0.0070387 0.0458685 -0.0146248 -0.0377547 -0.0799544 -0.0522656 0.0637435 0.00219122 -0.126051 -0.0451097 -0.182244 0.00469611 -0.0404616 -0.0600151 -0.0271489 -0.0849162 -0.0444689 -0.0398721 0.0367361 0.115911 -0.116308 0.0117489 -0.125564 0.0620172 -0.0263814 0.00236884 -0.0142923 -0.0291559 0.0507836 -0.0886428 0.0744988 -0.0641645 -0.00280008 0.122764 -0.0007154 -0.0215729 -0.0157825 -0.11248 0.104561 -0.124617 -0.112942 -0.114797 -0.134167 -0.0791107 0.0262509 -0.0148647 -0.0293317 0.00880078 -0.0683379 0.0846526 -0.067311 -0.00381337 0.0337409 -0.0523566 -0.0231566 -0.022829 0.0243975 -0.14078 -0.0653946 0.0289273 -0.0379156 0.0262754 0.0518412 0.0483853 -0.0358471 0.0280961 -0.085873 0.0780241 -0.0122922 -0.0477307 -0.103695 -0.151976 -0.0233079 0.0699526 0.0353613 -0.0428608 0.0876567 -0.0120265 -0.0690768 0.157068 0.02302 -0.015341 -0.16999 -0.184091 0.0480032 0.0393118 -0.0310663 0.110333 0.0574116 -0.012329 0.036646 0.0993762 0.0183467 0.142531 -0.118212 -0.0629381 -0.0369383 0.0139217 -0.0242656 -0.233488 -0.00586084 0.0870104 0.0472326 -0.0495962 0.018383 0.0556288 0.0753061 -0.0253714 0.0525265 0.058933 0.0873585 0.0955788 -0.0301344 -0.0270785 -0.0999662 0.0699095 0.0369975 0.0791004 0.00992277 -0.00360211 -0.0353005 -0.00166587 -0.0288768 0.148202 -0.013066 -0.0290105 0.00477889 -0.0271247 -0.000503494 -0.141486 0.0516473 0.0272829 0.0103068 0.108449 -0.0828312 -0.118495 -0.0661096 0.069511 -0.090055 0.0449253 0.101769 0.0446499 -0.176436 -0.000285218 0.0198788 -0.021905 0.0874132 -0.191653 -0.00643708 -0.109597 -0.138008 0.0713695 -0.207211 0.0134247 0.0383752 -0.00782895 0.022147 -0.0488489 0.0835563 0.0890353 -0.0391172 -0.0217292 -0.0151202 -0.0157576 0.00934776 0.0338095 0.0244806 0.00383081 0.0554124 0.096424 -0.0895083 0.0309112 -0.0838986 -0.0035923 0.101605 0.0705046 -0.0419311 0.0299244 -0.060525 -0.061089 0.00452327 -0.0542602 0.0624234 -0.0563925 -0.0142273 0.00844065 0.0135849 -0.0439438 0.00673113 -0.0787741 -0.108638 -0.0681078 -0.0282848 0.033928 -0.0174026 0.0159948 -0.072181 -0.0143694 0.0705384 -0.0381919 -0.0179183 -0.0130114 0.0471781 -0.0437163 0.0372018 0.00300096 -0.0072019 -0.0951063 -0.0474363 0.0422808 -0.0430265 0.0197622 0.103151 -0.118331 -0.135823 0.038201 -0.0431751 0.121084 0.0490509 -0.126645 -0.0229711 -0.0643442 0.0660504 0.106949 0.00847392 0.0293899 0.0124191 -0.081134 0.00528722 -0.0489802 -0.0108237 0.0527447 0.0961632 -0.0681806 -0.0277758 -0.0185221 -0.0535141 0.130628 0.125139 -0.0719174 -0.0527956 0.0533746 -0.0612921 -0.0607475 0.00478916 -0.0112559 -0.0723896 -0.124587 0.0271727 -0.106511 -0.0461944 0.0572331 0.0888731 -0.0787583 0.0405171 0.0811997 0.169589 0.0759491 0.0119902 0.0802347 0.144946 0.130631 -0.0504011 0.063671 -0.115155 0.0268187 -0.050249 -0.0981285 -0.129894 -0.0180146 -0.0427766 -0.161777 -0.0502125 -0.0601231 -0.0634782 -0.300094 -0.120805 0.0337305 0.0121016 0.134534 0.139312 0.157361 -0.0939504 0.0836789 0.0653588 0.00841129 0.0472649 0.0236192 -0.100351 -0.0200069 -0.0208114 -0.0677151 -0.159177 -0.141566 0.0126788 -0.0648645 -0.0473033 0.00933022 -0.0502359 0.00641848 -0.0563354 0.0252917 -0.00077291 0.0856449 -0.00454301 -0.0286121 0.0216254 -0.00480649 0.0187915 0.0289172 -0.0639575 0.0993843 0.109478 -0.0883109 0.00581877 0.0309023 0.0574382 -0.12339 -0.0166253 0.00595729 -0.0264071 -0.0158571 0.0611353 0.0718146 0.0725702 0.0584086 -0.00811699 -0.0752438 0.0602849 -0.0945428 -0.0550016 -0.157548 0.194302 -0.139202 -0.105109 -0.0686851 0.0249113 0.0146466 0.0396093 -0.132727 -0.128508 -0.0340382 0.0544547 -0.0170332 -0.0380221 -0.00239804 -0.156466 0.109868 0.0596533 0.0586175 -0.0616879 0.113145 -0.077542 -0.00849702 -0.0637292 0.172324 0.0777636 0.0735252 0.18448 0.16895 0.130142 0.107215 -0.00153552 0.0106676 -0.0604577 0.0287812 -0.0756717 0.0127526 -0.155443 0.0699929 -0.0208683 -0.280845 -0.206699 -0.0440335 0.0784261 0.047275 0.112772 -0.13273 0.0363618 -0.00769077 -0.104494 0.0721544 0.123278 -0.0302263 0.0199684 -0.128171 0.0569397 -0.0998961 -0.0239862 -0.00422305 0.00498133 -0.109322 -0.105205 0.0566865 -0.033076 0.0349405 -0.0957491 0.0702353 -0.00345822 0.000863869 0.00859727 -0.133947 -0.0460839 -0.0492953 -0.0606703 -0.0478148 0.0624272 -0.07194 -0.0663873 0.0529125 -0.0676587 -0.0422982 -0.0258523 -0.0296071 -0.0438558 -0.0683599 0.113739 0.128888 0.0775611 0.109402 0.103668 0.0773113 -0.114957 0.047049 -0.00997214 0.0424218 -0.138344 0.0752607 -0.0603665 0.0265365 -0.117196 -0.00225511 0.059512 0.0171196 0.00897042 0.0985652 0.124371 0.133099 -0.0670985 -0.100424 -0.061466 0.0513002 0.0202396 -0.108232 -0.0627525 0.101223 -0.0211817 -0.0771787 0.078709 -0.0410664 0.00392834 0.0635231 0.138424 -0.00131483 0.0491843 -0.0219265 -0.0514574 0.0183969 -0.128748 -0.0384398 0.00211166 -0.00485666 0.0140516 0.05473 -0.00169756 -0.0811318 0.002529 0.0866019 -0.114466 -0.112322 0.0785811 -0.187462 0.0474228 -0.00382675 0.0664134 -0.00379679 0.0498795 0.198535 0.0273474 -0.0925846 0.0649968 -0.0144328 -0.0894629 0.0490743 -0.0122278 0.109965 -0.0204418 0.14151 -0.025312 0.0118758 -0.0123708 0.0802915 -0.0318496 -0.00214554 -0.0954521 0.127698 -0.0067133 -0.0469869 -0.0568731 -0.0749606 -0.0613995 -0.120954 -0.0835422 -0.00456813 -0.0912658 0.0204718 -0.0879256 0.0841313 0.0094313 0.0257555 0.0536764 -0.120482 0.0290521 0.0311828 -0.0471264 0.0876734 -0.0989138 -0.048433 0.143013 0.112668 0.0997944 0.0287432 0.0114127 -0.0759594 0.07177 0.0260209 -0.0189412 -0.0243771 -0.0770744 -0.0421477 0.0786434 0.0952817 0.0534302 -0.013394 0.000280252 -0.0519554 -0.170215 -0.0921794 -0.122263 -0.0463444 0.0464292 -0.0871892 -0.00775382 0.0255423 0.0957841 0.00946524 0.0266313 0.0176136 0.14139 -0.106601 0.00530518 0.0406687 0.0777072 0.0827157 0.0979186 -0.0542288 0.0148757 0.063857 -0.00189763 -0.107384 0.0590391 -0.0672196 0.184762 0.043102 -0.0995135 -0.108348 0.117967 -0.0419765 0.0575396 0.0301263 -0.0676944 -0.131729 -0.0302516 -0.00516317 0.0964267 -0.139438 0.0312396 0.0601372 -0.121855 -0.0226284 -0.0469107 -0.0130447 0.0447506 -0.04811 -0.078375 -0.135816 -0.0379124 -0.0861939 -0.0306817 0.162667 -0.00695563 0.0768499 0.00587745 -0.0301034 0.00147419 0.0594462 -0.0890143 0.0109206 0.0710598 -0.0483735 0.0575155 -0.00776741 0.0556118 0.0344712 -0.122856 0.280991 -0.0416331 -0.0462751 -0.179255 -0.06875 0.00970745 0.0133318 0.054023 0.194887 0.000873084 0.15257 -0.0957678 0.00487684 -0.12872 -0.0431968 0.109727 0.00503483 0.032642 0.0201846 0.058129 0.0158257 0.110153 0.0289861 -0.0349567 0.0169706 -0.0418571 -0.0418718 0.0650616 -0.0304704 0.0686284 -0.157975 0.0533117 -0.101298 -0.0226308 -0.0253626 -0.00206066 0.146027 -0.0567139 0.00310761 0.0711239 -0.0480936 -0.0947907 -0.000228959 -0.123701 -0.101005 0.0263963 0.0716162 0.151181 0.0506315 -0.0139863 0.0331447 -0.0965996 -0.0297134 0.0861784 -0.119859 0.0912291 0.033244 -0.0455995 0.0860019 -0.130699 -0.00516803 -0.0672265 -0.0422662 0.0795115 -0.128366 0.124053 -0.0142116 -0.152014 -0.0161692 0.101538 -0.0161498 -0.0684523 0.00922541 0.00988919 0.118125 -0.00703981 -0.0597475 -0.0433004 -0.10777 0.0162611 0.0153516 0.0312335 -0.0022684 -0.0400824 0.0972368 0.0130369 -0.0109109 0.0145789 -0.0807466 -0.119793 0.243028 -0.113682 -0.128608 0.201264 0.0766961 0.0481562 0.019894 0.0735719 0.0564532 -0.0304577 0.114694 -0.0502921 -0.0525877 0.0210328 0.067749 -0.0599563 -0.0276668 -0.080664 0.0376398 0.048508 -0.0335504 -0.0455038 0.090976 0.0206796 -0.0668767 0.00533563 0.141851 0.00784119 -0.0426236 0.0404912 -0.0255585 0.00820501 -0.111198 0.0228214 -0.0328858 -0.0324196 0.0130121 0.0356125 0.0249195 0.0227743 -0.0649631 -0.158914 -0.0923448 -0.0164496 0.0123493 0.103103 0.103644 0.00284466 -0.0414355 -0.0235833 -0.0644866 -0.077806 -0.103134 0.0209333 0.0161164 -0.0522849 -0.100803 -0.0105781 0.0559854 0.11998 -0.0256615 0.0429133 0.147446 0.000714446 -0.00528258 0.109849 -0.0999314 -0.0567607 -0.0844457 -0.0147048 0.0467458 -0.0232547 -0.0309657 -0.00831366 -0.060312 -0.0936902 -0.0584885 0.00574598 0.0951048 0.126889 0.064358 0.0233759 -0.0471712 -0.0419998 -0.0610575 -0.0560706 0.00524579 -0.0285259 0.147215 0.142563 0.0508796 -0.0461075 -0.154921 -0.0080505 -0.00266955 -0.0317257 0.0645241 0.0569821 0.0515437 0.117757 0.107606 -0.0838646 0.0170469 -0.115433 -0.0153815 0.0107044 0.120952 -0.0439729 0.039097 -0.126912 -0.0280156 -0.0959522 0.037306 0.0888045 0.0346038 0.0136256 0.0363942 -0.140703 0.00931004 0.0126916 -0.0673155 -0.0316513 0.0151457 0.0865722 -0.0272413 -0.0626147 -0.0075848 0.122781 0.0930491 0.0587891 0.105539 0.0475226 -0.153737 0.0389187 0.00169997 0.00878583 0.00442473 0.00132778 0.0143374 -0.0391461 0.0836311 -0.0717875 0.0929858 0.0547436 -0.0114628 0.098601 0.0730167 -0.0680771 -0.168432 0.136229 0.0208335 -0.00659122 0.00440508 0.048169 0.0493403 -0.068873 0.124689 0.0423468 0.0216949 0.138299 -0.0249401 -0.086796 0.104668 0.0179004 0.0447585 0.0196666 -0.0955774 -0.0516191 -0.0967984 -0.0227029 -0.0403336 0.0228311 -0.0466685 0.0106535 -0.0707363 -0.0282002 0.0220565 0.0268748 0.0797601 0.106723 0.0373432 -0.0731583 0.0278377 0.0455037 0.0864275 -0.0827334 -0.0536783 0.0217904 0.0755736 0.00191227 -0.18736 0.0351562 -0.0209095 -0.0753501 0.110973 -0.0617699 -0.097897 0.0615624 -0.0687317 -0.157396 -0.0499913 -0.0540331 -0.081897 -0.0953558 -0.018118 -0.0234476 0.022466 0.0045268 0.0338887 -0.109208 0.0368078 -0.113095 -0.0762876 -0.0362944 -0.0826856 -0.113205 0.212762 0.00922045 0.0794099 -0.0310703 0.00496542 -0.0715599 -0.00685659 -0.0681093 0.0232223 -5.25232e-05 0.038655 -0.148742 0.0736737 0.00933206 0.0407037 -0.0567943 0.0442775 0.190341 0.0988485 0.0856261 0.0407283 0.0317912 -0.0756179 0.0184836 0.0716512 -0.00420065 -0.120876 0.0765768 0.0030782 -0.0830892 -0.0685803 -0.0969946 -0.0876261 0.0248848 0.119473 0.0799077 -0.0914648 -0.0963105 -0.00259766 -0.145437 0.0296583 -0.0118258 0.0309783 -0.0351386 0.0876547 0.122964 -0.056672 -0.000862452 -0.0499124 0.0319355 0.0214305 0.0871791 -0.00337879 0.0756633 0.0934607 -0.0764596 0.146888 0.0355731 -0.0247889 0.0370314 -0.0619174 0.0947858 -0.0414195 0.0916276 0.03181 0.0667392 -0.0451412 0.0424076 0.0608034 0.0142951 -0.00862268 0.00720036 0.174883 0.0244218 -0.0104184 -0.0437476 0.111922 0.0284598 0.109577 -0.0152039 -0.0534201 0.0521901 -0.0103857 -0.0930674 -0.0860451 -0.00236781 0.10038 0.0578957 -0.0215814 0.0530808 -0.0819863 -0.0311192 0.0221414 -0.128007 0.143714 -0.0433679 -0.0403623 -0.0714951 0.0775784 0.0938632 0.0492421 -0.0764181 0.0407251 -0.0839912 0.00225024 -0.0260288 -0.0803222 0.0597239 0.0707034 -0.0704045 0.0881445 0.00514331 -0.0214425 -0.231991 -0.0353276 -0.0260349 0.157577 0.12543 0.028501 -0.127456 0.125251 -0.0772837 0.010933 0.0602002 0.0196289 0.107066 -0.0643962 0.0197816 -0.0298681 -0.0523849 0.103689 0.0226576 0.00386724 0.0297566 -0.0519121 0.188817 0.0297217 0.158655 0.105899 0.156373 0.0267346 -0.200639 0.141617 0.0891967 -0.0437717 -0.0989772 0.0793803 -0.0283317 0.124339 0.0101215 0.207614 -0.0636644 0.082622 -0.096444 -0.0571247 -0.119107 0.0994255 -0.0447786 -0.0550132 0.103614 -0.0131974 0.169735 -0.0349723 0.1037 -0.0139225 0.0486886 0.067784 -0.0614565 0.0441578 -0.0350136 -0.102377 -0.0697474 0.0172063 -0.0863875 0.0359343 -0.157516 0.104161 0.0638533 0.115126 0.0156305 -0.0418999 -0.0011347 0.0808645 0.0249614 0.088757 -0.086712 0.0296756 -0.01218 -0.0121755 -0.0191503 0.10814 -0.0827564 -0.140857 -0.163848 0.204257 0.0317935 0.041783 -0.0448773 0.0942596 -0.0212144 0.0540781 0.0867021 0.0203601 0.0622526 -0.0217381 -0.122296 0.0230123 0.0616719 0.0710453 -0.0270148 -0.0873942 0.0547854 -0.0608052 -0.0288351 0.021327 -0.0869111 -0.0783258 -0.0610445 0.0163718 -0.104349 -0.0918314 -0.115753 0.049382 -0.0296688 0.0906741 0.0852248 -0.0657222 -0.0234772 0.0355022 0.21726 -0.0805433 0.0344538 -0.0911713 -0.0401514 -0.0386988 -0.0239191 0.0119731 0.15448 0.0420892 -0.129579 -0.175962 0.0685421 0.14883 -0.0395165 0.011855 -0.15442 -0.194311 -0.0908572 -0.0674151 -0.0409925 0.119726 0.0792844 0.0187868 -0.0824226 -0.0137865 -0.0459383 0.216409 -0.0433148 0.0633874 -0.0204565 0.115358 0.136433 0.0363511 -3.22669e-05 -0.073178 0.066757 0.0198957 0.00150708 -0.0519567 -0.0256871 0.0882193 -0.0175552 0.0281872 -0.058807 0.0800406 -0.0273993 0.0783239 -0.0767932 -0.060561 -0.114183 -0.0324802 0.143193 -0.038293 -0.0455696 -0.0592722 0.0613361 0.0399886 0.128588 -0.0219887 0.0597925 0.0279504 -0.129656 -0.00417829 0.0587838 0.0706904 0.210074 0.0632913 -0.0134233 0.0718764 0.165989 0.0593893 -0.036061 0.0333727 -0.0996128 0.0290955 -0.197231 -0.0084749 0.179274 -0.0438363 -0.0724463 -0.00125781 0.0172495 0.0573603 0.0483082 0.0691495 0.169482 -0.0229198 0.141182 0.00131334 0.0546518 0.0150326 0.0695385 0.0683325 0.103067 -0.080001 0.151867 0.100371 0.116425 0.095068 0.0154411 -0.117572 0.274753 0.00615927 -0.196837 -0.0361198 0.188432 0.165549 0.0221009 -0.0254238 0.0922113 0.135876 -0.112411 -0.122757 0.0445498 0.0754846 -0.0239363 0.00506386 -0.0184409 -0.0507759 -0.058255 -0.0986154 -0.00366893 0.0583015 0.037103 0.132408 -0.0477792 0.0219871 -0.00352571 -0.113866 -0.0897981 0.0476483 -0.0660207 0.104862 0.0687273 -0.0265257 -0.0902291 -0.0568992 0.121069 -0.0455729 0.0587322 0.0591327 -0.114921 -0.00805357 0.0652751 -0.0945248 0.0375825 -0.0578863 0.0702373 -0.0959048 0.0434066 0.0383976 -0.133559 -0.0115508 -0.0300054 0.117362 -0.0278037 0.075566 -0.170319 0.0824674 0.00362759 -0.0210631 0.180924 0.0758567 -0.148286 0.0328884 0.22064 -0.057017 -0.133656 -0.0555805 0.010718 0.0616804 -0.0449419 0.0746861 0.137358 0.0042569 0.154909 -0.042541 0.033009 -0.0174361 -0.0134302 0.0331173 0.100787 -0.0815791 -0.0612926 -0.0957333 0.0329151 0.024255 -0.0514414 -0.104141 -0.0520527 -0.0226596 0.0776472 -0.0674257 -0.0566929 -0.0216307 -0.0824258 0.0604608 0.100524 -0.0571813 0.0355071 0.0536131 0.0845633 -0.227036 -0.106191 -0.0943684 -0.0578586 -0.0895377 0.00532582 -0.00497519 0.0588044 0.101312 -0.0400743 0.0768343 0.0591847 -0.0269408 -0.022538 0.0419101 0.0156497 0.122695 0.0690729 0.0347342 -0.138911 -0.0909677 -0.102042 0.0798771 0.0320943 0.0154017 0.0972035 -0.0351849 0.0682749 -0.00959721 -0.202702 -0.00498501 0.0991729 -0.0632748 -0.0382954 0.00420747 -0.17722 -0.0729768 -0.0903311 -0.119853 0.0946217 0.0600432 0.0267279 0.0598272 -0.0220409 0.0170974 -0.193393 0.0994349 -0.0970316 -0.012965 -0.231677 -0.0620617 0.076521 0.0477624 -0.127073 -0.0258729 0.00185056 0.176851 -0.0312632 -0.0233695 0.15875 -0.11035 0.0208372 0.0324353 0.0530218 -0.043407 0.0693985 0.0578726 -0.0253453 -0.14922 -0.092117 0.0362648 0.027262 -0.0373917 -0.130799 0.0140305 0.0124189 -0.0266947 -0.0519881 0.0470053 -0.147568 0.0311341 -0.0407927 -0.00491475 0.131573 -0.0545625 0.000629904 -0.0600515 -0.0307383 0.122337 -0.112708 -0.0543914 0.0444086 0.119427 -0.0188301 0.0257037 -0.0408422 -0.0184183 -0.0227148 0.111034 -0.00629469 0.0745402 -0.0332368 -0.00183619 0.0821074 -0.0556175 0.0581968 0.0544976 0.050791 0.00220333 0.125427 0.00410637 -0.114387 0.00419309 -0.104676 -0.0159601 -0.0187099 0.0136995 0.0910573 -0.00198141 0.0534845 -0.0177821 0.129256 0.0255007 -0.0175001 0.0247431 0.00792351 0.0239114 0.0229241 -0.0871123 -0.0501845 -0.00407539 -0.182532 0.0126032 -0.021648 0.0739651 0.0504712 0.0214611 0.296294 0.123372 -0.0147515 0.0293448 0.138244 0.0313513 -0.0211644 -0.0122195 0.0510414 -0.00414108 0.083886 0.00559595 -0.0956635 -0.00689789 -0.0376252 -0.0512752 0.0307727 -0.0194051 -0.121251 -0.0143769 -0.0717141 0.040862 -0.0367542 0.089659 0.0565432 -0.00248243 -0.00539913 0.11301 0.041621 0.0120722 -0.169355 -0.0570114 -0.0451149 0.131947 0.0592986 0.0462063 0.0356443 -0.0281396 0.0503296 -0.051753 -0.13156 0.0665293 0.0993458 -0.0429569 -0.0565434 0.0111158 -0.138654 -0.0495357 0.0971832 0.195329 0.016384 -0.0285612 -0.0637205 0.0869123 0.0336389 -0.00330122 -0.0101383 0.0259682 -0.00974024 -0.128032 0.0381599 -0.0628518 -0.084956 -0.0031511 0.118385 -0.0893432 0.0166039 0.0385671 0.127464 0.109574 -0.0214253 -0.0182807 0.153928 0.131634 -0.107319 -0.0476503 -0.00480406 0.0189783 -0.0146947 0.061214 0.0665263 -0.0146562 -0.0518408 -0.0647444 0.158055 0.0270089 -0.0224581 -0.0700957 0.01949 0.143131 -0.0676433 -0.0956574 0.0489395 -0.0718434 0.200357 0.0319327 0.0580807 -0.0223357 0.0470952 -0.0340552 -0.0881713 -0.13192 0.00510248 -0.166698 -0.0419736 -0.133699 -0.009147 -0.0733927 -0.128479 -0.131306 0.0902175 0.0777512 0.0332139 -0.00843193 -0.130047 0.0359265 0.148832 -0.124535 0.0145104 0.00568464 0.0956039 -0.121783 -0.149109 0.0638737 0.0544866 0.100156 0.108332 -0.15032 -0.0147903 -0.0198039 -0.0834022 0.0992148 -0.016144 -0.0783745 -0.0561937 -0.0300605 -0.101279 -0.0802044 -0.0210308 -0.0436336 0.0575321 0.0170808 0.057634 0.135744 -0.00718206 -0.188612 -0.0692129 -0.071293 0.112339 -0.025543 -0.0164943 -0.064854 -0.0936559 -0.0405742 -0.208035 -0.109728 -0.0188757 -0.216791 -0.0553837 -0.0363647 -0.0885011 0.00570796 0.100865 0.0933915 0.160407 -0.116795 0.0939525 -0.0295846 0.111143 0.0309332 0.0065722 -0.047944 -0.0319371 -0.0545378 -0.0429116 0.0202127 -0.010263 -0.106576 -0.0656078 0.0240495 0.0457975 0.0130912 -0.115318 0.0218489 0.0754485 0.0240057 -0.00384801 -0.121374 -0.0184222 -0.1244 0.0179562 0.0155983 0.0792896 0.00777477 -0.0189405 -0.102767 0.137334 0.00093524 -0.146866 -0.181488 -0.104181 0.0378215 0.0227023 -0.0603718 -0.0739987 0.114556 0.150207 -0.0352943 0.0537057 -0.0580329 -0.0087346 -0.0692595 0.0457643 0.0403013 0.0676927 -0.104429 -0.0617671 -0.0570876 -0.00315486 -0.11701 0.0263801 -0.0405417 0.0318014 -0.0617478 0.161641 0.191887 -0.00159219 0.12261 0.0102148 0.10465 0.00190848 -0.0811045 -0.0470275 0.0667356 -0.023508 -0.122451 0.188886 0.0616471 0.0307757 -0.0278387 0.0979196 0.0889218 0.0885921 0.00530998 0.029962 0.00371482 0.0286542 0.0264703 0.0455053 -0.0150562 0.0340767 -0.0754047 0.0718334 0.049892 0.0731013 -0.0330272 0.0240778 -0.00589978 -0.0867051 -0.0106923 -0.023246 0.12027 -0.0465933 0.103212 -0.00497739 0.021778 0.0282787 -0.0945086 0.0129115 0.0687843 0.00524681 -0.037217 0.0322876 -0.0373387 0.0467975 -0.0326511 0.000897182 -0.00476382 -0.0631964 -0.00359245 -0.0771435 0.0949715 0.0909139 -0.0135264 0.0632003 0.0319333 -0.0360479 0.0144548 0.0416525 -0.114656 -0.073759 0.0447089 0.0576378 -0.028347 -0.0796858 -0.0674235 0.0168085 0.0151745 -0.0676426 -0.0117904 -0.0354874 -0.028567 0.0895717 0.147658 -0.0387443 0.0687415 0.0698421 -0.0775752 0.117418 0.0893428 -0.0248209 -0.0564825 0.0590121 0.0991852 0.00644545 0.0530625 -0.0165909 0.0700207 0.1138 0.0213339 0.0616622 0.0761245 0.0085841 -0.0738698 0.135252 -0.047614 0.00892667 -0.0715199 0.214011 -0.0202544 0.00362759 -0.0823991 0.169575 0.0334289 -0.0418551 -0.0880782 -0.0406508 0.0995375 0.0567155 -0.0654542 0.0771485 -0.0284396 -0.00978473 0.108648 0.0328448 0.0818403 -0.101609 -0.0446952 0.0595443 0.105466 0.0298865 -0.0304802 0.120419 0.101477 0.0278138 0.015515 0.0781483 0.013574 -0.0466487 -0.0459783 0.0250154 -0.0613174 -0.0442218 0.0486766 0.13812 0.0907416 0.00836788 -0.0204564 0.0785835 -0.0453336 -0.179776 -0.0301528 -0.0711469 -0.0157169 0.00465183 -0.0503992 -0.063398 0.075186 -0.0158722 0.00810226 0.0138293 -0.040351 0.0627296 -0.193154 -0.124491 0.0120248 0.202701 0.0195084 -0.120294 -0.107399 -0.131699 -0.065423 -0.0386332 0.0787871 -0.126392 -0.160528 0.0551057 0.173725 -0.133736 0.0863437 -0.0340088 0.0786336 0.00497278 -0.0464093 -0.0709732 -0.000867047 0.160753 -0.0690532 -0.0324429 -0.0387119 -0.0292877 0.0850958 0.018304 0.0222507 -0.0778187 0.0641627 -0.0229163 -0.0937886 -0.110711 0.0431805 0.0178475 0.0555426 0.000117423 -0.0080136 0.0122818 -0.025055 0.0251602 0.0934349 -0.125404 -0.0161725 -0.143644 0.07606 -0.0972846 0.0361477 0.0804839 -0.0545692 0.0210581 -0.0424274 -0.078383 -0.0694211 -0.00562512 -0.154662 0.00327578 -0.0910945 0.0434825 0.194837 -0.0138461 -0.0707371 0.0121734 -0.0474556 0.036772 0.0462788 -0.106808 0.00932489 0.156201 0.0235052 -0.05423 -0.0526466 -0.00308065 -0.0141339 -0.0867076 -0.0593011 -0.184092 -0.0985083 0.0453123 0.0108312 -0.0130266 -0.104448 -0.0476679 -0.0605161 0.00509359 0.0621755 0.104891 0.0163373 -0.0492772 0.0810135 0.128793 0.0653587 -0.120359 0.0858234 -0.00219956 -0.0937421 0.0719924 0.0176872 0.0157585 -0.117985 -0.0585285 0.0121932 -0.0552273 -0.00590067 0.00343993 0.0585844 -0.103547 0.0310317 -0.0278376 -0.132426 0.0261121 0.102435 0.00580292 -0.0878202 0.029156 0.0221628 0.17352 0.0732024 -0.0462707 0.0308657 -0.0772522 0.0549773 0.0991412 0.15787 0.0297313 0.0478468 -0.0955098 0.163292 -0.0171084 -0.0341164 -0.116846 0.164801 0.0335776 0.083812 0.0188826 -0.00976203 0.0212368 0.0923071 0.146446 0.0228685 0.00856309 0.0415368 0.0345243 0.0844814 -0.195367 -0.061762 -0.00934988 -0.0195483 -0.00100296 -0.000324865 0.00568126 0.0809836 0.128712 0.0531765 0.0227929 0.00716376 -0.0636931 0.0923338 -0.149888 -0.125404 -0.0406564 -0.0730804 -0.0551107 -0.0825038 -0.0433241 -0.0602742 0.106283 0.0457022 0.000506722 0.0440584 0.0126317 -0.0258093 -0.132685 -0.0557202 0.0659858 -0.194635 -0.0695101 -0.0507301 0.0105674 -0.0901841 0.0343293 -0.000166788 0.073254 0.00303539 0.0639792 0.136801 0.132934 0.0113881 0.0103523 0.102839 -0.121546 -0.137731 -0.00181583 0.1458 0.0220652 -0.0393466 -0.034164 0.118678 0.0728816 0.103498 -0.126164 0.143724 0.0034501 -0.00438503 0.032822 0.0603484 0.0148484 -0.0964269 -0.0456615 0.0178751 -0.0329549 0.065871 0.0630997 0.0470155 -0.0801445 0.0698279 0.0862724 0.0657344 -0.0915961 0.0266436 -0.122728 0.00827694 -0.0194791 0.0142676 0.0228665 -0.0038303 0.0439899 -0.0668181 0.126429 0.0626543 0.0134436 0.0543895 0.0650407 -0.0158845 0.136616 -0.0102798 0.0304865 -0.0113656 -0.130476 0.0293811 -0.0252919 0.0920011 -0.119482 0.0260723 -0.0737055 -0.17727 -0.0402579 0.1527 -0.010785 -0.200729 0.00715805 0.189324 0.0116865 0.0549439 -0.0214216 -0.0674341 -0.120749 -0.185786 -0.00692012 -0.109897 0.0435634 0.121759 0.0392004 0.049046 -0.0384279 -0.114056 -0.0730899 -0.0158718 -0.00133091 0.113943 -0.014026 -0.0603292 0.0474592 0.0629218 0.0552915 -0.0526178 0.0635789 0.0561217 0.0381763 -0.0170799 0.0638736 0.0541906 -0.0687496 -0.112135 -0.012251 0.0295201 0.00750324 0.00996878 0.0660388 0.0334777 -0.0111121 -0.067349 -0.0996343 0.115021 -0.0686746 0.0339196 -0.0271213 -0.0245898 0.0298163 -0.0262015 -0.0425624 0.0497883 -0.12852 -0.0474836 0.0376372 -0.0838195 0.0537385 0.0448806 0.0339037 -0.0928016 -0.0916115 -0.0173577 -0.0328539 -0.0293274 -0.0146426 -0.0516564 -0.109755 0.0431079 0.0218162 -0.0268305 -0.104935 0.108109 -0.0759855 -0.0754924 -0.0940373 0.00806025 0.0261056 -0.00889495 -0.0911563 -0.167734 -0.139507 0.0383899 -0.0220494 0.0544649 -0.00102679 -0.0569531 0.0980928 -0.0446251 0.0445553 0.00880313 -0.0354145 0.104891 -0.0120047 -0.062399 -0.149274 0.0723923 -0.00235818 0.00105872 -0.0398358 0.217502 -0.0864278 -0.00372103 0.011251 -0.0334779 0.0225613 -0.0692409 0.100173 0.00254373 -0.195739 -0.110991 -0.0992393 0.0830602 -0.102987 -0.0391586 0.0404441 -0.112155 -0.070316 -0.11398 -0.0354545 -0.053088 0.00930002 -0.0499701 0.0442219 0.0725231 0.024785 -0.0523768 -0.0659435 0.127065 -0.0692739 -0.0295988 0.107424 0.0256504 0.0345554 -0.0501534 0.0131887 -0.16288 0.0672881 0.0929271 -0.110766 0.0174426 -0.0168159 -0.00670066 -0.00930748 0.00388999 0.0190642 0.0121479 -0.0240841 -0.0681007 -0.0316018 -0.0375324 0.0550805 0.00420346 0.0563689 -0.0523939 -0.0197743 -0.0549978 0.0885257 0.0806427 -0.0550771 -0.09377 -0.0130958 -0.0854195 -0.154204 0.00474227 0.00784747 0.0378117 -0.0152087 0.0343874 -0.136739 -0.0644027 -0.109665 0.0863022 -0.00139668 -0.0015914 0.0750037 0.0212153 -0.115501 0.10663 -0.0489501 0.0940855 -0.0766041 -0.0398338 0.00477405 -0.00346224 -0.0126776 -0.0350004 0.0542534 0.0120002 0.0739095 -0.072636 0.0133832 -0.0242747 0.045975 -0.0459707 -0.09511 0.0030487 -0.00844155 -0.0209099 -0.0289165 -0.0980089 0.00976474 -0.0146752 0.0203729 0.00131937 0.0731105 -0.0217728 -0.10189 0.082559 -0.0227439 -0.015126 0.0326584 -0.0246655 -0.0022055 -0.0970317 0.0527295 -0.0474338 0.119127 -0.00757481 -0.00265952 0.07782 -0.136957 0.0601962 -0.131881 -0.0673828 0.0471322 -0.0256872 -0.110585 -0.0262269 -0.00283604 -0.109145 0.126355 0.0729945 -0.0431897 -0.0108272 0.00149707 0.0306082 0.0309353 -0.015799 0.0412099 -0.029857 0.073855 -0.165985 -0.038162 -0.0520163 0.0555547 -0.0343747 -0.0280301 -0.064982 0.0758825 -0.0651433 -0.132665 0.0549672 -0.0483796 0.119329 0.0285291 0.0318807 -0.0233086 -0.01635 0.0345105 -0.0690754 -0.00320441 0.0363675 -0.0506564 0.0856013 0.0690361 0.0428831 -0.0652149 -0.0231865 -0.17266 0.0529156 -0.0347269 0.0968565 0.0372675 0.118875 -0.0768167 -0.0654672 -0.0132805 -0.0490715 0.0190758 0.101637 -0.0901129 -0.0307921 -0.0993451 0.0314329 -0.0886089 0.0589949 0.0376955 -0.0555111 0.049753 -0.011994 -0.0637233 0.0413998 0.00246916 -0.0725988 -0.0935815 0.0391448 -0.0192506 0.0244923 -0.0394487 0.0191336 0.0166885 -0.00681587 -0.0354152 0.0910456 0.0143742 0.0806327 0.0421435 -0.052263 -0.0354838 -0.0997403 -0.112453 -0.0968457 -0.0617616 0.0565682 -0.174206 -0.00473223 0.117169 -0.0832741 -0.06908 0.0821095 -0.0139646 -0.0355359 0.00284859 -0.0297746 -0.137817 0.00750055 -0.0271035 0.00755784 -0.0441702 -0.0172681 0.0644198 -0.0627061 -0.062447 0.0942007 0.0744284 0.112361 -0.0821078 0.105165 0.00524828 -0.011901 -0.02494 -0.0641805 -0.0372262 0.034482 -0.0866025 -0.0743634 -0.073734 -0.0459623 0.113098 0.0170013 0.0329862 -0.116545 -0.0708236 -0.0544214 0.017545 -0.00228062 0.00346249 -0.0796464 -0.0451903 -0.0395718 0.00695338 -0.00362406 0.0533609 0.00214129 0.02408 -0.0319371 0.103951 0.0119025 0.162562 0.0271996 -0.143734 0.00737255 -0.0902504 0.0462262 0.0275315 -0.0216168 0.0593116 0.0437831 0.137861 -0.0793381 -0.160506 0.104905 0.158516 -0.118424 -0.0179701 0.0898634 -0.0652085 0.0643898 -0.102497 0.0312517 -0.0797209 0.0163362 -0.123423 -0.0257785 0.031611 0.0712239 -0.0168581 0.0781139 0.0856961 0.033355 -0.0817495 -0.0418837 -0.0666364 -0.228771 -0.0148492 0.072693 -0.046341 -0.0421205 -0.0373188 -0.0334716 -0.0335781 -0.156223 -0.120663 -0.00610416 -0.0620871 -0.0581147 0.021389 0.109592 0.00729744 0.121292 -0.0240313 0.111876 -0.0395471 0.109774 -0.146958 0.0275173 -0.0547586 -0.143573 -0.0689456 -0.0122707 -0.0937328 0.053708 -0.185896 0.0621282 0.0324484 0.129846 0.0826771 -0.0912663 -0.0659171 0.0196748 -0.083617 0.0352383 0.000888823 0.131901 -0.0506905 0.0549785 0.0696394 -0.0405658 0.00685635 -0.143198 -0.065231 0.0220135 -0.132398 0.0199974 -0.0327247 -0.015912 0.0113146 0.0116085 0.108149 0.240787 0.045245 0.115376 0.00916184 0.0331982 0.051681 -0.0635882 -0.00413389 0.012084 -0.100205 -0.0798667 -0.0637704 -0.253847 -0.177158 -0.137297 0.0193792 -0.0945738 0.0336874 0.00817046 -0.125974 0.210149 0.1001 0.0594157 -0.142959 -0.0305419 -0.0395808 -0.106435 -0.0271868 0.0241193 -0.0357429 -0.0665793 -0.00848319 0.0563368 0.0761936 0.0938068 0.170567 0.0471811 -0.0377656 -0.0668975 -0.0421839 0.0333297 0.00067536 0.00747848 0.0752614 -0.0959528 0.167795 -0.0947046 -0.0225618 -0.0868443 -0.0574589 -0.0319225 0.0488143 -0.0778481 0.0330266 0.0160106 0.123665 -0.0408027 -0.0315022 -0.0547362 0.018228 0.0722841 -0.0693774 0.014139 0.00598676 -0.075172 0.0534331 0.0507074 0.0379655 -0.00627784 0.125474 0.0129516 -0.0326991 0.00252258 0.00846761 -0.0393517 0.0206929 0.0370695 0.025661 -0.0558014 -0.0752919 0.145965 0.14213 -0.00334924 -0.111597 -0.0756088 -0.0690295 -0.118621 0.173951 -0.0450438 -0.0372258 0.00811036 0.0481668 -0.0900565 -0.00348426 0.16063 0.0911189 -0.141901 0.0319244 -0.0707512 0.0184811 -0.00449397 -0.0121615 -0.0760904 0.0709727 0.0680135 -0.00992339 0.0209841 0.0433661 -0.0773106 0.0661133 0.0134849 -0.0292125 0.0784491 -0.0276868 -0.012585 -0.031695 0.0656747 0.000920951 -0.149423 -0.0238409 -0.0557786 0.0113091 -0.0970544 0.0141855 -0.106036 0.026824 0.0887647 -0.020422 0.0145076 -0.00606837 -0.0325647 -0.0135964 0.0312791 -0.0364065 0.130221 0.038236 -0.0100745 0.0411998 0.0186916 0.0449389 0.0401552 -0.0781853 0.0600976 -0.087992 0.0220053 0.0473176 0.0653004 -0.110547 -0.070072 -0.0404111 0.128258 -0.0321788 0.0484705 -0.119875 0.0870639 -0.0660898 0.0381539 0.0126902 -0.0979993 -0.0612598 -0.0116413 -0.0789328 -0.0332347 0.0484262 -0.0700593 -0.0293731 -0.00883326 0.0969574 0.0928384 -0.034456 -0.108991 0.0359334 0.104379 -0.0303033 -0.0043238 -0.0809665 0.0329496 -0.077538 0.125299 0.0122495 -0.0477959 0.12148 -0.0247608 0.0626198 0.0832832 0.0273954 -0.100424 0.0467737 -0.0133971 -0.0986784 0.00203571 -0.150403 -0.0721809 0.0207747 0.0886285 -0.0025396 -0.0225313 0.00542709 0.0600017 0.0747331 -0.0238503 0.0794467 -0.0307075 0.0843197 0.00852175 -0.0109304 0.0526488 0.0210827 -0.0507946 0.129608 -0.000107194 0.102867 0.0349833 -0.0639946 -0.02742 -0.0832156 -0.00613345 -0.0483194 0.0979309 0.0442075 0.0778609 -0.0767373 -0.0743325 0.0171715 -0.0468346 0.0190582 -0.0859744 0.0102363 0.048439 0.0298337 0.078029 -0.00987146 0.118916 -0.0174603 0.0900797 0.0016115 0.0530381 0.0558363 -0.0640153 -0.0299602 0.0675061 0.125242 -0.060506 0.122409 0.153883 -0.141985 -0.131071 0.00780471 -0.123627 0.0838928 0.00792768 0.044358 0.0515277 -0.151252 -0.0378605 -0.053882 -0.138483 0.0214093 -0.0120313 0.0474469 0.117024 0.024875 0.061011 -0.0314634 -0.064423 0.0495514 -0.0074187 -0.140912 -0.104709 -0.00233312 0.0461408 -0.0479427 -0.0361488 -0.0942746 0.0589417 0.0453078 -0.002511 0.068088 0.13047 -0.0206301 0.0382939 0.0449766 -0.0357343 0.0798018 -0.0646176 -0.0866764 -0.133226 0.0412302 -0.0481109 -0.0255272 -0.0186171 -0.104288 0.117055 -0.070394 -0.0956382 0.084412 0.0360917 -0.16739 0.0118799 -0.113943 0.064469 -0.0299604 0.111148 0.0598708 -0.0114683 -0.149685 0.0684825 -0.000351334 0.0106724 0.0737641 0.0563671 -0.0966588 0.167408 -0.0528115 -0.187888 0.0833619 -0.0425125 -0.114069 -0.085982 0.039187 0.0795773 -0.0533129 -0.146313 -0.0897164 -0.0344262 -0.125562 0.00788827 -0.0678257 -0.10117 0.0488452 -0.0739787 -0.00805424 0.0630014 -0.0264931 -0.200259 -0.0161377 -0.0553669 -0.00767855 0.0300614 0.0374102 0.0382861 -0.00741659 0.118282 -0.10845 -0.0339006 -0.00625328 0.0442824 -0.0980874 0.0643533 0.0267817 0.0532717 0.0177429 0.0374571 -0.0540297 0.00276506 0.125445 0.00929551 0.0505421 0.125761 -0.0316857 -0.0149911 -0.126486 -0.0501024 -0.023328 0.0172335 0.0246034 -0.0922146 -0.00331949 0.0269559 -0.0274247 -0.094454 -0.0151804 -0.0437473 -0.0414484 -0.0338202 -0.0359628 0.00387402 -0.0512369 0.0222196 -0.0509433 -0.0916224 -0.0403182 0.0663357 0.0362941 -0.121809 -0.0185629 0.0359278 0.115573 -0.0261021 -0.0436924 0.0582335 0.000160424 0.0933876 0.00145708 -0.0513676 0.110481 -0.0270628 0.0188885 0.0197207 0.061026 -0.104807 -0.0415367 0.0960463 -0.102411 0.0339221 0.042914 -0.206641 -0.0577914 -0.125271 -0.0484451 0.0520738 -0.060639 -0.0327212 -0.0857559 -0.165167 0.022167 0.138404 0.00248576 -0.0517389 0.0315378 0.00611473 -0.0763154 0.0107904 -0.0141215 0.175024 -0.00696235 0.147936 0.114834 0.0134348 -0.0789386 0.0298956 -0.101244 -0.0593269 -0.00146108 -0.103765 -0.0555986 -0.0313785 0.00169096 0.0231222 0.0784505 0.0378464 0.0576314 -0.0128127 0.0158062 -0.05847 0.155735 -0.0780522 -0.0812119 0.0191266 0.000261973 -0.0371827 -0.00427707 -0.0090361 -0.0450642 0.191055 0.066171 -0.0525125 0.052015 0.149726 -0.0606679 0.0351996 0.0897882 -0.0538904 -0.0876421 -0.0184592 -0.130459 -0.0127839 -0.00519896 0.00748364 0.077553 -0.0538867 -0.111738 0.00944854 0.00577428 -0.0143518 -0.0268623 -0.0506592 0.0677342 -0.0013533 -0.025507 -0.11118 0.0610595 0.103921 0.127686 -0.100171 0.0650518 0.0528655 -0.0261909 0.0249709 -0.0644934 0.0800961 -0.120717 -0.0508205 -0.0254941 0.028444 -0.0532698 -0.0281934 -0.0860323 -0.00438474 0.0383032 -0.0653076 0.0845343 -0.0868077 0.0164005 0.0171037 0.0833925 -0.0129309 -0.0215085 0.0595757 -0.132806 0.0266152 0.0669803 0.0378584 -0.0714057 0.0296958 -0.139743 -0.0532121 0.155205 0.0237695 0.0241276 0.112599 -0.0612245 0.0372394 0.0145752 -0.103777 -0.101676 0.0400317 0.00305358 -0.0176934 0.0740135 0.00468458 -0.0185074 -0.0737132 0.0019984 -0.0772745 