-0.00487863 -0.0435436 0.0273716 -0.0430076 0.00133078 0.0297934 0.00134423 -0.0210655 0.0185013 0.00802788 0.0849715 0.0148628 0.0408385 0.0309913 -0.00511373 -0.01347 -0.027033 0.0523368 -0.0374399 -0.106899 -0.0309533 -0.020882 -0.0806115 0.00201472 -0.0372444 0.364338 -0.338173 -0.498356 -0.860093 -0.0402843 0.335213 0.464342 -0.330513 -0.0832612 -0.149505 0.235736 0.174095 0.120646 1.40645 -0.0768113 -0.171783 0.916948 0.351046 0.814941 0.0324288 -1.20206 0.596208 -0.287332 0.464132 -0.132344 -0.0433719 0.0264754 0.0985951 -0.119533 -0.249011 0.0623081 -0.246389 0.0186315 0.165152 -0.00832783 0.0218734 -0.138028 0.0131988 -0.144073 -0.188064 0.0214442 -0.0570505 -0.00644968 -0.000346639 0.0422522 -0.0186898 -0.0817982 0.00400542 -0.0594817 0.0183834 -0.00331141 0.0021901 -0.00413191 0.000474994 0.0456255 -0.00631475 0.0529718 0.0429715 0.0191472 0.00455425 0.00236034 0.00507666 -0.0728342 0.0398826 -0.00906388 0.0372027 0.0396362 -0.0296761 0.00194204 0.0801471 -0.00487045 0.0310326 -0.114338 0.0538124 -0.0105774 0.888979 -0.728689 -0.100206 -0.367176 0.357187 -0.253028 0.0719101 0.466488 0.193781 -0.0241501 -0.606541 -0.0664334 0.675435 0.484935 0.0680331 -0.0733769 -0.0651752 0.248186 -0.127811 -0.718522 -0.580683 0.0865112 -0.326633 0.0326889 0.081455 -0.298586 -0.967919 -0.184041 -0.0379546 -0.49963 -0.160673 -0.0609605 -0.348399 0.275348 0.310561 -0.109686 0.47603 -0.548163 -0.150715 -0.179288 0.0208355 -0.3308 -0.587362 0.142441 0.669589 1.1291 0.789215 -0.045165 -0.70661 -0.13011 -0.00617358 0.0479918 0.0628162 -0.0158124 0.0422507 0.0325671 0.00987984 0.0161528 0.000328683 -0.00878091 -0.0587986 0.00910876 0.0578232 0.0350446 -0.033128 -0.0568239 -0.025948 -0.0124323 -0.0198418 -0.0332095 0.0898658 -0.0997891 0.0101641 -0.0106517 -0.0722782 -0.377316 -0.385468 -0.885813 -0.364757 0.58098 -0.113773 -0.906252 -0.480255 -0.398108 -0.146392 0.0107125 -0.67503 -1.3116 -0.923021 0.181375 0.822223 -0.00725699 0.0622708 0.659584 -0.165813 -0.106196 0.3545 2.56013 1.61948 -0.904934 0.646565 0.10338 -0.527102 0.551787 -0.57945 0.180251 -0.394273 0.771965 -0.663249 -0.372514 -0.572953 0.146179 0.082063 0.172871 -0.00427839 -0.366164 0.536954 0.972823 0.246109 0.922074 -0.677895 0.333134 -0.31447 0.795165 -0.913383 -0.833011 -0.210291 -0.71421 -0.254492 1.31873 -0.495453 -0.244646 0.176937 -0.00839492 0.626866 -0.359354 0.291575 -0.399526 0.464296 0.928073 -0.390104 -0.270342 -0.284772 -0.463962 0.34365 0.190467 0.19989 -0.426068 -0.83155 -0.279936 -0.634284 -0.00361925 0.246598 0.0421724 -0.514462 -0.932036 -0.0216205 0.127586 -0.161981 0.0284124 -0.130096 -0.174352 -0.255088 0.108343 -0.0162225 0.0756977 0.0175796 -0.0621742 -0.0453852 0.419595 -0.0179682 -0.110307 -0.0668736 -0.4004 0.0773094 -0.553158 -0.964019 0.428268 0.0277546 -0.0409947 -0.538886 -0.128629 -0.153719 -0.339965 -0.279818 0.195509 0.546602 -0.63901 0.191547 0.4383 0.109374 0.259863 0.449295 -0.145859 0.455291 0.646519 -0.0618823 0.467239 -0.819217 0.280268 0.0209295 -0.0568126 0.012678 -0.00855936 0.0213855 0.00743279 0.0149268 -0.0277972 0.0488184 -0.0294522 0.0317134 -0.0733398 0.0562208 -0.00150443 -0.00864663 -0.00839201 -0.0482114 -0.0758708 -0.0203339 0.00699411 -0.0713514 0.00711415 0.0508053 0.0141491 0.00478077 0.0263318 -0.00669716 0.0082144 -0.0143971 0.007379 0.0703735 -0.0335178 0.0228163 0.0265168 -0.00131196 0.0384517 0.0600115 -0.0391962 -0.00171677 -0.0324922 -0.0429307 0.0565335 -0.00314921 -0.148212 -0.0066607 -0.030443 0.0132401 -0.053131 -0.072151 0.0469016 0.319241 -1.77265 -0.847201 -0.364563 -1.61604 -0.492178 -0.237448 1.5504 0.141516 -1.4518 1.37299 0.229657 -0.147392 -0.00032716 -0.752018 0.103262 0.366489 -0.941435 -0.792894 0.21908 -1.08972 -1.07994 -1.14748 0.0624993 -0.119455 0.614742 -0.0826188 -0.130324 0.0846894 0.0920468 -0.206295 0.351853 -0.671449 0.295422 -0.249132 0.0342116 1.00821 -0.702853 -0.779692 0.135608 0.438328 0.187257 -0.622083 -0.153627 0.755028 -0.108105 0.870744 -0.865798 -0.714192 -0.414563 -0.334229 0.1119 0.204936 -0.612431 -1.35339 -0.219762 0.471903 -0.928287 -0.48499 -1.18142 0.644435 -0.11199 0.494101 0.78343 0.330499 -0.190868 0.366573 0.748729 0.284738 -0.955233 -0.00879094 0.377247 0.17075 0.687818 -0.832059 -0.0759047 0.391858 -0.103629 0.241862 0.0747507 -0.0460975 -0.242967 -0.186027 0.446532 0.191836 -0.000948056 -0.417895 -0.162493 -0.49801 -5.56104e-05 0.00551595 -0.187655 -0.631627 -0.59695 0.266773 0.034001 0.618788 -0.139713 -0.0776992 0.00814118 -0.60801 -0.868316 -0.0631829 -0.576429 -0.0138883 -0.256238 0.311026 0.148558 0.355687 1.43862 -0.324438 -0.0546818 0.399268 -0.208011 0.475935 -0.0465748 -0.390004 -0.247638 -0.305126 0.275738 -0.179153 -0.194568 0.175685 -0.319959 -0.608498 -0.263737 0.0588962 0.468379 -0.423487 0.781683 0.0273396 -0.0490979 0.173571 0.58419 0.20287 0.000967009 1.12682 0.516552 0.234349 -0.0868784 -0.240238 -0.38186 0.095698 0.11513 0.130769 -0.227559 -1.22206 -1.27958 -1.06441 -0.0918613 -0.8257 0.210687 -0.458701 -0.416092 -0.668065 -0.363723 0.214855 0.464977 -0.0412516 1.01332 0.245642 -0.522852 -0.907515 0.624401 -0.294828 -0.289584 0.528201 -0.0339139 -0.324844 0.706154 -0.0788165 0.651758 1.48278 -0.818122 -1.47319 -0.338632 -0.936069 0.0433921 -0.158847 0.283402 0.0983521 -0.2567 0.0465717 0.146848 1.09161 1.18367 0.14747 -0.177625 0.0129068 1.17816 0.207534 -0.180995 0.358297 -1.23797 0.0718524 0.487977 0.315053 0.168408 0.0343384 1.23922 0.0473356 0.00673826 -0.0204097 -0.0312188 -0.0258808 0.00579983 -0.00123093 0.00252364 -0.0540547 -0.0124075 0.0305209 0.0458831 -0.0368756 0.0203957 0.0209581 -0.0400854 -0.113865 0.0602461 -0.00489642 -0.03531 0.0328149 0.0135305 0.0059784 -0.0382373 0.0048748 -0.293165 -0.248737 -0.109566 -0.218751 0.6124 0.0445594 -0.0800885 0.0460421 0.040693 0.32449 0.186585 -0.25539 -0.153618 -0.295322 0.133784 0.178861 0.088262 -0.0333557 -0.307751 0.544567 0.416549 0.0762396 -0.285691 -0.853351 -0.599882 0.231618 -0.00440184 0.294124 0.322121 -0.209807 0.426672 -0.145692 0.0409749 0.193834 -0.188748 -0.287832 0.00237522 0.137548 0.188007 -0.0510008 -0.152849 -0.153569 0.170014 0.136686 -0.138376 -0.414885 -0.41715 -0.501038 -0.481241 -0.201722 0.575846 -0.0389572 0.414548 0.505697 -0.199297 0.38473 -0.0491038 -0.565728 -0.0505956 0.0237492 -0.118061 -0.650435 -0.934475 -0.0844174 0.0779185 -0.308414 -0.328023 0.256015 -0.137644 -0.304587 -0.59533 -0.537726 -0.9178 -0.39403 -0.124762 0.183965 0.808562 -0.543534 0.437831 0.185975 -0.614167 0.287361 -0.395947 0.342778 -0.0218956 -0.515148 0.0221022 -0.0196468 -0.161314 -0.00180375 -0.485991 -0.0949658 -0.548698 -0.284017 -0.0921018 -0.254427 -0.879811 0.0563888 -0.0942494 -0.0991004 -0.0445622 -0.0200604 -0.026423 -0.0268253 0.0313349 0.0353011 0.115005 -0.0421115 -0.0710566 0.00539257 0.0326615 0.0504571 -0.016384 -0.020859 0.0355666 0.00975368 -0.0224225 -0.0199528 -0.017565 0.0127421 -0.0103676 -0.00825049 -0.0133474 0.0441682 0.0020488 -0.0974208 0.125467 0.112306 -0.0312723 -0.287657 -0.338797 -0.243076 -0.000722192 0.604619 0.579684 0.247051 0.695748 0.152069 0.435391 -0.592284 0.223988 -0.767174 -0.697867 0.403452 -0.0286811 -0.450058 -0.177726 -0.41807 0.165017 0.237258 0.078819 0.0505934 0.000964869 0.0551934 -0.0211116 0.0847268 -0.0282928 -0.0350421 0.0372162 0.0207842 -0.0230876 0.0445939 -0.0166626 0.020327 -0.0152636 -0.0200742 0.0608249 -0.0684643 -0.0477924 0.0213652 -0.0195491 -0.0032998 0.0184843 -0.0241687 0.0640412 0.00460947 0.00097744 -0.0446507 0.0301723 -0.0341309 0.0174261 -0.0284588 0.00659448 0.0261757 -0.0334272 0.0213779 -0.0179359 -0.0286008 -0.0350965 0.0159074 0.0435 0.0694491 -0.0130328 -0.035412 -0.00776041 -0.0617734 -0.0154067 0.0290124 0.0856865 -0.0830189 -0.629827 -0.515747 0.0841004 0.42473 0.000611888 -0.239114 -0.197737 0.0191398 0.0525834 0.363357 0.096177 -0.46451 -0.591309 0.00192799 -0.116834 0.040023 -0.838632 -0.194544 -0.0546465 0.382064 0.00650605 0.912004 0.000980065 -0.20489 0.123968 1.16852 -0.587499 -0.296115 -0.226077 -1.18152 -0.0642254 -0.289688 0.723778 -0.0103086 -0.754718 0.201927 -0.266224 0.0013038 0.521422 0.0662303 0.012592 -0.931538 0.0218055 0.414143 -0.445248 -0.276085 -0.43312 0.0271887 -0.755806 -0.813352 -0.216994 -0.202911 -0.381612 -0.0176965 -0.407112 -0.252847 0.199296 0.458733 0.591097 0.229116 0.360286 0.546785 -0.307557 0.629767 -0.0725032 0.142536 0.806691 0.639546 -0.165619 -0.0874403 -0.319583 -0.537256 -0.610919 0.511946 0.419531 -1.15681 -0.514872 -0.742757 -0.265865 0.132409 -0.354504 0.378394 0.146622 0.352963 0.264464 -0.180885 -0.181966 0.564107 0.264828 0.278002 -0.670762 0.414297 -0.105088 1.00178 -0.322285 -0.0342131 0.416371 0.0952746 -0.0616803 0.0248921 0.834349 -0.991082 0.683819 -0.263772 0.452938 0.561358 0.0357706 0.32661 -0.210211 0.395375 -0.628665 -0.4846 -0.157051 -0.561675 0.686486 -0.159232 -0.0817603 -0.0513657 -0.422008 -0.818963 -0.439259 0.400333 0.417786 -0.132974 -0.16669 0.0890851 0.0177669 -0.0190747 -0.0206299 -0.0850327 0.0275187 0.0152884 -0.018876 0.00295652 -0.0205649 0.0321487 0.0328076 -0.0536369 -0.00091038 -0.0894679 -0.0679555 0.0816579 0.013247 -0.0671422 -0.0275364 0.00566017 -0.0205501 -0.0434264 -0.013412 0.0127161 0.878713 -1.31581 -0.0594809 -0.612373 -0.0674781 0.1106 -0.730662 -0.27302 0.426784 0.133698 0.652787 0.366317 0.050938 -0.611145 0.258674 -0.324223 -0.572386 0.734724 0.111518 -1.01311 0.0745311 0.278188 0.333739 0.540222 -0.074125 0.0105573 -0.0540565 -0.0421651 0.0357657 -0.0368826 -0.0290893 -0.076332 0.00305561 0.0214937 0.0374314 -0.0236195 -0.0189549 -0.0202181 0.00947063 -0.0137701 -0.0196669 -0.0143757 0.03914 0.0251769 -0.0396947 -0.0270117 -0.0226285 -0.0384933 -0.021334 0.0215409 0.00707593 -0.01215 0.0590138 -0.0148691 -0.0344225 0.0553085 -0.0328114 0.0192851 0.0143933 0.0730594 -0.0374422 -0.0198121 0.0915886 -0.0303855 0.0346979 0.00538792 -0.0335753 -0.0313988 -0.0172838 0.0382572 0.0333151 0.00719753 -0.0164004 -0.00124189 -0.0175394 -0.0548926 -0.0145194 -0.0158826 0.0169164 -0.0055134 0.0533179 -0.0648392 -0.0392965 0.000928901 0.0354132 -0.149959 0.0489805 0.0197295 -0.0109668 -0.075979 0.0137179 0.0149098 -0.00456332 0.0380674 0.0707407 -0.0922009 0.0115945 -0.0238336 0.00201336 0.00712519 0.324539 0.566338 0.0788047 0.0342526 0.775981 0.177937 -0.492045 -0.913786 -0.823664 0.50329 0.340392 0.171973 -0.533877 0.288739 1.1712 -0.121839 -0.741963 -0.690588 0.531695 0.597766 0.535011 0.206811 -0.0232394 -0.102643 0.475692 -0.0332236 0.0285237 -0.0263989 -0.0657197 0.144146 -0.0080062 0.0901554 -0.0257235 -0.00565983 0.128205 -0.0523794 0.0672416 0.00819121 -0.0052607 0.0567658 0.0064514 0.0206238 -0.0295883 -0.0499795 0.0701393 0.0332294 -0.0168383 0.000217023 0.0896936 0.0451698 0.0260341 -0.0674798 0.0186951 -0.0502745 0.0216105 0.0110256 0.0607656 0.0588111 -0.00378488 -0.035952 0.0485378 0.0280058 -0.0236507 -0.0278063 -0.0252734 -0.0889254 0.018014 -0.0149407 -0.0692594 0.0303777 -0.00026561 -0.0674681 -0.0159257 0.0138702 -0.0707978 -0.438826 0.345455 0.542812 0.59252 -0.135046 -0.293704 0.0120894 0.0778806 0.642873 0.0729143 -0.474979 -0.0184285 -0.244698 0.0239533 0.106385 -0.273846 0.283689 -0.0510386 0.20862 0.374846 -0.239818 -0.0721292 0.362553 -0.121169 0.170786 0.0531953 0.0277964 0.0162311 0.180107 -0.279182 0.0496531 0.57193 0.0881826 -0.168739 -0.113017 -0.270733 -0.235514 0.267059 -0.0411581 0.0821854 -0.611031 0.221808 -0.87913 -0.176384 0.465891 -0.496017 0.289622 -0.340403 0.0673457 0.351051 0.0165445 0.000511767 0.0729686 -0.0320015 0.0236669 -0.0254067 -0.0156354 -0.0134633 -0.00367916 0.0701592 -0.0308628 0.0124061 -0.0118772 0.0590219 0.0121054 -0.0445461 0.0139364 0.0456603 -0.00230434 -0.0570039 -0.0299905 0.0660222 0.00434324 0.0312536 0.120019 0.823599 0.311173 -0.0441654 -0.121304 -0.0115519 -0.05142 -0.120974 -0.190165 -0.00914068 -0.0357249 0.564827 -0.396839 -0.214459 0.338402 0.116994 0.275958 0.0510473 -0.0954181 0.744738 0.849236 0.231615 -0.120771 -0.682667 -0.544749 0.414124 -0.216586 -0.579912 -0.0522306 -0.37204 -0.37219 -0.22571 -0.0313218 -0.0614324 -0.763839 -0.0434062 -0.285077 -0.16543 -0.46884 -0.363887 0.192996 -0.0160198 0.0900847 -0.292569 0.370635 -0.214596 -0.403818 0.56527 0.0461079 0.66246 0.74817 0.00427412 -0.0399852 -0.5511 -0.263149 0.0726404 -0.30861 -0.480421 -0.549283 0.319574 0.565603 0.184172 -0.293556 -0.485909 -0.879238 0.316057 0.492025 -0.256053 -0.625218 -0.738348 0.0278063 0.730563 -0.240089 -0.61051 0.124642 -0.227117 0.403783 0.108644 -0.255145 0.122347 0.435764 0.0166976 0.264462 -0.00363105 -0.12383 0.418135 -0.376786 0.214448 0.0814479 -0.200074 0.298916 -0.110014 0.0747595 -0.333108 -0.257402 0.0956662 0.397516 0.361016 0.356321 0.579907 0.733235 -0.0248088 0.239565 -0.29943 -0.107839 -0.0541996 0.233668 0.34568 0.289307 0.114318 0.104928 0.636694 -0.566345 0.202289 -0.0808277 -0.896083 -0.224864 -0.0186225 0.384152 -0.185722 -0.730887 0.357595 0.325368 -0.217694 0.131262 -0.344071 -0.00817674 -0.0286298 -0.0462419 0.0205507 0.00531652 -0.0254613 0.00308949 0.00377971 -0.0169831 0.0140526 -0.027354 -0.0410854 0.0145293 0.00335806 0.0119223 0.0176491 -0.0168246 -0.0563818 -0.00566528 -0.0371874 0.0273532 0.0280301 -0.0310612 0.00450725 0.0217276 -0.0639047 0.0273922 0.00923277 0.00238821 0.0642004 0.00284054 0.0237468 -0.00700463 0.0326412 0.0677249 -0.0130866 0.0208183 0.0500706 0.075726 0.020564 0.0230081 0.0589025 -0.0197292 0.0220324 -0.011859 0.0244795 -0.016021 -0.0799915 0.0104313 -0.011705 -0.00966038 0.20973 0.320001 0.399702 0.602608 -0.0238699 -0.189335 -0.653317 0.249897 0.936091 -0.636494 -0.251385 -0.329849 -0.328985 -0.13939 -0.789106 -0.0465845 0.524426 0.104292 1.09347 0.504086 0.380196 0.0630502 0.147702 0.750027 0.153633 0.102145 -0.138654 -0.00547587 0.277857 0.0768291 0.135262 -0.0371316 0.359385 0.892434 0.118934 0.589754 0.236314 0.228063 -0.0213106 -0.0181337 -0.128727 0.956202 0.278876 0.766036 0.380187 0.995831 0.98516 -0.0837051 0.408202 0.863035 -0.351581 -0.178939 0.219345 0.0487437 0.530957 -0.108573 -0.280744 -0.539455 0.1304 0.25454 -0.112828 -0.168231 0.00939261 0.111999 0.756835 0.0616114 0.100919 0.0894215 0.516339 0.618611 -0.477419 -0.50692 -0.980608 1.01002 0.335237 0.0500021 0.95722 0.195057 0.419415 -0.198949 0.196812 0.449695 -0.0235291 0.639656 -0.22378 0.0427643 0.226035 0.316315 0.351252 0.402038 -0.157479 0.190863 0.0434253 0.121492 0.206032 -0.111983 0.158202 0.109538 0.0218955 0.288588 0.0693554 -0.141103 0.553921 -1.0359 0.114738 0.382028 0.530389 0.469688 -1.1999 0.945539 0.254169 0.19514 0.262591 -1.1189 0.165233 0.342158 -0.319202 0.481946 -0.498721 0.0716983 0.58252 0.985638 1.48627 -0.18492 0.975657 -0.370761 0.0767008 -0.382779 0.105946 0.523228 0.122628 -0.510655 0.164447 -0.178983 0.394068 0.229242 -0.115786 -0.221139 0.352755 0.0607655 -0.451875 -0.532993 -0.279764 0.353962 0.274686 0.169384 0.497618 0.686232 0.733057 0.722416 -1.06822 0.162122 0.9091 -0.156785 0.665242 0.210349 -0.607435 -0.348083 0.377081 0.605296 -0.156949 0.353 0.309504 -0.800287 0.222353 -0.156923 -0.251684 0.137701 -0.120737 0.537363 0.116917 0.648229 0.648227 -0.0749082 0.113054 1.40062 -0.3094 0.822037 0.599491 -1.30665 0.379211 -0.496601 0.0565601 -0.111737 -1.11738 0.103786 -0.303713 0.0244525 -0.379633 -0.11472 0.436774 -0.175195 0.0755642 -0.108179 -1.47869 -0.0629359 -0.777931 0.140532 -0.0141075 0.0224079 0.0351791 -0.0380949 0.0116264 0.0208636 -0.00799968 -0.0420118 -0.0501354 0.0303722 0.0433618 -0.033169 0.0326824 0.0265083 0.00112188 -0.0196877 0.00725074 0.024521 0.0374729 -0.0885413 -0.0102316 0.0278056 -0.0163436 0.0214637 -0.0284719 0.0195989 -0.260994 -0.491828 -0.105482 -0.278806 -0.240905 0.178349 -0.329589 0.0261991 -0.356712 0.0512755 0.216479 0.36089 0.378494 -0.135087 0.0934571 0.166738 0.170531 0.163843 0.112294 0.326846 0.327853 0.154043 0.130328 0.255363 0.453994 -0.677896 0.352699 0.150778 0.0167576 -0.0588077 -0.378782 0.592972 0.272387 0.175754 -0.011261 -0.552924 0.300332 0.026241 0.162257 0.00115136 -0.433417 0.0978386 0.0681119 0.161022 -0.0546619 -0.281659 0.411669 0.411495 0.185843 -0.0480235 -0.815503 0.55806 0.607736 -0.365254 1.11852 -0.571917 0.225099 0.485459 -0.000859337 0.621841 -0.666705 0.655201 0.269418 0.253096 -0.0393561 -0.45927 0.0301648 -0.185433 0.147737 -0.00313706 0.171969 0.020938 -0.346879 0.0921964 0.49578 0.314537 -0.0673213 0.253592 -0.0267334 0.0912643 0.243746 -0.443969 -0.303207 -0.201748 0.821105 -0.227725 0.387022 -0.434936 0.161069 1.13375 0.343127 -0.00190126 -0.422697 0.225334 0.881672 0.50123 0.48365 0.460389 0.64113 0.42439 0.0666849 0.0308603 -0.00909154 0.000477043 0.00427445 -0.0179395 -0.0557695 0.0175178 -0.0128275 -0.0168278 0.0144735 0.0266591 -0.000838457 -0.0671442 -0.0530668 -0.0111868 -0.0989246 -0.0483441 0.0147771 0.0239277 0.0267843 -0.0644604 -0.052267 0.0262822 0.00772641 -0.0679165 0.725998 0.663366 0.0370659 -0.580496 0.545684 0.0650259 -0.318559 0.0249657 -0.221013 0.198961 -0.185854 -0.172367 0.098751 0.387318 0.135451 0.654181 0.509732 0.204475 -0.158202 0.330522 0.513725 -0.134556 0.241899 -1.16562 -0.010424 0.046222 0.0160432 0.025121 -0.0425825 -0.0331844 -0.0114549 0.00903502 -0.0187247 -0.0277363 -0.00898811 -0.0169426 -0.00797766 -0.0416113 0.0297717 0.0718294 -0.0679965 -0.0634385 0.0462872 -0.0520715 -0.0191247 -0.0214577 0.0119439 -0.013723 0.0670878 -0.00775823 0.0297645 0.0942498 0.0522584 0.0704155 0.0110388 -0.0666856 0.089632 0.0366712 -0.0399462 0.0334944 -0.0393957 0.0236654 0.0390407 -0.0187948 0.00640527 -0.0560328 -0.094636 -0.0445922 -0.0613726 0.00909383 0.0446098 0.0336784 -0.0887506 -0.00610698 -0.813875 -0.0270898 -0.365699 -0.0869958 -0.191395 -0.170213 0.436193 0.208507 0.272885 -0.631971 -0.1752 -0.193743 -0.0896739 -0.263398 -0.660333 -0.311286 0.0269452 -0.215691 -0.133227 -0.216843 0.0409274 0.566688 -0.015128 -0.101876 -0.128182 -1.51639 0.708935 0.195123 0.730146 0.752562 -0.877232 0.334405 0.441924 0.194022 0.00231252 -1.01023 0.194467 0.647909 0.240021 -0.146671 -0.440048 0.980556 0.19503 0.917991 0.778418 -0.823266 0.308795 0.446558 0.822321 0.509752 0.836321 0.285532 0.171787 0.0601963 -0.314089 0.474694 0.17431 0.234655 -0.376144 -0.460631 0.574729 0.00307145 -0.216125 -0.677748 -0.415712 0.295044 0.410843 -0.0178067 -0.024319 -0.624538 0.217344 0.273718 -0.218067 -0.356928 -0.708964 0.365638 0.346657 0.0020596 -0.532556 0.481031 0.387685 0.263672 0.119641 0.354865 0.406586 0.112057 0.146954 0.286279 -0.265112 -0.0500014 0.432448 0.214488 0.0956922 -0.589151 0.0216566 0.306835 0.492929 -0.647027 -0.775666 0.438884 -0.574199 0.462094 -0.208583 0.168097 0.102862 -0.366874 0.947881 0.251888 0.0701483 0.487813 -0.260522 0.209225 0.4211 -0.0804216 0.642718 -0.668836 0.197335 0.129635 -0.0140527 0.311978 -0.908892 0.169701 0.019706 -0.814778 0.676061 -0.128628 -0.144999 -0.199033 -0.25234 0.148667 0.0360984 0.0340772 -0.0358627 -0.0231318 0.0907769 0.0359767 -0.0221121 0.0225984 0.0109233 0.0878312 0.0149733 0.015167 -0.00129233 -0.0157126 0.0783216 0.0139246 -0.0242021 -0.0550885 0.0906224 0.14227 -0.798826 0.601911 -0.450855 -0.486973 -0.799409 -0.817744 0.143488 0.171883 0.317307 0.275334 -1.0218 0.0617998 -0.266431 0.445003 0.21553 -0.265134 0.355098 -0.00706048 0.242764 -0.166662 -0.707544 0.906435 0.351526 0.504245 0.571112 -0.0632413 -0.0370444 -0.0465851 0.000989558 -0.000529993 0.0232097 0.0152714 -0.0260599 -0.0145629 -0.00893505 0.0464566 0.00589604 0.0393882 -0.0534283 -0.0370135 0.0754441 0.0200769 -0.00974966 -0.0226433 0.0560271 0.0280806 -0.0404268 0.0406997 0.0482276 0.0529357 0.0574666 -0.0254766 -0.0786261 -0.0563533 -0.0685286 -0.0289835 0.0443302 -0.00300915 0.0320425 -0.00536211 0.0144125 0.0358987 -0.0201088 -0.0805191 -0.0511885 -0.00735124 -0.132073 -0.0128269 0.0182404 -0.0469098 -0.018546 0.0297274 -0.0415903 0.00489863 0.0583196 0.0201368 -0.0298643 0.0445145 0.0180139 -0.0317934 0.0237288 -0.00122513 -0.06187 0.023838 0.00218124 -0.0329707 0.000735494 0.00974376 -0.00691263 0.0170521 0.0234026 -0.0342457 -0.0184767 0.023315 -0.0155866 -0.017772 0.0216235 0.0253077 0.0204369 -0.0594859 0.42757 0.775148 -0.619609 -0.0424727 0.0517018 -0.0630129 -0.487668 0.237396 0.002274 -0.104871 -0.271451 0.317755 0.363493 0.173471 -0.202459 0.474058 0.773497 -0.405086 0.104199 -0.0974478 -0.318834 -0.687431 -0.211098 0.267321 -0.0504798 0.0196357 0.236718 -0.107244 -0.0662388 -0.205417 -0.0261998 0.0289209 -0.0408376 0.0331484 -0.0672049 -0.0394781 -0.0214948 -0.060588 -0.0868053 -0.0215145 -0.00579291 0.0846523 -0.0418157 0.0457 -0.0836495 -0.00519705 -0.00801883 -0.0267942 0.053259 -0.18207 0.0066721 0.0120279 0.0208958 0.0512518 0.0352886 0.00552178 0.0136081 0.00844667 -0.0175028 -0.0147592 0.0415315 -0.0352394 0.0136902 0.0105011 -0.0297716 0.0434144 0.0331208 0.0335538 -0.00760148 0.00990266 0.0337384 0.0288188 -0.00416858 -0.0449771 -0.00481079 0.655579 0.580455 -0.105494 0.301391 -0.117664 -0.0146508 -0.153378 -0.460943 0.254909 0.0852148 0.0330051 -0.249571 -0.46774 -0.182047 -0.149455 -0.0147433 0.730749 -0.229088 0.568696 -0.253674 -0.591829 -0.423172 -0.205412 -0.614705 0.379587 0.352266 -0.46626 0.551497 0.619905 0.180331 0.232227 0.526837 -0.037716 0.710166 0.435272 -0.802778 0.489045 0.0989395 0.528532 -0.481017 -0.832661 -0.383167 0.518135 0.392852 -0.702779 -0.0430364 -0.287187 1.34004 -0.446223 0.826672 -0.0144941 0.00716967 0.00794039 -0.0637629 -0.0208478 0.00720643 -0.0283037 -0.0247202 0.0429853 -0.00284623 0.0298338 0.0172132 -0.117041 -0.0558055 -0.0283526 0.0302528 0.0228323 -0.0118676 0.0080683 0.0111491 -0.0615532 -0.0405528 0.00401885 0.0116173 -0.0145419 0.18793 0.148805 0.202753 -0.297866 0.0771326 0.566079 0.91906 1.14719 0.669696 -0.29354 -0.31067 -0.495084 0.613344 0.572366 -0.152662 -0.796843 -0.0901509 -0.022647 0.0864682 0.475508 0.265974 -1.09914 -1.33571 -0.619705 -0.738328 -0.0998358 -0.716157 -0.467996 0.634364 0.330416 -0.119628 -0.542442 -0.191818 0.240819 0.134229 0.63385 0.00708574 -0.0841624 0.223209 0.033838 0.259102 0.385124 -1.20303 -0.337883 0.362791 0.130988 0.0494326 1.37829 -0.383974 -0.0295264 -0.174956 -0.129969 -0.954761 -0.349581 -1.25789 0.871713 0.700151 0.266556 0.160147 -0.381433 0.373253 -0.176339 0.11723 0.807467 -0.906258 0.227322 0.655739 0.390216 0.577471 -0.359462 -0.160519 -0.775143 -0.534265 0.517218 -0.954221 -0.342436 0.288436 0.648527 -0.137509 0.264863 -0.100544 -0.131812 -0.184252 -0.678304 -0.602972 -0.439668 0.163391 -0.0160215 -0.000211406 -0.364442 -0.344437 0.438637 0.329355 -0.684722 -0.191251 -0.433444 0.300301 0.123681 0.227716 0.283028 -0.130008 -0.0354971 -0.238182 -0.221203 0.113198 0.161321 -0.134218 1.15435 -0.270037 0.103843 -0.256806 -0.301743 0.974657 0.0879044 0.770449 -0.152293 -1.62859 0.116561 -0.178548 0.430805 -0.189967 0.315539 0.163974 0.854298 -0.318629 0.0148196 0.0521603 0.00225649 -0.050135 0.0198515 -0.0383284 0.0513533 -0.0266968 0.00138255 -0.0250416 -0.0527865 0.0151661 -0.0106614 0.00427032 -0.030048 -0.0506991 0.00310226 -0.0200524 -0.0519642 -0.0307451 -0.0791697 -0.0356166 -0.00688253 -0.00607403 -0.0518882 0.00516908 -0.00317884 -0.0274654 -0.0336191 -0.0903878 -0.0107151 0.00123077 -0.0196883 0.0742718 0.0126184 0.0191912 0.0376035 -0.00796696 0.0613328 -0.120965 -0.0413434 0.0056541 -0.00628236 0.0671829 -0.0610653 0.0433194 0.00402055 -0.082512 -0.0502775 -0.0581593 -0.401178 -0.821823 -0.236936 -0.723994 1.47265 -0.048444 0.342705 -0.343263 0.834094 -0.0775411 0.187483 0.593305 0.280237 0.592446 -2.23644 1.05598 -0.822907 0.121055 -0.0775486 -0.963742 0.363539 -0.621246 0.64164 -0.803714 -0.739394 0.118698 0.23167 -0.602668 0.00930495 -0.931997 0.320052 -0.59462 -0.395859 -0.0388717 -0.644799 -0.339998 -1.72638 -0.86907 -0.561052 0.40152 1.20731 -0.420603 0.149667 0.0597826 0.276376 0.278736 -0.218063 -0.533441 -0.679976 -1.09282 -0.513357 -0.194576 0.497234 -0.420081 0.959441 -0.078528 0.235013 -0.170345 -0.105356 0.403084 -0.375553 -0.331623 -0.0924297 -1.06124 0.511777 0.24093 -0.283293 -0.366012 -0.885518 1.2769 -0.615968 -0.256355 -0.0398449 -0.209341 -0.018775 0.00971199 0.00880733 0.515605 0.704906 0.442638 -0.0144945 -0.143123 -0.475105 -0.718511 0.0213976 -0.00601468 -0.657503 0.0134549 -0.597719 -0.422342 -0.00465076 -0.321251 -0.83184 -0.196389 -0.157045 0.0419037 -0.625316 -0.419254 0.0999395 0.0149682 0.289475 -0.578877 -0.0221525 1.10805 0.308186 0.231331 -0.156037 0.190819 -0.422026 0.30658 0.0853875 -0.085647 -0.803144 -0.117685 0.415672 0.657868 -0.321701 0.138759 -0.294939 0.644385 -0.513764 -1.18134 -0.414323 -0.642683 -0.24717 -0.261783 0.0855932 -0.185043 -0.0030336 -0.316615 -0.350658 0.128329 0.361618 0.128941 -0.465929 -0.686848 -0.476862 -0.134166 0.0396703 0.418901 0.230055 -0.541476 -0.0210809 -0.631522 -0.587084 -0.873402 1.22915 0.350287 -0.00606101 -0.885326 0.101423 0.120003 0.429663 0.257576 0.923892 -0.0719306 -0.19627 0.398292 0.285271 -0.326918 -0.14927 0.949049 0.737552 -0.283116 0.668744 0.188854 -0.243444 0.491516 -0.0411856 -0.0599179 -0.276296 -1.63927 -1.08451 -0.636777 -0.231136 -0.00538806 0.115626 -0.453595 -0.359768 0.0943273 0.373675 0.236814 -0.175368 -0.141342 -0.293423 0.420344 1.08832 0.146142 0.216619 -0.656338 0.182374 0.208652 -0.29669 0.0682566 0.12552 -0.498603 0.0334148 -0.325692 -0.683124 0.268562 0.0554927 0.047443 0.0271827 -0.039496 0.0100164 0.056792 -0.0541885 0.0235809 0.0153461 0.0402175 0.0181008 -0.0174999 -0.0492942 0.0275392 0.0633568 -0.0343646 0.0450296 -0.00381154 0.0026374 -0.0241421 -0.0102955 -0.0357363 0.0449879 -0.0710354 0.0214555 -0.10447 0.965735 0.346404 0.5393 -0.263876 -0.182268 0.453238 0.147354 0.139703 -0.530187 -0.20313 0.00484994 0.0142241 0.297086 -0.34744 -0.271729 -0.019166 -0.0907235 -0.0567298 -0.448703 -0.574295 0.0825706 0.0655934 -0.236954 0.0680766 0.0858833 0.24477 0.461649 -0.0728996 0.0625466 0.0998159 -0.0687509 -0.00666618 -0.137821 -0.28463 -0.0212044 0.142871 -0.149908 0.0894903 -0.287356 -0.128586 0.0996219 -0.0336624 -0.224321 0.166071 -0.0628159 -0.320398 -0.0730454 0.0491306 0.34185 -0.307816 0.25716 0.723746 -0.742774 -0.0360936 -0.188289 0.280771 0.219908 0.322621 -0.406746 0.96245 -0.0543939 -0.0970638 -0.600741 0.464786 0.799197 -0.310287 0.638028 0.0595434 -0.459601 0.485769 -0.20525 0.280899 -0.178141 -0.516322 -1.11012 0.7832 0.444962 0.147971 0.345849 0.191156 -0.00825738 0.00702835 -0.117767 0.108843 0.933739 -0.753467 -0.270414 -0.849467 -0.163636 -0.549204 -0.489966 0.138178 -0.596807 -0.0173351 0.889021 0.515181 0.152251 0.557447 0.0183312 -0.0158764 0.0189727 -0.0383875 -0.0136356 0.037905 0.0319549 -0.0288351 0.0186728 -0.0313432 -0.0338414 0.0201439 -0.0705169 0.00159711 -0.0171168 -0.0327327 -0.00420203 0.0445756 0.0267568 0.0509499 -0.0274698 0.0330447 0.00804177 0.0488689 -0.0180572 0.0341631 -0.192386 -0.0359807 -0.119648 0.305523 0.367282 0.636659 1.00712 0.919552 0.00639028 0.109368 -0.0517609 -0.0831109 0.294302 0.438315 0.376494 -0.269955 0.0958345 -0.422757 -0.0678472 -0.125522 -0.256193 -1.52594 -1.40986 -1.24114 0.770667 -0.0359535 0.0380601 -0.0709951 0.0123639 0.0355978 0.0182354 0.00660884 -0.0498977 -0.0709732 -0.0129468 -0.0458258 -0.0683004 0.012507 0.0501169 0.0370992 -0.017351 -0.0523209 0.0274263 0.00479367 -0.0278882 -0.00424262 -0.0646139 -0.000949465 0.00773299 -0.0127637 0.00987224 0.0775216 0.027358 -0.0401319 0.0481289 0.0190096 -0.0411682 -0.0259133 -0.0278672 -0.0323812 -0.0317678 0.0394647 0.0237987 -0.0391435 0.0302096 0.00688727 0.082165 0.0503601 0.0175066 -0.000619721 0.0401907 -0.0104092 0.0600485 -0.00177262 -0.0151127 -0.504756 0.32476 -0.0513292 -0.794494 0.0881517 -0.171903 0.476713 -0.684658 -0.563587 -0.483253 1.29438 -0.166743 -0.150017 0.603666 -0.0149411 0.00384127 0.0880627 0.557787 0.10746 0.320869 -0.444299 0.0682061 -0.115236 0.383457 -0.247182 0.636702 0.610236 0.147829 -0.321379 1.55154 0.727762 0.198726 0.194383 -0.296732 0.4662 0.426066 -0.27116 0.0433668 -0.67787 1.07119 -0.518037 -0.303788 -0.0701124 -0.702471 0.433021 -0.0162545 -0.176878 0.175179 -0.193039 -0.404472 -0.388452 -0.363813 -1.03555 -0.117694 -0.0257013 -0.414452 -0.257574 -0.521539 0.496761 0.277313 0.299833 0.154995 0.147189 0.623448 0.0909583 -0.372118 0.869314 0.465689 1.03396 -0.45301 0.388957 -0.282391 0.0512385 0.603851 -0.182767 -0.961642 -0.115402 -0.123742 -0.563333 0.0339497 0.182573 0.893001 0.18967 -0.576445 -0.691295 -0.0359024 0.705313 -0.0577538 -0.442225 -0.118605 0.131866 0.241518 -0.221882 0.746539 -0.0767395 -0.671149 0.326589 1.25367 -0.0115848 -0.810977 0.0958935 0.397974 0.940061 -0.214605 -0.758169 -0.268338 -0.60688 0.034904 -0.0847377 -0.542938 0.793022 0.0170182 0.354577 0.271463 -0.136105 0.855496 0.0638473 0.863756 -0.00706041 0.397796 -0.723962 -0.360406 -0.338156 -0.38284 -0.472892 -0.00250019 0.00671487 0.0414517 0.0780534 0.0907169 -0.0586283 0.00912342 -0.0156957 0.0597762 0.178182 0.000646969 -0.0675604 0.0298824 -0.0212387 -0.215253 0.0543993 -0.0135859 -0.0133307 -0.0449048 0.185225 -0.0119936 -0.0306273 -0.0115095 0.0024989 0.242465 -0.315991 -1.04909 -0.230066 -0.431053 -0.0444325 0.408181 -0.493126 -0.00648925 -0.111826 0.57368 0.944131 -0.000970978 0.841485 0.362781 0.250342 0.0726018 0.206583 -0.543468 0.416762 0.807024 -0.375943 -0.431253 -0.375839 -1.16122 0.257799 -0.0403395 0.0258911 7.75276e-05 0.00767019 -0.00108145 0.0474969 -0.0161442 0.0302069 -0.0641656 -0.0349768 -0.0311677 0.0426844 -0.0434089 -0.0622226 -0.0485399 0.0133236 -0.0388136 0.0759482 -0.0677059 -0.09796 -0.0489413 0.00191027 0.0331573 0.0528225 0.045406 0.0138678 -0.031075 -0.00461928 0.0400734 -0.0391278 -0.0385316 0.115608 0.0111634 -0.0128207 0.0021151 0.0355221 0.0590633 -0.0162383 0.0171123 0.0477021 -0.00940388 -0.0164772 0.0749812 -0.0390749 0.00629467 0.0238138 -0.0163052 0.00807628 0.0158237 -0.0141939 -0.000192143 0.0593804 0.0360962 0.0194861 0.025759 0.0545232 -0.0728355 0.000646378 -0.0142803 0.0220466 0.0175296 0.0152064 -0.0384139 0.0162424 0.0321166 0.0303533 -0.0202744 -0.0160496 0.0248391 -0.0121101 -0.0916673 0.0100316 -0.037188 -0.0196053 0.00404957 -0.31491 0.115259 0.36776 0.205256 -0.442405 -0.781048 0.776493 0.648489 0.623012 0.23444 0.0800117 -1.23042 -1.47494 -1.18116 -0.567258 0.793996 -0.143353 -0.648029 -0.964068 -0.087019 0.979833 -1.7382 0.15719 -0.360223 0.0188965 0.0580222 -0.0377369 -0.0313488 0.0659238 -0.0561186 0.0318266 0.00385204 -0.10103 0.0947042 -0.0493509 0.0470629 -0.0989399 -0.0134031 -0.025657 0.000357905 -0.0088702 -0.02285 0.035165 -0.0842384 -0.250158 0.00274429 0.0477096 0.039256 0.0272858 -0.1652 -0.0545569 -0.00636961 0.0424796 -0.0569766 0.086222 -0.0209633 0.0529244 -0.0292642 -0.0285527 -0.0490382 -0.000289772 0.0461237 -0.0898691 0.0582505 0.0577196 0.0172653 0.0591471 -0.0864793 0.0217201 0.0271346 -0.0856971 -0.133948 -0.0124731 -0.00319482 0.00224356 -0.408821 0.0479446 0.252231 0.300415 0.235144 0.391417 -0.0274549 -0.189475 -0.460436 0.564431 -0.0773439 0.688956 0.0317527 0.0594233 0.300831 0.11804 -0.535122 0.0858582 -0.350233 -0.361153 1.32149 0.301804 -0.0382473 -0.147357 -1.3226 -0.0718849 0.714439 -0.330562 -0.561554 0.00699716 -0.47475 -0.396515 0.0994938 -0.137406 0.120698 1.22126 -0.140179 -0.407187 0.788298 0.114359 0.0945679 0.647752 1.41662 0.634283 -0.560167 -1.12395 -1.11702 -0.378486 -0.535254 -0.570245 0.0542715 0.0190414 -0.0368819 0.0132657 0.0357089 -0.014216 -0.0457452 -0.0460884 0.0714424 0.0400345 0.0122403 0.0286764 0.00293025 -0.031918 -0.031853 0.00703866 -0.0403667 0.0112365 0.0129472 0.0763706 -0.0179118 -0.0460967 -0.0833459 -0.0675949 0.0801386 -0.11058 0.577762 -0.029832 0.843581 -0.0160866 0.0685374 0.682124 -0.405935 -0.23397 0.242344 -0.165017 0.691723 -0.285602 -0.683297 -0.0102408 -0.00287364 -0.381184 -0.599324 -0.877682 -0.471705 -0.258666 0.968656 -0.450776 0.492837 1.20507 -1.23393 0.00397214 -0.407396 -0.15295 -1.0487 0.59215 0.366681 -0.567679 0.00617968 0.495418 0.0353372 -0.534547 -0.439072 0.347466 -0.190185 0.48762 -0.0928956 0.800503 0.84995 -0.246875 0.331455 -0.266097 0.112504 0.242108 -0.155563 0.6559 0.401534 1.58402 0.9736 -0.461382 0.26676 -0.325891 -0.12791 -0.415807 0.174648 0.118537 -0.973298 -0.318472 -0.532856 0.202004 -0.150244 -0.449663 0.621115 -0.259807 1.07858 -0.0432131 0.113898 0.0327276 -0.128718 1.08516 0.0594488 -0.250604 0.11152 -0.0734326 0.0212344 -0.00993204 -0.533697 0.187129 0.238109 0.233516 -0.0377766 -0.747317 -0.373617 -0.542556 -0.226748 0.354961 0.0207497 -0.00588807 -0.455848 -0.217015 0.727111 0.331369 0.470309 0.468944 0.205117 0.290416 -0.335297 0.31421 -0.566676 -0.591533 0.323015 -0.486133 0.0169094 -0.396158 -0.329553 -0.223765 0.487287 -0.667112 -0.602789 0.23929 0.872528 1.47018 -0.779288 0.109437 0.0843339 0.431987 0.00487667 -0.699815 0.113854 0.184323 0.00524533 -0.0413754 -0.0257938 -0.0152903 -0.0300934 0.00090595 -0.0641478 0.0511741 0.0492102 -0.0227329 0.00404589 0.0147833 -0.0298437 -0.0369894 -0.031093 -0.055625 0.0341764 0.0165776 0.0295844 0.00486481 -0.0842418 -0.0351799 -0.0252669 0.0659112 0.0110878 -0.0253695 -0.0374314 0.0405096 0.0182833 -0.0424936 -0.0235659 0.0261133 0.00942331 -0.020358 0.0362599 0.0388747 0.0220167 0.0563025 -0.0288121 0.0314626 -0.0498924 -0.0180375 -0.00336603 -0.0115907 0.0573608 0.00917507 0.0133173 -0.020687 -0.00147544 -0.00445526 -0.29214 1.14307 0.858149 1.17493 0.704691 -0.0518219 -0.65377 -1.5517 -0.0223329 -0.166415 -0.0802458 -0.359322 -0.0710308 0.189774 2.04163 -0.570072 1.36488 -0.464211 0.450205 -0.0611448 -0.134811 1.66759 -0.459746 -0.192745 -0.404945 -0.359182 0.359327 0.776588 -1.14723 -0.205041 0.331739 -0.59756 0.459249 -0.795455 0.166214 0.017126 -0.597927 0.0710457 -0.0566282 -1.06977 -1.19055 -0.107349 -0.406463 0.334104 -0.138052 0.116893 -0.353432 -0.239516 0.839327 0.821586 -0.119866 -0.0488861 0.117161 0.264918 -0.83927 0.414748 0.416219 0.737036 0.235212 -0.0584456 -0.037136 0.5811 -0.106052 -1.12545 -0.800483 0.437936 -0.0617641 0.166701 0.0528741 -1.02142 0.654951 -0.0994092 0.148576 0.671762 0.377969 -0.0213358 -0.0447616 -0.253601 -0.521553 0.276306 0.66173 -0.13987 -0.290936 0.243561 0.279627 0.638886 1.246 -0.0048262 0.0434054 -0.772557 -0.213479 -0.344574 0.890766 0.0974651 -1.11334 -0.0399331 -0.0773664 0.292579 -0.426089 -0.407563 0.373086 1.00688 0.900656 0.193279 0.318914 0.0835294 -0.00702923 -0.544842 -0.0899097 -0.312026 -0.836054 0.524975 0.469781 -0.251676 -0.48518 -0.0983926 -0.525387 -0.487248 0.261302 -0.327419 0.544969 0.302224 -0.814371 0.396384 -0.0911463 -0.524831 -0.333462 -0.191728 0.26472 0.182922 0.019393 0.210961 -0.477864 -0.162917 -0.132463 1.04983 0.469028 0.539058 -0.198934 0.244938 0.307544 0.994109 0.401771 -0.637412 -0.472517 0.255492 -0.124229 -0.260472 -0.119183 0.171431 0.433812 0.275872 0.638721 -0.192662 -0.47768 0.376238 -0.0140118 -0.388852 -0.128084 -0.366637 -0.0226598 -0.731809 -0.308595 -0.445576 -0.416643 0.371252 0.281721 -0.232605 0.446125 -0.133078 -0.423071 0.743384 -1.29172 0.474836 1.82027 0.763856 -0.0107854 0.644903 0.540875 0.27597 0.362116 -0.0363576 0.0646375 -0.248799 -0.577821 -0.567037 -0.690593 -0.156069 -0.401781 -0.771056 -0.388363 -1.14729 -0.68619 0.0731904 0.0808813 0.894547 0.201789 0.399293 0.52434 0.218675 0.0180407 0.011633 0.000804063 0.0107412 -0.00186069 0.0243768 -0.0384452 0.0710457 -0.0102968 -0.0227045 -0.0299028 0.0420134 -0.0212504 0.0891453 0.0500634 -0.00556645 0.078133 0.0129656 0.0792502 0.0610255 0.0885732 0.0857029 0.0515538 0.0361493 -0.00407475 0.451029 -0.179032 0.0305612 -0.329208 0.238728 -0.150167 -0.367147 -0.14882 -0.0434249 0.389833 0.289141 -0.153694 -0.124512 -0.411265 0.628396 0.0334312 -0.428486 0.246965 -0.305845 -0.377678 -0.31834 -0.0982547 0.20979 0.253891 0.69222 0.0810218 -0.170651 -0.535442 -0.147545 -0.0967433 0.0714878 0.0789746 -0.18334 0.319047 -0.0822657 0.311413 -0.0638824 -0.163025 -0.128062 -0.107281 0.0453705 0.0666903 0.0684943 0.0417044 -0.258615 0.479284 -0.0222659 -0.121845 -0.0545477 -0.027301 -0.105382 -0.473911 -1.08668 0.411177 -0.775997 -0.0286747 -0.123369 0.12122 0.391607 0.291952 0.450467 -0.364694 0.249624 0.760049 0.191217 -0.407425 -0.443369 -0.770286 1.12269 0.171774 0.652653 0.33757 0.987095 -0.536951 -0.0529406 0.372153 -1.16593 -0.293103 -0.0130914 -0.441931 -0.0488536 0.301386 -0.249838 -0.304659 -0.556268 0.618588 0.0441047 0.786934 -0.333732 -0.640992 0.53005 0.356348 0.794528 -0.605975 -0.439691 0.492392 0.229395 -0.10829 -1.01889 -0.046309 -0.0661663 0.0101434 -0.00131845 0.0151616 0.087938 -0.0752523 0.0326947 0.0161312 0.0306283 0.00804001 -0.0209541 0.105064 0.0401158 0.0323672 -0.0489008 -0.0549701 -0.030781 -0.031436 -0.00331051 -0.0340399 0.025877 -0.0340842 0.074792 -0.0319183 -0.0816606 0.695316 0.0825681 0.176483 -0.480642 -0.399821 0.536715 -0.183989 0.65343 -0.0784804 0.754573 -0.0070151 0.145997 -0.178291 0.41823 0.369186 0.440789 -0.110253 -0.613684 -0.863927 -0.593926 -0.8378 0.242872 0.788897 -0.228308 -1.02868 0.0106394 0.0330321 -0.0179585 0.0102212 -0.0472834 -0.0311261 -0.0178574 -0.0278143 -0.0125166 0.0954505 0.0783258 0.0441355 -0.0522159 -0.0253924 0.0817061 -0.0886565 0.0472338 0.0343164 0.0362723 -0.0433999 0.0315821 -0.108256 -0.00100174 0.0245034 -0.0401225 0.00825807 0.0761092 0.00615572 0.0671795 0.00264738 -0.070222 -0.0189698 -0.0770174 0.0213875 -0.033 0.0199898 -0.0820705 0.0125852 -0.0213365 -0.0243879 -0.0534514 -0.128366 -0.0275959 -0.00437115 -0.0190866 0.0538621 -0.0395875 -0.0101016 -0.0331533 0.00623046 1.54137 -0.149472 0.430952 0.38577 -0.687731 -0.140085 -0.680327 0.411679 0.370574 -0.665208 -0.496337 -0.671589 -0.0568821 0.555651 -0.942635 0.0380306 1.11657 -0.0331319 0.246876 -0.356506 0.192472 -0.459641 0.4607 0.446733 0.152668 0.243575 0.0601547 -0.183495 0.625198 -1.00352 0.572139 0.0549595 -0.694235 0.701538 -0.0839072 0.194473 -0.211931 -0.848469 -0.235283 -0.228587 0.0477415 0.236442 -0.943244 -0.337863 -0.599746 -0.512879 0.963732 -0.395736 0.174949 0.827022 0.029104 0.0375889 0.412631 0.0595227 0.0719589 -0.0706715 -0.0871373 -0.145407 -0.510528 1.31676 -0.666605 -0.55325 0.00223669 -0.214716 0.599612 -0.944657 -0.724085 -0.115634 -0.679898 0.554615 -0.534293 -0.364583 0.903676 -0.041261 -0.620961 0.487807 -0.323586 -0.0448806 -0.0840751 -0.609866 0.136518 -1.19056 -0.708581 0.0281747 -0.369775 -0.500842 0.272066 -0.801585 0.0317921 1.01983 0.200393 -0.361837 0.222141 -0.0137995 0.292105 0.930303 -0.480166 -0.219226 0.607321 0.771707 0.207317 0.412755 -0.455676 0.240934 0.394565 -1.21155 -0.323386 -0.554053 -0.208689 -0.678587 -0.201217 -0.0347563 -0.222321 0.908314 -0.736871 -0.0558315 -0.708219 -0.415029 -0.221441 0.689863 2.63242 -0.19823 -0.237546 0.113753 0.150942 0.206146 0.221385 0.0149705 0.19724 0.0430099 -0.0500211 -0.0353169 -0.0231522 -0.00471252 -0.139926 -0.0643457 0.0456563 -0.0302073 0.00620355 -0.00259918 -0.0518033 0.00662741 0.0295668 -0.0181054 -0.014343 -0.0741339 0.0212951 -0.0116856 -0.115073 -0.0936367 0.463317 0.454055 0.0847814 1.10616 0.279581 0.224257 0.117624 -0.400674 -0.587998 -0.365207 -0.220421 0.617113 0.359436 -0.00512734 -0.682167 -0.464954 -0.660023 0.544931 0.250317 -0.271138 0.782104 -0.812348 -0.226822 0.0925247 -0.729153 -0.0106727 -0.0124661 -0.0187396 -0.0214488 -0.0426873 0.00599996 0.0212298 -0.0298669 -0.042963 0.0367496 -0.0426796 0.0118117 0.0219579 -0.051345 -0.0437902 0.0447995 -0.0603137 0.00565235 -0.028357 -0.0640012 -0.011395 0.00527162 0.0304361 -0.0531704 0.0576924 -0.0100987 -0.0285634 0.0139131 0.0603588 -0.0923559 0.0277246 0.0560536 -0.0214529 0.00992272 -0.0109239 0.0402301 -0.0109973 0.00153252 0.0372667 -0.0376974 -0.023477 -0.0464043 0.0514028 0.00279974 0.0430293 -0.00803077 -0.0164491 -0.0519697 0.0023636 0.00207595 -0.0188358 0.0090773 -0.0704704 -0.100267 0.0115755 -0.0332817 0.128314 0.0057199 0.00276855 -0.054077 0.00454081 0.0476922 -0.056026 -0.0217033 -0.0347911 -0.126356 -0.0742205 0.00316276 0.0192282 0.0329608 0.0187129 0.083772 0.0593327 0.00969102 0.012961 -0.0267321 -1.33872 -0.278006 -0.660562 -0.0705102 0.381154 -0.194076 0.0942435 -0.0409492 -0.0680749 0.431507 -0.7249 0.670795 -0.564223 -0.0941929 -0.0602356 -0.670364 0.71912 -0.432963 -0.161206 -0.576405 1.66819 0.503913 0.773118 -0.0801684 -0.052696 -0.0655798 0.114342 0.0329939 0.00492633 -0.0105042 0.0782984 -0.0555385 -0.0506415 -0.0217898 0.0226878 0.00643625 0.181732 0.0961451 0.288393 -0.0817096 -0.0326204 0.0154525 0.0166494 0.00881972 0.00548857 -0.115607 0.0701718 -0.112148 -0.0568906 0.0714025 -0.0359705 -0.0196261 0.0319339 -0.0794072 0.0517592 0.0426653 -0.0477148 0.024793 -0.0168768 -0.0475244 0.0247091 -0.0173371 -0.0470165 0.0256501 -0.0415362 -0.000277228 0.00282912 -0.0158512 -0.0160099 0.0343949 -0.00883734 -0.00782663 0.0197857 -0.0504051 -1.08432 -0.531029 -0.613168 -0.121153 0.0234766 -0.215162 -0.0489018 0.172333 -0.696595 0.43386 0.721316 -0.0379902 0.112218 -0.265693 -0.0175505 0.569058 -0.575631 0.09277 -0.163681 0.961614 0.698527 0.217274 0.348282 0.851752 -0.392669 -0.330101 0.352441 -0.405397 0.441045 0.247298 0.336747 -0.925914 -0.187509 -0.403722 -0.0469124 0.165115 0.078908 0.954521 -0.557815 0.166982 0.490415 -0.179057 -0.648984 -0.643301 -0.187392 0.223471 0.866329 -1.32641 1.11772 -0.680978 -0.0577726 0.011338 -0.0228241 -0.0218322 0.0383312 -0.0185925 0.061285 0.0617307 0.0646495 0.0102577 -0.0191534 -0.0151892 -0.0356398 0.0679101 0.0202147 0.0461445 -0.0491825 -0.0081016 -0.00897632 -0.0354062 -0.0496655 -0.00461794 -0.0746631 0.0262747 -0.0237469 -0.468314 -0.847109 0.191894 0.123755 -0.151601 -0.241681 -0.132505 -0.697732 -0.369364 0.545122 -0.720324 -0.0200951 -0.716051 -0.0915325 -0.321415 -0.799468 0.0125409 0.362752 -0.605427 -0.361707 0.549835 0.395781 0.771939 0.232139 0.0388598 -0.0174012 1.03084 0.951033 -0.531391 1.3265 -0.19015 0.364288 -0.2075 1.07957 0.143077 0.125912 0.0734017 0.50884 0.305744 0.0357402 -0.233383 -1.30082 -0.0677825 -0.855549 -0.840272 0.818786 -1.59033 -1.16227 -1.04908 0.279124 0.930386 0.23368 0.299477 0.0296668 -1.09968 0.150291 0.130877 0.202148 0.763497 -1.17534 0.0608606 0.062585 0.261049 0.127007 -1.24188 -0.075755 0.512872 -0.0872528 0.177026 -1.25799 -0.271231 1.22231 2.01188 1.56935 0.152122 -0.115911 -0.260645 -0.100546 -0.188202 -1.03161 0.0823681 0.162681 0.212154 0.0372679 0.141876 0.37884 0.246773 0.203597 -0.103449 0.0343698 0.0474817 -0.426497 -0.207874 0.55179 -0.267565 -0.148554 -0.194602 -0.32323 -0.660079 -0.342712 0.333496 1.13164 -0.156956 0.855513 0.410719 0.11611 0.352721 -0.99783 0.919411 0.164526 -0.671319 -0.0496568 -1.29428 0.610883 -0.0686632 -0.421591 -0.685154 -0.125448 0.23554 -0.524462 -0.696676 -1.15114 0.469205 -1.55455 0.742659 -0.033966 0.0525676 -0.0508429 -0.0537891 0.0183862 0.0150097 -0.0688454 -0.0105464 -0.00170078 -0.0384363 -0.0465871 0.0429267 0.0920602 0.0170661 0.0564449 0.0563909 0.0166473 -0.00246479 -0.0341518 -0.110085 -0.0714624 0.000576369 0.0454642 -0.0231516 0.0743675 -0.0142775 0.0286744 -0.0454274 -0.0037836 0.0458549 -0.0181577 -0.0388974 -0.00835281 0.0108755 -0.0161145 -0.0434564 -0.00801208 -0.0442637 0.031466 -0.0634265 -0.00280986 0.00614342 -0.0332873 0.000740026 0.0208621 -0.0346108 -0.00743853 0.00438233 0.0105826 -0.0197955 0.905013 0.223679 0.434499 -0.525229 -0.768456 0.0439003 0.481868 1.11763 -0.931806 0.621614 -0.423471 -0.116202 0.684819 -0.212914 0.296263 -0.113132 -0.219706 0.455479 -0.683149 0.295786 0.374255 -0.306171 -0.432887 -0.143501 -0.690492 -0.187575 -0.678715 -0.0524807 0.79559 -0.37155 0.28593 0.537301 -0.508412 -0.0923391 -0.262971 0.263415 1.31277 -0.110197 0.248756 0.0813813 -0.272142 -0.219013 -0.488945 -0.0674608 -1.00788 -0.379817 -0.631271 0.360134 0.780118 0.0252991 0.171364 0.530099 0.423721 0.42514 1.47901 -0.567744 -0.512717 0.376042 0.911835 1.16789 -0.879215 -0.34367 -0.457202 -0.115362 0.713914 -1.19202 -1.62939 -0.842735 0.598568 0.130344 0.228002 0.127563 -1.09947 -0.244328 0.477713 -0.194433 -0.841446 -1.52309 -0.38473 -0.344759 -0.0663056 0.31222 0.384698 0.430216 -0.475489 -0.158495 0.219806 0.300291 0.39347 -0.292142 -0.0279101 0.502386 0.993595 0.21425 -0.160996 -0.0702789 0.488353 0.458381 0.132367 -0.2014 -0.264753 0.0777175 -0.921328 -1.49689 1.16055 0.323348 0.152134 -0.370548 -0.663462 0.349233 -0.00690642 -0.501431 -0.120828 -0.236576 -0.0238618 -0.848349 0.299699 0.689029 0.173036 -0.180553 0.361883 0.40819 0.485989 0.0560879 -0.0463353 -0.100787 0.324658 -0.709078 0.276874 -0.2055 -0.657517 -0.42375 0.323853 -0.195225 0.287005 -0.668742 -0.457679 -0.269747 0.563901 -0.687136 -0.572564 0.00757458 -0.290404 0.713916 0.430152 0.769257 -0.185575 -0.420198 0.0315756 0.108587 -0.413407 0.0638111 -0.309556 -1.04997 -0.173906 -0.172996 0.569423 0.0143106 0.255236 -0.76366 -0.286258 0.364432 -0.0930387 0.190616 0.648396 -0.537585 -0.0171239 -0.445426 0.191702 0.418018 -0.130882 0.476534 0.301613 0.793795 -0.476886 -0.716601 0.050968 -0.268408 -0.257742 -1.03742 -0.113338 0.123528 0.28887 -0.0472893 -0.331336 0.665545 -0.0195617 0.0387356 0.05343 0.328626 0.0948359 0.13473 0.431234 0.731786 -0.181656 0.687826 0.114007 0.308781 0.134905 -1.02775 0.0156247 -0.0280736 -0.0396317 -0.0264257 -0.0117906 0.019818 0.0530906 0.0529155 0.0244768 0.0290618 0.0812631 -0.013342 -0.013569 0.00756491 0.0197764 -0.0234223 0.0455786 -0.041495 -0.00369689 0.0172786 0.00325396 0.00353783 0.0178327 -0.0204067 -0.0176916 0.291938 -0.133074 -0.236973 0.475578 -0.438299 -0.0996295 -0.131623 -0.324422 0.399149 -0.174501 -0.340877 0.210161 0.19829 -0.0213796 -0.29983 -0.132668 -0.0112907 0.145585 0.318664 -0.043089 0.0710853 0.0298808 0.0317066 0.230256 -0.126503 0.0267503 -0.351384 -0.3686 -0.0825909 0.575945 -0.0234771 -0.236893 -0.0844117 -0.0974405 0.333855 -0.010751 -0.228467 0.0422376 -0.122891 0.317073 0.28056 -0.0197357 -0.00117665 -0.117337 0.196913 0.191655 0.209646 -0.119799 -0.349866 0.089124 0.281521 0.00923308 -0.190721 -0.064156 -0.00721554 -0.285572 -0.0670211 -0.0914777 -1.00622 -0.207962 -0.15377 0.758773 -0.4058 -0.857809 0.102291 0.164423 0.13935 0.543127 -0.486323 0.497661 -0.859293 0.44704 -0.414696 -0.569344 0.592286 0.0977385 -0.56514 0.54833 -0.546444 -0.111194 -0.420224 0.0109845 0.041538 0.677796 -0.0923321 -0.466501 -0.0843049 -0.431091 0.534686 -0.186898 -0.709455 0.749604 0.893468 0.821839 -0.093789 -0.589759 0.0114803 -0.862533 0.198479 -0.00357664 -0.0451624 -0.0145157 -0.00759647 0.0266522 0.0311852 -0.0606044 -0.078857 -0.0278027 -0.00561257 -0.0919426 -0.0150972 0.00990686 -0.0164779 -0.0546853 0.0118673 -0.0534606 -0.0225795 0.0249689 -0.0188786 0.0337779 0.0652214 -0.0525027 -0.0853301 -0.0588504 0.0609341 -0.133406 -0.876137 -0.782659 -0.171777 0.150872 -0.882962 -1.16556 -0.836935 -0.529754 -0.164895 0.134535 -0.138423 0.164849 -0.463799 0.057035 -0.377751 0.719363 1.4302 -0.0241005 -0.284953 0.697955 1.06093 1.95303 0.810068 0.0238492 -0.0687443 0.00188793 -0.0331065 -0.0477694 0.00467126 0.010215 -0.0241875 -0.0112586 -0.000229433 0.00174384 0.0222312 -0.0177354 -0.00326292 0.0392076 -0.0215989 -0.0283704 0.0161834 0.0394799 -0.0477387 -0.00171061 0.0304699 -0.0224057 -0.0373531 0.0412364 -0.0054826 -0.0154181 -0.0133519 0.0113155 0.0519886 -0.0383659 0.0170357 0.0480036 -0.0367518 0.0122338 -0.00843582 0.0151272 0.0226118 -0.00499719 0.0279373 0.00728574 -0.00566255 0.0227119 0.00622909 -0.0893442 -0.0360206 0.0146875 4.80968e-05 -0.0190402 -0.0417651 0.0564101 1.14516 0.11911 -0.2063 0.274593 -0.636776 0.604014 -0.1796 -0.454603 0.318439 1.06699 -0.631321 1.91054 1.46052 -0.749844 0.527276 -0.206028 0.738138 0.128287 -0.825323 0.264758 -0.0254837 -0.0270004 0.064222 -0.571298 -0.439472 0.502561 -0.66301 -0.38065 -0.73418 0.989918 0.0767379 0.144398 -0.569553 -0.330904 0.288891 -0.682435 -0.160267 -0.180802 0.0825083 0.0937474 0.773737 -0.538642 0.125837 -0.101393 0.636323 0.570252 -0.684891 0.884026 0.23059 0.154374 -0.357092 0.295147 0.0350848 -0.337477 0.79113 0.152366 -0.453138 -0.542334 -0.960182 -0.559766 0.469245 0.256239 0.202848 -0.636859 -0.0657718 -0.0592663 -1.03137 -0.940738 -0.571271 0.298266 0.0496429 1.08705 0.211746 -0.806777 0.847037 0.190258 0.406414 0.231464 1.15797 -0.218 0.1182 -0.0814879 -0.246063 -0.0923649 0.192118 0.172303 -0.811971 -0.277701 -0.608853 -0.570145 0.12271 -0.35224 0.0448989 -1.03455 0.0625716 0.68352 0.119677 -0.0986165 0.449291 -0.337969 -0.825002 -0.137072 -0.61422 -0.133858 -0.476026 0.723709 0.187637 -0.455233 0.457697 0.0332983 0.0988502 -0.116513 -0.621479 0.172042 -0.338148 -0.354451 0.305733 -0.242079 0.198854 -0.525167 0.536591 0.659329 0.753526 1.0122 -0.463448 0.0421497 -0.0174409 0.047787 0.0482688 -0.0115017 -0.049253 -0.0261806 0.00487096 0.0104024 -0.119866 -0.00174815 -0.0382253 -0.0119305 -0.00423154 0.138842 0.0106892 -0.016156 0.0420045 -0.037065 -0.183994 0.0238591 0.0149131 0.0231716 -0.0671616 -0.264471 0.215786 0.867107 -0.222055 0.659509 -0.10698 -0.397172 -0.082767 -0.180085 -0.460053 0.0119176 -0.149774 -0.843328 -0.684669 0.012028 0.16663 0.387878 0.126336 -0.735165 -0.806042 0.698109 0.406152 0.873347 0.0476669 0.607265 0.431722 0.00914327 0.0427083 0.0782802 0.0929996 -0.0940148 -0.0202092 -0.0205462 -0.0248254 0.0696019 0.000410812 0.0279002 -0.00790021 -0.0321019 -0.00137415 0.0157381 -0.0173723 0.0636822 -0.0588129 -0.0692922 0.0113327 0.0444887 -0.0022073 -0.0177175 -0.0393883 0.000845853 0.0138113 -0.0432344 0.0479743 -0.0731674 -0.0406988 -0.0116799 0.0282603 0.000529503 -0.000432596 -0.051557 0.00461938 0.00371887 0.0276809 0.0224171 -0.0456195 0.0640604 0.00656458 0.0266148 -0.0185954 0.0452286 0.0305535 -0.0246351 -0.0559296 0.0162723 -0.0387633 0.0367202 -0.00213125 -0.0878888 0.0238189 0.0580189 -0.0221793 -0.0549995 -0.00438927 -0.0931975 0.0360047 -0.00318081 0.0349408 -0.00724358 0.026827 0.00317173 0.0133338 0.0137113 -0.0180365 0.0293135 0.058612 -0.0289989 -0.0219011 0.0180614 -0.023523 -0.0110545 -0.809378 0.363298 1.00721 1.26979 -0.16798 -0.0624252 -0.13313 0.364936 0.481896 -0.309419 -0.850884 1.26294 0.825879 -0.252977 -0.199176 -0.936672 -0.101282 0.627255 -0.18574 -0.253487 0.759643 0.05169 -0.0852628 -1.03689 -0.180959 0.0316459 -0.266963 -0.0484541 0.106872 0.351931 0.0201395 0.136087 -0.0039839 -0.0324162 -0.0559896 0.0465455 0.223685 -0.143158 0.00523067 0.0781599 -0.0227097 0.00735847 0.10262 0.0253302 0.257056 0.0421111 -0.000810224 -0.00426415 -0.0298876 0.22841 0.0854483 0.0196667 0.000408481 -0.0162553 0.00315323 -0.0145645 -0.0415024 0.0357924 0.0191436 -0.00237658 0.000942854 -0.0435087 -0.0528875 -0.0270702 0.0836458 -0.0292074 0.0403859 -0.0186479 0.0832168 -0.0220411 0.0384317 -0.0224676 0.0239692 0.0420413 0.0376398 0.232177 0.281367 0.0370103 -0.564006 -0.186587 0.400421 0.060888 -0.0300157 0.0196069 -0.972559 0.369853 -0.463166 -0.317797 -0.0356843 -0.25686 -0.351646 0.121517 -0.25654 -0.233852 0.0127027 -0.590271 -0.180436 -0.274152 -0.0504578 0.969736 0.455413 0.397611 0.206971 -0.642396 0.298543 -0.0864954 0.306898 0.35195 -0.323069 -0.634133 -0.229528 -0.752245 -0.452784 -0.662294 0.298806 0.867318 -0.00171372 0.338973 -0.330324 0.475371 0.337815 -0.471497 0.764494 0.682123 0.135493 -0.0513857 -0.0609241 -0.00468463 0.0463368 -0.0199437 -0.0185822 -0.0129248 0.0239377 0.00361474 -0.0734473 0.0383961 0.0352024 -0.0382117 0.0155064 0.0617596 -0.00883564 -0.0668194 0.0371698 -0.0143351 -0.0657547 -0.0282931 -0.0286647 -0.0333959 0.00798417 0.00341418 -0.148018 0.255719 0.57289 -0.161796 -0.353409 -0.155462 -0.41922 0.619943 0.34301 -0.391211 0.609871 0.928754 2.02721 1.02965 0.0712372 0.430182 0.335089 0.301789 -0.153536 -0.358358 -0.589884 -0.59737 -0.907621 -1.16543 -0.0311533 0.795966 0.182124 0.461671 -0.292211 0.179976 -0.259158 0.275981 0.184288 0.0696247 -0.280149 -0.00139456 0.469241 0.428088 -0.621818 -0.04147 -0.0721893 0.197706 -0.261966 -0.328436 -0.023467 -0.129278 0.841771 -0.0122256 -0.0857221 0.21829 -0.585594 -0.324254 0.398423 -0.0159007 1.33471 -0.496435 0.0286428 0.0232408 -0.700353 0.121374 -0.347927 1.06242 0.916262 -0.00201505 0.940443 0.0173422 -0.216443 0.0743165 0.612752 0.122545 -0.556435 -0.460142 -0.518612 -1.28113 0.267152 0.638703 0.105968 -0.713573 0.249936 0.874342 0.882594 0.244325 -0.298281 0.579865 -0.218926 0.55278 0.404072 0.234208 0.719145 0.248105 0.0186215 -0.0934704 0.0947415 0.791582 0.136842 -0.513041 -0.694358 -0.547681 -0.0849858 -0.867934 0.198102 0.0976453 0.0417572 -0.0987706 0.138441 -0.33733 0.231065 -0.337207 0.17273 0.218058 0.321355 -0.0654648 1.24621 -0.346565 -0.548839 -0.207499 0.549802 -0.0787332 0.0615938 0.166216 -0.406797 0.442626 0.0422696 1.23124 -0.759209 -0.0380407 0.0286155 0.0224773 0.0364192 -0.0510773 0.00901483 -0.0430221 -0.0156578 -0.0124579 0.0171089 0.00932492 -0.0275648 0.0678924 -0.0750872 0.0204484 0.00989653 0.0958825 -0.0502206 0.0108985 -0.0466807 -0.062092 -0.103324 6.00694e-06 0.00823114 -0.0359661 0.0453372 0.0767537 -0.0362296 -0.0376746 -0.018871 0.0285084 -0.0213735 -0.0533334 0.0280837 -0.0349581 -0.0133675 0.0529808 -0.00462579 -0.0064262 0.0365479 -0.0177267 -0.0187994 0.0140515 -0.03069 0.0204528 0.0530442 0.0301084 0.0283268 0.062931 0.0138263 -0.582431 0.981285 -0.683814 0.116072 -0.401011 0.574727 0.291788 -0.139798 -0.272819 0.109764 -0.254504 -0.121759 -0.380351 -0.407634 0.576064 0.451234 -0.50929 0.437002 0.943516 -0.570582 -0.0849358 -0.0739854 1.26013 0.646672 1.1911 -0.242091 0.109691 0.20158 0.170093 1.20849 -0.829908 0.168767 1.06334 0.461176 0.293939 -0.0666963 -0.505206 1.29232 0.725643 0.565781 -0.0801498 0.601817 0.215025 -0.491541 -0.58261 -0.299003 -0.690491 0.297132 -0.156761 0.333963 -0.0513172 -0.00232824 -1.0381 0.17974 -0.313416 -0.0819959 -0.655543 0.278515 0.0508179 -0.408839 0.58717 0.56242 0.436138 1.52248 -0.917347 -0.029073 1.36642 0.149502 0.0332937 -0.0243667 -0.780985 0.225093 1.47261 0.136818 -0.978532 -0.100959 0.495658 0.296007 -0.255244 -0.814098 -0.119117 -0.0201478 0.0464885 -0.394999 -0.460763 -0.173638 -0.504879 -0.409484 0.224986 1.26581 -0.00846709 0.434446 -0.708585 0.318291 0.792597 -0.194116 -0.332793 -0.320302 0.209818 0.572625 -0.240718 0.381272 0.204741 0.266026 -0.738824 -0.484594 -0.534094 0.0153609 0.269437 -0.503946 0.112765 0.052019 -0.0836692 0.447453 0.821461 0.13734 0.594989 0.261556 -0.425783 0.0705436 -0.466932 -0.0395253 -0.374445 -0.891075 1.29682 0.155875 0.328203 0.619868 0.435983 -0.616957 0.40415 0.0563205 0.0124789 -0.581488 0.322151 -0.245702 -0.664706 -0.785754 -0.470605 -0.313605 0.200449 0.470101 0.403498 0.676079 0.0946792 -0.197366 -0.0307793 1.15784 0.396772 0.0244207 0.0673423 0.38969 -0.370236 0.463996 0.403193 -0.533238 -0.704416 0.149209 -0.076597 0.281484 -0.351066 0.0301486 0.32994 -0.261428 0.107646 0.0232418 -0.396913 0.457383 -0.392652 -0.89357 0.308548 -0.151586 -0.18224 -0.685194 0.579917 0.229375 -0.504057 0.290353 -0.525657 -0.0786994 0.532809 -0.413718 0.416546 0.229478 0.288702 -0.436817 -0.82135 0.410602 -0.00786907 0.20468 0.0700563 0.499153 0.386776 0.368564 0.0488724 -0.0704685 -0.472151 0.227306 -0.270471 -0.655767 -0.00357982 0.104292 0.00241199 0.0322796 -0.0833669 -0.0403954 0.0293169 -0.00949645 0.0177707 -0.00679643 -0.00040509 0.0310891 -0.0758103 0.0652152 -0.0617752 -0.00127573 -0.0116815 -0.0426557 0.0528488 -0.065883 0.0125606 -0.0578531 -0.012655 0.0267347 0.0278488 -0.0584259 -0.0583136 0.0520444 -0.162283 0.110081 0.350282 0.317406 0.176807 -0.140117 -0.096584 0.00969401 -0.146097 -0.24814 0.456115 -0.143715 -0.0268287 0.203975 -0.373568 0.115811 -0.0405007 0.105748 -0.177225 -0.0767729 0.230161 -0.419574 0.0459282 -0.169947 -0.00710365 -0.137085 -0.196221 -0.118721 -0.141211 -0.0687643 -0.394337 0.157737 0.35343 0.0484619 -0.0677258 -0.112747 0.162056 0.300227 -0.00536174 -0.319176 0.0246 0.0502857 0.254879 0.0197814 0.363302 0.61122 -0.174299 0.522457 -0.442078 -0.46835 0.0871223 -0.0551275 0.7831 -0.215073 -0.0752321 0.444198 -0.309102 -0.503379 -0.316634 0.868966 0.574038 -0.838907 0.109356 0.924191 -0.538548 -0.65111 0.152832 0.276327 0.00807724 0.429477 1.51578 -0.439541 0.120535 0.358965 -0.490167 -0.109494 -0.0617597 0.677176 -0.200036 0.856979 -0.45781 -0.263543 -0.237284 0.285925 0.415148 0.628477 -0.185415 0.767221 -0.476571 -0.820894 0.533296 -0.178663 -1.15035 -0.356497 0.140463 -0.355097 -0.220571 -0.00434277 0.00979296 0.0306748 0.0264891 -0.0251655 -0.0757716 -0.0230682 0.00686776 0.00539202 0.0405987 0.0806111 0.0925685 -0.0123734 0.00753982 0.0503215 -0.0098028 -0.0179055 -0.0199119 -0.0315383 -0.0394789 0.0173897 -0.0234912 -0.00616146 -0.0186824 0.0096577 -0.208353 -0.165723 -0.115728 0.377479 0.745461 -0.308423 0.497369 -0.543111 0.000500265 -1.06833 -0.689979 -0.422499 -0.105145 -0.963156 -0.445771 -0.100095 -0.527662 -0.227398 0.435407 1.09892 0.462526 0.198171 -0.840881 0.189621 1.26572 0.0210317 0.0158246 -0.0225889 -0.00315163 -0.0266434 -0.0605925 -0.0569147 -0.055484 -0.0509298 0.0150012 0.0411812 0.00840385 -0.00340518 -0.0384891 0.0106254 0.00915206 -0.0552386 0.0260847 -0.00871786 -0.0268074 -0.00014396 -0.0304068 0.0118515 0.0116542 -0.0536933 0.0436191 0.0582397 -0.0295984 0.0158745 -0.0203835 0.0503391 0.00712864 0.0476206 -0.0131288 0.0143911 0.0332798 0.0516058 -0.0234493 -0.0309783 -0.016085 -0.00493073 -0.0396985 0.042144 0.0445466 0.00986131 0.0255302 -0.0568416 0.00835561 -0.00237076 -0.0159209 -0.893331 0.140449 0.201195 -0.167173 1.31029 -0.0272792 0.130147 0.442008 -0.308955 0.281275 -0.0966522 -0.364269 -0.572464 -0.242593 1.20099 0.497041 -1.0711 -0.390749 0.599498 -0.239629 0.244475 -1.15049 -0.425762 -0.144721 0.535707 -0.901449 -0.0267538 0.370292 -0.0792536 -1.12485 -0.261123 -0.309733 -0.10276 -0.06636 -0.0692199 0.81908 0.687494 0.300761 -0.0398557 -0.800101 0.1338 0.563695 0.565696 -0.150925 -0.730739 0.917398 0.0281913 -1.11702 -0.261672 -0.127282 0.152497 0.03616 0.93607 0.47542 -0.049976 -0.0179099 0.388644 0.563343 0.756879 -0.903294 -1.00394 -0.473478 0.141701 0.137659 -0.280768 1.00637 -0.481972 -0.151008 0.387118 0.443435 0.334109 -0.13636 -0.213271 -0.0137349 0.0884868 1.11325 0.224366 0.524973 0.36666 0.145623 -0.495018 -0.117683 0.389343 0.0528796 0.282279 0.467015 -0.240191 0.263539 1.03971 -0.485437 -0.201703 -0.300665 0.0255933 -0.172046 -0.0639992 -1.14108 -0.85633 -0.234363 -0.125402 -0.213102 0.240859 -0.204073 -0.27991 -0.00906416 0.223148 0.547969 -0.248031 0.43169 0.0636326 0.267699 0.243392 0.278172 0.117776 -0.723368 0.0639762 0.324017 0.0503337 -0.26088 0.498556 -0.111578 -0.970058 -0.661355 -0.531015 0.192118 0.249689 -0.0215848 0.0546561 -0.0490832 -0.0228336 -0.0850791 -0.0547786 0.085072 0.090088 -0.0168669 0.0252169 0.0379558 -0.0864746 -0.0418758 0.0606774 0.0583382 0.0423439 0.0598329 0.0383237 0.0613579 -0.143701 0.0307903 -0.0149079 -0.0410347 0.0435044 -0.0508251 -0.434098 0.521964 0.694444 -0.236895 0.583823 0.439965 1.07913 0.628676 0.38879 -0.599192 -0.303094 -0.181264 -0.345009 -0.214509 -0.176799 0.680994 0.601968 -0.0987944 -0.114874 -0.148892 -0.128478 -0.764469 -0.0815566 -0.769248 -0.305995 -0.0397962 -0.0259029 0.00808486 -0.0105033 -0.00316685 0.0620957 0.0192915 -0.0164359 0.0684918 -0.0165018 0.0191641 -0.0230494 0.00708917 -0.0386028 0.0198757 -0.0195688 -0.0185575 0.0407243 0.00217227 0.0519061 0.0238913 -0.000663901 0.0189745 -0.0172213 0.108396 -0.0468405 -0.00123192 -0.00608312 -0.0052369 -0.0172832 -0.0346647 -0.0791864 -0.0326042 0.0237298 -0.0212684 -0.0569114 0.0144366 0.0123811 -0.0236702 0.0468457 -0.0331776 -0.0171174 -0.0158271 0.0379088 0.00822741 -0.00270853 0.0193051 -0.0241479 -0.107692 0.0488033 