-0.0111336 -0.0992123 0.062467 -0.0981502 0.00303728 0.0679941 0.00306803 -0.0480746 0.0422234 0.0183215 0.193956 0.0339336 0.0932007 0.0715151 -0.0116701 -0.0307465 -0.0627283 0.119442 -0.0854302 -0.243952 -0.0705411 -0.0476122 -0.18397 0.00459796 -0.0816677 -0.00120186 -0.0168589 -0.0620252 -0.00673119 0.078347 0.0344074 -0.0683988 0.128013 0.0735685 -0.0306022 0.0613971 0.110596 0.00424309 -0.0260273 0.105059 -0.119976 -0.0119661 -0.0429925 0.00659737 0.152748 -0.000934964 -0.0370268 -0.0287789 -0.0554071 -0.145724 -0.0902023 0.0727695 0.100845 -0.121007 -0.0887077 0.143283 0.0144913 -0.0147794 0.129461 -0.181993 0.0518479 -0.00129074 0.0470684 -0.109319 0.101945 0.0508774 -0.131063 -0.0104089 0.0859018 -0.0199773 -0.0381492 -0.0956983 -0.0123096 -0.100502 0.0681101 -0.00752587 0.00874988 -0.00609267 0.00172047 0.104226 -0.0144096 0.121201 0.100613 0.0411314 0.0121055 0.00538672 0.0115859 -0.169104 0.0904293 -0.0206454 0.0849033 0.0904568 -0.0677261 0.00389208 0.18301 -0.0111152 0.0708219 -0.260768 0.12281 -0.0241385 -0.0451579 -0.0376079 -0.0529638 0.146344 0.0835398 0.0448371 -0.113307 0.0512526 0.0503948 -0.0125188 -0.0844824 -0.0902799 -0.0642936 0.0837788 -0.034998 0.109858 -0.0326267 -0.0308013 -0.0410281 -0.0250097 0.10934 0.0499711 0.0636725 0.120703 -0.1511 0.0818913 0.00640759 -0.0938362 0.151262 0.0655673 0.0143964 -0.0135188 -0.170394 0.0526363 0.225527 0.0730656 -0.178249 -0.0949824 -0.194766 -0.0922593 -0.0141704 -0.0242866 0.107175 0.0826227 0.186129 -0.045639 -0.0979499 0.0295992 0.0283301 -0.193988 -0.0140879 0.109527 0.143359 -0.0360853 0.0964248 0.0743253 0.0225489 0.0368647 0.000751506 -0.0200384 -0.134189 0.0207878 0.131963 0.079978 -0.075604 -0.129682 -0.0592179 -0.0283728 -0.0452826 -0.0757898 0.20509 -0.227736 0.0231972 -0.0243083 -0.164952 0.0759918 -0.000985228 -0.0448086 0.0233575 0.153901 -0.0168836 -0.0204458 -0.0865547 0.0264073 -0.0451947 -0.143942 0.0223443 0.0341157 0.180913 -0.0526319 0.021228 -0.131249 -0.0241037 -0.114707 0.081564 0.0454676 -0.068896 0.0743021 0.0690504 0.0745526 -0.0108856 0.00426754 0.0591715 -0.107905 -0.119165 -0.0575146 -0.0283748 -0.0278602 0.0368724 0.0132984 -0.0136894 0.00343747 -0.00921726 0.00458219 -0.0680292 0.00300119 -0.0658231 0.0487282 -0.0247128 -0.0742328 0.0731155 -0.164535 0.0729301 0.0942677 -0.0166244 0.0524644 -0.144016 -0.0249279 -0.153121 -0.0571171 0.0131843 -0.136274 0.0381511 0.0655751 -0.0700375 -0.203962 -0.0950201 0.0499682 -0.149191 0.103696 0.109634 0.0131286 0.13797 -0.131622 -0.140165 0.0158547 0.0610502 -0.041097 -0.0656535 -0.0991435 0.00885076 -0.128209 0.0196246 -0.0523479 0.0210948 -0.186583 0.0625334 0.0104586 0.0589678 0.004242 0.0529127 0.142363 -0.0591073 -0.00980151 0.128156 0.114117 -0.055924 -0.0954364 -0.0515672 -0.0619507 -0.0423181 0.00657102 0.00742509 0.032006 -0.0051263 0.11011 0.0659322 0.133935 -0.0864193 0.0400543 0.139078 0.256907 0.0586583 0.202744 0.0690208 0.131687 -0.0166742 -0.24801 -0.0191838 -0.0369963 0.227773 0.0903748 -0.00117424 0.163645 0.0178561 0.152466 -0.0954624 0.0967969 0.0463887 -0.191125 0.0449174 -0.161903 -0.000935254 -0.0769734 0.0492078 0.050768 0.0523382 -0.0632198 0.110165 -0.0465292 0.0957779 -0.167067 0.131992 0.0094104 -0.0189371 -0.0352337 -0.113473 -0.186632 -0.074175 -0.000631216 -0.162719 0.0161683 0.115985 0.03237 0.0113558 0.0602694 -0.0153101 0.0187115 -0.0321675 0.0169988 0.160574 -0.0762037 0.052205 0.0605537 -0.00297609 0.0875283 0.144328 -0.0994979 0.0172282 -0.0657104 -0.0814319 0.140067 0.0127078 -0.34381 -0.0192866 -0.0748817 0.041148 -0.139022 -0.142061 0.102426 -0.0971459 0.0224785 -0.0409856 0.104143 0.199616 -0.027554 -0.0503606 0.105809 -0.0816775 -0.0381113 -0.113168 0.101903 0.0672534 0.0163406 -0.15761 0.0110466 0.0391901 0.0971309 -0.103011 -0.0269285 0.133123 0.0677542 -0.0731626 -0.09454 -0.0691085 0.0783146 -0.0847386 -0.0306861 -0.160714 0.145393 -0.0990395 -0.131862 -0.0834102 0.226781 0.0685124 0.0184526 0.00902855 -0.11225 0.038652 0.0327649 0.12899 0.144902 -0.215863 0.0208237 -0.157374 -0.0231164 0.0267111 -0.203873 -0.141501 0.0641059 0.0898395 -0.0166609 0.163009 0.147429 0.0170928 0.236497 0.00125615 0.0458368 -0.0752455 -0.0407436 0.0163649 0.0565554 0.0791539 0.189157 -0.11856 -0.0236851 -0.083957 -0.0747166 0.0512581 -0.00256028 0.0611214 -0.0611464 0.00764822 0.0479372 0.00049847 -0.09975 -0.0948846 0.00125791 -0.0964577 0.143806 0.0885274 0.0375936 0.00320993 -0.0366891 0.0800786 0.172559 -0.037576 -0.0431043 0.114483 0.0619164 0.173838 -0.0178836 -0.0284443 0.113125 -0.0330396 0.0119769 -0.064993 0.145229 -0.0103254 0.0586337 -0.0709663 0.0641346 0.0779299 -0.0197453 -0.144307 0.101608 0.0458475 -0.0778976 -0.121999 0.136812 0.0898817 0.00603351 0.0977548 -0.0464997 0.129242 -0.13362 0.0539359 0.0790235 -0.156188 -0.0340916 0.0714152 0.0631938 0.0869733 0.150553 -0.0504171 0.000424743 -0.0330063 0.128484 0.0339448 -0.0876366 -0.0329087 -0.060854 -0.0630014 0.00963301 0.0725471 -0.107956 -0.0194794 -0.132304 0.0340932 0.124748 0.0187512 0.105964 0.159658 0.177841 -0.0908948 0.0362752 0.0033686 -0.105234 -0.0329132 0.0520285 0.0549196 -0.0301148 0.164857 -0.0625558 -0.196584 -0.056256 0.153756 -0.278485 -0.0638755 0.167293 -0.0567245 -0.165102 0.0854068 0.106035 -0.191535 -0.00832271 -0.0174828 -0.0792821 -0.0868353 -0.0524707 -0.107504 0.0310326 0.25609 0.0373415 -0.0232063 0.0528523 0.263168 0.0803797 0.0569026 0.0126691 0.0677609 -0.114871 0.106629 -0.211049 0.122474 0.10417 -0.0077585 -0.00323317 -0.0410272 -0.12482 -0.0935294 0.142975 -0.0375838 -0.0941202 0.061134 -0.20118 -0.0791029 -0.0110527 0.00731199 -0.100681 0.096998 -0.00234789 -0.0415539 -0.0364791 -0.0540218 0.0081657 0.0164157 0.029952 -0.124975 -0.0392815 0.0696524 0.104512 -0.0842791 0.0464527 0.0479187 -0.0917301 -0.259875 0.137917 -0.0108472 -0.0798922 0.0747287 0.0297903 0.0137081 -0.0869709 0.0111492 0.0905645 0.104681 -0.0143081 0.108552 -0.00207024 0.0010996 -0.112359 -0.0391329 0.0134121 0.0760126 0.113344 -0.0793636 -0.00204509 -0.0498707 0.120484 0.0678341 0.109845 -0.014086 -0.108714 -0.0284082 -0.105449 -0.108599 -0.124073 0.100902 -0.126934 -0.153028 -0.00549407 -0.0771538 -0.0736856 0.105781 0.0148086 0.0824245 0.0118123 0.117541 -0.0845359 0.0766765 0.136106 -0.0317865 -2.70889e-05 0.0696811 -0.0591295 -0.00948257 -0.0379471 0.0725573 -0.106767 0.117753 0.0373096 0.055447 0.0528619 -0.013818 -0.00986918 0.0415795 0.094403 -0.0782046 -0.0918142 -0.0327713 0.0617012 -0.0208811 0.0802315 -0.104873 -0.0877711 -0.0826804 -0.17624 0.0684998 0.0420631 0.192842 0.0456391 -0.048483 0.106546 0.116626 0.129151 -0.0832646 -0.126255 -0.0112134 0.0320328 0.0623029 0.111692 -0.175213 -0.18886 0.171233 0.0398329 -0.150232 0.0426454 0.0365257 -0.0400881 0.0487167 -0.101386 -0.0171617 -0.0605604 -0.137343 -0.00326484 0.0719989 -0.0269661 0.0305337 -0.00385334 -0.100184 0.0215214 -0.169921 -0.0692684 -0.0873398 -0.113858 -0.100694 -0.0833188 -0.065244 0.0531377 0.104054 0.309311 -0.114452 -0.182984 0.0914813 0.149696 0.126626 -0.045096 -0.0324796 0.062404 0.0129532 -0.0587405 -0.0460809 -0.0350057 0.0405178 -0.0316783 -0.0332527 -0.0166098 0.118715 0.00595385 0.0375956 -0.00185196 0.0658848 0.0792162 -0.116005 0.130141 -0.0755071 -0.240037 -0.0555176 0.084478 -0.231713 -0.0898432 0.199061 -0.0325843 0.200685 0.0748344 -0.0875687 0.0987255 -0.0459789 -0.0616144 -0.0164457 0.156712 -0.0101378 0.0223634 -0.0229013 0.18207 0.115909 0.00280596 0.127412 -0.0466512 0.193318 -0.065159 -0.0786154 0.0868632 0.0474895 -0.0529271 0.102894 -0.0379365 0.0483088 -0.0346784 -0.0446728 0.141 -0.15547 -0.108401 0.0481868 -0.0427771 -0.00704087 0.0423145 -0.0540347 0.148228 0.0130367 0.00291541 -0.101599 0.0691651 -0.0778687 0.0410921 -0.0639049 0.0159282 0.0612131 -0.0762365 0.0482181 -0.0408763 -0.0649472 -0.0802804 0.036956 0.0989238 0.158565 -0.0300061 -0.0770872 -0.0162028 -0.138381 -0.0344106 0.0713882 0.201307 -0.185947 -0.0339151 -0.038354 0.0697095 0.0681795 0.036137 0.0149927 -0.116582 -0.0798225 0.0731303 0.0632884 -0.0481027 -0.202357 -0.0165763 -0.0442223 -0.0778458 0.108732 0.029741 0.0368909 -0.123837 -0.0425308 -0.0784732 -0.0306627 -0.00746206 -0.0736327 0.0431561 0.165136 0.0571887 -0.112253 -0.0136569 0.178088 0.149527 0.00763991 0.161288 0.230102 -0.0681439 -0.0801996 0.116885 -0.105507 -0.0284193 0.0878004 -0.0438601 -0.0603549 -0.00735463 -0.106195 0.0533333 -0.0911716 0.135792 0.0170918 -0.0212769 0.158178 0.0316922 0.16486 0.0393574 0.0894348 0.0976237 -0.105509 -0.0397433 0.0993536 -0.0971826 -0.121523 -0.00369007 0.0149538 -0.14365 0.115771 -0.106791 0.110542 0.03332 -0.0463754 -0.0259649 0.0590179 0.0559999 0.00191051 -0.00727262 -0.0985163 -0.103569 0.0608356 0.0760108 -0.0322378 -0.0696804 0.0901755 0.0300032 0.113453 -0.0414927 -0.0468392 0.0198615 -0.154492 0.0889179 -0.0570672 -0.041864 -0.0305451 0.0201913 -0.0474834 -0.0568493 -0.0474595 -0.0952884 0.0543043 0.0232775 0.0591231 0.109721 -0.0487059 -0.0651164 0.00112288 -0.0378961 -0.0199282 0.030227 0.0601655 -0.0439437 -0.118267 0.0180411 -0.0281367 0.0586496 0.13076 -0.0928069 -0.174288 0.0875775 -0.0857941 -0.102651 0.0477256 0.0212209 -0.0522534 0.0956728 -0.0383222 -0.0153955 0.00666339 -0.128014 0.203332 0.078219 -0.0428787 -0.0403156 -0.0150712 0.0629777 0.0506378 -0.0511015 0.0249719 0.114162 0.0733696 0.112154 -0.118427 0.00363239 -0.0257175 -0.14887 0.237007 0.0402187 -0.0706281 0.119257 0.0190525 -0.014657 -0.0915563 -0.0279614 0.0603576 0.152875 -0.0155917 -0.0554036 0.0330509 -0.0800611 -0.114641 0.121629 -0.0838431 -0.000969947 -0.0193407 -0.0958281 0.0422536 -0.145144 -0.0350953 -0.0322639 -0.0758982 0.0211653 0.0599534 -0.0204257 0.0350329 0.120748 0.00673269 0.125737 -0.103324 0.142585 0.0263674 -0.123139 -0.0962457 0.0820624 -0.0832636 -0.066826 -0.174574 0.00735816 0.0511958 0.0862867 -0.0534966 -0.0527109 -0.0474132 0.0254196 -0.0338229 -0.0512268 -0.0368156 0.0995142 0.0565057 -0.101409 -0.0600529 -0.0441837 -0.0859427 -0.0517143 0.0537248 0.0269229 -0.0200371 0.146234 -0.0246997 -0.0796399 0.132742 -0.0671396 0.0555022 0.0347814 0.176802 -0.0755119 -0.0359909 0.211554 -0.0588799 0.0900676 0.0239258 -0.0712381 -0.0740564 -0.0389377 0.0951784 0.0810228 0.0125086 -0.0425109 -0.00217875 -0.0407296 -0.120834 -0.037799 -0.0277207 0.0340444 -0.00722669 0.13136 -0.143601 -0.092238 0.00429917 0.077903 -0.343441 0.119085 0.0450181 -0.023017 -0.173024 0.0445507 0.0455434 -0.0109635 0.0903546 0.174869 -0.199974 0.0243822 -0.0486428 0.0217052 0.0267026 -0.076911 0.106526 0.0477714 -0.0951146 0.0433097 0.078369 0.113997 0.0267004 0.0116405 -0.0115046 -0.0430069 -0.0431153 -0.0660535 -0.0690553 0.256934 0.083944 0.0534191 -0.151481 0.0786969 -0.0550058 0.0613126 -0.0759317 -0.0595102 0.0970566 0.163078 -0.128727 -0.0318765 -0.0122964 0.0381094 -0.0316486 -0.0414754 0.0377182 -0.0713886 -0.0888131 0.0773832 -0.134158 0.117271 -0.0902412 -0.0328603 0.109583 0.0109638 -0.0263887 0.0773358 0.0701485 0.0146784 0.0328418 -0.0742183 0.0273084 0.0902323 -0.204039 0.0428135 -0.165202 0.04047 -0.117412 0.0291156 0.0247851 0.138705 0.13679 -0.00720256 -0.0806461 0.110772 0.0638829 -0.0532783 -0.0671656 -0.061586 -0.204329 0.0529689 -0.0394223 -0.164207 0.0656814 0.0132909 -0.157186 -0.0381044 0.0333512 -0.150109 -0.102086 0.0253738 -0.141756 0.13738 0.152751 -0.0437259 -0.0445107 0.0135309 -0.0620941 -0.0572762 -0.00361816 -0.0621276 -0.0807911 0.0222123 -0.0165213 0.0278754 -0.07323 -0.0729006 -0.108849 0.0612513 0.0321127 0.0660136 -0.084719 -0.0681793 0.0211773 0.0837676 0.0316748 0.0742159 0.0152092 0.114373 -0.0124394 -0.00339223 0.0247188 -0.101972 -0.111148 0.0794335 -0.134388 -0.0400122 -0.0820153 -0.0161856 -0.120563 -0.216471 0.119865 0.0616167 0.149687 -0.175019 0.18112 -0.118058 -0.142816 -0.0132089 0.0377575 0.00116794 0.18098 -0.0670374 0.0656333 -0.0352944 -0.0318829 -0.0395654 0.00203628 0.183742 -0.0694368 0.0271658 -0.013743 0.144047 0.0430086 -0.0882234 0.0574296 0.116523 0.00407218 -0.125279 -0.0695589 0.148397 0.0146953 0.0835831 0.282674 -0.105622 -0.0996113 0.0317441 -0.0587773 0.150649 0.104297 -0.0391157 -0.103151 -0.104556 -0.118138 0.139053 0.121741 0.183768 0.161661 -0.106995 -0.0962979 0.0742538 0.043714 0.100736 -0.0765812 0.111804 0.0104773 0.0513004 -0.000224397 -0.0427529 0.0304407 -0.160204 -0.0143642 0.132031 0.0257839 0.00204698 0.20911 -0.0577741 -0.184023 0.147519 -0.125891 -0.0193039 -0.0241808 0.0783588 0.0544295 0.0291386 0.00950878 -0.143607 0.0194344 0.0771641 0.111491 -0.0575809 -0.0401733 0.174855 0.150535 0.038357 0.0913362 0.0745648 0.019184 0.0180695 0.0457603 -0.28213 -0.0195176 0.0152312 0.0761048 -0.0260851 0.00290101 0.163224 0.0247454 0.159397 -0.00674021 -0.0310927 -0.0991478 -0.0408302 0.135873 -0.142413 -0.0250346 -0.127373 0.11123 -0.0675909 0.0133508 -0.0808686 -0.091146 -0.0789063 -0.0484527 0.0601668 -0.17331 0.000911981 -0.066323 -0.0413343 0.00202491 0.046776 -0.0313111 -0.0348565 0.136269 0.06683 0.00362212 -0.164659 0.000761969 -0.0991848 0.178549 0.0472949 0.0588779 0.0765194 0.129211 -0.0379207 0.220324 0.0514665 -0.0926716 0.071048 -0.0444237 0.144212 -0.104463 0.091222 0.0708906 -0.110352 -0.000823817 -0.0356987 -0.0228158 -0.0894588 -0.18906 -0.0202784 -0.0112149 -0.0511501 -0.115944 0.177007 -0.0904304 0.0064468 0.260056 -0.103797 -0.0137129 -0.0634365 -0.105667 0.0374509 0.00560019 -0.0791106 0.0110435 -0.000151854 -0.0652565 0.033051 -0.0702148 -0.10571 0.0331585 0.00766369 0.0272088 0.0402784 -0.0383966 -0.128673 -0.0129292 -0.0848683 0.0624249 0.0639697 -0.0708871 0.0102864 0.0495862 -0.145842 0.0625139 0.0210708 0.00584818 0.152461 0.00739016 0.0259891 -0.025602 0.0815843 0.192971 -0.0709668 0.0344039 0.117836 0.226989 0.000720163 0.0328958 0.154307 -0.0104848 -0.0117684 -0.00729829 0.0695324 -0.0219603 -0.256179 0.0283179 -0.0378418 0.06608 -0.0896818 -0.053889 0.0886341 0.0921101 -0.0602704 0.110004 0.0525075 0.113645 -0.0380583 0.140489 0.0351586 0.0114843 -0.0764838 -0.162485 0.0821209 0.20144 0.0131056 -0.0262695 0.0398263 -0.0580997 -0.0325893 -0.0157862 -0.0207864 -0.156242 -0.0833141 0.126331 -0.0181714 -0.145742 -0.102135 0.0527077 -0.049044 -0.156102 -0.04634 0.0195511 -0.206819 0.0889557 -0.0423848 -0.208402 0.0636957 0.0378825 -0.152139 0.0815854 -0.104132 -0.0767727 0.0288934 -0.0620056 0.0309914 0.0740777 -0.076543 -0.016516 0.191316 0.0519445 -0.194502 -0.15634 -0.292133 -0.212499 -0.101962 0.0896337 0.017638 0.0580657 0.151648 -0.0527619 0.0171897 -0.0261231 0.0510481 0.0363453 0.0690278 0.0816873 -0.0674109 -0.0833578 -0.03449 0.209538 0.0517434 0.226369 -0.131043 -0.015179 0.124861 -0.155579 0.0830887 0.0420024 -0.0619572 0.0161613 0.139699 0.0750522 -0.0280687 0.0245773 0.10686 0.0163032 0.100351 0.0842581 -0.0691499 -0.0441422 -0.0969846 -0.0921273 0.0257663 -0.119162 -0.0476305 0.0263892 0.0233415 -0.024753 0.0578323 0.00776044 -0.0211399 0.0706079 -0.0383635 -0.00623579 -0.0777036 -0.000188565 0.0386778 -0.0865323 0.152397 0.0392884 -0.0488115 -0.144407 0.0192504 0.000152089 -0.0689528 -0.00607186 -0.0534288 0.0372691 -0.106444 0.18806 0.0257555 0.167594 0.0306881 0.058742 -0.0220813 0.0149459 0.00141512 -0.0722644 0.0937705 -0.035645 0.0435805 0.038969 -0.0890684 0.156998 -0.0343991 -0.0184462 -0.158182 0.154248 0.151105 0.0291868 -0.0620399 0.0548342 0.0379833 -0.0816661 0.0866513 -0.186817 -0.0136576 0.0985205 -0.173917 -0.0328385 0.114361 0.0736178 -0.112223 -0.00386798 -0.0702572 -0.0364738 0.0900922 0.152156 -0.145384 0.0314729 -0.0375914 0.0356396 -0.108118 0.0299914 0.0559841 0.0153849 -0.0249463 -0.013043 0.0482106 -0.147888 -0.169694 -0.0059601 -0.0551457 0.0242847 -0.03499 0.0101363 0.136137 0.0903354 0.172828 0.159739 -0.0178264 -0.0162624 -0.0106067 -0.125387 -0.112844 -0.139281 -0.0154383 0.101585 -0.0695957 0.0220353 0.142328 0.0385582 -0.142228 0.0661736 -0.122502 -0.118588 -0.00807264 0.0511265 0.0801269 -0.0993715 0.0223497 0.047614 -0.0105537 -0.091887 -0.121314 0.060983 0.098911 -0.0756974 0.0747774 0.0604918 0.00204221 -0.0449331 0.0109464 0.0543947 0.0793829 -0.209985 -0.0237659 0.0613476 -0.0398896 0.0493372 -0.070152 0.0447073 -0.0268499 -0.0245632 -0.0732937 0.0462054 0.0675623 0.0564113 0.0137181 -0.0477765 -0.0272248 -0.157899 0.0574548 -0.0214668 -0.0913492 -0.0201863 -0.10617 -0.0750725 -0.0481759 -0.085945 0.00538514 -0.0793463 0.0494295 0.0675642 0.0748256 -0.134187 -0.119456 -0.11572 -0.0477833 -0.0900621 -0.0730299 -0.0708958 0.00216442 0.0663501 0.00724395 0.0810878 -0.0502678 -0.146837 0.122801 0.0656661 -0.0735913 0.0483803 0.0738609 0.0199458 0.0768643 -0.00277482 -0.0342389 0.0678272 -0.000295214 0.0551154 -0.0289756 -0.105421 0.119718 -0.112911 0.0167765 -0.0600045 0.110493 0.0368613 -0.0963311 0.00185384 0.0520076 0.031463 0.0280201 -0.0471793 -0.015852 0.155706 -0.210599 -0.158523 0.0665372 -0.145056 -0.0772637 0.151701 -0.0605175 0.0341534 0.0963119 -0.17443 0.124571 -0.00930753 0.051348 -0.0555163 0.055317 -0.00798795 -0.15762 0.00177661 0.0218079 0.00777639 0.153028 0.0656205 -0.0539103 -0.112643 -0.0445269 0.257622 -0.08469 -0.086893 0.0383697 0.136953 0.0123461 -0.00866101 -0.0119749 -0.0594634 -0.0444094 -0.0433166 0.152187 0.0704287 -0.0207485 0.0010887 0.00975505 -0.0260115 -0.112912 0.0262908 -0.0544846 -0.0332515 0.0580557 0.0523716 -0.00639095 -0.147771 -0.0969335 -0.0481013 -0.23745 -0.104661 0.0511492 0.0551635 0.0562613 -0.150039 -0.10438 0.0670163 0.0341997 0.0253964 -0.000458651 -0.0710704 0.0373286 -0.169382 0.0741885 -0.0439238 -0.056758 0.0529625 0.11136 -0.0566449 0.0898935 0.153326 0.0131812 0.0963843 0.0193486 0.15416 -0.00824996 0.0808486 0.0866703 0.0126285 0.166409 -0.253561 0.0563231 -0.0365896 -0.0092948 0.115122 0.0373224 0.0571347 -0.0799968 -0.090504 -0.0461326 0.0129231 -0.0328571 -0.0912454 -0.0509139 -0.0319449 -0.00235746 -0.122097 0.0435113 0.175521 -0.137176 -0.148181 0.0981665 -0.120064 -0.0384609 -0.0524257 0.0187114 -0.0317992 0.1829 -0.0168857 0.0609394 0.208892 0.147337 0.158466 0.0217936 -0.153281 0.222062 0.0994205 -0.0926819 0.0765167 -0.0900391 0.0542065 0.0891099 -0.042887 0.014597 -0.127533 -0.215978 -0.101797 -0.139848 0.0207842 0.101864 0.0769922 -0.202429 -0.0139038 -0.047919 -0.035665 0.0785079 0.136704 -0.0382899 -0.210581 -0.0806918 -0.098649 -0.0925918 -0.0349974 -0.00949529 0.136467 0.04736 0.000802903 0.141492 0.0810374 0.0388433 -0.121568 -0.00706547 0.0427282 0.0624431 0.0726126 0.055288 -0.0984787 0.0152422 -0.137697 0.0460246 -0.0462643 0.0315579 -0.100339 0.0669354 0.142008 -0.0272798 0.0593949 -0.100159 -0.0743673 -0.038476 0.0731052 0.0726097 -0.0516718 -0.185193 -0.0713315 0.0123662 -0.0816717 0.0371315 0.0576415 -0.104328 -0.00475123 -0.0937196 -0.0510591 0.113856 -0.11395 -0.022448 0.128009 -0.0139287 -0.0540697 0.00375687 0.179116 0.0681417 -0.0677346 -0.119599 0.0376593 -0.0404214 -0.0153312 -0.135142 -0.0940237 0.085129 0.0910459 0.164321 -0.0188386 0.0557252 -0.0353063 0.0540926 0.00265163 -0.06772 -0.0352424 0.062976 -0.0801202 -0.113605 0.228266 0.27979 -0.0600753 0.0485098 0.106013 0.0394716 0.0328235 0.0582829 0.0178328 0.160324 0.0960428 -0.00195629 0.0102477 0.170356 0.0501048 -0.0157472 0.0280263 0.0257555 0.131839 0.0798475 0.152981 0.0491668 0.0120823 0.0767699 -0.0263855 0.00550585 -0.16371 -0.0271004 0.0144863 -0.0198105 0.120773 0.0297981 -0.129831 -0.0331599 0.137381 -0.00411786 0.19131 0.104206 -0.0478159 -0.104082 0.033291 0.0236296 0.0657133 0.236403 -0.0544003 0.139854 0.0979055 0.0159464 -0.0872679 0.0310293 0.131799 0.0769323 0.062363 -0.0743878 -0.0642201 0.0824416 0.0909735 -0.144405 0.0238873 -0.0738987 0.0625092 0.0123893 0.0427977 -0.00868719 -0.0749355 -0.0700002 0.0237107 -0.00751223 -0.13707 0.158423 0.00699562 -0.0304471 -0.081494 0.0109088 0.048459 -0.203921 -0.0034426 0.0280279 0.015135 -0.0136877 0.13859 0.117946 -0.0628652 -0.0640127 0.0165022 -0.0741294 -0.0842379 -0.0986143 -0.156007 0.0351177 0.0321224 -0.254456 0.0779289 0.0452442 0.0178233 0.110314 -0.140175 -0.0809214 -0.124255 -0.000405213 0.000647766 0.0538809 0.0281439 -0.0557371 -0.0438244 -0.0266766 0.0681653 0.00661632 0.0691983 -0.124472 -0.0831226 0.192133 0.0502996 -0.00366627 -0.0970735 0.118817 0.00341701 -0.127284 0.0591379 0.0740446 0.0780611 0.11399 -0.0729693 -0.191376 -0.164276 -0.148698 -0.0761971 0.0958728 -0.0124691 0.0726827 -0.0182433 0.0261475 0.037947 -0.0652882 -0.203125 -0.130636 -0.0589679 -0.325216 -0.0447031 0.0148435 -0.137258 -0.0535997 0.0502399 -0.104246 0.0141566 0.133906 0.0458425 -0.0681406 0.101813 0.0411072 -0.0722796 0.0538662 -0.00273692 -0.141222 0.0542371 0.00477835 -0.0750501 0.00158263 0.0220205 -0.0177127 0.0387349 0.0533758 -0.0797835 -0.0283207 0.0641821 -0.047316 -0.0477304 0.0544722 0.0669862 0.0629328 -0.117434 0.0743852 0.0180425 0.000975935 -0.0672511 0.222272 0.0537569 0.13476 -0.0413742 0.0105617 0.127679 0.0491947 -0.0438609 -0.0282546 -0.0345774 -0.236787 0.0276245 0.102216 -0.0807265 -0.0652573 0.034501 0.113003 -0.00248229 0.108122 -0.0457553 0.0583044 -0.0294558 -0.0100017 -0.0356969 -0.0246887 -0.118183 -0.0577613 0.122232 -0.0570791 0.0171408 -0.116619 -0.0997762 -0.025505 -0.102852 0.0149462 0.0682753 -0.0162387 -0.0331904 0.0753673 0.0484724 -0.00194328 -0.0318702 -0.060024 0.0407782 -0.0654925 -0.0552035 0.0185395 0.0212377 0.0512704 0.119309 0.0849974 -0.0395884 0.00347008 0.0555866 -0.0435464 -0.0760899 0.0854288 -0.0511248 0.0438726 0.00206672 -0.0504463 0.129961 0.12364 0.0525248 0.0151039 0.0516699 0.110346 0.0657696 -0.00950028 -0.102645 -0.0109654 0.056127 0.0234055 0.0516176 0.0843636 0.0386409 -0.0729538 0.0512075 0.0737286 -0.0747659 0.00687455 0.0761006 -0.230088 -0.0234343 0.0768765 0.0373227 -0.0720195 0.113882 -0.176428 -0.0185329 -0.093865 -0.191292 -0.210285 -0.146089 -0.0374431 0.0150727 -0.0313109 0.12481 -0.118434 0.000654848 -0.212045 -0.101521 0.135089 0.091641 -0.155311 -0.0857255 -0.0530217 0.0412747 -0.143421 -0.0574853 -0.0193363 0.0246481 -0.00108102 0.193552 -0.131718 -0.080539 0.077751 0.0344601 0.156946 0.227027 -0.00537448 -0.041151 0.0163833 -0.00147632 -0.151508 -0.0506577 0.0192781 -0.0630825 -0.0461601 0.120775 0.0233481 0.0680861 0.0392839 -0.267109 -0.127358 -0.0647054 0.0690426 0.0521075 -0.0270837 0.0184133 0.0254442 -0.140475 -0.0925485 0.00917173 0.0265127 -0.0331871 -0.0368409 0.229626 -0.0477626 -0.16084 0.0690213 -0.0375781 0.0143245 -0.0196363 0.0968998 0.0520388 0.0661523 -0.0213689 0.0259616 0.173575 0.156118 -0.0784274 0.0671198 0.00959779 -0.0228194 0.00278261 0.103994 -0.0210829 0.012083 0.0713642 0.0860374 -0.0852389 0.0965835 -0.265097 -0.0709071 0.0146397 -0.0304292 0.0430772 -0.00739208 0.163019 0.0302317 -0.080471 0.0300022 -0.134076 0.0996813 0.138761 0.188747 -0.190863 -0.057961 0.0199158 0.0183477 -0.0126348 0.198816 0.108289 0.105005 -0.0727379 -0.048523 -0.0703174 -0.000292528 0.0329702 -0.0641306 -0.102876 0.100166 0.0555473 -0.0140895 0.0405681 0.209803 -0.0149805 -0.0332683 0.121471 0.101466 0.025158 0.0209515 -0.0308378 -0.116219 -0.102127 0.103488 0.0351933 0.073751 -0.11001 -0.0881781 0.0684526 0.130434 0.0718978 -0.044561 0.0329304 0.113892 0.217379 -0.0922365 0.0303502 -0.0654439 0.039026 0.0904483 -0.125167 0.060358 -0.0994272 -0.0412274 0.115198 -0.173031 -0.0654463 -0.0672061 0.00757414 0.0524252 -0.00356592 -0.108016 0.0476633 0.0805515 -0.228681 0.0299296 0.0992072 0.049865 -0.0585805 -0.0132608 -0.150128 -0.00852009 -0.153107 0.0927996 0.00377885 -0.155893 -0.137619 -0.181794 0.0511559 0.0607199 -0.0838996 -0.206366 -0.0126683 0.0569282 0.0706217 0.272811 -0.0334533 -0.00287051 0.0338213 0.119039 0.00514993 -0.114416 0.0453049 -0.0874718 0.117197 -0.0609264 0.00315574 -0.057149 -0.120468 0.0346124 -0.0243306 0.00974623 -0.0685746 -0.115704 0.00708019 -0.0457627 -0.118591 -0.0701655 -0.180679 -0.0812829 -0.0157066 -0.0138615 -0.118418 0.0117965 -0.00725445 -0.0626805 -0.0767244 -0.206281 -0.0244534 0.0028092 -0.0449316 0.169502 0.0287981 0.0437985 0.0858179 -0.018182 0.139972 -0.276064 -0.0943529 0.0129036 -0.0143375 0.153323 -0.139362 0.0988626 0.00917562 -0.188307 -0.114742 -0.13273 0.0460093 -0.0743188 0.0575562 -0.0411288 0.0103087 -0.0942824 0.150941 -0.0652567 -0.0410995 0.0782927 0.113754 -0.11285 -0.0635825 -0.236208 -0.153725 0.0126413 -0.134487 0.106301 -0.0747177 0.0223944 0.0617716 -0.0498557 -0.112296 -0.066701 0.033798 0.0240146 0.170595 -0.00210912 0.0722799 0.00150341 -0.00930169 0.0596332 0.022288 0.221097 0.0552689 -0.0541001 -0.036804 0.0811397 -0.133236 0.0983293 0.0942992 -0.0773566 -0.00387879 0.10771 0.146926 0.0693761 0.157076 0.0113135 0.054158 -0.00181698 0.0618386 -0.0389448 0.00661392 -0.0713859 0.000961148 -0.0461224 -0.0646111 0.185226 -0.031816 0.0818242 0.0766348 0.0140946 0.0394995 -0.0612684 0.0693772 0.0510668 -0.217625 -0.0433393 -0.119558 -0.047671 0.0967888 0.0174547 -0.0670155 -0.0936654 -0.0870481 -0.0626727 0.00735877 -0.284249 0.00528887 -0.113395 -0.0218615 0.00275162 -0.142042 -0.0312415 -0.136046 0.00898305 0.0970742 -0.0289058 -0.173082 0.0202774 0.0781048 -0.00333276 -0.0295872 -0.098155 0.0257897 0.0213929 0.0374488 -0.11015 0.171714 -0.0408776 -0.135064 -0.0174467 0.0380668 -0.012044 0.0228207 -0.0374519 -0.0848291 -0.0243158 -0.106969 -0.0591011 0.040137 0.0562637 -0.0387762 -0.0575876 0.0612936 -0.0548332 -0.0363476 0.0989355 -0.14794 -0.0544972 -0.24149 -0.250011 -0.0723723 -0.123178 0.101875 -0.191342 0.0519627 -0.063738 -0.0325913 0.0170154 -0.1618 0.0329735 0.0695243 -0.125262 -0.104439 0.0463789 0.202505 -0.0104385 -0.118381 0.140434 -0.0214709 0.0496447 -0.0753038 0.0658048 -0.0398575 0.0756435 -0.0174202 0.0587173 -0.00566922 0.107441 -0.155487 -0.0662758 -0.117781 0.0828494 -0.0445054 -0.0675705 -0.00489116 0.144513 -0.0255289 0.140818 -0.0180938 0.116664 0.00552285 0.0425239 -0.0134397 0.0492121 -0.0132146 0.103534 -0.00856782 0.12564 0.0967604 0.0466268 -0.128981 -0.117827 0.0787544 0.0184321 0.0204719 -0.124861 0.0570098 -0.0292458 -4.12487e-05 -0.0171727 -0.00577651 0.0108059 -0.076643 0.161438 -0.0545735 -0.0759764 -0.0249783 -0.00963417 0.0978049 -0.0710726 -0.0613029 -0.0621213 0.110889 0.291966 0.0765034 0.134144 -0.0293119 0.0980652 0.151692 0.145305 0.0773974 -0.0707905 0.0408282 0.14594 -0.124538 0.0605326 0.0523616 0.103602 0.0169274 -0.0557027 -0.132928 0.0202385 0.148487 -0.0845035 0.109604 -0.0303239 -0.0117253 -0.0672367 -0.0197078 -0.0879895 0.105771 -0.150465 0.0500149 0.04483 0.00365963 0.129585 -0.185875 -0.0248504 0.0742773 0.0369857 0.0736951 0.00607427 -0.157491 0.020687 -0.00894055 0.122131 -0.188119 0.0394761 0.0458148 -0.0373138 0.0488398 -0.0843389 -0.0303815 -0.0805492 -0.0298994 0.027415 -0.126338 0.0923996 -0.046377 -0.231829 0.0697766 -0.0602692 0.0674943 -0.0221187 -0.0231416 -0.0471901 -0.118789 -0.207772 -0.0866488 -0.0977193 -0.242031 0.123061 0.0120007 0.0709866 -0.0286074 0.0253893 -0.115996 -0.0409515 0.0513882 0.0236722 -0.142991 -0.0776947 0.0744696 -0.000184692 -0.230182 -0.019069 -0.107872 -0.0317737 -0.0992507 0.0847589 -0.0195092 0.141692 0.0359087 0.163471 0.0537882 -0.0352119 -0.108099 0.0171741 -0.123229 -0.0100495 0.0575642 0.141743 -0.104723 0.139998 0.0749355 0.11306 0.0796029 0.00199786 -0.112064 0.0454357 -0.0285427 -0.269812 -0.164423 0.170309 -0.0230901 -0.128899 0.0987159 0.0554474 0.01159 -0.186141 -0.0422968 0.0951412 -0.154627 -0.0130632 0.0183946 0.0505077 0.0373371 0.111712 0.032322 0.0141455 0.00429068 -0.00343219 -0.0589509 -0.0230193 0.0269171 -0.0997141 -0.05754 0.104224 0.0506718 -0.0804831 0.0156938 -0.0643416 -0.0744228 0.0243762 -0.177465 0.0178591 -0.0571884 -0.0726063 0.0267277 0.107473 0.0686709 0.123496 -0.0259063 0.0688314 0.00389998 0.0954048 -0.0218421 0.0650876 -0.0901016 -0.288672 -0.141923 -0.0290874 -0.0534082 0.048846 0.0532549 0.135094 0.00949827 -0.0580113 -0.0155606 0.0968181 -0.0414947 0.0147713 0.0183111 -0.0302965 0.0625506 -0.0904155 -0.0550621 -0.0311595 -0.0998906 -0.0693982 0.00764236 -0.0520958 -0.0303339 -0.0821495 0.0869648 -0.161761 0.0280406 0.0812298 0.0416259 0.0151616 -0.113976 -0.161953 -0.0295448 -0.104778 -0.158621 0.0135498 0.126185 0.093867 -0.0505262 -0.138175 0.0795048 0.0149525 -0.0749046 -0.0204513 -0.148189 0.00149075 0.015205 -0.0359712 0.0131769 0.167701 0.0624358 -0.0915881 0.109839 0.0433833 -0.093953 -0.0591388 -0.0635979 -0.0738997 -0.0724998 0.0900654 0.0543129 -0.0893325 0.0689437 0.015718 0.187515 0.114931 0.0142666 0.0153355 0.078467 -0.00608103 0.112548 -0.0012731 -0.0501672 -0.150285 -0.127558 -0.0424693 0.0156257 -0.050623 -0.0621957 0.139626 0.0251922 0.0581862 -0.127689 0.100172 0.0619279 0.0976592 -0.163161 -0.142154 -0.065393 -0.122837 -0.0121774 0.0393079 -0.0532394 0.00230923 -0.0838705 -0.0951092 -0.130291 -0.0543494 0.106884 0.109884 -0.180636 0.0481071 -0.049587 0.0180323 -0.086287 -0.0287772 0.0589934 -0.166347 0.0879173 0.0524185 -0.087802 -0.0719793 0.054321 0.0970853 0.0455713 -0.123035 0.0402533 -0.0113005 -0.0311676 -0.0452936 0.111256 0.01813 -0.165259 0.00822765 -0.0431502 0.0451052 -0.12524 0.0166547 -0.109672 -0.191978 -0.134064 0.0324199 0.142679 0.0242469 -0.0968321 0.0544543 -0.253752 0.00480369 0.0756366 -0.241557 -0.117084 0.0331624 0.223381 0.134511 0.228642 0.123735 -0.0651904 -0.20543 0.0144162 0.108811 -0.0138511 0.0326578 -0.052619 0.0591374 0.139892 -0.105889 0.0828802 0.0189957 0.127945 -0.0798796 0.0444479 0.00146769 0.0961127 0.0529393 -0.0662951 -0.0340981 -0.111123 0.00726038 0.00643536 0.0146727 -0.00179911 -0.113643 -0.0983341 0.0376484 0.00752188 0.176223 -0.0720561 0.0468872 -0.0637416 0.0749962 0.0851013 0.0760662 -0.0724965 0.0311881 0.00879482 0.00204509 0.0693613 0.0387343 -0.0432285 -0.0563825 0.0233984 0.139015 -0.075193 0.0109262 0.0467891 -0.00473629 0.09012 -0.0536684 -0.00446334 -9.13998e-05 -0.139976 -0.0370832 0.0877851 -0.133689 0.0048442 -0.0395254 0.110633 -0.0705238 0.00148186 -0.118506 0.0599032 0.0207813 0.084502 0.124155 -0.022838 0.0437568 -0.113318 -0.0193733 -0.0256743 -0.0619368 0.00385848 0.0269529 -0.0923212 -0.128579 0.186692 -0.00691356 -0.0495453 -0.0317937 -0.118544 0.0998437 -0.00878585 -0.0135969 -0.0305695 -0.00173785 0.0569205 0.0930731 -0.00443606 0.107363 0.0599005 0.0941364 -0.0996076 -0.0784298 -0.0969144 0.0222626 -0.0971421 -0.0492394 -0.114789 0.120638 -0.0920622 0.059193 0.00262732 0.0176401 -0.00246806 0.114388 -0.0368291 0.069088 -0.142599 -0.0798227 -0.0525842 0.0974196 -0.0985389 -0.139908 -0.110777 0.0196826 -0.0885793 0.17333 -0.15435 -0.223545 -0.111527 0.00459837 0.0759314 0.121544 0.103625 0.0316487 -0.0709186 -0.010542 0.0914547 -0.0892965 -0.0879358 0.263837 0.0254768 -0.0292592 0.00482703 0.0810677 0.134793 -0.0370588 0.0390532 0.108865 -0.0214613 -0.0376038 0.17112 -0.0891758 0.0143656 0.0543474 -0.0372113 0.0184315 0.0361126 -0.032393 -0.000438504 0.137923 0.0823779 0.0444708 0.0587867 0.124432 -0.166401 0.00147515 -0.0325902 0.050315 0.040006 0.0347037 -0.0876674 0.0370687 0.0732957 0.0691933 -0.0455912 -0.0366201 0.0578422 -0.0296146 -0.209296 0.0234619 -0.0848697 -0.0447427 0.00924183 0.0613376 0.0601735 0.0331509 0.108567 -0.149558 0.0395353 -0.225962 -0.054934 0.0193013 0.0156513 -0.167918 -0.00880569 -0.0649423 -0.035426 -0.0368265 -0.0499381 0.00068974 -0.010749 -0.045281 0.0830342 0.0112826 0.010813 0.0308735 0.00191376 0.0408464 0.142793 -0.102001 -0.0726024 -0.049338 0.00662217 0.0489487 0.0587107 -0.0699176 0.209911 -0.0536219 0.121784 -0.1397 0.0914803 -0.098698 0.00359893 -0.027452 -0.105676 0.0406866 -0.188002 0.137654 0.00798267 -0.14035 -0.0706556 -0.0370251 -0.0335887 -0.107911 -0.00229057 0.0998751 -0.123716 0.203799 -0.0475849 0.120759 -0.0651752 -0.0635663 -0.111065 -0.000661312 0.105262 -0.204584 0.134139 0.132114 0.0394025 0.134984 -0.197361 0.0500718 0.0619316 -0.195576 -0.305693 -0.0284457 -0.00709848 0.00511924 -0.0803829 0.0560208 -0.00114981 -0.032739 0.0723151 0.0337553 0.0433099 -0.134419 0.0097577 0.212122 0.0783917 -0.0194007 0.057836 0.0710274 -0.0618629 -0.0812035 -0.0466701 0.0439363 -0.0902488 0.0464582 -0.100168 -0.00320485 0.0670727 -0.188129 -0.103207 0.128665 -0.0982335 -0.0233158 0.0197815 -0.0517631 0.00479482 -0.0157722 0.0480267 -0.0511851 0.137695 -0.0480306 0.0604337 0.0228849 0.0852465 -0.0252222 0.0341865 0.0733003 -0.124011 0.0190899 -0.0278876 0.0501713 0.0782328 0.196533 0.138929 0.100596 0.151874 0.0589363 -0.0889466 0.0180416 0.0696144 -0.0327999 -0.112995 -0.127902 0.138973 0.0942491 0.0454279 0.0687868 0.0262535 -0.0381781 -0.0592152 0.0181226 -0.0725324 0.047117 0.0430829 0.178362 -0.0226699 -0.104571 -0.165367 -0.150469 0.194918 0.0558986 0.0297069 0.0448238 0.117229 -0.0181753 0.038497 0.166536 0.158712 0.0614098 -0.0111756 -0.0449473 -0.0282033 -0.0452757 -0.00442788 -0.149327 0.0790416 0.000994268 0.067254 -0.122202 0.0343908 -0.0140615 0.0835274 -0.00455289 -0.071521 0.173061 0.053245 0.0120586 0.0348708 -0.214958 -0.0952053 -0.149232 0.0451416 -0.0528162 0.0548866 -0.105997 0.013939 -0.0346472 0.0410276 -0.107951 -0.164998 0.0142422 -0.0409435 -0.024055 -0.138763 -0.187737 0.0149204 -0.1381 -0.023057 0.124521 0.0798376 0.0580117 0.0543839 -0.0331158 0.0474442 -0.218306 -0.020815 -0.104992 -0.0605829 0.188023 -0.197458 0.121908 0.0238963 -0.0547248 0.0437149 0.157615 0.0452789 -0.0386391 0.160847 0.0769017 0.0256632 0.0816633 0.135393 0.0740432 -0.157661 0.15157 -0.129737 0.0599107 -0.15613 -0.0825912 0.0214248 -0.201689 0.0908745 0.0480549 -0.153331 0.124546 0.0624903 -0.0588038 -0.202078 0.0233491 -0.144179 -0.0506375 -0.0493026 -0.0334489 -0.135284 0.0240719 -0.0809411 -0.113657 0.0250971 0.0241724 0.0541321 0.10085 0.175726 0.110991 -0.136527 -0.0158255 -0.284525 -0.0741744 0.0260593 -0.00610036 -0.0201532 -0.0538936 0.247969 0.0510777 -0.0181873 0.0150931 -0.00512032 0.0829471 -0.0547161 -0.0955906 -0.0917591 -0.113559 -0.0595891 0.0180037 -0.12421 -0.125799 0.0119708 -0.0944261 -0.058866 -0.0348953 -0.0686784 0.00206754 -0.146397 0.116788 0.112306 -0.0518805 0.00923344 0.033738 -0.0702511 -0.101305 -0.0969925 -0.182516 0.0939206 0.0202245 0.0329287 -0.000138338 -0.164502 -0.0762921 -0.0557873 0.187099 0.060178 -0.0337011 -0.06399 0.146426 0.0450124 -0.0934664 -0.0474495 0.0433525 0.0422702 -0.0281602 0.0928955 0.11182 0.0618051 0.145571 -0.0530315 0.081717 -0.105683 -0.0184942 0.0184076 -0.0130447 0.123729 0.013577 0.01325 -0.0565806 -0.0084249 -0.0277132 -0.0986105 0.0012871 -0.0777704 0.00458965 -0.0804917 0.278954 0.0936201 0.0190256 -0.0966815 -0.063698 0.0997626 0.0407192 0.0165322 0.0350927 0.000408191 0.0461673 0.0200167 0.109999 0.0792474 -0.068727 -0.178916 -0.0456099 -0.217349 -0.174215 0.0741107 0.0843824 -0.153235 0.0681564 0.0227555 -0.0510325 0.00664332 0.0887677 0.10834 -0.074881 0.0191148 0.160062 0.143702 0.192275 -0.0645893 0.0391878 0.170927 0.115732 -0.0475255 -0.109299 0.126995 -0.0208087 -0.0244575 0.163236 -0.017144 0.00449711 -0.0718957 -0.0288165 0.00877435 0.088544 0.0929519 0.122288 -0.0841463 -0.0550015 0.0776188 -0.00265424 0.0721458 0.100852 0.0475791 -0.19224 -0.0387823 -0.0971091 0.00869061 0.0564365 0.177196 -0.0830948 0.135745 -0.0735424 0.0646119 -0.0679781 0.0221984 0.176781 0.0499262 -0.0538582 -0.0298682 0.0277121 0.171394 0.105078 -0.00796236 0.121349 0.292083 0.171467 -0.0045465 0.00431573 -0.00823457 0.0314218 -0.0498801 -0.0568926 0.0957922 0.0356362 0.00853552 0.055196 0.107605 -0.0227949 -0.0321504 0.0711566 0.0521339 0.105216 -0.064899 -0.0305324 0.0152309 0.00305203 0.0438513 0.147291 -0.00348141 0.087202 -0.0586318 0.0614743 -0.00764604 -0.178858 -0.027133 -0.00695076 -0.0322097 0.0207968 0.18975 0.0550435 -0.0967081 0.0137567 -0.145605 0.0531338 -0.00763558 0.0949795 0.0512135 0.1318 0.00935472 -0.118876 -0.0424752 -0.026841 -0.128919 -0.0613253 -0.0065437 -0.0240899 0.16272 -0.150344 0.0493605 0.0349514 0.00530499 -0.0763139 -0.0486717 -0.043253 -0.123084 -0.107446 -0.246408 0.00866734 0.074234 -0.00122026 0.0885487 0.032619 0.127832 -0.0786281 -0.0343809 -0.075289 -0.0226136 0.0375942 -0.0414911 0.0442225 -0.0675671 -0.0772455 0.0724459 -0.0212424 -0.191524 0.0200825 -0.0583374 -0.273597 -0.156155 -0.171869 -0.0243854 0.125308 -0.32566 -0.104536 0.0515647 0.0580042 -0.0786294 0.109277 -0.0432843 0.12863 -0.124443 0.0117213 -0.0650607 -0.101517 0.0534923 0.0438832 -0.132498 0.0849849 -0.0937478 0.04332 -0.128214 0.0228239 0.037319 0.11597 0.108195 0.0248823 0.127369 -0.0474927 -0.0470783 0.0914118 0.0411769 0.0265522 0.0480461 0.0235087 -0.0150409 -0.0303376 -0.113109 0.164303 -0.0210919 -0.0977419 -0.115373 0.115432 -0.0630215 0.166629 0.132713 0.0346595 0.195318 0.049065 0.228274 0.164664 0.21698 0.240707 0.129639 0.119743 0.0185953 0.083531 -0.124113 -0.0546655 0.11553 0.0923539 0.129936 0.0488788 -0.00558381 0.0247144 -0.0135738 0.14012 0.0383245 0.143142 -0.0458917 -0.00897769 -0.0653539 -0.012523 0.133917 0.0277479 -0.0298704 0.0470012 0.15207 0.13469 -0.0362594 0.0189299 -0.130123 0.12782 0.0152629 -0.100261 -0.073853 0.133366 0.028193 -0.0462338 0.141034 -0.0870581 -0.0581544 0.196005 -0.116287 0.0235211 -0.0720393 -0.17928 0.11026 0.00668969 -0.0420665 0.0072432 0.00787514 -0.197206 -0.0456842 -0.0649771 0.0596822 0.086861 0.0703335 -0.0303072 0.0287059 0.0720377 0.0493275 -0.0488131 0.126915 -0.0529972 0.126208 -0.0972752 -0.0469746 -0.0502211 -0.0858187 0.0956806 -0.0382863 0.061986 0.0948371 -0.209619 0.0841848 0.127123 0.22925 -0.0539074 -0.224789 0.0467291 -0.0122504 0.0158262 -0.0281914 0.134689 -0.126959 0.0151396 0.203306 0.0779874 -0.0879126 -0.0389568 -0.105536 -0.0373173 0.0343175 0.0919227 -0.0210986 -0.0326369 0.0514803 0.0521418 0.0272672 0.226667 -0.0755928 -0.0390899 -0.0409284 0.104106 0.197824 -0.153343 0.0240183 0.0120279 0.0669795 0.228734 -0.171738 0.0746222 0.0368324 0.0698045 0.0184136 -0.0478189 0.239662 0.0915592 0.0738041 -0.111613 -0.125398 -0.0703608 -0.0717162 -0.00762483 -0.0777107 0.0590239 -0.0961321 0.16089 -0.077353 -0.173165 0.057736 -0.0561092 -0.0850233 0.165475 0.180473 0.0328729 0.0784965 0.00627007 -0.0423589 0.0451109 -0.019178 -0.114034 0.00965841 -0.194502 0.0147087 0.0343101 -0.139094 0.0366271 0.101718 0.0531114 -0.121541 0.238803 0.0885593 -0.0674957 0.178952 0.024281 0.0753851 -0.0409845 -0.00370431 -0.145999 -0.0669462 -0.0410056 -0.0768249 -0.0468214 0.220315 0.168288 0.0823156 -0.136497 -0.0611278 0.181213 -0.230689 0.102666 0.0676587 0.070752 -0.139653 0.0284463 -0.258662 -0.0171806 0.0310881 -0.124284 0.00294236 0.1501 -0.0305747 0.121646 -0.0170101 -0.187387 -0.0896321 -0.207416 0.0303257 -0.111847 0.0397232 -0.214295 -0.00929444 -0.0712731 -0.0835906 -0.123939 -0.321097 -0.0880513 -0.0398176 -0.0413906 0.129845 -0.100462 -0.00485325 -0.0756689 0.0400526 -0.0683943 -0.0270263 0.0101128 -0.199017 -0.0504798 -0.10434 -0.0257556 -0.0537401 0.0811718 0.0951042 0.0728352 0.0366035 0.0225529 -0.0821515 0.0384498 0.0915008 0.0708683 -0.101108 0.0162078 0.0804923 0.0795962 -0.0532373 0.0115367 0.0353573 -0.0100138 0.071397 0.0771433 -0.0183547 0.0350983 -0.084794 0.125224 0.0648837 0.0209127 -0.0265964 -0.159715 -0.0316191 -0.0487302 0.0451932 0.135967 0.0291599 0.0643591 0.155773 -0.0288989 0.0278214 0.0493473 -0.0568185 0.0218602 0.0138983 0.0780274 0.131562 -0.0842105 -0.00916249 0.114996 -0.00282828 0.0103404 -0.0602426 -0.145972 -0.0554603 0.0346167 0.0525058 0.186225 -0.0691848 0.0632582 -0.13447 -0.0558656 -0.0316016 -0.117125 -0.0801218 0.00160093 0.00706365 0.0389235 -0.0165478 0.0656115 0.0436591 -0.070649 0.111005 -0.00719516 -0.18587 -0.00465345 -0.139837 -0.0375168 -0.0208479 -0.0457191 -0.0780794 0.101118 -0.071043 -0.0833305 -0.0244468 -0.0334465 0.0215135 -0.0401382 -0.0259661 0.151432 0.104931 0.00512892 -0.131873 0.0241746 0.0200504 -0.0676145 -0.154331 -0.0642933 -0.0993155 -0.0791293 -0.221516 -0.0891085 0.14689 0.0126327 0.0730247 0.144938 -0.136055 -0.0704627 -0.00105196 -0.00354007 0.0497635 0.0173217 0.0196885 -0.118914 0.0301827 0.109047 0.0310645 0.183068 -0.0269613 -0.017567 -0.0022221 -0.130762 0.0659193 0.153713 -0.0569326 0.0362016 0.151518 -0.104999 -0.0656272 -0.028642 0.00274595 -0.108769 -0.146722 0.0932512 -0.0927501 0.0226653 0.0522087 -0.115069 0.0207079 0.015723 -0.0318978 -0.0532224 -0.169109 0.0747785 -0.0507601 -0.250354 -0.107023 -0.0564229 -0.10279 -0.0200821 0.0317879 -0.121041 -0.0459605 -0.057118 -0.0408179 -0.0248461 -0.133763 -0.0980661 0.0816225 0.141726 0.14471 -0.0194108 0.218331 0.0302658 -0.0782964 0.053294 -0.0823511 0.100718 -0.05382 0.0912543 0.0447563 -0.0683328 -0.0255754 -0.0285006 -0.0416908 -0.0465559 -0.0974197 0.0171517 0.0484585 -0.067216 -0.096364 0.0838695 -0.0944429 0.0304381 0.0571168 -0.114403 -0.0999371 0.103287 -0.122937 0.0129036 -0.0600698 -0.135192 -0.0202049 0.0155479 0.0761914 -0.105688 0.136444 -0.0187962 -0.0610854 0.0354455 0.141845 -0.210269 0.0683108 0.131407 -0.0457167 0.0259268 -0.0175099 0.098793 -0.0175523 0.00879884 0.0924786 -0.0793062 -0.0471076 -0.10069 0.124432 0.0121191 0.102722 -0.0138984 -0.0307119 -0.112134 0.0125995 0.0105581 -0.0412709 0.0213388 -0.158744 -0.226559 0.0327799 -0.073582 0.301082 0.0213465 0.0115203 -0.118833 0.0159683 0.113269 -0.128116 -0.0505278 -0.0790947 -0.290103 -0.169384 0.00721798 0.043924 0.0752227 0.0427129 0.190527 0.135405 0.0221166 0.0308067 -0.0810702 0.0852246 0.0665838 -0.0794753 0.0247112 0.0013314 0.0186739 -0.00296526 0.123217 0.224486 0.0328892 0.0389508 0.0538887 -0.0760162 0.015379 0.0268757 -0.102922 0.0810661 -0.135822 -0.0190837 -0.0218661 0.121053 0.0844654 0.0452085 0.0496807 -0.113021 -0.0412777 0.091906 0.0514392 0.130408 -0.00984991 -0.0552683 -0.166347 0.0817256 -0.0109353 0.0586191 0.0894384 0.0869725 0.103688 0.0708509 -0.172826 0.0943808 -0.100504 -0.130144 -0.0194609 0.0306019 0.0130159 0.154756 -0.0209301 -0.0741542 0.168937 -0.0796885 -0.0458173 0.0761648 -0.180637 0.0905652 0.11905 -0.0858752 0.0460486 -0.0618848 -0.106083 0.0456865 -0.0544273 -0.0842427 0.0540386 -0.0839379 -0.0124826 0.00561557 -0.053995 -0.0168139 0.0820579 -0.0353945 -0.0194926 0.0496741 -0.108998 -0.0741445 -0.0027702 0.00337973 -0.0318712 -0.0306747 0.0723191 -0.0829961 0.0203909 -0.0415349 0.144851 -0.12269 0.0192412 -0.119293 -0.0231503 0.0989541 -0.0442097 -0.0393508 -0.0295655 0.069582 0.138856 0.0351469 -0.142365 -0.127883 -0.059858 0.0236153 0.0231659 0.0973007 -0.161817 -0.153126 0.0991593 -0.103382 0.147493 -0.0281262 0.0986021 0.0339874 -0.0806071 0.0541906 0.107896 -0.0255115 0.123024 0.152641 0.00566397 0.0304649 0.00996993 0.0477319 0.0897861 -0.0538659 -0.140772 0.0999612 0.0363442 -0.147218 0.0122758 -0.0385894 -0.0549075 0.0901828 -0.0453133 0.171829 0.147795 0.160756 0.036309 -0.0436785 -0.0339282 -0.0810795 0.154998 0.0466298 0.105228 -0.111968 -0.0183972 -0.0203477 -0.080389 -0.113135 -0.0103452 -0.170482 0.0598427 -0.054508 -0.0883933 -0.0554932 0.106028 0.246767 -0.0142767 0.0333579 -0.00254441 0.0505605 -0.155873 0.0347578 0.0365897 0.0815655 -0.117861 -0.0436254 0.00302652 -0.0794663 -0.145362 -0.08365 -0.0900411 0.0392238 -0.0117709 -0.0132339 -0.0966826 -0.000420103 -0.214234 -0.0943231 -0.0278267 0.150842 -0.0564259 -0.0400538 0.0821799 -0.0587251 0.0241483 -0.144475 0.13317 -0.00977935 0.0181805 0.15569 0.0170147 0.0605876 -0.0869183 -0.0516708 -0.0403368 -0.172832 0.011408 -0.00865756 0.0338691 -0.0973037 -0.165334 0.0934418 -0.114269 -0.122447 0.0125531 0.258725 -0.0312091 -0.0295947 -0.152177 -0.125798 -0.0419428 -0.0912995 -0.141795 0.017712 -0.0455039 -0.0641635 -0.0611014 0.0235907 0.0651293 0.0815287 0.00663188 -0.000507149 -0.227825 0.0393448 -0.0357438 0.102566 0.0713546 0.0517708 -0.15568 -0.104012 0.156738 -0.0078473 -0.0548351 -0.1013 -0.0169024 -0.127723 -0.15916 -0.166884 0.104019 0.014947 -0.0940551 -0.157251 -0.0760943 -0.0285124 0.0097004 0.0535664 0.178042 0.0198704 -0.0517631 -0.000432798 0.196318 0.0132516 -0.0788034 0.110962 -0.0810069 -0.0224567 -0.0572722 0.157736 0.0773461 -0.00669108 0.0970073 0.043485 -0.0210385 -0.0600347 0.155259 -0.1419 0.089815 -0.00632805 -0.0602956 0.105713 0.0263485 -0.0544692 -0.0469791 -0.0400591 0.0989448 -0.134932 -0.108637 -0.0454579 0.137418 -0.134112 -0.143805 0.0284069 0.0156178 -0.170415 -0.0289301 -0.00509405 -0.109525 -0.133998 0.083613 0.195817 0.028819 0.128582 0.108471 0.0384829 0.011843 -0.0688896 -0.2703 -0.162626 0.0026242 0.106234 -0.0513758 0.17038 -0.0305614 0.0683955 -0.103151 -0.00710045 0.107749 -0.036452 -0.0882064 -0.0156136 0.0279179 -0.0322874 -0.096912 -0.0158602 -0.101748 0.0711684 -0.144541 -0.0048015 0.0128887 -0.0754949 0.00167863 0.0476519 -0.0814855 -0.0172749 0.00974155 0.0219737 -0.0465161 -0.044343 0.0602273 -0.0118766 0.0208574 -0.107547 -0.105525 -0.0507643 -0.130085 -0.0469637 -0.0322228 0.0935662 -0.118844 0.0514756 -0.0245692 -0.0716383 0.0931885 0.0775332 0.0330441 -0.0565171 -0.0808846 -0.00778324 -0.00489002 0.243755 -0.155503 -0.0654458 0.0896699 0.0237446 0.0354072 -0.0324972 0.0135594 0.0664837 0.0817853 0.0312336 0.153628 0.143225 0.161319 -0.00333652 -0.0530997 -0.0710184 -0.0050504 -0.100329 -0.0990953 -0.0753261 -0.0729926 0.088466 0.0499802 -0.140875 -0.0415322 -0.0905308 -0.0357294 0.0321334 0.0797931 -0.00548443 -0.0311999 0.124047 0.0423269 0.086412 -0.0118673 -0.0188995 0.0586273 0.125654 0.0483316 -0.0276116 0.0215767 -0.0971734 0.0529552 -0.0300652 -0.074547 0.149002 -0.0297536 0.0574568 -0.0196863 0.140875 0.0120446 -0.0196842 -0.125063 0.16552 0.0836222 0.188017 -0.00567979 0.101 -0.102923 0.0378764 -0.0419847 0.0944283 -0.125503 -0.287821 -0.00865554 -0.0859878 0.0463602 -0.00955521 0.0767271 -0.0563874 -0.114318 -0.280396 -0.0588547 -0.11583 0.0466855 -0.0867233 -0.0332648 -0.169116 0.0143714 -0.15104 -0.0840273 -0.0698345 0.0162939 0.118351 -0.136639 0.0892359 -0.0328592 0.129583 0.026434 0.0151184 0.0777991 0.179041 0.0625121 0.101442 -0.0403113 -0.05603 0.0969194 -0.15415 -0.0752839 0.0998895 0.0257633 -0.0599477 0.00526683 0.0584974 -0.0267582 0.322136 -0.00282094 0.166283 -0.0462872 0.0613259 -0.0158034 0.0944493 -0.108618 0.0321984 -0.131887 -0.0297614 -0.0340263 -0.0557617 -0.088749 -0.00991474 -0.0696162 0.0283799 0.016699 0.0801752 0.0674265 0.0420562 -0.0067441 -0.0615696 -0.110752 0.0547258 -0.146206 -0.125428 0.12895 0.0467686 0.0864312 0.0814787 0.0930123 0.0203516 -0.0106651 -0.0118449 0.150315 -0.0216103 -0.0892423 0.0586841 0.117184 0.070966 -0.0478049 -0.0984638 0.168374 0.0888691 -0.00575086 0.122064 0.018603 -0.032252 -0.0813875 0.0458683 0.0365725 -0.128106 0.0525443 0.125269 0.21267 0.138041 -0.048301 -0.125128 0.00584971 0.168452 -0.0943607 -0.0222797 -0.0375648 -0.00797533 -0.0458681 -0.0973103 0.0287076 0.0802248 -0.0247686 0.0737267 -0.0503474 0.0358061 -0.0636406 -0.0871413 -0.0597803 -0.026268 0.0454012 0.121754 0.12111 0.0614359 0.0670699 0.19822 -0.00357768 -0.0333564 0.03816 0.0506145 -0.0410832 0.125872 -0.0927763 0.0111429 0.0547376 0.0255836 0.0219776 0.0700218 -0.0539856 -0.0181693 -0.154679 -0.1023 0.0032523 0.0374288 -0.127243 0.0888897 -0.137129 -0.0843206 -0.00156541 0.158394 -0.0515121 0.0559609 -0.100342 0.039489 0.0734315 -0.0979967 -0.0494202 0.0630447 -0.160943 -0.026658 -0.0158436 0.0695796 0.031531 -0.0769649 0.134639 -0.0110648 -0.0140101 0.108349 0.0557768 0.121579 0.0892887 0.121055 0.0608183 0.00574574 0.202267 -0.178607 0.0359805 -0.128458 0.0602707 0.0604737 -0.0123336 0.0801976 -0.0360697 0.140846 0.0568645 0.15946 -0.157607 -0.0234793 0.0742793 -0.0327355 0.00725627 -0.00687445 -0.126335 -0.172278 -0.0112708 0.0808302 0.0593672 -0.0324766 -0.0908844 0.0317161 -0.051725 0.175302 0.162351 -0.0128994 -0.0734194 -0.00154751 -0.0805123 0.0715515 0.128786 0.0241682 -0.0295645 0.134193 0.00842872 0.0552616 -0.127537 -0.00944862 0.0202925 -0.014265 0.00450345 -0.00173203 -0.0663085 -0.0613456 0.0649442 -0.14117 0.0349972 0.109703 0.149686 0.110507 -0.0500326 -0.0581454 -0.0989491 0.0964174 0.0108297 -0.0307692 -0.0780398 -0.131001 0.013191 -0.0731144 -0.0509282 0.0540732 -0.103069 -0.0331275 -0.0173365 0.0608251 0.0711701 -0.13831 -0.179966 -0.0634507 -0.0128089 -0.209829 -0.0344544 0.0226092 -0.0376055 -0.13395 0.0229307 -0.113451 -0.0461709 0.0601688 -0.0439079 0.0651933 0.166046 -0.120531 -0.194794 -0.123952 0.129846 -0.0528726 0.136271 0.149895 -0.151771 0.0300978 0.117 -0.113354 0.0699806 -0.0515918 -0.0978956 0.0251938 -0.017369 0.00697408 0.0830537 0.0111728 -0.0328786 0.0520885 0.102023 0.00324299 0.000771543 0.0169299 0.120606 0.154908 -0.181031 0.175101 -0.158306 0.0451018 -0.0707023 -0.0895624 -0.00190942 0.0348989 -0.048459 -0.0282474 0.0175231 0.00891198 0.0505197 -0.0404753 -0.00744657 0.0894786 -0.0492925 -0.0647464 0.0369334 0.0901 -0.108948 -0.00390391 0.0695376 -0.0511337 -0.0852465 0.0941089 -0.0125123 -0.0351868 -0.0304715 0.00116206 0.0862377 -0.101405 0.0464504 0.083301 -0.089505 0.0176489 -0.0465937 0.0224486 0.0521617 -0.0249605 0.0208425 0.0121213 -0.0245691 0.0511841 -0.0202463 -0.205384 -0.067497 0.0274521 -0.00529543 -0.0513388 -0.095227 0.14577 -0.121799 -0.0703358 0.0537324 0.0369145 -0.0392529 -0.0224321 0.0317746 0.00982521 -0.0243294 -0.190201 -0.0706537 0.0456803 -0.0900968 0.158322 0.0918386 -0.0853556 0.0094059 -0.119041 -0.151083 0.133228 -0.0657738 -0.0100664 -0.0407618 -0.0633876 0.0133841 0.0380695 -0.0654478 0.0395848 0.0296511 0.0477199 0.0521576 -0.0309577 -0.130736 0.117695 0.0658107 -0.129993 -0.0975671 0.0506174 -0.10009 -0.0278101 -0.0200682 -0.0996364 -0.18823 0.184329 -0.0289803 -0.145253 0.0800493 -0.0871531 -0.149338 0.233726 0.118131 0.09844 0.0741624 0.00592637 -0.0191951 0.0191187 0.100556 0.0381673 0.0313596 -0.099847 -0.155163 0.017262 -0.0219856 -0.0408979 -0.0910776 0.0943793 0.0261325 -0.0364021 -0.0900172 0.00862056 -0.0869144 -0.0665279 0.0301516 0.0288103 0.0774647 0.0475533 -0.275997 -0.21981 0.153882 -0.00210801 -0.0500306 0.0810561 -0.0211363 0.158021 0.0851342 0.062121 -0.089694 0.0318209 -0.0348036 0.080628 0.02035 -0.0720798 -0.14149 -0.087546 -0.10164 0.0551526 -0.0317215 0.0784359 0.132403 0.00512397 -0.14463 0.151634 0.0582276 -0.109124 0.025665 -0.0615092 0.116891 0.0374719 0.0558066 -0.0298375 -0.0653726 -0.181653 -0.0925871 0.044605 0.0175268 -0.167123 -0.0790902 0.0420082 -0.136954 -0.0621363 0.0396376 0.0319765 -0.0461076 0.0397414 0.0240047 0.129998 -0.0345385 0.109457 0.0869625 -0.0111767 -0.0753807 -0.0642329 -0.0107775 0.0546535 0.0310971 0.00776143 -0.104225 -0.0169855 -0.0240488 -0.0983787 0.0243957 -0.0381565 0.11706 -0.173261 -0.0655641 0.054452 0.0587794 0.0419857 -0.148904 0.105444 0.140548 0.0234204 -0.147178 0.00290937 0.112347 0.182581 0.0178761 -0.037081 -0.0312544 -0.0763797 -0.0146422 0.0668792 -0.0881766 -0.132759 -0.0507119 0.0271457 0.00488659 -0.0933941 0.0676486 -0.121368 0.0535265 0.00120333 -0.0573922 -0.127632 -0.0534253 0.00723258 0.088954 0.185647 0.206715 -0.242684 -0.0498543 -0.0184641 -0.0661436 0.119862 -0.0484386 0.0462805 0.00286896 -0.0835105 -0.036573 -0.00193134 0.00181601 0.181798 -0.107958 -0.224332 0.0392537 0.154271 0.0378047 -0.139206 -0.0912328 0.0234354 0.0730822 -0.0986686 0.109486 -0.166981 -0.0928818 -0.0266556 0.064495 0.00120842 -0.00098726 -0.117662 0.0105422 0.00848711 0.0631728 0.0511597 -0.104112 0.146197 0.0149815 0.0693103 -0.0484293 0.118328 0.102518 -0.0249542 -0.158609 -0.0086165 -0.116156 0.153268 -0.0324121 -0.258854 0.0131453 0.234632 -0.037475 -0.203078 -0.0792699 -0.211894 0.0924872 -0.00716972 0.0727932 -0.0143718 0.0918661 0.0218392 0.02612 0.0107098 -0.0477777 0.0684945 0.140515 -0.0812325 -0.0560399 0.0523755 -0.0387667 -0.0402723 -0.0595472 0.0752191 0.0597098 -0.000549665 0.0247314 -0.233463 -0.10459 0.175732 0.141532 -0.0734041 0.00945754 -0.113158 0.0410616 -0.0591874 -0.0339221 -0.0191473 0.0366636 0.102755 -0.137508 -0.120325 0.24802 0.213736 -0.00624638 -0.0580175 -0.0506696 0.109755 -0.0828454 -0.089574 0.016522 0.0268686 0.085801 0.0201195 -0.09206 0.0542091 0.115132 0.100639 0.0452231 -0.108093 -0.258006 0.123196 -0.0447944 0.176843 0.114487 -0.00081386 0.00286123 0.12181 -0.00419714 0.0404483 0.0619157 0.039227 0.194559 0.0316189 0.0013055 -0.041499 0.00713733 -0.0331153 -0.0962154 0.0661957 0.0420527 -0.0145191 0.00216934 -0.0992336 -0.122059 -0.0613021 0.191911 -0.0656789 0.0930754 -0.0417034 0.191025 -0.0494457 0.0886363 -0.0502833 0.055721 0.0955496 0.0875341 -0.126578 -0.0774383 0.164833 0.0170359 0.0824705 0.0081688 -0.0547073 0.0490945 0.0170972 0.0779798 -0.00687915 0.039864 -0.236396 -0.0672756 0.0670722 0.0078512 -0.00898864 -0.0216143 -0.115356 -0.105696 0.0883537 -0.00368379 -0.155096 0.026363 -0.0975693 0.0686699 -0.0255949 -0.0305006 -0.0414631 -0.100446 -0.0115947 -0.161778 -0.000902479 0.0736795 -0.0452843 -0.0263967 -0.0052609 -0.0100714 0.0629684 0.0383175 0.0479198 0.109993 0.0400897 0.0468123 0.0854972 0.0845359 0.068786 -0.0539334 0.0710567 -0.0664438 -0.117129 -0.138851 -0.0106912 0.105749 -0.0455149 -0.0424079 -0.0294968 0.05463 0.00824948 -0.16762 0.0876266 0.0803382 -0.0872058 0.0353883 0.140946 -0.0201645 -0.152494 0.084828 -0.0314814 -0.149202 -0.0636554 -0.0645415 -0.0751907 0.019304 0.00870768 -0.0941087 0.0521933 -0.0295145 -0.0629356 -0.02652 0.0577637 -0.0245949 0.0212063 0.0824978 -0.0664649 -0.0327291 -0.0773994 0.162883 0.126892 -0.0926504 -0.014634 -0.0650623 0.0267621 -0.0685729 -0.138962 -0.0168464 -0.186685 -0.124459 -0.0284989 -0.096472 -0.14772 0.138422 -0.0376111 -0.0624947 -0.13565 0.119561 -0.0856763 -0.0408184 0.0128411 0.0113911 0.0784135 -0.040916 0.0405667 0.0448235 -0.00114852 -0.0291951 -0.140097 0.0398728 0.130175 0.030697 -0.0358677 -0.04498 0.0594061 0.0424266 0.0535896 -0.0255217 -0.00727993 0.0631466 0.0311934 0.0929739 0.0112292 0.079631 0.0672791 0.0325775 0.047419 0.0445317 -0.0269711 0.104298 -0.0395656 0.0373363 0.0833305 -0.0806502 0.00429644 -0.000145137 -0.0220964 -0.0863501 -0.046372 -0.0371231 -0.0443969 0.137393 0.0145148 0.0755759 0.0483289 0.108232 0.0659745 0.0676155 -0.118996 0.114395 0.00945643 0.0969841 -0.084047 -0.0729033 0.0893954 -0.0233166 0.0763676 0.0493349 0.0609553 0.0030357 -0.0448582 -0.0664085 -0.0552358 0.0306981 -0.0157042 0.135042 -0.0462275 0.104877 0.00435356 -0.0264565 -0.0304648 -0.0826952 -0.00529685 -0.0247818 0.0873544 0.135137 -0.0249787 -0.0767936 -0.0384053 -0.0888044 0.0252872 0.0608326 -0.0852458 -0.270382 0.00982121 -0.047873 0.0629945 0.0498409 -0.0659236 0.0437933 -0.0957382 -0.0228205 -0.0952045 0.0482138 0.0361418 0.0726983 -0.118637 0.0120975 -0.105629 -0.0421048 -0.0308574 0.0423826 0.0247671 -0.064056 0.159626 -0.167716 0.0466595 0.016266 0.223875 -0.119298 0.0181872 -0.111952 -0.136397 -0.237404 -0.0117933 0.0152155 -0.0761268 0.110548 0.173458 -0.0860617 -0.096687 -0.0513415 0.0500503 -0.05036 -0.132022 0.0485187 -0.0885588 -0.0365832 0.115256 -0.0221448 -0.0227804 0.0747048 -0.0106482 -0.0255522 0.0416598 -0.073748 0.0361856 0.113672 0.0561552 0.0607838 0.127516 0.0207291 -0.0378712 -0.0725745 -0.22843 0.0211968 -0.0896793 -0.0363872 -0.141062 -0.0116494 0.146717 -0.0273944 0.0122865 -0.00111903 0.0204411 -0.092022 0.00383321 0.0233633 0.0819818 -0.0441249 0.0465538 0.111442 -0.120047 -0.0272853 -0.0302866 -0.115536 0.136947 -0.0379637 -0.0424589 0.0614847 0.059008 0.147956 -0.106378 -0.0174475 -0.098465 -0.0171653 0.134631 0.0357985 0.0186161 -0.19708 0.00103319 0.0215968 -0.0695693 -0.076024 -0.209946 -0.0160736 -0.0319842 -0.20591 -0.0533631 -0.0118531 0.0423655 0.114468 0.0152353 -0.0903637 -0.137377 0.154438 -0.0822802 -0.0965781 -0.087668 0.0035729 0.122421 0.0559821 0.145047 0.191053 0.156589 0.0734003 0.117261 0.0643539 -0.107983 -0.0325064 0.0429289 -0.00515441 -0.0490597 -0.0541585 -0.0414978 0.128249 -0.0581882 0.149549 0.0458919 -0.144178 0.00726977 0.0552748 0.169726 -0.0588548 -0.0245666 -0.0870762 0.102445 -0.00400666 0.0320419 -0.116317 -0.0373696 0.0659721 0.144711 -0.0382108 -0.139553 -0.10562 -0.164796 -0.161444 0.0162976 0.0626987 0.0371585 -0.0532938 -0.0985619 -0.0586789 0.0349839 0.321307 0.0850307 -0.0322867 0.172391 0.0564797 -0.0740961 -0.0318428 -0.138603 0.123743 -0.0310225 0.00134638 0.0188968 0.0270782 -0.126308 -0.000958292 -0.0737239 -0.0638975 -0.0407243 0.0557752 -0.0620934 0.0703883 0.114002 0.039915 -0.0111578 0.00516828 -0.0238278 -0.00940402 0.0744602 0.125347 -0.18885 -0.016536 -0.019359 -0.065853 -0.0337627 -0.127779 -0.00304678 -0.164256 -0.150616 0.0477777 0.0995566 -0.125664 0.0391636 -0.0583905 -0.131895 -0.0461085 -0.116115 -0.0512556 0.187167 0.296163 -0.0307245 -0.0227624 0.0388519 -0.0561518 0.0066867 0.113705 -0.0478678 -0.0812861 -0.0113813 0.0418052 0.052418 -0.0377062 0.0745486 -0.0046821 -0.0696024 -0.0441411 0.0856293 -0.144768 0.00923475 0.0115652 -0.0386373 -0.153669 0.108844 0.0241494 0.0808871 -0.0851881 0.0445846 -0.00684554 -0.0835156 -0.0604457 0.045071 0.0376722 -0.120611 0.0597186 0.00254113 0.0400416 -0.0997333 -0.0419279 0.132907 -0.0594404 0.0970482 0.12707 -0.103831 0.0609176 0.0587788 0.100361 -0.138039 0.0482118 0.0198198 0.2548 -0.000839465 0.0675838 -0.18912 -0.0867509 0.0468559 -0.0350504 0.0509425 -0.0115488 -0.0242592 0.0537908 -0.158662 0.164632 -0.149443 -0.0125104 -0.0286972 -0.0949713 0.118683 -0.153346 -0.0210196 -0.166873 -0.0491835 0.0629516 0.0799725 0.0473441 -0.133871 -0.055296 -0.0545564 4.77437e-05 -0.00917832 -0.164997 -0.0607511 0.0576988 0.0222889 0.160186 0.0603912 0.0206588 -0.0115517 0.0553519 -0.0121147 0.0128673 -0.0412005 0.0105155 0.0544799 0.140063 -0.0423146 -0.0153578 -0.10373 0.101221 -0.0507565 -0.106378 -0.0583656 -0.0130797 -0.028135 -0.0820304 -0.108056 -0.104516 -0.113168 0.0768642 -0.100384 0.0573122 0.000106557 0.0144706 -0.0234239 -0.133445 0.0516197 -0.123704 -0.00733589 -0.0179633 0.0312104 0.0736148 -0.0156513 -0.021497 0.0119667 0.135791 -0.105698 0.0490412 -0.00622602 0.0712792 0.179033 0.0337811 0.143449 0.108818 -0.113033 -0.054827 -0.00613679 -0.00273477 0.0392209 0.0338219 -0.0797341 -0.0376945 -0.144824 -0.00845999 -0.123604 0.00315215 -0.222132 -0.0396099 0.092886 -0.266912 0.0328145 0.0768463 0.0670272 -0.063523 0.131924 0.0461801 -0.0895221 -0.136841 -0.0531207 -0.172885 0.104227 0.020331 0.198087 -0.0613861 0.0327763 0.0129689 -0.0725746 -0.0397418 0.0460553 -0.118627 0.0197338 0.0326261 -0.0983074 -0.166289 0.0306933 -0.041141 0.000133753 0.0631505 0.0307744 -0.0757632 -0.240179 -0.0787412 0.0177174 -0.0327988 0.0680121 0.212642 0.298024 0.025181 -0.0170828 0.0963277 -0.0309787 -0.0410528 -0.09633 -0.0872074 -0.101368 0.0224167 -0.0536111 -0.0140616 -0.0426366 0.0220406 0.0464483 -0.0994581 -0.0240826 -0.0154855 0.100004 0.015364 0.0479326 -0.197084 0.123552 -0.0974734 -0.0444476 0.0819673 0.0844411 0.0318905 0.0392334 0.0664553 0.196059 -0.226371 0.0646965 -0.324988 0.111177 0.0797022 -0.113042 0.0196203 -0.00541752 0.0504196 0.00417913 -0.0636313 -0.029134 -0.0559003 -0.134426 -0.129663 -0.141886 -0.118583 0.0659659 0.0949925 -0.00319825 -0.03852 -0.0776894 0.0123907 -0.000216504 -0.125254 0.0548736 -0.0226496 -0.0674275 0.000297853 -0.0775927 0.0238885 -0.00187722 -0.141605 0.107447 0.140718 -0.0889689 0.0324464 -0.04628 0.122901 -0.0130777 0.0789875 -0.0456647 0.0196554 0.0563772 0.0901443 -0.0578193 -0.0794051 -0.0503488 -0.0306835 -0.0848197 0.0705601 0.0949727 0.0403177 0.0418306 -0.141755 0.013687 -0.0431065 -0.0465194 0.0498693 0.00184646 0.0191377 0.018288 -0.131804 0.0174125 0.0295488 0.0799567 0.207529 -0.0102569 -0.0383011 0.096162 -0.0492595 -0.140434 -0.050047 0.033957 0.0880571 -0.108088 0.040418 0.168817 -0.0342739 -0.148803 -0.0412425 -0.178419 -0.104438 0.0415226 0.0321992 -0.100027 -0.110893 -0.0185634 0.0163692 0.180446 0.0140873 -0.0165898 0.0465802 0.0207831 -0.033272 0.0140366 -0.236718 0.0162902 0.0810926 0.0842966 0.112249 0.012354 0.0508308 -0.0482801 -0.0739074 -0.0330402 0.203721 0.00228015 -0.0767276 0.0640701 0.0280157 0.170356 0.0379034 -0.0105474 0.182715 -0.0309281 -0.0280936 -0.132753 0.133789 -0.0987569 -0.0105904 -0.0173695 0.0540308 -0.0204483 -0.157004 -0.0679097 -0.114906 0.0359656 0.0679127 -0.0565314 0.0163154 -0.153859 -0.0151625 -0.0899757 0.0548504 0.178041 0.150735 -0.157414 -0.323728 0.0782974 -0.0810847 0.0284699 -0.105682 0.0906766 -0.180146 -0.0933691 -0.0667898 -0.118346 -0.0381641 -0.179845 -0.00399425 -0.0608969 -0.0290622 0.0594869 -0.0458403 0.032243 0.0264949 -0.197339 0.0995118 -0.164744 0.000546966 -0.0643303 -0.117618 0.0258964 -0.118922 -0.0519843 -0.0894826 0.0661802 0.127794 -0.158983 -0.0678396 -0.183555 0.269893 -0.0586463 -0.163343 -0.0687433 0.06928 -0.00324085 -0.101625 -0.0170197 0.0917412 -0.0922842 0.0442204 -0.0331294 0.134766 -0.129765 -0.037938 -0.11312 -0.172485 0.196018 0.165351 -0.058672 0.00191585 0.0778249 -0.204993 -0.0777466 0.113766 -0.147603 0.0455297 0.0357642 0.00872133 0.188582 -0.190802 0.0178216 -0.179259 -0.10957 0.111459 0.000820038 -0.049986 0.111605 -0.199441 -0.130661 -0.0446846 0.0132082 -0.170417 -0.0098603 -5.5032e-05 0.185929 -0.178676 -0.160078 -0.0860909 -0.0711448 0.0956996 0.034102 0.0158986 0.0625597 0.122869 -0.0111017 0.0812653 0.172317 -0.0785601 -0.143817 0.0994522 -0.090822 -0.0590689 0.0143989 -0.0327306 -0.0278456 0.127284 -0.0129354 -0.0902397 0.116393 -0.078475 0.0704536 -0.0614405 -0.00543532 -0.120394 0.0342793 -0.0851638 -0.0458459 0.0834406 0.0222864 0.122287 0.0690236 0.0117703 0.0562921 -0.0169631 0.269398 -0.0811875 -0.0207198 0.00424441 -0.00319085 -0.0336644 -0.0566 -0.170615 -0.0659212 0.0699517 -0.092542 -0.127284 0.014346 0.00939545 -0.0567829 0.123737 -0.100512 -0.0518013 -0.0305122 0.0982149 0.019918 -0.00806192 0.0303831 -0.0361845 -0.222474 0.111312 -0.0703372 0.0187171 -0.246344 -0.114731 -0.0535691 0.0301199 0.00739446 0.0970773 -0.00141477 -0.137437 -0.00244856 -0.090305 -0.0417609 -0.203037 -0.162082 -0.0794424 0.0878297 -0.102341 0.088226 0.11285 0.0942574 0.0221286 -0.0873508 -0.0174619 0.00621646 -0.0694135 -0.0171454 -0.217797 0.0210597 -0.0852401 -0.120792 0.0237647 0.136757 0.0750598 0.15119 -0.102465 -0.0381938 -0.00889031 0.0234544 0.092126 -0.0100865 -0.031218 0.118151 0.0457094 0.0637506 -0.0742992 0.0847427 0.00994347 -0.0242366 -0.140452 -0.0511391 -0.149638 -0.072665 -0.0337042 0.0416518 -0.0328705 0.133891 0.0381194 0.0730313 -0.00457247 -0.174911 -0.00971846 0.0429279 -0.11198 -0.12232 0.126451 -0.070614 0.114083 -0.162838 -0.0407682 0.0447901 0.0928448 0.00233061 -0.00504097 -0.054735 0.0403092 0.0423595 -0.0405329 0.147252 0.159563 0.00192293 -0.0234766 -0.0244175 -0.0836736 0.120518 0.0328318 -0.0349895 -0.15838 -0.00297197 -0.110236 -0.0383798 0.0222385 -0.0141666 -0.0939411 0.151043 0.0301741 0.0264973 -0.172085 -0.109832 0.00377431 -0.100803 -0.159574 -0.0838953 -0.124689 0.0146845 -0.183282 -0.288706 -0.00542552 -0.0782476 -0.0404298 -0.140084 -0.15281 0.045838 -0.0425994 0.0536229 -0.0463057 -0.042583 -0.106424 0.00968416 -0.012248 0.106499 0.0634072 -0.0967841 0.0406526 -0.125836 -0.0478075 0.170961 -0.0356063 0.0309929 -0.00604664 -0.130505 -0.0574805 0.0265289 -0.0568331 0.00406594 -0.116329 -0.0175866 0.120384 0.0124992 0.0186701 0.0662633 0.170183 0.0369614 -0.141466 -0.052769 0.126043 0.185215 0.0696627 0.149863 -0.13007 -0.0379554 -0.080903 0.119752 0.0287007 0.0457932 0.048474 0.186308 0.224239 -0.00279656 -0.0590977 0.029799 -0.0313629 -0.079528 -0.0934043 0.0402876 -0.0147506 0.042557 0.11156 0.0830639 0.126718 0.061979 0.09281 0.105731 -0.139916 -0.0601026 -0.0387936 0.05704 -0.0272898 0.0586223 -0.187862 -0.130846 -0.0399747 0.0687555 -0.0158365 0.0531321 -0.115381 0.0600515 0.0535115 -0.0492427 -0.11481 0.0397949 -0.0398651 -0.0951283 0.103294 0.239701 -0.0360363 -0.0730081 -0.128706 -0.147841 -0.182007 -0.0640439 -0.0188174 0.0658315 -0.0310148 -0.175163 0.0380993 0.0961155 -0.0385471 -0.137842 -0.131724 -0.0430156 -0.0712989 -0.145402 0.139949 0.102669 0.0689116 -0.0289832 -0.0473156 0.0913817 -0.0198745 -0.160273 -0.0159699 -0.0403232 0.0588728 -0.0598328 -0.0196096 0.000419307 -0.0461333 -0.0875861 0.146406 0.0883189 -0.0316298 0.102761 -0.0938803 -0.0445682 0.0959953 0.049824 -0.07127 -0.142894 0.0175749 0.0124897 -0.0644156 0.233278 -0.144572 -0.180531 -0.024878 -0.191129 -0.0965705 -0.16926 0.0855495 0.0792231 0.00444021 0.0654305 0.00661595 0.0149125 -0.0977647 0.0694541 0.0969954 0.03374 0.0465296 -0.0420418 0.0465318 -0.129701 -0.153453 -0.00294785 0.0741667 -0.0980509 0.0263832 -0.0827082 -0.0861171 -0.127707 -0.12718 0.0176159 -0.0611464 0.0189312 0.0388351 0.0387133 0.0319865 0.0396706 0.114878 -0.00215802 -0.0683996 -0.0515004 0.0267878 0.0366872 0.0212273 -0.174521 -0.21753 0.0783692 0.098153 0.0438706 -0.00555748 -0.0575953 0.0108567 0.077042 -0.00519198 -0.0990971 0.0175465 -0.0523734 -0.143575 -0.0383134 -0.184469 0.00912932 -0.251423 0.0302615 0.0469285 0.103366 -0.043286 -0.0475219 -0.0343275 0.0571294 -0.0360615 -0.0145905 0.109396 -0.0597089 -0.090543 0.0500245 -0.0155826 -0.0974436 0.050491 0.0330773 0.0776039 0.03784 0.0371751 -0.0226149 -0.134214 -0.147194 -0.0953042 -0.00113415 -0.141417 -0.0308944 -0.160243 -0.0649544 0.160303 0.0267952 -0.0318032 -0.0937597 -0.0827344 -0.0100522 0.0722103 0.0526302 -0.0256826 0.166916 -0.0767511 -0.0968247 -0.113458 -0.111009 -0.0512473 0.204234 -0.127494 0.0318342 0.0716633 0.149383 0.0392901 0.153488 0.0339929 0.0511258 -0.0914492 -0.187083 0.159869 0.0315971 -0.0305699 -0.134603 0.0454422 -0.106173 0.00530472 0.0411713 0.222466 0.045821 0.203639 0.0781925 0.0846861 0.129649 0.0491503 -0.00483806 0.0207179 0.0217348 -0.131746 -0.255194 -0.0801036 0.0356646 -0.0961701 -0.136515 -0.0365911 0.103423 -0.135979 0.0381031 0.12274 0.0165985 0.0397923 -0.0675011 -0.0144545 0.0124333 0.104508 0.240967 0.112511 0.0218987 -0.128938 0.00953651 0.0165357 -0.00953933 0.107323 0.00329081 -0.12306 -0.0431898 0.119069 0.0965109 -0.0196618 -0.212553 0.0621049 0.0664116 -0.191697 -0.202258 -0.0843855 -0.0508484 0.0266131 -0.154231 0.0277628 0.00295565 -0.0767701 0.0450546 0.0353902 0.038217 0.0680764 0.0656359 0.00771257 -0.057753 0.0323413 0.0264919 0.0981262 0.0368151 -0.158876 0.0971831 0.0874102 0.0433733 0.0499065 0.0374145 -0.187317 0.0942566 -0.0350456 0.0485819 -0.0082739 -0.105467 0.165571 -0.0667196 0.129271 0.110589 -0.0948123 0.0795342 -0.132998 -0.131269 -0.171767 0.136548 -0.0696611 0.125399 -0.0309427 0.0385846 0.0560734 0.124823 -0.134875 -0.116502 -0.0277049 -0.0345137 -0.119884 0.00674743 0.0289046 0.0883581 -0.135984 -0.0273826 0.124943 -0.00321422 -0.000727972 -0.0748713 -0.102155 0.0627868 0.119713 -0.0889628 0.0142687 -0.163306 -0.0439447 -0.0400836 0.0479369 -0.000909018 -0.0161874 0.0611628 0.0517034 -0.0809791 -0.0238255 -0.135151 0.0347133 -0.00908692 0.059216 -0.0188806 -0.0487411 -0.103221 -0.0674745 0.0822925 0.00282886 -0.162732 -0.0582364 -0.235276 0.00606265 -0.0522357 -0.0774792 -0.0350491 -0.109626 -0.0574091 -0.0514747 0.047426 0.149641 -0.150153 0.0151678 -0.162102 0.0800639 -0.0340583 0.00305816 -0.0184513 -0.0376401 0.0655613 -0.114437 0.0961776 -0.082836 -0.00361489 0.158487 -0.000923578 -0.0278505 -0.0203752 -0.145211 0.134988 -0.16088 -0.145807 -0.148202 -0.173209 -0.102131 0.0338897 -0.0191902 -0.0378671 0.0113618 -0.0882239 0.109286 -0.0868982 -0.00492304 0.0435593 -0.067592 -0.0298951 -0.0294721 0.031497 -0.181747 -0.0844241 0.037345 -0.0489489 0.0339214 0.0669267 0.0624651 -0.0462785 0.0362719 -0.110862 0.100729 -0.0158692 -0.06162 -0.13387 -0.1962 -0.0300904 0.0903084 0.0456513 -0.0553331 0.113164 -0.0155261 -0.0891778 0.202773 0.0297187 -0.0198051 -0.219456 -0.23766 0.0619719 0.0507513 -0.0401065 0.142439 0.074118 -0.0159167 0.0473098 0.128294 0.0236855 0.184007 -0.152612 -0.0812528 -0.0476872 0.0179728 -0.0313268 -0.301431 -0.00756632 0.11233 0.060977 -0.0640284 0.0237323 0.0718165 0.0972198 -0.0327543 0.0678115 0.0760821 0.112779 0.123392 -0.0389033 -0.0349581 -0.129056 0.0902527 0.0477636 0.102118 0.0128102 -0.0046503 -0.0455728 -0.00215063 -0.0372798 0.191328 -0.0168681 -0.0374524 0.00616951 -0.0350179 -0.000650008 -0.182657 0.0666763 0.035222 0.0133061 0.140007 -0.106935 -0.152977 -0.0853472 0.0897384 -0.116261 0.0579984 0.131384 0.0576427 -0.227777 -0.000368215 0.0256634 -0.0282792 0.11285 -0.247423 -0.00831023 -0.141489 -0.178167 0.0921376 -0.267509 0.0173312 0.0495421 -0.0101071 0.0285916 -0.0630637 0.107871 0.114944 -0.0505001 -0.0280523 -0.01952 -0.020343 0.0120679 0.0436479 0.0316043 0.00494555 0.0715371 0.124483 -0.115555 0.0399062 -0.108313 -0.00463764 0.131172 0.0910211 -0.0541328 0.0386323 -0.0781374 -0.0788656 0.00583951 -0.0700496 0.0805883 -0.0728024 -0.0183673 0.0108968 0.0175381 -0.0567313 0.00868985 -0.101697 -0.140252 -0.0879268 -0.0365155 0.0438008 -0.0224667 0.0206492 -0.0931853 -0.0185508 0.0910647 -0.0493056 -0.0231324 -0.0167977 0.0609067 -0.0564375 0.0480273 0.00387423 -0.00929761 -0.122782 -0.06124 0.0545843 -0.055547 0.0255128 0.133167 -0.152765 -0.175347 0.0493173 -0.0557388 0.156319 0.0633244 -0.163498 -0.0296555 -0.083068 0.0852706 0.13807 0.0109398 0.0379422 0.016033 -0.104744 0.00682578 -0.0632332 -0.0123668 0.0778595 0.13544 -0.089601 -0.0210343 -0.0206462 -0.0592864 0.184391 0.173068 -0.087863 -0.0841717 0.0627363 -0.052355 -0.0925687 -0.000989525 -0.0147337 -0.00339285 -0.10746 0.138363 -0.0420651 0.0190773 0.0699225 0.0615011 -0.0852382 0.113696 -0.0139176 0.0340077 0.0341405 -0.0300226 -0.00861507 0.00964098 0.0488403 -0.0251524 0.137421 -0.167314 -0.0898969 0.00157379 -0.0280422 -0.159087 -0.0431466 0.0145321 -0.00380784 -0.0125431 -0.0447934 0.0358452 -0.264608 -0.110453 0.012133 0.0528143 0.0702143 0.0567377 0.201861 -0.0982044 0.0838833 0.100657 0.0765658 0.0756299 0.120675 -0.127946 -0.0387598 0.0518279 0.079421 -0.104058 -0.158384 -0.0387814 -0.0178561 -0.0821212 0.045124 -0.0102213 0.0028333 -0.105363 0.127417 -0.0409231 0.156419 -0.0928399 -0.156726 0.0700528 -0.0607929 -0.00401499 -0.0480579 -0.0825038 0.128259 0.141244 -0.114155 0.00751875 0.0399035 0.0742097 -0.159129 -0.0214219 0.00769079 -0.034099 -0.0204371 0.0788723 0.0927089 0.0936635 0.0754061 -0.0690174 -0.172805 0.0294796 -0.035811 -0.0125575 -0.263215 0.187879 -0.100028 -0.0657928 -0.000820447 -0.0237196 -0.0506935 0.0927415 -0.09323 -0.136569 -0.0752783 0.0832554 0.0230248 0.0163806 0.0350699 -0.221086 0.159144 0.081744 0.116749 -0.0875677 0.160802 -0.113874 0.0200336 -0.0396999 0.184981 0.0424697 0.104223 0.14746 0.129526 0.135372 -0.0112386 -0.0418025 -0.0221485 0.0504059 -0.00138181 -0.0839932 0.0805532 0.0282995 0.125037 -0.0723732 -0.144179 -0.0729221 -0.057138 0.141491 0.0901125 0.129998 -0.293186 0.013718 -0.0497831 -0.103977 0.0343818 0.055627 -0.0328192 0.108012 -0.176244 -0.0370794 -0.0879219 0.0943271 0.0147829 0.0647505 -0.185574 -0.172427 0.0793311 -0.00594028 0.0295167 -0.153421 0.0748212 0.0105482 -7.03085e-05 -0.00575841 -0.189832 -0.0447138 -0.0612675 -0.0986683 -0.0743867 0.172703 -0.107622 -0.0830625 0.05099 -0.0186946 -0.00577214 -0.0420883 -0.000666473 -0.0943997 -0.0582158 0.0582062 0.0303797 0.181724 0.0328717 0.0264674 0.0233108 -0.0771925 0.111081 0.0829723 0.0140426 -0.0401124 0.153875 -0.0246911 0.0587462 0.0198172 0.0146205 -0.0250508 -0.029759 0.0489502 0.0902807 -0.0229641 -0.0148647 -0.0491168 -0.0969907 -0.0196373 0.10672 0.0790676 -0.0970031 -0.0499152 0.167389 -0.0132222 -0.064222 0.0941883 -0.0799508 0.0134582 0.00994641 0.143832 0.0292139 0.0668425 -0.026256 -0.069698 0.0250112 -0.17139 -0.057897 0.00123246 -0.00586132 0.0180658 0.0579233 -0.018675 -0.119908 0.00264274 0.114113 -0.152044 -0.150414 0.110615 -0.245826 0.0674091 0.00416607 0.0919481 0.000377873 0.0948651 0.261826 0.0522685 -0.113701 0.110687 -0.0104421 -0.0822935 0.0531924 -0.00866469 0.157044 -0.0522702 0.156856 -0.048363 -0.00198526 -0.0468241 0.0783384 -0.0772115 -0.0328389 -0.179858 0.107655 -0.0564152 -0.086397 -0.131147 -0.149542 -0.120092 -0.213757 -0.0920954 0.000494852 -0.0929633 0.0461708 -0.0768403 0.128305 0.0390053 0.0562497 0.0809348 -0.147353 0.0361404 0.0567909 -0.0446961 0.112298 -0.111317 -0.0499543 0.150512 0.132622 0.105474 0.0212606 -0.0237227 -0.12236 0.0683437 0.00672845 -0.0709144 -0.0942524 -0.127884 -0.0889235 0.0653809 0.0899681 0.0457167 -0.0455957 -0.0269121 -0.09311 -0.234996 -0.129688 -0.178324 -0.0890777 0.0522103 -0.125423 -0.034985 -0.0105935 0.0899753 -0.0106149 0.0184514 -0.0272521 0.162082 -0.170629 0.00689637 0.0526263 0.100381 0.106829 0.126544 -0.0700218 0.0192828 0.0825219 -0.00233873 -0.138704 0.0761216 -0.0867199 0.238694 0.0554826 -0.128428 -0.139796 0.179943 -0.0402815 0.0702328 0.0569807 -0.098598 -0.173864 -0.0499277 0.0181991 0.120895 -0.194782 0.0433745 0.0887987 -0.137814 -0.031509 -0.0639721 -0.0251174 0.0577728 -0.0621097 -0.101182 -0.175337 -0.0489447 -0.111276 -0.0396099 0.210002 -0.00897968 0.0992128 0.00758775 -0.0388633 0.00190317 0.0767447 -0.114917 0.0140984 0.12629 -0.0671144 0.100044 -0.0126637 0.0892164 0.0333741 -0.138724 0.389255 -0.0529508 -0.0557964 -0.201114 -0.0377613 0.019861 0.0296802 0.102114 0.289038 0.0208133 0.180838 -0.108297 0.0296144 -0.156177 -0.0502779 0.170275 0.0350111 0.0574858 0.0484573 0.122662 0.0581017 0.160656 0.0575502 -0.00138335 0.0789126 -0.0372189 -0.0240079 0.132654 -0.0351358 0.106267 -0.228978 0.0564457 -0.141698 -0.0618754 -0.0700679 -0.039487 0.181879 -0.107929 -0.00534192 0.112321 -0.0594423 -0.122374 -0.000295584 -0.159698 -0.130397 0.0340775 0.0924561 0.195174 0.065365 -0.0180563 0.0427897 -0.12471 -0.0383598 0.111256 -0.154737 0.117776 0.0429178 -0.133819 0.0247315 -0.215333 -0.0381256 -0.118059 -0.0559545 0.119535 -0.16757 0.170204 -0.0138802 -0.177411 -0.0163207 0.176043 -0.0462203 -0.115517 0.022886 -0.00692002 0.162094 -0.0107473 -0.0861935 -0.0742685 -0.153277 0.0134962 0.0142592 0.0148947 -0.0275549 -0.0760413 0.101603 -0.0116251 -0.0420901 -0.00451702 -0.140877 -0.136957 0.323253 -0.112622 -0.137878 0.294104 0.117666 0.0887602 0.0444725 0.113511 0.0763564 -0.029027 0.178673 -0.046718 -0.0578665 0.034125 0.115049 -0.0812151 -0.0354759 -0.0807745 0.033828 0.0532356 -0.0333453 -0.0431719 0.111149 0.0217003 -0.0787495 0.0186344 0.188201 -0.000247295 -0.0600083 0.0453027 -0.0388898 -0.00830826 -0.153149 0.0407579 -0.0355451 -0.0427502 0.0219027 0.0729485 0.0487519 0.0222735 -0.0660985 -0.185069 -0.092256 -0.0228647 0.00783024 0.148243 0.143235 -0.0120715 -0.0699826 -0.0508157 -0.091674 -0.0983889 -0.130889 0.0440712 0.0402333 -0.0569797 -0.127035 0.00320022 0.10233 0.144353 -0.0432225 0.0501379 0.201031 -0.025562 -0.0175129 0.160153 -0.114273 -0.0911299 -0.0982284 0.0156688 0.0721915 -0.0372496 -0.0526163 -0.00444635 -0.0647594 -0.123841 -0.0732813 -0.015463 0.0956009 0.141845 0.0836232 0.0495009 -0.0558371 -0.0752505 -0.0658729 -0.065003 0.0200414 -0.0517352 0.198275 0.187728 0.083777 -0.0653794 -0.195258 -0.0148234 -0.00341216 -0.0409281 0.0833498 0.0736004 0.0664912 0.152081 0.138831 -0.108273 0.0218616 -0.149074 -0.0198831 0.0137843 0.156104 -0.0568226 0.0505854 -0.1639 -0.0362962 -0.111269 0.0528993 0.132143 0.0288131 0.0253503 0.0513178 -0.169299 -0.00410089 0.0172401 -0.0978618 -0.0481884 0.0106275 0.120508 -0.0311247 -0.0922242 -0.0183365 0.15851 0.120126 0.0758964 0.136251 0.0613514 -0.198474 0.0502438 0.00219466 0.0113425 0.0057123 0.00171415 0.0185095 -0.0505373 0.107967 -0.0926773 0.120044 0.0921349 0.0154009 0.148962 0.106552 -0.0909902 -0.221713 0.177904 0.0113754 -0.00195967 0.00850214 0.0533308 0.0777704 -0.0801645 0.172101 0.0721083 0.0438361 0.187811 -0.0232283 -0.103977 0.132033 0.03335 0.0606894 0.0133357 -0.140904 -0.0527127 -0.124396 -0.0395672 -0.0522998 0.0300991 -0.06173 0.0020651 -0.090366 -0.0510644 0.0139007 0.0282261 0.150027 0.129983 0.0328277 -0.0789225 0.0658693 0.107398 0.100391 -0.130363 -0.0647463 0.0695701 0.134412 0.00761764 -0.262927 0.0453864 -0.0269941 -0.0972765 0.143265 -0.0797446 -0.126384 0.0794767 -0.0887323 -0.203197 -0.0645385 -0.0697565 -0.105729 -0.123104 -0.0233902 -0.0302707 0.0290034 0.0058223 0.0464228 -0.159412 -0.00535036 -0.151598 -0.104215 -0.0636842 -0.140071 -0.169762 0.309733 0.0412329 0.138741 -0.0695804 -0.00565991 -0.0715781 0.0211567 -0.083477 0.0460723 0.0181032 0.0713372 -0.216358 0.105447 0.0132055 0.0507832 -0.0603239 0.0497493 0.252298 0.135597 0.140278 0.0919705 0.0538878 -0.0896937 0.0140838 0.0823112 -0.0253691 -0.161491 0.098611 0.00670463 -0.111297 -0.0750665 -0.102714 -0.0966688 0.0432354 0.18114 0.123704 -0.104264 -0.129771 0.00938749 -0.177699 0.027555 -0.018212 0.0428546 -0.0347873 0.103903 0.168678 -0.0538763 0.00133241 -0.0581922 0.0471055 0.066927 0.133698 0.0214821 0.124764 0.138683 -0.101701 0.189357 0.0556128 -0.0127504 0.0527439 -0.0890044 0.10742 -0.0114902 0.13256 0.0738559 0.110776 -0.0556802 0.0662632 0.124301 0.0915115 0.0191748 0.0318387 0.183429 0.0445839 0.0377279 -0.0685939 0.065935 -0.0307011 0.185952 -0.0392616 -0.0877472 0.0413202 -0.0230548 -0.167065 -0.0981105 0.0063187 0.135857 0.0597079 -0.0727212 0.10042 -0.142662 -0.0965511 -0.0221561 -0.191397 0.0751797 -0.111274 -0.0583049 -0.0902716 0.0280488 0.095309 0.042664 -0.0965095 -0.0474645 -0.0473937 0.0876367 0.00624875 -0.136483 0.0962458 0.160265 0.0209218 0.103915 0.00947433 -0.0206054 -0.183716 -0.00109295 0.0361348 0.201428 0.121345 0.0528364 -0.164618 0.16169 -0.0998767 0.013977 0.077943 0.0252099 0.138006 -0.0833415 0.0253343 -0.0385176 -0.0676215 0.133987 0.0295205 0.00506486 0.0383998 -0.0671308 0.261417 0.024411 0.187746 0.0535367 0.117801 0.0435852 -0.184315 0.0453615 0.0767482 -0.0429078 -0.0759885 -0.108464 0.00542325 0.162274 -0.00490632 0.159402 -0.0728571 0.0837211 -0.115402 -0.0184891 -0.12066 0.0993971 0.00476675 0.00183523 0.13798 -0.0292424 0.230041 0.0168502 0.123752 -0.0105109 0.0488344 0.027732 -0.0332812 -0.0436262 -0.0290197 -0.101637 -0.0547387 0.00383609 -0.184562 0.0562094 -0.195728 0.154034 0.000481687 0.135728 0.0331024 -0.0313796 -0.0837708 0.0462136 0.0729735 0.112052 -0.119891 0.0291499 0.0309499 0.0393508 -0.016784 0.102581 -0.0199943 -0.0950262 -0.205755 0.218715 0.113013 0.128595 0.0113121 0.102091 -0.0947162 0.0454377 0.138699 0.0683302 0.0508317 -0.0696971 -0.18739 0.00502858 0.0784001 0.116595 -0.0356986 -0.167387 0.0533628 -0.0767465 0.0185223 0.0411052 -0.0230431 -0.0140118 -0.0085232 -0.0715701 -0.12664 -0.148344 -0.0875317 0.0332545 -0.0515323 0.0543098 0.112148 0.0339106 0.00323339 0.0257314 0.16875 -0.0874136 0.0702474 -0.120243 -0.160987 -0.0496554 0.00831997 0.0126529 0.0894182 0.0865404 -0.11336 -0.177404 0.049487 0.217772 -0.036213 0.00641803 -0.100053 -0.159598 -0.122186 -0.0289356 -0.0364323 0.0704424 0.0515305 -0.0197338 -0.0561924 -0.0821536 -0.0845293 0.207281 -0.00726685 0.151093 -0.00536415 0.10324 0.0556102 0.0331505 -0.00106957 -0.0876217 0.123891 0.0563964 -0.01256 -0.0802677 -0.0110564 0.165101 -0.0184225 0.0505437 -0.0699469 0.115628 -0.00177841 0.110604 -0.0770479 -0.0507328 -0.115163 -0.0451263 0.193279 -0.062523 -0.0552313 -0.0856828 0.0814187 0.0493115 0.162352 -0.00876157 0.0878617 0.0334762 -0.15472 0.0198117 0.109767 0.0769161 0.175556 -0.00903069 -0.0398293 0.058428 0.128383 0.0939485 0.0002113 0.0583629 -0.171466 0.0777967 -0.223596 -0.0264856 0.214614 0.025942 -0.0119853 -0.0501509 -0.0534975 0.0216302 -0.0538067 0.0431583 0.142972 -0.0115455 0.148192 0.0417171 0.035135 0.0814168 0.0740327 0.0825417 0.0872376 -0.0727605 0.168614 0.0280685 -0.0534945 -0.0171129 0.0517239 -0.123212 0.142947 -0.0954614 -0.175413 -0.0341355 0.0637828 0.089339 0.0304657 -0.0449266 -0.079807 0.0497317 -0.0819418 -0.146425 0.11967 0.0811374 -0.0391969 -0.0168363 -0.0199654 -0.0829003 -0.0609117 -0.130327 0.00989734 0.105287 0.0362178 0.130246 0.0265001 0.104776 0.0410223 -0.0700277 -0.115906 0.0613792 -0.0852855 0.135305 0.0887756 -0.0342107 -0.116437 -0.0736243 0.156211 -0.0588298 0.0754521 0.0761544 -0.148133 -0.010229 0.0841159 -0.122221 -0.000434035 -0.126779 0.15192 -0.128682 0.0504908 0.028253 -0.145099 -0.0429113 -0.0664318 0.122487 -0.0498441 0.0464827 -0.22084 0.0853306 0.0546076 0.0339229 0.0947346 0.0520992 -0.187119 0.0332447 0.164301 -0.106751 -0.145525 -0.0742677 -0.0670237 0.0578678 -0.0521612 0.0733034 0.0987363 0.0283162 0.249062 -0.0355411 0.0477837 0.0170227 0.0491395 0.0676001 0.139869 -0.0627754 0.0193124 -0.0901159 -0.026509 0.00709397 -0.0507642 -0.133324 -0.106317 -0.0430813 0.116607 -0.0317881 0.00515863 0.0231686 -0.0368602 0.0588112 0.151096 -0.0514103 0.0655286 0.017 0.0471602 -0.241882 -0.096521 -0.0983419 -0.095332 -0.0579388 0.0441167 -0.067367 0.0431743 0.0950311 -0.0347176 0.0966654 0.195068 -0.000863688 0.0155743 0.0711562 0.124909 0.192079 0.0936615 0.0226999 -0.157746 -0.172765 -0.161132 0.0827691 -0.0573974 0.00989646 0.0822552 -0.0330541 -0.0200935 0.0381707 -0.225864 0.0453926 0.0696072 -0.0280177 -0.0787498 -0.101351 -0.28583 -0.0363261 -0.0536764 -0.0506358 0.170814 0.109706 0.0840469 -0.00798285 -0.169372 -0.0849324 -0.18558 0.10829 -0.203847 -0.0152594 -0.146483 0.0291809 0.0659722 0.137733 0.0306467 -0.0646919 -0.0266137 0.23133 -0.00294949 -0.0383266 0.137909 -0.141771 0.00856224 0.0185283 -0.00243772 -0.0312623 0.0615358 0.0163633 -0.0382958 -0.165668 -0.0931332 0.111031 0.0126122 -0.0853453 -0.18179 0.0176351 0.0140402 -0.0373188 -0.0364119 0.0810454 -0.173813 0.0514968 -0.0373133 0.00393747 0.194056 -0.0478008 0.0116904 -0.0821154 -0.0472817 0.124397 -0.144609 -0.0826312 0.0516065 0.132994 -0.0230381 0.0443546 -0.0558067 -0.0368942 -0.0415495 0.134063 -0.00668136 0.0912952 -0.0417905 -0.00749543 0.0724514 -0.118056 0.04442 0.0619028 0.0743377 0.0104442 0.14123 0.0223904 -0.117007 0.0351923 -0.114995 -0.00385486 0.0196723 0.0701938 0.136531 0.026042 0.0178132 -0.0533692 0.122891 -0.00247495 -0.00495108 0.0507738 -0.0186069 0.0118793 0.101656 -0.0731773 -0.0262128 -0.0169069 -0.2183 0.0560117 -0.016531 0.0654612 0.0913136 0.0571947 0.266247 0.0691987 0.0261634 0.0942819 0.0743808 -0.0310066 0.00874997 0.0224691 -0.0047236 -0.0542438 0.135677 0.075648 -0.13348 -0.0129626 -0.00519273 -0.00712687 0.0263275 -0.105555 -0.104229 -0.0180806 -0.0591415 0.0261016 0.0623992 0.163665 0.0903966 0.0174427 0.0477775 0.198638 0.0883026 0.0426266 -0.218729 -0.0741344 -0.0584566 0.170059 0.0760645 0.059483 0.0460272 -0.0364613 0.0650163 -0.0667867 -0.169721 0.0860736 0.128114 -0.0553848 -0.0731155 0.0143733 -0.120159 -0.0557651 0.0177555 0.11364 0.0959566 0.0103774 -0.113235 0.0593973 0.119615 0.0584578 -0.0229098 0.017593 0.0655289 -0.155619 0.0325927 -0.0884395 -0.130415 0.0283685 0.102148 -0.11046 -0.0310392 0.049068 0.07601 0.127484 -0.0229798 0.00481844 0.186987 0.153983 -0.147544 -0.0376188 -0.0442534 0.038803 -0.108026 0.0778491 0.0161802 0.0149856 -0.0951122 -0.0759173 0.127718 -0.00883504 -0.0513024 -0.0757045 0.00657099 0.154634 -0.0780059 -0.0957524 0.0585506 -0.0928413 0.153868 0.00540145 0.0538441 0.0582136 -0.00810191 -0.0276157 -0.115992 -0.171209 0.0055749 -0.19801 -0.0298504 -0.158251 -0.00948939 -0.0947273 -0.150076 -0.150246 0.0930431 0.104376 0.0016219 -0.0340846 -0.195231 0.0799161 0.177629 -0.191234 -0.0100817 0.0146613 0.131883 -0.213529 -0.236144 0.0558152 0.0772237 0.131361 0.160956 -0.15916 -0.0156795 -0.0425118 -0.0384459 0.119889 -0.0124561 -0.0884008 0.0191909 -0.0172396 -0.13894 -0.0946139 -0.0157951 -0.02608 0.112235 0.0516094 -0.0430561 -0.0362433 -0.0549908 -0.0985748 -0.0720616 -0.0918143 0.185711 0.0713275 0.131029 -0.0859481 -0.0420139 0.11594 -0.0604991 -0.0707756 0.0686959 -0.177988 -0.000335737 -0.0046617 -0.102045 -0.00522857 0.1233 0.0907019 0.175426 -0.133869 0.152818 -0.00973173 0.133949 0.0133501 0.0561029 -0.0225188 -0.00491832 -0.0354959 -0.0853956 0.0131313 -0.034865 -0.163119 -0.118652 0.0130975 0.0523069 0.0240906 -0.165195 0.0137796 0.0890429 0.0116066 -0.0216117 -0.170827 -0.0546095 -0.18554 0.0509314 0.051786 0.105503 0.0190697 -0.0168344 -0.131846 0.196612 0.0166092 -0.193946 -0.240403 -0.124278 0.0607843 0.00705471 -0.090394 -0.095363 0.176247 0.134509 -0.103869 -0.0191179 -0.118012 -0.0850637 -0.149393 -0.00575763 -0.00786362 0.0980947 -0.127374 -0.130195 -0.105354 0.0280513 -0.138424 -0.0258653 -0.0932519 0.0584904 -0.0953854 0.166389 0.143899 0.00644016 0.119339 -0.00460621 0.0582732 0.0656323 -0.073235 -0.0550207 0.0115493 -0.0373916 -0.111598 0.168631 0.00319374 -0.00989801 -0.0460348 0.020427 -0.000731192 0.0772802 -0.0322021 -0.0521781 -0.0112364 0.0136674 -0.0138566 -0.014046 -0.0356057 -0.0103645 -0.153284 0.0303446 -0.0306705 0.0871931 -0.0711129 0.00604346 -0.0440943 -0.0748843 -0.0266277 -0.0256415 0.150012 -0.00369589 0.121103 0.00749851 0.077456 0.0430889 -0.143469 0.0277374 0.11585 0.00688822 -0.0483335 0.0418057 -0.0481898 0.0604812 -0.0421215 0.00115823 -0.00604424 -0.0815493 -0.00473224 -0.0995769 0.12274 0.11733 -0.017459 0.0815397 0.0411148 -0.0954206 -0.0348703 0.0725998 -0.103893 -0.0887853 0.048492 0.0869193 -0.0529469 -0.0637683 -0.0988164 0.023383 0.0314697 -0.0803325 -0.0393993 0.0190136 0.00115534 0.0569827 0.132001 -0.151608 0.0659435 0.0807872 -0.105009 0.117413 0.0498592 -0.0293699 -0.0857118 0.0181474 0.120533 -0.0081121 0.0846591 -0.084312 0.087999 0.150486 -0.00891984 -0.0146067 0.0667694 0.0313842 -0.0440421 0.0775385 -0.0824246 0.00585467 -0.154763 0.134139 -0.0190538 0.0430206 -0.118104 0.0759218 0.00191005 -0.0819238 -0.0838625 -0.00946778 0.168499 0.103946 -0.0385143 0.10018 0.0446813 0.027568 0.181765 0.0290282 0.165703 -0.0709084 0.0133403 0.101102 0.121011 0.0335592 -0.0342942 0.221432 0.160696 0.0227755 -0.00503737 0.128756 0.0492172 -0.0674872 -0.0492893 0.0493099 -0.0518203 -0.00992562 0.0681023 0.196852 0.127346 0.0100384 -0.0925836 0.0404168 -0.095004 -0.125285 0.051613 -0.0678552 -0.000129657 0.0369967 -0.0195701 0.000448542 0.127999 0.0601533 0.0573767 0.0807362 0.0296757 0.118578 -0.0587254 -0.114798 0.0214665 0.237969 0.0502752 -0.177901 -0.119389 -0.114545 -0.00546339 -0.0489766 0.0861365 -0.2 -0.10146 0.0781177 0.0055753 -0.190037 0.0795439 -0.102526 0.048411 0.039118 -0.0590992 -0.100822 -0.0230853 0.15852 -0.0955289 -0.0246921 -0.0531957 -0.0688001 0.0484092 0.0678362 0.0606342 -0.0640397 0.107733 0.00284142 -0.0833315 -0.154445 0.0637227 0.0556079 0.10594 -0.00336875 -0.0063384 0.0307446 -0.00702484 0.0448501 0.12247 -0.13499 0.0195535 -0.178407 0.0952561 -0.117133 0.0376275 0.106796 -0.0690521 0.0466792 -0.0528017 -0.101224 -0.0794545 0.00746684 -0.192699 0.0063306 -0.107079 0.0729929 0.260614 -0.0191903 -0.0663773 0.0582459 -0.0111027 0.0415156 0.102291 -0.0937608 -0.0189809 0.197953 0.0773724 -0.0433294 -0.103174 0.0149267 -0.0313125 -0.110152 -0.101793 -0.222382 -0.0504033 0.0302923 0.0631834 -0.0136021 -0.0639479 -0.113803 0.0118159 0.0238442 0.0500095 0.115354 0.00520413 -0.0449126 0.078703 0.0585826 0.0313352 -0.11531 0.0234837 0.0467515 -0.0938778 0.0599246 -0.0278247 0.0503254 -0.132513 -0.118729 -0.00129904 -0.0477585 -0.0436166 -0.026089 -0.0559142 -0.105385 -0.0303563 -0.0312657 -0.155489 -0.0145093 0.150995 -0.0368999 -0.111144 0.0202685 -0.00112531 0.172137 0.0559024 -0.0690504 0.00310008 -0.148969 0.0517158 0.100513 0.184318 0.0383827 0.0617757 -0.123272 0.21072 -0.0220908 -0.0439452 -0.150835 0.212588 0.0433445 0.108251 0.0243554 -0.0124965 0.0273943 0.119014 0.189254 0.0296496 0.0793829 0.0990838 0.0828269 0.17364 -0.217787 -0.0631454 0.0599823 -0.0421924 -0.0391185 -0.00207282 0.0418747 0.0106869 0.108429 0.0682851 0.103805 -0.01793 -0.0483731 0.150907 -0.147223 -0.114229 0.0110533 -0.0848365 -0.0114802 -0.0965576 -0.0591643 -0.106291 0.156002 0.0342032 0.0339344 0.0330282 0.0416153 -0.00759757 -0.0546834 -0.147754 0.046709 -0.196549 -0.0236464 -0.0980541 0.0343171 -0.0918027 0.0656434 -0.0577477 0.0850303 -0.0100957 0.0892083 0.0509216 0.138548 0.0591095 0.108656 0.0680278 -0.0922935 -0.158859 0.0610604 0.129779 0.0544224 -0.0701301 -0.0093895 0.0952256 0.143756 0.134668 -0.0724188 0.131799 0.0223032 -0.0300037 0.0161006 0.033992 0.029859 -0.0852495 -0.0598013 0.0457558 -0.0298708 0.109249 0.0895414 0.0606336 -0.0839804 0.0807329 0.114862 0.0751971 -0.109131 0.00195827 -0.143223 0.0952327 -0.0326155 -0.0438867 -0.00446366 0.0590186 0.0530567 -0.0898705 0.107095 -0.015124 0.0599862 0.0186478 0.0600286 -0.0594703 0.172312 0.0307307 0.0844007 0.00903366 -0.134344 -0.0345271 -0.136134 0.159197 -0.0535047 -0.0261816 -0.151862 -0.131334 0.0315051 0.168241 -0.0734187 -0.207323 -0.0272442 0.087888 0.0598277 0.123547 0.00966393 -0.0588773 -0.1306 -0.168749 -0.0187268 -0.173592 0.00255977 0.120464 0.0434115 0.00845384 -0.0738442 -0.111993 -0.0134298 -0.0351478 -0.00985106 0.132439 -0.0165438 -0.0709995 0.0588381 0.081305 0.0825524 -0.0600143 0.0825287 0.0811322 0.0694122 -0.0128884 0.0846261 0.0823937 -0.0717221 -0.147109 -0.0158367 0.0381347 0.0096128 0.0128674 0.0852413 0.0432275 -0.0144164 -0.0869503 -0.128684 0.148504 -0.0886518 0.0437903 -0.0350621 -0.0316643 0.0384469 -0.0338405 -0.0552267 0.062703 -0.164923 -0.0614434 0.0493381 -0.111093 0.0708751 0.0574314 0.0475722 -0.119237 -0.11733 -0.0224256 -0.0375015 -0.0349469 -0.0185918 -0.0667828 -0.14179 0.0575347 0.027967 -0.0346303 -0.142835 0.135645 -0.102102 -0.100286 -0.121841 0.00972292 0.0335117 -0.012093 -0.113973 -0.215586 -0.179968 0.0493834 -0.0265927 0.075292 0.00327896 -0.0736649 0.125056 -0.0552169 0.057789 0.00963472 -0.0430916 0.138978 -0.0150352 -0.0806571 -0.187457 0.0949772 -0.00234449 0.00117391 -0.0553272 0.275337 -0.109777 -0.00595309 0.00981072 -0.0507158 0.027277 -0.0908581 0.135666 0.00589365 -0.24984 -0.141424 -0.121248 0.11203 -0.129236 -0.0489892 0.0522131 -0.144791 -0.0907776 -0.147147 -0.0457716 -0.0685369 0.0120065 -0.0645111 0.0570903 0.0936269 0.0319973 -0.0676181 -0.0851327 0.16404 -0.0894322 -0.0382118 0.139684 0.0306314 0.0469004 -0.0653138 0.0177187 -0.211982 0.0899431 0.119841 -0.139095 0.0240471 -0.0208123 -0.00881724 -0.00826602 0.00621114 0.0248778 0.0158778 -0.0311872 -0.087264 -0.0410921 -0.0487512 0.0697235 0.00569902 0.0727025 -0.067969 -0.02301 -0.0692381 0.115325 0.104416 -0.0683375 -0.119873 -0.0166734 -0.109589 -0.192958 0.0164565 0.0120918 0.0487066 -0.0174722 0.0521181 -0.174969 -0.0837031 -0.141425 0.114894 -0.00283893 -0.00378002 0.0978734 0.0256059 -0.151913 0.13559 -0.0578194 0.129961 -0.0899739 -0.0513534 0.00754624 -0.000667547 -0.0125576 -0.0465534 0.0689815 0.0137054 0.0950916 -0.096623 0.015603 -0.033287 0.0585749 -0.0623275 -0.12283 0.00386954 -0.0108033 -0.0269803 -0.0373452 -0.12656 0.0126539 -0.0189449 0.0262975 0.00164206 0.0944363 -0.0280964 -0.131617 0.106472 -0.0293237 -0.0195233 0.0370089 -0.0367283 -0.00325119 -0.126731 0.0610842 -0.0685883 0.151263 -0.012365 0.00633467 0.108831 -0.169453 0.0807062 -0.161131 -0.0792891 0.0671149 -0.030457 -0.137335 -0.031689 0.00438946 -0.14085 0.153977 0.0814586 -0.0596363 -0.0207565 -0.0102312 0.0247115 0.0330844 -0.0260066 0.0440273 -0.0524095 0.0888108 -0.218956 -0.052704 -0.0719826 0.071449 -0.0449503 -0.0382822 -0.086729 0.0985983 -0.0836502 -0.17086 0.0700018 -0.0602952 0.155074 0.0369475 0.0406674 -0.0281297 -0.020065 0.0445562 -0.0891899 -0.00412484 0.046961 -0.0653953 0.110436 0.08911 0.0553477 -0.0841949 -0.029951 -0.222888 0.0683134 -0.0448342 0.125019 0.048079 0.153444 -0.0854208 -0.0610813 -0.0210968 -0.0607735 0.0200638 0.159887 -0.133774 -0.0409316 -0.133071 0.0501318 -0.106594 0.0969333 0.0507653 -0.0583789 0.0767451 0.00431399 -0.112194 0.100418 0.0674754 -0.0809069 -0.137931 0.0422109 -0.00651485 0.0204737 -0.0451479 0.00266903 0.0737585 0.0086797 -0.0912003 0.0393961 0.0049594 0.0825524 0.113404 -0.0526666 0.00407649 -0.0379837 -0.109873 -0.103156 -0.0910228 0.0488816 -0.100247 0.00286826 0.141753 -0.0891134 -0.0593347 -0.0223998 0.0322453 -0.0299395 -0.00406312 0.0445356 -0.0678038 -0.0268025 -0.0410999 0.0885333 -0.000290281 -0.106571 0.0691986 0.00534284 -0.0049271 0.0901804 0.0444286 0.120185 -0.10938 0.0769489 0.0458596 0.115113 0.00789284 -0.0341502 -0.0467385 0.11569 -0.0903248 -0.0954108 -0.151237 -0.0113526 0.181828 0.0264555 -0.00135308 -0.0939384 -0.0955544 -0.06409 0.0227101 -0.00265853 0.00453979 -0.102691 -0.0583139 -0.0508089 0.00907693 -0.00454172 0.0688099 0.00290435 0.0313125 -0.0410025 0.134246 0.0153838 0.209831 0.0349289 -0.20246 0.145115 -0.0778625 -0.0421018 -0.0277366 0.016028 0.0866103 0.0162019 0.0581015 0.00372187 -0.141494 0.116882 0.152032 0.00966687 -0.00619314 0.0618466 -0.0635966 0.0693371 -0.0890628 0.057882 -0.0635342 0.0409858 -0.112762 -0.0741355 0.0401008 0.0561155 0.0142978 0.106962 0.058686 -0.0578077 -0.0330141 -0.0915378 -0.0795691 -0.212864 -0.0763369 0.10953 -0.0458097 0.0858906 0.0103992 -0.0390207 0.0134015 -0.0515266 -0.0972118 -0.0114572 -0.0383454 0.0313337 0.0294108 0.133109 0.0536347 0.142312 -0.0468058 0.15158 -0.00310442 0.188624 -0.110536 0.0253304 0.0567533 -0.024938 0.0505051 0.0554807 0.00796189 0.0896687 -0.217549 0.103559 0.00065437 0.192034 0.136159 -0.0898199 -0.111778 0.0609755 -0.0879962 0.0437124 -0.0228793 0.202742 -0.0350377 0.0857363 0.0953057 -0.0360092 0.0186937 -0.209053 -0.0378419 0.0103111 -0.167337 0.125838 -0.000764978 -0.0250781 -0.0150416 -0.0185532 0.0280901 0.158474 0.00500948 0.0697359 -0.0820716 -0.0512807 0.112137 -0.0762837 -0.0152375 0.0941366 -0.0244793 -0.0228942 -0.0380962 -0.121337 0.0198621 -0.0506577 0.0716016 -0.0514511 0.0579359 -0.0308594 -0.123198 0.197408 0.0457091 0.0355247 -0.208095 -0.058823 -0.0650726 -0.122939 -0.0579858 0.0624528 -0.0287567 -0.0816393 -0.103254 0.100051 0.166496 0.110085 0.174213 0.0990304 -0.0778477 -0.112261 -0.0627613 0.0456829 0.0249471 0.0302031 0.0728906 -0.129522 0.206558 -0.134462 -0.0422708 -0.113057 -0.0581084 -0.028235 0.0557621 -0.0972199 0.066509 0.0145063 0.189292 -0.0384893 -0.0432858 -0.0708271 0.0342009 0.0919577 -0.0918866 0.0106111 0.0168664 -0.0828616 0.0735763 0.0598832 0.0640539 0.0135717 0.190565 0.0115077 -0.0587203 0.00192803 0.0241509 -0.0270805 0.0222583 0.0328147 0.0221086 -0.0612646 -0.11352 0.17793 0.175365 0.00406477 -0.152636 -0.114375 -0.0850758 -0.151983 0.225582 -0.0592411 -0.0353595 0.0294065 0.0585247 -0.107206 -0.00255918 0.202983 0.134489 -0.178379 0.0404204 -0.0928919 0.0519177 0.00120405 -0.0030405 -0.0834553 0.0970952 0.0858861 0.0024969 0.0360083 0.0757628 -0.10651 0.0627501 -0.00584368 -0.0298995 0.0905097 -0.040375 -0.0393605 -0.0408892 0.0777191 0.0105814 -0.212379 -0.0428416 -0.0752411 0.0144163 -0.118643 0.0148238 -0.148912 0.0145984 0.106064 -0.0372197 0.0194807 -0.0126258 -0.0530554 -0.0147158 0.0441158 -0.0342891 0.157191 0.0501766 -0.0128379 0.0531997 0.0240378 0.0581631 0.0519435 -0.100951 0.0776277 -0.113593 0.028485 0.0613987 0.0844249 -0.142733 -0.09048 -0.0519849 0.165728 -0.0217199 0.0845762 -0.153488 0.109422 -0.0718725 0.0476272 0.00427743 -0.141195 -0.0702323 0.00147573 -0.096582 -0.0611999 0.0630802 -0.0761079 -0.0142933 -0.0199489 0.125014 0.119725 -0.0446115 -0.140812 0.046202 0.134678 -0.039233 -0.00572544 -0.104609 0.0423997 -0.10023 0.161721 0.0157145 -0.0618617 0.156736 -0.0320193 0.135535 0.132616 0.0597389 -0.158485 0.0800778 -0.0100696 -0.131723 -0.0210996 -0.191965 -0.104585 0.03124 0.0809987 0.0272948 -0.00181616 0.0137906 0.0482134 0.154494 -0.0165519 0.107148 -0.0604217 0.137799 0.0253475 0.00330501 0.0479135 0.0464516 -0.0360435 0.185782 -0.0237876 0.170356 0.0822582 -0.04832 -0.0449003 -0.101048 0.00307835 -0.0409834 0.133106 0.0743428 0.124155 -0.113186 -0.137206 0.0335973 -0.0657828 0.0111184 -0.131596 0.019746 0.0233576 0.0452307 0.104969 -0.0133421 0.152737 -0.0232073 0.115697 0.00142731 0.0677612 0.0713407 -0.0832273 -0.0393175 0.0865356 0.160972 -0.0784952 0.157388 0.197966 -0.183768 -0.169638 -0.0222763 -0.175674 0.069406 -0.00389213 0.0289286 0.0339237 -0.21866 -0.0430148 -0.0867702 -0.181729 -0.00931872 -0.0220286 0.094697 0.192761 0.0244246 0.0588646 -0.048321 -0.0963387 0.0468443 -0.00264192 -0.187387 -0.139688 -0.00950442 0.0558971 -0.0870137 -0.0629118 -0.129198 0.0828495 0.057737 -0.0026993 0.0978335 0.173347 -0.0523618 0.0649644 0.0968086 -0.0322504 0.104541 -0.0643926 -0.110335 -0.181585 0.0604789 -0.0581686 -0.0284796 -0.0145567 -0.132723 0.151473 -0.076202 -0.117211 0.130651 0.0520737 -0.217786 0.0151678 -0.146845 0.0781813 -0.0346934 0.146681 0.0759066 -0.0134751 -0.193049 0.0925035 -0.00402411 0.02735 0.0932254 0.0806522 -0.140228 0.201756 -0.0829759 -0.263247 0.0979602 -0.0647857 -0.166949 -0.129719 0.042423 0.0914392 -0.0844314 -0.208628 -0.117746 -0.0535684 -0.17279 -0.00263036 -0.0875165 -0.134255 0.0640974 -0.0940815 -0.011717 0.0881039 -0.0341199 -0.261207 -0.0190325 -0.0666917 -0.0026147 0.0375065 0.0549819 0.0607411 0.00196072 0.153827 -0.146044 -0.0703725 -0.0315294 0.0318711 -0.121841 0.077565 0.018994 0.0513657 0.0275014 0.0498068 -0.0764536 -0.00981004 0.158794 0.0199153 0.0610867 0.155654 -0.0439426 -0.0385737 -0.186145 -0.0827581 -0.0362327 0.00701223 0.0193036 -0.132746 -0.010208 0.0257595 -0.0489999 -0.130638 -0.0257847 -0.0600843 -0.0644942 -0.049142 -0.04639 0.0050095 -0.0659916 0.0286709 -0.0657658 -0.118269 -0.0519926 0.0856344 0.0468359 -0.157245 -0.0239614 0.0464126 0.149145 -0.033725 -0.0564179 0.0751745 0.00649623 0.142202 0.00658864 -0.0724147 0.158365 -0.0259432 0.0203323 0.0214605 0.0855651 -0.128212 -0.0583615 0.132407 -0.129851 0.0502599 0.0527972 -0.251927 -0.0746083 -0.161724 -0.0625423 0.067227 -0.0782846 -0.0422428 -0.11071 -0.213229 0.0286174 0.178679 0.00320911 -0.0667947 0.0407152 0.00789409 -0.0985227 0.0139303 0.002576 0.257635 -0.00495263 0.204809 0.164619 0.0338057 -0.0904144 0.0451201 -0.135383 -0.0711662 0.0182559 -0.122468 -0.0721026 -0.0312631 0.0187059 0.0494906 0.117553 0.0578848 0.089506 0.00594298 0.0189669 -0.0723243 0.214999 -0.0855198 -0.112754 0.02923 0.0169469 -0.0318204 -0.0116186 0.00239669 -0.0415248 0.272643 0.0879205 -0.0593093 0.0655033 0.177831 -0.0573052 0.0813601 0.122367 -0.091817 -0.0972036 0.00988345 -0.150469 -0.0338784 -0.00422551 0.020138 0.123648 -0.0785029 -0.144254 0.012198 0.00745456 -0.018528 -0.0346791 -0.0654008 0.0874445 -0.0017471 -0.0329294 -0.143533 0.0788275 0.134161 0.164842 -0.12932 0.0839815 0.068249 0.00437694 0.0265242 -0.105825 0.130299 -0.188837 -0.103345 -0.0307092 0.064426 -0.0866529 -0.0676726 -0.118268 0.0248433 0.0515642 -0.093587 0.104045 -0.0983211 0.0291216 0.00406691 0.0982119 -0.021169 -0.0286184 0.0694 -0.176936 0.0443966 0.0774191 0.0465899 -0.0983039 0.036417 -0.188921 -0.0810037 0.199895 0.0270774 0.0303987 0.145886 -0.0726907 0.0397754 0.0256919 -0.121438 -0.12496 0.0432939 0.0062953 -0.0151383 0.106284 0.00640397 -0.0185747 -0.0860832 0.0160276 -0.100632 