-0.00758071 -0.116946 0.090549 -0.11866 0.00992322 0.0881152 0.00874927 -0.0553654 0.0621559 0.0332666 0.256082 0.0490921 0.121345 0.0968945 -0.0094818 -0.0312178 -0.0703582 0.163189 -0.103217 -0.310001 -0.087212 -0.0533338 -0.22418 0.01627 -0.0927928 0.00602958 -0.021004 -0.0797835 -0.00151038 0.110325 0.0558037 -0.0764928 0.170803 0.0919125 -0.0390766 0.0844717 0.152988 0.0184866 -0.0227162 0.139584 -0.153414 -0.0160225 -0.0482418 0.0185392 0.204641 0.00660597 -0.0424052 -0.0378949 -0.0707327 -0.182176 -0.108755 0.100018 0.131456 -0.152986 -0.116772 0.183189 0.02219 -0.013717 0.171812 -0.228272 0.0677388 -0.00387251 0.0611392 -0.136479 0.135443 0.0714362 -0.160774 -0.0115234 0.107102 -0.0269915 -0.0433004 -0.114164 -0.00857801 -0.120665 0.0906586 -0.0132799 0.00646163 -0.00264349 0.00989022 0.142002 -0.011077 0.15825 0.122477 0.0485981 0.0198378 0.0163164 0.0251724 -0.208875 0.117291 -0.0301518 0.103989 0.120772 -0.0783924 0.0119535 0.238646 -0.0125692 0.0860278 -0.336472 0.159442 -0.0263843 -0.0533515 -0.0485583 -0.0693956 0.180106 0.103338 0.0596506 -0.141429 0.0694373 0.0658269 -0.0175514 -0.113525 -0.117903 -0.0800264 0.11069 -0.0404578 0.144507 -0.0428606 -0.0451909 -0.0572639 -0.0272736 0.146612 0.0691786 0.0867421 0.155135 -0.199716 0.0966591 0.0127694 -0.113135 0.200576 0.0890121 0.019303 -0.0260306 -0.224635 0.0713759 0.296941 0.102506 -0.222293 -0.121785 -0.255049 -0.12505 -0.0130117 -0.0233878 0.142947 0.108852 0.23757 -0.0648717 -0.130816 0.0344028 0.0336401 -0.25106 -0.0251906 0.131079 0.168275 -0.0600328 0.115186 0.088572 0.0212384 0.0368006 -0.0103076 -0.0418476 -0.188988 0.0163357 0.158801 0.0930231 -0.110324 -0.17845 -0.090143 -0.0528312 -0.0698774 -0.108736 0.251225 -0.303096 0.0174821 -0.0422725 -0.224308 0.0859202 -0.0125937 -0.0664063 0.0189741 0.185031 -0.0302833 -0.0394412 -0.118357 0.0252067 -0.0655521 -0.194288 0.0188489 0.0353433 0.222627 -0.0726391 0.0240239 -0.17133 -0.0370914 -0.152665 0.0966672 0.0508004 -0.0801909 0.103247 0.0957019 0.0987418 -0.0122928 0.00055484 0.0714146 -0.134449 -0.147737 -0.0703495 -0.0360027 -0.03619 0.041189 0.009479 -0.0163549 0.00553069 -0.0102225 0.00292017 -0.0889818 -0.000306892 -0.0906677 0.0615635 -0.0326384 -0.0949924 0.0920194 -0.211648 0.0923536 0.117061 -0.0211999 0.0665624 -0.182357 -0.0318202 -0.196346 -0.0710851 0.0138377 -0.170544 0.0511582 0.0868888 -0.0887413 -0.259107 -0.118843 0.0658837 -0.184872 0.140298 0.155201 0.00912497 0.135924 -0.165959 -0.173889 0.0326757 0.0517878 -0.0394534 -0.0674862 -0.150047 -0.013245 -0.174674 0.0257853 -0.0316848 0.0667439 -0.220966 0.0618845 -0.00374554 0.0735046 0.036214 0.048987 0.164759 -0.072837 -0.0215626 0.148046 0.128298 -0.0514594 -0.114906 -0.0308354 -0.0454742 -0.0334929 0.0196863 -0.00553731 0.0220014 -0.0012212 0.103935 0.0546005 0.147275 -0.130448 0.017541 0.139703 0.306535 0.0842015 0.24429 0.106533 0.231004 0.0278084 -0.321708 0.0247461 -0.0376339 0.269204 0.13548 0.00769266 0.197689 -0.0175874 0.218711 -0.122154 0.110837 0.0284498 -0.206583 0.0626771 -0.167296 0.0356943 -0.0250257 0.0628247 0.0224305 0.0460351 -0.0763716 0.143327 -0.0857849 0.0946769 -0.213409 0.164704 -0.00184029 -0.0214651 -0.0212111 -0.138599 -0.216693 -0.0549367 0.0254379 -0.202613 0.0256951 0.153843 0.0466315 0.0212603 0.0826417 -0.0119574 0.0321071 -0.0333773 0.0287056 0.212014 -0.0906537 0.0740427 0.0856924 0.00467818 0.11998 0.181724 -0.105629 0.00315783 -0.0861506 -0.116581 0.171544 -0.00246326 -0.435723 -0.0262894 -0.0935732 0.0363091 -0.156745 -0.209935 0.137425 -0.128 0.0336735 -0.0535078 0.132432 0.254662 -0.0337 -0.0604499 0.135807 -0.104809 -0.0472863 -0.144954 0.13011 0.0876971 0.023996 -0.198242 0.0157076 0.0541945 0.128077 -0.135696 -0.0120718 0.131572 0.077205 -0.110792 -0.129587 -0.103799 0.0967347 -0.0687241 -0.0143227 -0.21643 0.197712 -0.102995 -0.152076 -0.106118 0.284551 0.127758 0.0384451 0.0206507 -0.155206 0.0994254 0.0675856 0.149386 0.166276 -0.23565 0.0377901 -0.204436 -0.0544095 0.048581 -0.23602 -0.17004 0.0627489 0.0517153 -0.0507028 0.174917 0.126059 -0.0567974 0.231445 -0.0545019 0.0202513 -0.0935513 -0.064948 0.024956 0.10494 0.0796859 0.212556 -0.158107 -0.0302942 -0.102303 -0.0896271 0.0720408 0.002852 0.0857012 -0.071427 0.0183565 0.0684754 0.00989624 -0.117431 -0.110534 0.0112607 -0.114705 0.192473 0.122456 0.0584852 -0.0220201 -0.0825747 0.0800033 0.201474 -0.0255585 -0.0261732 0.0982871 0.0479201 0.159575 -0.127571 -0.081464 0.100639 -0.0819897 0.0560403 -0.0446565 0.165283 -0.0255332 0.025666 -0.0785841 0.0697918 0.0697085 -0.0280183 -0.189852 0.140007 0.0631947 -0.0762166 -0.145268 0.169574 0.0630819 -0.0403688 0.127041 -0.0455323 0.10174 -0.228976 0.032335 0.0361823 -0.241221 -0.100428 0.0161876 0.0275316 0.0543357 0.14732 -0.0986389 -0.0579618 -0.0367665 0.184525 0.079464 -0.136407 -0.0547132 -0.06955 -0.0831529 0.010415 0.0547628 -0.174749 -0.0416675 -0.183487 -0.00553821 0.0759116 0.031941 0.120273 0.173115 0.149518 -0.118246 0.0185082 0.0111384 -0.134451 -0.0356924 0.0959307 0.0597766 -0.033841 0.211826 -0.0635888 -0.280365 -0.090082 0.176128 -0.33548 -0.101678 0.190142 -0.0826933 -0.185086 0.0991787 0.16102 -0.238248 -0.0147248 -0.0411734 -0.128961 -0.129877 -0.0650467 -0.167096 0.0189048 0.281353 0.029907 -0.0605138 0.0411387 0.304026 0.0970172 0.0985735 0.0486495 0.133042 -0.107239 0.141336 -0.246769 0.174267 0.17208 -0.0161281 -0.0414527 -0.0418072 -0.149552 -0.0953134 0.155282 -0.022371 -0.0986775 0.0752119 -0.226159 -0.0889718 0.00236032 0.00941898 -0.118522 0.12989 0.0118363 -0.0687786 -0.0944626 -0.0777756 0.0123724 -0.0110356 -0.00393019 -0.167407 -0.0485126 0.0863253 0.133746 -0.111339 0.0529628 0.0532289 -0.124904 -0.347762 0.176493 -0.0147899 -0.107861 0.0885202 0.0306881 0.00770758 -0.125932 0.0129442 0.114511 0.0800006 -0.0103775 0.178184 0.0267989 -0.0632238 -0.131767 -0.0340798 0.0520615 0.0524504 0.088519 -0.111795 -0.00557212 -0.0987958 0.104056 0.0639 0.131028 -0.0337457 -0.155163 -0.0530539 -0.1506 -0.154504 -0.17737 0.112802 -0.17851 -0.210095 -0.025681 -0.1133 -0.110466 0.118508 0.00291621 0.0911479 -0.00222955 0.140945 -0.0955543 0.0645261 0.132398 -0.0382194 0.0255485 0.0495294 -0.0993263 -0.0195871 -0.049429 0.0346193 -0.161004 0.158195 0.0165117 0.0577167 0.03142 -0.0101932 0.0118029 0.0838286 0.112909 -0.0767871 -0.113823 -0.0310842 0.0859307 0.0047242 0.0931747 -0.116934 -0.107766 -0.0848025 -0.240653 0.112709 0.0521695 0.185202 0.0269299 -0.0675832 0.162371 0.111705 0.142176 -0.119744 -0.130843 -0.0140088 0.0386647 0.0431166 0.145971 -0.176592 -0.188314 0.204252 0.0587385 -0.198972 0.0448091 0.0428227 -0.0543262 0.0587827 -0.13584 -0.0292247 -0.0855876 -0.184939 -0.00230028 0.0940449 -0.0355199 0.0367063 -0.00980975 -0.131941 0.019885 -0.0976487 0.00109189 -0.0506027 -0.131589 -0.0612549 -0.0801376 -0.0867195 0.0944646 0.108082 0.339368 -0.123696 -0.210818 0.0102394 0.0874548 0.148155 -0.043745 -0.0607686 0.106876 0.0318861 -0.0629068 -0.0568011 -0.0474071 0.0414928 -0.0284931 -0.0198134 -0.0352606 0.133747 0.00622144 0.0254616 0.00825099 0.0677296 0.11438 -0.148077 0.194105 -0.0839584 -0.294269 -0.0608592 0.112411 -0.297254 -0.106353 0.243466 -0.0542793 0.234423 0.0955357 -0.141244 0.113744 -0.0750081 -0.0868711 -0.019301 0.211247 -0.00340647 0.0377383 -0.0228301 0.238519 0.155902 0.00558164 0.175272 -0.0451144 0.262608 -0.0716713 -0.0939609 0.11501 0.0646422 -0.067354 0.129969 -0.0486809 0.0592005 -0.0446241 -0.0585747 0.177306 -0.199962 -0.139366 0.0622478 -0.0570732 -0.00972268 0.0538292 -0.07052 0.186364 0.0130383 0.00271832 -0.130311 0.0879187 -0.0995903 0.0507545 -0.0833568 0.0188111 0.0758229 -0.0976794 0.0622702 -0.0524013 -0.0834937 -0.102733 0.0459814 0.126354 0.201989 -0.0382186 -0.103333 -0.0226842 -0.180529 -0.0453576 0.0840879 0.249299 -0.242497 -0.0447544 -0.0526813 0.0836088 0.0833889 0.0455893 0.0145981 -0.155817 -0.107503 0.0908341 0.0778037 -0.063423 -0.258526 -0.022015 -0.0589049 -0.103858 0.138498 0.03826 0.0455954 -0.160372 -0.0552576 -0.0990083 -0.04154 -0.011767 -0.0970073 0.0548857 0.210864 0.072974 -0.143503 -0.0175262 0.227505 0.190597 0.0093268 0.205564 0.293805 -0.0871459 -0.102586 0.14925 -0.135224 -0.0367227 0.111676 -0.0565852 -0.0792954 -0.0105895 -0.137298 0.0675984 -0.11849 0.167094 0.0210652 -0.0264291 0.198609 0.0345436 0.209252 0.0498281 0.1124 0.120972 -0.137787 -0.051648 0.126585 -0.124217 -0.155348 -0.00479836 0.0190462 -0.18365 0.147895 -0.136521 0.140915 0.042569 -0.0593071 -0.0332334 0.0753169 0.0714805 0.0023916 -0.00969805 -0.130693 -0.136685 0.0685872 0.091006 -0.0453197 -0.0912141 0.107505 0.0326889 0.139993 -0.0571228 -0.0628151 0.0211223 -0.200469 0.108706 -0.077713 -0.0569927 -0.0438648 0.0215078 -0.0670248 -0.0802864 -0.064786 -0.127535 0.06366 0.0236877 0.0714221 0.135672 -0.0665828 -0.0877623 -0.00232998 -0.0522356 -0.0299883 0.0348146 0.0734198 -0.064054 -0.142541 0.0293709 -0.0303748 0.0690365 0.158777 -0.121096 -0.224649 0.116174 -0.10826 -0.130948 0.0650981 0.0234334 -0.0771451 0.111677 -0.0394026 -0.0103403 0.0146132 -0.157983 0.260005 0.0962228 -0.0592524 -0.0409966 -0.00927283 0.0874342 0.0702997 -0.064763 0.0302514 0.141685 0.104461 0.152566 -0.147422 0.00821295 -0.038024 -0.201658 0.288591 0.0565539 -0.086876 0.148114 0.0192434 -0.0236552 -0.120092 -0.0445519 0.0780769 0.196061 -0.0185697 -0.0669085 0.0394707 -0.112509 -0.155384 0.164554 -0.101569 -0.000764439 -0.0251272 -0.124043 0.0498339 -0.191256 -0.036942 -0.0355409 -0.0944156 0.0264186 0.0720166 -0.0326311 0.0374657 0.161394 0.0156844 0.163407 -0.130228 0.178846 0.0241554 -0.16509 -0.113459 0.11279 -0.102763 -0.0822313 -0.224715 0.0046033 0.0563536 0.118441 -0.0603025 -0.0511322 -0.0558859 0.0261244 -0.0464125 -0.064609 -0.0347557 0.11852 0.0732768 -0.115147 -0.0828527 -0.0725393 -0.120928 -0.0571031 0.0635595 0.0204531 -0.0336241 0.167682 -0.0512171 -0.11042 0.1722 -0.0891539 0.060135 0.0431115 0.211707 -0.113017 -0.0636853 0.27662 -0.0824351 0.104224 0.0172015 -0.100837 -0.0971533 -0.0581567 0.119896 0.104596 0.02416 -0.0458877 -0.00755122 -0.0590438 -0.168789 -0.0383041 -0.0380044 0.0535883 -0.0140111 0.151847 -0.195102 -0.123267 0.0126876 0.111118 -0.433712 0.144434 0.0541314 -0.0399843 -0.2316 0.0479449 0.0505412 -0.0138645 0.1089 0.203016 -0.277492 0.0249273 -0.0643012 0.0070298 0.0204474 -0.102521 0.123052 0.04819 -0.13677 0.050495 0.0962188 0.137989 0.0230616 0.0128114 -0.0201462 -0.0644804 -0.0645173 -0.0888701 -0.0951218 0.316834 0.10727 0.068281 -0.193531 0.100507 -0.0702866 0.0783471 -0.0970141 -0.0760316 0.12405 0.208387 -0.164486 -0.0406943 -0.015719 0.0486998 -0.0404202 -0.05302 0.0476723 -0.0948705 -0.112722 0.102995 -0.178781 0.143775 -0.113054 -0.0452049 0.131454 0.00756468 -0.029843 0.0905434 0.0833253 0.0160845 0.0415752 -0.115945 0.0348933 0.115295 -0.260712 0.0547051 -0.211088 0.0517106 -0.150023 0.0372026 0.0316692 0.17723 0.174784 -0.00920309 -0.103046 0.141539 0.0816266 -0.0680765 -0.0820911 -0.0743112 -0.259333 0.0525298 -0.0435681 -0.201787 0.0885594 -0.000774534 -0.196741 -0.0464589 0.0420304 -0.207209 -0.123052 0.0404909 -0.180592 0.169837 0.198733 -0.0407158 -0.0531292 0.0123189 -0.0724312 -0.0581513 -0.0031425 -0.0891711 -0.0966056 0.0493607 -0.0196794 0.0297511 -0.0924626 -0.0827168 -0.13894 0.0774751 0.0487941 0.0923158 -0.102618 -0.074587 0.0263905 0.0959623 0.0343568 0.0944021 0.00683423 0.132538 -0.0240349 -0.000693311 0.0231478 -0.144175 -0.129574 0.107347 -0.171714 -0.0511257 -0.104795 -0.0206812 -0.15405 -0.276596 0.153157 0.0787309 0.191263 -0.223632 0.231426 -0.150849 -0.182484 -0.0168778 0.0482447 0.00149234 0.212781 -0.0933184 0.0690142 -0.0740873 -0.0455938 -0.0392598 -0.0107287 0.204588 -0.0899978 0.036177 -0.0346345 0.172111 0.0353002 -0.129899 0.0406394 0.133148 -0.0067196 -0.166227 -0.087454 0.192525 0.0126652 0.0911375 0.349983 -0.147377 -0.125584 0.0440717 -0.0674107 0.200356 0.144279 -0.0379315 -0.123299 -0.138174 -0.146368 0.17711 0.159418 0.246735 0.228931 -0.12788 -0.114938 0.0995009 0.0613307 0.13282 -0.0876072 0.156288 0.0161063 0.0574933 0.00958885 -0.0464909 0.00427187 -0.203637 -0.0360895 0.1856 -0.00262826 -0.0206768 0.221669 -0.0685576 -0.236925 0.15931 -0.211628 -0.0104437 -0.0514179 0.100674 0.0789321 0.0674906 0.0477306 -0.16907 -0.00553535 0.0843237 0.149159 -0.0760516 -0.0564963 0.234931 0.211782 0.0480744 0.116239 0.0851507 0.0499736 0.0610068 0.0569271 -0.368173 -0.0430229 -0.00155123 0.0826454 -0.00492318 0.00556057 0.188221 0.00989942 0.219441 -0.0272312 -0.0777974 -0.125367 -0.0423977 0.184857 -0.17679 -0.0267559 -0.164916 0.148712 -0.0775871 0.040664 -0.0629717 -0.069468 -0.0685285 -0.0780191 0.0780012 -0.188422 0.0633105 -0.064848 -0.0061009 0.013397 0.0707157 -0.0122278 0.0149188 0.167773 0.0911233 -0.00868842 -0.209252 -0.0171244 -0.145814 0.192528 0.0688357 0.0947639 0.106612 0.143976 -0.0440107 0.294487 0.0865952 -0.0997685 0.115217 -0.0602483 0.181419 -0.139553 0.113783 0.0940009 -0.136101 0.00347523 -0.0506403 -0.030869 -0.12055 -0.24573 -0.0258174 -0.010497 -0.0628487 -0.152919 0.220655 -0.111042 -0.0258242 0.300534 -0.104263 -0.0208515 -0.0888368 -0.146029 0.0469884 0.00456437 -0.077979 0.0125727 0.0153769 -0.0528908 0.0244532 -0.0970881 -0.132258 0.0374029 0.0119025 0.0364252 0.0479361 -0.0645668 -0.183062 -0.0321634 -0.116579 0.0786361 0.0836918 -0.0935481 0.0244457 0.0821166 -0.16565 0.101238 0.0496328 0.0280964 0.206052 0.0211304 0.089423 0.000103595 0.115716 0.217583 -0.0196296 0.0760974 0.160774 0.243012 0.0810764 0.0865245 0.189196 -0.0417181 0.0783308 -0.0160853 0.0967657 -0.0235504 -0.212452 0.0484563 -0.0183326 0.0888527 -0.0274329 -0.0522318 0.105312 0.113763 0.0328651 0.144105 0.0627488 0.187605 0.0684409 0.286141 0.0716629 -0.000400232 -0.065323 -0.127179 0.181842 0.299535 0.0450873 0.00610096 0.0863372 0.0144066 0.00604316 0.0302876 -0.0508401 -0.168654 -0.027135 0.164422 -0.0210932 -0.185366 -0.137831 0.0662426 -0.063588 -0.199897 -0.0591619 0.0241899 -0.267142 0.10798 -0.0535982 -0.266998 0.0793755 0.0453905 -0.198259 0.077115 -0.0702955 -0.0259897 0.143789 -0.0984777 0.0805031 0.115788 0.0229619 -0.0664305 0.224125 0.0305876 -0.148716 -0.165619 -0.286659 -0.220771 -0.0989788 0.0878866 -0.0226278 0.0423128 0.190756 -0.0396979 0.0284772 -0.0424519 0.0606292 0.0128899 0.0907932 0.0976376 -0.0849065 -0.121183 -0.107062 0.259183 0.0799117 0.263852 -0.186425 -0.0446946 0.163512 -0.226199 0.0493395 -0.00977609 -0.0965095 0.00800814 0.127477 0.0503356 -0.0619781 0.0266482 0.120284 -0.0147463 0.103468 0.0902072 -0.105911 -0.074964 -0.13646 -0.132266 0.0170131 -0.168987 -0.0785874 0.0147433 0.0106538 -0.0441701 0.0568652 -0.00533795 -0.0445075 0.073509 -0.0684835 -0.0264278 -0.108608 -0.0157358 0.0313984 -0.130459 0.173225 0.0279191 -0.0787645 -0.195033 0.0116252 -0.0196866 -0.107698 -0.0291413 -0.0895785 0.0470169 -0.138749 0.239844 0.0389675 0.220716 0.0461073 0.0823147 -0.0298015 0.0119355 -0.00431211 -0.0917817 0.121556 -0.0391651 0.0603056 0.0447488 -0.119982 0.192926 -0.0499508 -0.0275279 -0.198688 0.19886 0.189397 0.027724 -0.0854645 0.0661987 0.0480631 -0.0991837 0.113661 -0.243107 -0.0257094 0.117917 -0.229072 -0.0419617 0.14855 0.0973783 -0.148094 -0.0127862 -0.096116 -0.0527277 0.114436 0.194215 -0.183684 0.0359813 -0.0536729 0.0390798 -0.14444 0.0348273 0.0722797 0.0218599 -0.0418322 -0.0290263 0.0517914 -0.192084 -0.219393 -0.00974401 -0.0717594 0.019759 -0.0618311 -0.00304459 0.164996 0.107725 0.217957 0.199972 -0.0378129 -0.0371167 -0.0313056 -0.175873 -0.157625 -0.183806 -0.0267589 0.116228 -0.108723 0.012016 0.168379 0.0392995 -0.185747 0.0787198 -0.170874 -0.169848 -0.0282614 0.0488121 0.0928176 -0.133721 0.0230254 0.0462866 -0.0314236 -0.133673 -0.170664 0.0677766 0.117097 -0.103515 0.0816799 0.0617561 -0.013713 -0.0731189 0.00123672 0.0612064 0.094892 -0.287548 -0.0520845 0.0596096 -0.0625814 0.052443 -0.0994185 0.0485141 -0.0556248 -0.0587073 -0.119372 0.0407537 0.0698595 0.0608406 0.00551406 -0.0863571 -0.0615811 -0.22958 0.0480783 -0.0501404 -0.13125 -0.0410959 -0.159465 -0.125924 -0.0875802 -0.13284 -0.0122258 -0.11408 0.0491661 0.0622967 0.0677303 -0.198633 -0.178057 -0.165888 -0.0758438 -0.128235 -0.116463 -0.117025 -0.0216644 0.0611319 -0.00837338 0.0871946 -0.0777795 -0.208596 0.134292 0.0607779 -0.116315 0.042917 0.0801896 0.0133065 0.0982136 -0.0035455 -0.0437488 0.0866664 -0.000377182 0.0704239 -0.0370236 -0.134703 0.15297 -0.144273 0.0214362 -0.0766709 0.141183 0.0470996 -0.123087 0.00236876 0.0664528 0.040202 0.0358028 -0.0602834 -0.020255 0.198954 -0.269093 -0.202554 0.0850181 -0.185345 -0.098724 0.193836 -0.0773264 0.0436396 0.123063 -0.222878 0.159171 -0.0118927 0.0656101 -0.0709362 0.0706814 -0.0102066 -0.201399 0.0022701 0.0278651 0.0099363 0.195532 0.0838468 -0.0688841 -0.14393 -0.0568944 0.329177 -0.108213 -0.111028 0.049027 0.174992 0.0157753 -0.0110666 -0.015301 -0.0759796 -0.0567443 -0.0553479 0.194457 0.0899905 -0.0265115 0.00139111 0.0124645 -0.0523127 -0.162627 0.051083 -0.0374056 -0.0490709 0.0422055 0.0777395 -0.00244498 -0.195796 -0.154746 -0.0326215 -0.28847 -0.140974 0.0430909 0.0697746 0.0781045 -0.18797 -0.152414 0.0766405 0.0225307 0.0175905 -0.0274863 -0.108831 0.0345331 -0.220772 0.0856479 -0.0819952 -0.0869299 0.069838 0.124867 -0.0872588 0.0773129 0.176491 -0.00314404 0.101164 -0.0167527 0.165099 -0.0181243 0.0982701 0.0990652 -0.0100394 0.220943 -0.326826 0.0612638 -0.0668891 -0.0303971 0.134786 0.046783 0.0732544 -0.124173 -0.0967677 -0.0334032 0.0263467 -0.0546023 -0.0808808 -0.0262099 -0.0494055 -0.0232633 -0.121341 0.0868159 0.209459 -0.198282 -0.18499 0.134976 -0.151844 -0.0557687 -0.0625721 0.034829 -0.040017 0.195632 -0.0226235 0.0867951 0.274838 0.152389 0.205336 0.0321897 -0.194459 0.261372 0.106935 -0.116485 0.0976717 -0.11488 0.0690096 0.113845 -0.0559074 0.018272 -0.167487 -0.283323 -0.137699 -0.188295 0.0201365 0.130846 0.0972314 -0.263489 -0.025249 -0.0678092 -0.0478617 0.0833082 0.155652 -0.0567055 -0.252067 -0.136984 -0.134949 -0.121692 -0.0350586 -0.0554987 0.150728 0.0473543 0.0163456 0.129953 0.0696994 0.0254807 -0.1494 -0.00464995 0.0545989 0.0816149 0.0913902 0.0694564 -0.129134 0.028698 -0.169976 0.0596288 -0.0592609 0.0409173 -0.128774 0.0812203 0.191906 -0.0295541 0.0802198 -0.110588 -0.0289272 -0.00649036 0.0824364 0.107219 0.0208332 -0.161671 -0.112181 0.0198806 -0.044461 0.0896906 0.0799694 -0.122832 0.101569 -0.0640498 -0.0597069 0.16501 -0.0895453 0.047653 0.16406 0.000126333 0.00127796 0.0653437 0.208584 0.0744171 -0.00584779 -0.100489 0.0801289 -0.0109583 0.0598767 -0.0916873 -0.105046 0.148018 0.108787 0.224642 0.00137481 0.141441 -0.0128711 0.119137 0.0216281 -0.0546558 -0.0679986 0.0999057 -0.0681904 -0.123485 0.242238 0.345769 -0.06097 0.0718129 0.146384 0.0624416 0.0556068 0.0837916 0.0361676 0.219148 0.133225 0.00455081 0.0197426 0.222036 0.0703007 -0.00405625 0.0502876 0.0436822 0.206263 0.0965401 0.218569 0.0794638 -0.0219715 0.0139386 -0.0292288 -0.0310838 -0.165845 -0.0554234 0.0873576 0.018991 0.167169 0.0562082 -0.095427 0.0269401 0.212894 0.0020024 0.262475 0.167409 -0.0358201 -0.131411 0.053968 0.0668469 0.057382 0.283311 -0.0579765 0.187151 0.145249 0.0347029 -0.122966 0.0449766 0.196234 0.112557 0.09219 -0.0864151 -0.066677 0.120419 0.120245 -0.181052 0.0332225 -0.056803 0.0926438 0.0555217 0.0762285 -0.00173709 -0.104695 -0.0778533 0.0429812 -0.0229998 -0.152439 0.204584 0.0239381 -0.0343647 -0.0633679 0.00813016 0.0648874 -0.242459 0.0190663 0.0486231 0.0237292 -0.0133138 0.166761 0.147853 -0.073318 -0.0801524 0.0438907 -0.0637443 -0.0946006 -0.100573 -0.165574 0.0627429 0.0682921 -0.308701 0.121635 0.0656897 0.0265088 0.112337 -0.193773 -0.11691 -0.149544 -0.00667985 -0.00569823 0.0617113 0.0374609 -0.0859337 -0.0638567 -0.0334899 0.106535 0.0194932 0.114927 -0.145938 -0.08956 0.23503 0.0528331 -0.0238655 -0.0617079 0.164674 0.0881563 -0.105354 0.128152 0.121015 0.157582 0.171468 -0.0717857 -0.225832 -0.161638 -0.197038 -0.0738577 0.129773 -0.0102259 0.0920617 -0.01825 0.0416871 0.104197 -0.0521295 -0.23612 -0.151948 -0.0254316 -0.392082 -0.0418855 0.0502537 -0.134654 -0.0532031 0.0863577 -0.11914 0.0112237 0.167835 0.0580122 -0.0847077 0.131166 0.053452 -0.092723 0.068854 -0.00409362 -0.181128 0.0702513 0.0175584 -0.0820538 0.0201812 0.0495835 -0.000441445 0.0681529 0.0846549 -0.0911135 -0.0449159 0.082076 -0.046119 -0.0348581 0.0791933 0.0889658 0.0669852 -0.164059 0.106387 0.0255274 -0.0194543 -0.083876 0.292801 0.0712316 0.15122 -0.0496059 0.0153176 0.16699 0.0663244 -0.0457496 -0.0329716 -0.0420426 -0.301611 0.0331525 0.130716 -0.101773 -0.0770896 0.0496221 0.149094 0.00418335 0.140158 -0.0225541 0.0800926 0.0528841 0.0143659 -0.0162889 -0.0437369 -0.0760185 -0.0799802 0.173033 -0.0693147 0.0988555 -0.155049 -0.114515 -0.0232517 -0.0817864 0.0356776 0.108448 -0.0280687 -0.0190443 0.0693702 0.0767603 -0.0189581 -0.0273529 -0.108461 0.0631167 -0.0832853 -0.061524 0.0188407 0.0421777 0.0573652 0.148555 0.119344 0.014371 0.0399475 0.0247266 -0.0516808 -0.0424239 0.121554 -0.100547 0.0443575 0.03273 -0.0845659 0.128946 0.09622 0.0988253 -0.0203558 0.0290975 0.0999313 0.0876313 -0.00967695 -0.130077 -0.0107432 0.074216 0.0306307 0.0686515 0.11209 0.0510726 -0.0905654 0.0701275 0.090198 -0.0992957 0.00540233 0.0940619 -0.301602 -0.0659403 0.0975657 0.0778053 -0.0953714 0.117131 -0.204595 0.0365771 -0.102795 -0.212791 -0.202929 -0.10327 0.0126633 0.05289 -0.00796581 0.168451 -0.145028 0.011345 -0.237134 -0.119458 0.190955 0.116797 -0.194932 -0.115854 -0.063465 0.0772052 -0.156394 -0.046959 -0.0260946 0.0447689 0.0104762 0.260194 -0.177861 -0.0917588 0.106974 0.0203887 0.17731 0.305108 -0.000223162 -0.0415689 0.0233802 0.0269861 -0.185069 -0.0590209 0.0249115 -0.0892846 -0.0784076 0.119431 -0.0139733 0.0768958 0.0412655 -0.347767 -0.170581 -0.0917639 0.0819582 0.0605492 -0.0422812 0.0159503 0.0250704 -0.185819 -0.125021 0.00638446 0.0297212 -0.0484464 -0.052306 0.289034 -0.0647374 -0.210675 0.0846476 -0.0511 0.0140496 -0.0293393 0.121035 0.065649 0.0828212 -0.0297437 0.03303 0.22108 0.195901 -0.102388 0.0851665 0.0100647 -0.0299266 0.00464775 0.132748 -0.0287096 0.0158262 0.0916053 0.108548 -0.108375 0.125349 -0.339662 -0.090736 0.0205706 