-0.00545448 -0.0486051 0.0306024 -0.0480839 0.00148786 0.0333101 0.00150291 -0.0235519 0.0206851 0.00897555 0.0950184 0.0166239 0.0456588 0.0350351 -0.00571726 -0.0150627 -0.0307305 0.0585144 -0.0418521 -0.119513 -0.034558 -0.0233251 -0.0901264 0.00225252 -0.0400088 -0.721715 -0.781607 -0.799843 -0.811505 -0.200107 0.151351 -0.329125 -0.119712 0.121617 0.087772 0.481921 0.374897 -0.533596 1.05532 0.239672 0.240399 0.581516 0.367735 0.605671 0.200317 -0.52147 0.511555 -0.129048 -0.191091 -0.315526 -0.075162 0.0167542 -0.191858 -0.167402 -0.145569 0.132572 -0.373073 0.301552 0.121046 0.368868 -0.233331 0.616861 0.115285 -0.0202408 0.426457 -0.613405 -0.150133 0.383672 -0.0470334 -0.376991 0.177355 0.221254 0.600502 0.77413 -0.850756 -0.00124439 0.0057011 0.0892262 -0.0566539 0.123776 -0.0200149 -0.187675 -0.154692 0.071866 0.0757347 0.0108117 0.0421768 -0.130776 0.199812 0.124597 0.00676037 -0.0654302 -0.0104525 -0.106765 -0.0124725 -0.0175203 -0.0301693 -0.109497 -0.0113334 -0.0238441 -0.487311 -0.0967354 -0.0112139 0.093386 -0.125627 -0.254309 0.0124529 -0.187146 0.340393 0.423477 -0.194178 -0.011881 0.159988 0.224742 0.359798 0.39236 -0.309673 0.00639923 0.248709 -0.213432 -0.114608 0.19904 -0.158899 0.0348135 -0.457943 -0.218538 -0.296178 -0.0976273 -0.0765899 -0.362071 -0.397157 -0.408645 -0.0473628 0.169242 0.357783 -0.533145 0.0874391 1.14972 0.353906 0.459731 -0.930506 0.0500882 0.0725678 0.297996 0.563246 -0.226899 -0.236938 0.208202 0.443299 0.176837 -0.00690227 0.0536564 0.0702307 -0.0176788 0.0472377 0.0364111 0.011046 0.0180594 0.000367479 -0.00981735 -0.0657388 0.0101839 0.0646483 0.0391811 -0.0370383 -0.0635311 -0.0290107 -0.0138998 -0.0221839 -0.0371293 0.100473 -0.111568 0.0113639 -0.011909 -0.0808094 0.199934 0.118132 -0.226185 -0.565297 -0.0297875 -0.126968 0.125256 0.120788 0.423544 -0.263338 -0.0207664 -0.0687778 -0.296982 0.22282 0.195841 0.58162 -0.258511 0.00174306 0.103437 -0.344912 0.279799 0.317554 0.477324 0.385445 -0.752191 -0.291799 -0.198973 -0.425328 0.00440813 -0.153465 0.00156476 -1.00004 -0.955728 -0.341275 -0.205439 0.472261 0.140849 -0.326159 -0.00703092 0.917057 -0.107688 0.253574 0.681311 0.170917 0.448813 0.278242 0.0686898 0.26048 0.12793 0.344987 0.0257021 -0.0705532 -0.0122122 -0.0750136 -0.0279816 0.00645895 -0.0667605 0.0186901 0.0321251 -0.0343112 -0.0999208 -0.0465502 0.0244574 -0.0730884 0.0508003 0.0566888 0.0016376 0.0501595 -0.0649307 -0.0679136 0.0046906 0.011601 -0.0230944 -0.03217 -0.0630053 -0.252415 -0.7013 0.193581 0.316821 0.184705 -0.647922 -0.509631 -0.274118 -0.174033 -0.143574 -0.535837 -0.258022 -0.17345 -0.195295 0.0725169 -0.513929 0.00487258 0.0344089 -0.431347 -0.0978693 -0.496779 -0.361726 0.300952 -0.356364 -0.379256 -0.374659 -0.298059 0.398949 -0.340283 -0.172939 -0.551436 0.139306 -0.524025 0.254187 -0.114635 0.362093 0.513737 0.275896 0.640984 0.0847053 -0.173636 -0.367269 -0.044798 0.695799 -0.0691639 -0.53693 -1.02422 -0.465199 -0.393595 1.04791 0.0233999 -0.0635184 0.0141745 -0.00956966 0.0239098 0.00831011 0.0166886 -0.0310783 0.0545806 -0.0329286 0.0354566 -0.0819964 0.0628568 -0.00168201 -0.00966723 -0.00938256 -0.053902 -0.0848261 -0.022734 0.00781965 -0.0797732 0.00795386 0.0568021 0.0158192 0.00534507 -0.533288 -0.463469 -0.32037 -0.772564 -0.537254 -0.0245455 -0.0561313 -0.247395 -0.167651 -0.434057 0.501264 0.660617 0.298839 0.0318293 0.139326 0.508514 0.0265017 0.100195 0.58447 0.383813 0.323548 0.53152 0.974539 -0.209209 0.235163 0.192924 -1.404 -1.19677 -0.672433 -0.332049 0.190494 0.362637 0.318862 0.423358 0.387061 0.27938 0.230262 0.127334 0.466702 -0.052746 0.66259 -0.865857 -0.655756 -0.254637 0.194654 -0.518151 0.0253112 0.229404 -0.327688 0.196293 0.271828 0.38276 0.0129443 -0.193753 0.572994 0.0985478 0.381635 -0.153091 0.255209 0.290908 -0.346995 -0.522609 -1.19683 -0.177361 0.130011 0.254689 0.12585 -0.597041 -0.683067 0.1817 0.107727 -0.123175 -0.169501 -0.655828 0.595729 -0.0580216 0.122547 0.00150058 0.371671 0.0441145 0.10897 -0.00812566 0.118959 -0.242361 0.0255135 0.0140999 0.136536 -0.120138 0.120172 -0.145528 0.0034472 -0.0461773 0.0900712 0.142542 -0.00543639 0.0227939 -0.0588515 0.034508 -0.0966451 -0.0623383 0.508141 0.481138 -0.186652 1.12079 -0.568011 -0.140144 -0.196766 0.34006 0.00174297 0.14786 -0.0310314 -0.0421577 -0.193538 -0.439885 0.720968 -0.460965 0.0934227 -0.230645 -0.0261436 0.313343 -0.291526 -1.08935 0.388908 -0.0295239 -0.641467 -0.169253 -0.0948072 -0.00706858 -0.0574575 -0.224947 -0.14297 -0.029356 -0.0639772 0.0194159 0.162523 -0.10102 -0.0599778 0.0392059 -0.0316838 0.472381 0.0406613 -0.0298559 0.0340204 -0.0661388 0.0197873 -0.0826042 0.0164137 0.0171717 0.0530821 0.00632326 -0.0899968 -0.176831 0.213589 0.322382 -0.013411 0.0921505 -0.443148 0.655163 0.120378 0.202671 -0.173343 0.243875 -0.154115 0.126044 -0.118963 -0.149138 0.162428 0.155271 -0.172168 0.0655766 -0.847315 -0.183946 -0.393276 -0.266365 -0.052517 -0.0611102 -0.0556539 -0.805474 -0.01048 -0.238988 -0.0818641 -0.116505 -0.51724 -0.565607 0.381639 0.541451 0.193873 -1.26651 0.287371 -0.255424 0.624572 -0.0450408 -0.508294 -0.594574 -0.207151 0.39828 0.892891 1.35861 -0.060036 -0.517045 0.0161135 0.116718 0.0387594 0.0399085 0.0207004 0.0532751 -0.0367235 0.053702 -0.0947874 0.0670538 0.0673815 -0.00547756 -0.014821 -0.00653243 -0.0546647 -0.0357487 0.118302 0.0111767 -0.0331106 0.030571 -0.0835015 -0.0318042 0.00416032 0.00613026 -0.0435427 0.212497 -0.138862 -0.358239 -0.615834 -0.568479 -0.174845 0.486263 -0.238619 -0.186101 0.0664079 -0.0956795 0.201433 -0.443498 0.584052 0.133139 0.168866 -0.016278 -0.461158 -0.650422 0.451424 0.17068 -0.0688613 0.550428 -0.446536 0.0147367 -0.129416 0.348238 -0.330719 -0.440518 0.421601 -0.0646303 0.175815 -0.659539 -0.656126 -0.226232 -0.0301633 0.722608 0.235071 0.479807 -0.0270033 -0.0908675 0.269003 0.509445 0.211905 -0.250901 -0.0751951 -0.0310011 0.160787 -0.142764 0.243955 -0.365587 0.787038 0.457985 -0.186311 0.204609 -0.176823 0.141462 0.0753389 0.433085 -0.124078 -0.71722 -0.291522 0.575264 -0.018299 -0.230473 -0.101433 0.719 -0.185294 -0.14387 0.0441534 -0.00948115 -0.126163 -0.101994 -0.162842 0.00455937 0.426775 -0.44498 0.0498458 -0.203832 0.1981 0.118122 -0.528843 -0.349304 -0.581971 -0.103313 -0.543809 -0.0439585 -0.345687 0.356681 0.0369816 0.220988 0.722619 0.89624 0.359988 -0.216311 -0.735292 -0.4269 0.4254 0.242866 -0.39705 -0.109792 -0.144162 0.479095 -0.553889 0.0984201 0.00906765 -0.705261 -0.210546 0.186254 0.0621266 0.0727111 -0.216771 0.375835 0.340538 -0.0571815 0.0299113 0.220507 0.181206 -0.137159 -0.0850169 -0.0707135 -0.360013 -0.691895 0.233788 -0.0763689 -0.049822 -0.0224282 -0.0295418 -0.0299916 0.0350335 0.0394678 0.128579 -0.0470821 -0.0794436 0.00602908 0.0365167 0.0564127 -0.0183179 -0.0233211 0.0397647 0.0109049 -0.0250691 -0.0223079 -0.0196383 0.0142461 -0.0115913 -0.00922433 -0.0149229 0.0493816 0.00229063 -0.192191 -0.0859496 -0.25959 -0.186559 -0.392802 -0.562356 -0.305252 -0.693017 0.149003 0.559561 0.543058 0.803338 0.136465 0.237233 0.268695 0.587874 0.829501 0.356305 -0.061465 0.767935 0.202513 -0.278506 0.0485008 -0.209934 -0.320691 -0.225754 -0.574184 -0.498834 0.372275 -0.00663524 -0.292617 -0.0762917 0.110883 0.83246 0.38933 -0.0255085 0.0811281 -0.416764 0.359524 0.113571 -0.372979 -0.300744 -0.701945 -0.170019 -0.479706 -0.483303 -0.813908 -0.259533 -0.440796 0.420492 -0.594775 -0.199133 -0.135178 -0.0155649 0.271542 -0.0427938 -0.110873 -0.365541 -0.360422 -0.174494 0.284642 -0.234371 -0.527092 0.403052 -0.122578 -0.195153 0.100769 -0.293182 -0.00840666 -0.535081 0.688595 -0.0321197 0.561031 -0.39476 0.0813163 -0.734827 -0.599159 0.254468 -0.254147 0.858854 0.071043 -0.106299 0.536418 -0.36009 0.17933 0.378364 0.118148 -0.255401 0.223581 -0.12766 0.917768 -0.605592 -0.637145 0.44737 0.192392 0.184386 0.867007 0.223033 -0.129104 0.0450819 0.325543 -0.197759 0.519904 -0.132381 -0.472388 -0.269193 -0.49835 -0.209737 -0.0944434 -0.38287 0.164171 0.814345 0.181351 -0.541601 -0.00054096 -0.0879746 -0.195696 0.494466 0.00989431 0.318387 -0.392084 1.10259 -0.343404 0.87983 -0.738792 0.0246955 -0.597914 -0.51637 -0.245807 -0.066534 0.449596 -0.164264 -0.233535 -0.455087 0.225472 0.21248 -0.0896282 0.239196 -0.0790269 -0.334681 0.130193 -1.11824 -0.0319877 -0.81048 -0.251412 -0.460135 1.07796 0.71423 0.802798 -0.195431 -0.91052 -0.521412 -0.655156 0.597685 -0.270669 -0.376053 -0.110992 0.175207 0.20771 -0.0646512 -0.336128 0.226616 1.35099 0.930092 0.145744 -0.425971 -0.261448 0.0294111 0.377963 -0.220566 0.460459 0.442856 -0.840009 -0.287234 0.059913 0.20786 0.0382722 0.311305 -0.021807 0.087177 0.275499 0.0906015 0.264552 -0.222599 0.0664052 0.189373 0.218063 -0.0875662 0.0671221 -0.140419 -0.243033 0.0547524 0.0559215 -0.350046 -0.193115 -0.66998 -0.126488 -0.124096 -0.994354 -0.482697 0.0996105 0.0379737 -0.0210062 -0.0203996 -0.0171655 0.0308526 0.0206282 -0.0250457 0.0122337 0.0559242 0.0359436 0.0545145 -0.0599501 0.00123534 -0.0148854 -0.0774273 0.0867048 0.0183951 -0.0355791 0.0561176 0.00632866 -0.0293081 -0.045996 -0.0148286 0.0277199 0.894346 -0.319185 0.375979 -0.188756 -0.0653301 0.261398 0.489859 -0.012294 0.170101 0.659843 0.155385 -0.785065 -0.67442 -0.0900439 0.371258 -0.498953 -0.47798 -0.740912 -0.503655 0.28761 -0.72689 0.299847 0.352382 -0.680237 0.332981 -0.0353746 -0.140818 0.0112967 0.198196 0.475008 -0.104999 -0.570392 -0.349688 0.291288 0.116855 0.254351 -0.0506947 -0.239817 -0.0498926 0.034774 0.34088 -0.292106 0.184537 0.223218 0.0303005 -0.262145 -0.249117 0.0853041 -0.196935 0.287227 -0.285555 0.134175 0.253291 -0.0468981 0.162172 -0.286318 -0.435537 -0.740526 -0.207245 0.245793 -0.0486174 -0.0966415 0.333819 -0.413212 0.0115917 -0.489394 0.0200965 0.16982 -0.565682 -0.392298 -0.51991 -0.279703 0.522058 -0.315454 -0.0375197 -0.0613718 -0.0183645 -0.0177573 0.0189131 -0.00616417 0.0596113 -0.0724924 -0.0439349 0.00103854 0.0395932 -0.167668 0.054763 0.0220583 -0.0122575 -0.0849471 0.0153416 0.0176135 -0.00510591 0.0419841 0.0800658 -0.103146 0.0136558 -0.0266449 0.00225202 0.00796585 0.209417 -0.377168 0.0907124 0.157045 0.367021 -0.221725 -0.411139 0.364752 -0.103566 0.330344 -0.357748 -0.319374 -0.280556 0.276632 0.499663 -0.00599142 -0.275194 -0.00232804 0.488465 0.231579 0.335406 0.31405 0.445763 0.29885 0.401169 0.46152 -0.048547 -0.0888356 0.664629 -0.089617 0.196013 0.297751 0.0774361 0.0818789 -0.341529 0.304643 0.24941 0.103768 0.325167 -0.825529 0.132529 0.167387 0.22259 -0.117002 -0.625467 0.362068 -0.35022 0.106063 0.0505002 -0.188525 0.0585729 -0.0843933 -0.034431 -0.0735424 -0.00621414 0.0699052 -0.104847 0.117327 -0.0111214 -0.126281 0.109423 -0.0393106 -0.0191646 -0.0333807 -0.0772071 -0.0359217 0.038089 -0.119213 -0.0157305 -0.0512891 0.04597 -0.0872567 -0.155904 0.0149839 0.000578219 -0.117359 -0.119394 0.000297816 -0.103215 -0.0553026 -0.0018642 -0.34548 0.146506 -0.0229358 -0.186857 -0.107233 0.00845156 0.121615 0.109608 -0.0503608 -0.0162566 -0.146676 0.0177747 0.0510544 0.114853 0.230761 0.0360144 -0.0469333 -0.0692658 0.0281346 0.0371652 0.373255 0.429625 0.301228 -0.545212 -0.336665 0.117401 0.504118 0.213717 -0.550144 0.0727249 0.414137 0.269826 0.384685 -0.529866 -0.441433 -0.233642 0.230306 0.397474 -0.343244 0.0144266 0.297214 0.106787 0.227797 -0.0504409 0.0184973 0.000572173 0.0815814 -0.0357788 0.0264604 -0.0284055 -0.0174809 -0.0150524 -0.00411343 0.0784403 -0.0345057 0.0138705 -0.0132791 0.0659885 0.0135343 -0.0498041 0.0155814 0.0510498 -0.00257633 -0.0637323 -0.0335304 0.0738151 0.00485589 0.0349426 0.134185 -0.226056 -0.439682 -0.0616962 0.0625901 0.251587 0.0400369 -0.141432 -0.239911 -0.243673 -0.0185389 0.0791632 -0.102771 -0.0691634 -0.00907458 0.173307 0.131935 -0.109646 -0.235724 -0.140537 0.294654 0.260347 0.0862013 -0.0806586 0.320663 0.734809 0.257694 0.00852527 0.237462 0.41975 0.583478 -0.184551 0.339854 0.182287 -0.00814282 0.188893 -0.311311 -0.148363 -0.177277 -0.251856 0.259504 -0.301664 -0.310428 -0.360912 -0.0992148 0.241813 -0.379539 -0.703226 -0.552808 -0.13097 0.765724 0.0184674 0.044144 0.0309487 0.015982 0.0197549 0.0174193 -0.141915 -0.0165462 0.000402439 0.031101 -0.00470306 -0.00139003 0.0683057 0.00366302 0.083679 -0.00949955 -0.0301093 -0.0496968 -0.0194889 0.0681059 -0.0680627 -0.00870742 -0.0619288 0.0581212 -0.0294571 0.0548932 0.288852 -0.0120182 0.162614 0.41221 0.0268839 0.160659 0.0707139 -0.00386778 0.384788 -0.227104 0.452305 0.165475 0.206375 0.611394 -0.155436 0.284224 -0.0145238 0.123114 0.408732 -0.0841663 0.23747 0.164578 0.293935 0.456652 0.490777 -0.136823 -0.104201 0.380568 0.199036 0.438789 -0.15563 0.305987 0.0469724 0.0596729 0.524446 -0.529614 -0.270103 0.160035 -0.370201 0.0366491 0.232683 -0.274074 0.0770191 0.262558 0.239159 0.345077 0.355368 0.370199 -0.0171518 -0.00914187 -0.0320091 -0.0517 0.0229764 0.00594405 -0.0284666 0.00345415 0.00422584 -0.0189877 0.0157113 -0.0305827 -0.0459349 0.0162443 0.00375442 0.0133295 0.0197323 -0.0188104 -0.0630367 -0.00633398 -0.0415768 0.0305818 0.0313386 -0.0347274 0.00503926 0.0242922 -0.212824 0.0485977 0.0168889 0.0299642 0.946736 -0.217502 -0.0213032 -0.233166 0.164989 0.636727 -0.352496 -0.146382 -0.0332522 -0.0486681 0.219351 -0.175234 0.330724 0.180598 0.0179883 0.0077112 0.0236534 0.358591 0.254588 -0.208555 0.231303 0.17257 0.040961 0.5422 0.363298 0.0683704 0.174602 -0.237141 -0.0105939 -0.0692328 0.0327223 0.247297 -0.0936325 -0.256165 -0.451849 0.0207608 0.648938 0.149097 0.151882 -0.0266642 0.228403 0.637646 0.536941 0.561943 0.457855 0.188223 0.241828 0.524934 0.312072 0.302764 -0.388049 0.204234 0.125042 0.154897 -0.312715 -0.276649 0.257502 0.243764 0.41916 -0.0958598 0.128409 0.334043 -0.104603 0.170781 -0.168333 -0.232659 0.0840165 -0.0627914 -0.0454594 0.223296 0.0831176 0.0162874 0.193877 0.0642476 0.0143806 -0.0246774 -0.121411 -0.276567 -0.163031 0.0107763 0.0557125 0.045215 0.00619104 -0.110018 -0.0852008 0.0424793 -0.0120409 0.0183295 0.00345061 -0.0343379 0.0160221 -0.0124873 -0.0580311 0.137391 0.0171491 0.176388 0.127385 -0.574962 -0.0158065 -0.0727664 0.785412 0.300606 0.0364536 0.115299 -0.122701 0.719041 0.237773 -0.18236 -0.138241 -0.132618 0.981836 0.310593 -0.238798 -0.363419 0.235768 0.543952 0.18991 0.117259 0.495504 0.048734 0.248483 -0.225559 0.0298447 -0.0164636 -0.114577 -0.0322009 -0.19775 0.000639066 -0.0468256 -0.00692871 -0.0153337 -0.132642 0.0798098 0.0276324 -0.0142995 -0.0165754 0.0124029 0.0193353 -0.0498462 -0.00409582 0.0803209 0.123757 -0.0463851 0.128628 0.0153304 0.351489 -0.273593 0.0525163 0.058068 -0.00516877 0.126665 -0.284817 0.140744 0.00316802 -0.0837218 0.0900723 -0.423857 0.0436843 0.00243956 -0.102291 0.0909464 -0.150656 0.202452 -0.0139639 0.203231 0.115762 -0.0181026 -0.0482642 0.321012 0.185828 0.0586263 -0.13684 -0.695886 -0.412858 -0.156168 -0.19307 -0.0177331 -0.273267 0.21742 0.00759995 -0.183785 0.216019 -0.363011 0.304886 -0.0502958 -0.10752 0.142769 -0.169611 -0.129615 -0.150388 0.00153871 0.21663 -0.35344 -0.255824 -0.149356 -0.300031 -0.026974 0.011914 -0.0170991 0.00556898 0.0667031 0.0443697 0.0862867 0.0861133 -0.0088045 -0.00795985 -0.00214655 -0.0550254 -0.0489421 -0.06785 -0.00753043 0.0511696 -0.0339863 0.0078923 0.069347 0.0190186 -0.0679629 0.033261 -0.0590345 -0.0583011 -0.0036073 -0.173744 -0.299261 -0.210215 0.0133151 -0.0253613 -0.0796461 -0.117924 -0.0989963 0.0532397 -0.148564 -0.0148451 -0.163479 -0.00323559 -0.238925 -0.129908 -0.0923068 0.191326 0.139391 -0.107414 -0.0645005 0.163971 0.187003 0.128829 0.1381 0.0760386 0.325028 -0.418471 -0.33219 0.164208 -0.787429 0.476144 -0.172761 -0.227109 0.406843 -0.450764 0.285788 0.0662254 0.073813 0.132345 -0.558073 0.307729 -0.00392795 -0.077366 -0.127108 -0.558711 0.320623 0.136675 0.0971133 0.0258051 -0.260549 0.375653 -0.0561343 0.170149 -0.253855 -0.201936 0.529952 0.375138 0.13099 -0.0287522 -0.0129611 0.712238 0.167695 0.0845459 0.12562 -0.0723794 0.793366 0.0283086 -0.106523 -0.0256879 0.00115723 0.533501 0.152897 0.303324 -0.300251 -0.0881708 -0.237378 0.265732 0.233003 0.490193 0.571638 -0.138765 0.119648 0.00225087 0.159445 0.593715 -0.132066 0.304476 0.0969252 0.170281 0.263055 -0.127932 0.406667 -0.215035 0.0980186 0.368396 0.484422 0.513151 0.129516 0.0147691 0.204562 0.178635 -0.0950015 -0.275413 -0.309579 0.305213 0.220603 -0.0194359 0.284189 0.0491015 0.768888 0.272949 -0.0409894 -0.0951088 0.0383214 0.674986 0.24187 -0.250422 -0.209547 -0.0438916 0.414004 0.132999 -0.0313029 0.0802942 0.215803 0.352688 0.074556 0.0345029 -0.0101646 0.00053335 0.00477898 -0.020057 -0.0623522 0.0195855 -0.0143415 -0.0188141 0.0161818 0.0298058 -0.000937423 -0.0750695 -0.0593305 -0.0125073 -0.110601 -0.0540503 0.0165213 0.026752 0.0299457 -0.0720689 -0.0584362 0.0293844 0.00863839 0.00552099 -0.00913393 0.0604061 -0.0501132 -0.243533 0.0274784 -0.230381 0.421572 0.0802707 -0.292563 -0.0853378 -0.0963481 -0.124514 0.080055 -0.0283785 -0.188703 -0.0610111 -0.20556 -0.0457656 0.148577 -0.143259 -0.0604133 -0.133144 0.172376 -0.0407334 1.01428 0.55113 0.161828 0.309293 -0.0228366 0.707577 -0.0531172 -0.0270643 0.250623 -0.312141 0.646851 -0.108566 0.232464 0.184673 -0.363215 0.7574 0.379457 0.0742885 -0.00474147 -0.241922 0.385847 0.0147032 0.126631 0.744681 -0.224866 0.209445 -0.0890491 -0.0134782 -0.186862 -0.458809 0.140959 0.0975747 0.0475664 0.0464339 -0.282935 0.348726 -0.128719 0.151056 0.220738 -0.105897 0.299584 -0.041143 -0.181292 -0.132716 -0.42984 0.479235 0.058966 0.104119 -0.11132 -0.431028 -0.554875 -0.127419 0.12667 -0.259545 0.0359425 -0.354685 -0.277092 0.179548 -0.0671746 0.134562 -0.642874 -0.118898 -0.00375796 -0.0125609 0.122231 -0.620204 -0.115689 0.0158625 -0.0637878 0.133552 -0.0494038 0.202462 -0.140817 0.22365 0.117044 -0.426094 -0.309924 -0.378171 -0.239733 0.174959 -0.378193 -0.295903 -0.238598 -0.209268 -0.220031 -0.00662811 0.0356248 0.178911 -0.258309 0.0448601 0.0433548 -0.0685615 0.189338 0.369312 0.09416 -0.123249 -0.0474466 -0.129913 0.0748226 0.247429 0.36363 0.264511 0.328792 0.440648 0.443946 -0.10373 0.0178538 0.13314 0.185386 0.13374 -0.145829 -0.17035 0.183949 0.0161904 -0.193099 0.0784445 -0.413067 0.0248433 0.195342 -0.440202 0.0741911 -0.176308 0.338895 0.318101 -0.0532251 0.119805 0.137537 0.218527 0.115152 -0.0782467 0.294288 0.265232 0.313764 0.287579 -0.0701117 0.15819 0.00943747 0.23767 0.0517612 -0.124774 0.1567 -0.0806966 -0.209745 0.00112568 0.27015 -0.0910258 -0.150102 -0.0953668 0.112941 0.468957 -0.350443 -0.00910045 0.0629067 0.0562183 0.0966449 -0.476466 0.0045945 0.0466346 0.18849 0.18972 -0.576972 -0.0155154 0.0454275 0.16802 -0.0910958 -0.176134 0.00458226 -0.153539 -0.0514168 -0.014477 0.0499003 0.0404054 0.0507962 -0.201451 -0.000121681 0.0489678 0.00628565 -0.0532771 0.0128395 0.0908754 0.0343454 0.027554 -0.0410444 -0.032844 0.0446547 0.0401278 -0.0709174 0.0103281 -0.0252939 0.0463256 0.0179488 0.0237514 -0.00302909 -0.0404945 -0.00671277 0.0145722 -0.0110853 -0.0614288 0.0763007 0.020982 -0.570691 0.27773 0.220089 0.449125 -0.171869 -0.906843 0.395749 0.141839 0.1599 0.116619 -0.600272 0.145081 0.193201 0.211515 -0.083748 -0.482067 0.160184 0.158643 0.628208 -0.0661249 -0.370914 0.278565 0.247339 0.205905 0.273793 -0.0604868 0.144644 0.200614 0.0332535 -0.167382 -0.337893 0.393303 0.526351 0.37313 -0.0799069 -0.665437 0.28835 0.129334 -0.0241089 0.134812 -0.08675 -0.0987068 0.167102 0.124508 0.400597 -0.124356 0.189025 0.177132 0.29138 0.232164 -0.0195247 -0.305934 -0.322369 0.0545531 0.0940395 0.00524966 -0.34023 0.0230486 0.298448 0.265711 0.220377 -0.015587 -0.047232 0.0833043 0.164236 0.21131 -0.21047 -0.206876 -0.0529768 0.139057 0.0535622 -0.15891 -0.218494 -0.0730224 0.184222 0.0225136 -0.0333742 0.0497687 0.0201402 -0.0355461 0.0265296 -0.00134685 -0.0691728 0.0266517 0.00232264 -0.0368022 0.000817235 0.0108939 -0.00859143 0.0190544 0.0261669 -0.0382875 -0.0206576 0.0261203 -0.0228794 -0.0198627 0.0244963 0.0282949 0.0228492 -0.0660458 0.463675 0.216098 0.890992 0.218916 -0.0855787 -0.109159 0.510475 0.38153 -0.283313 -0.258493 -0.325164 -0.56144 -0.995396 -0.360085 -0.42128 0.000322841 -0.480878 -1.30921 -0.643916 0.0616162 0.78567 -0.12719 0.253473 0.158696 -0.142977 0.255959 -0.0418983 -0.590944 -0.755343 0.216339 0.62003 -0.517762 -0.710563 -1.47978 0.313399 0.221879 -0.146474 -0.629924 -1.38982 0.584487 0.582903 0.0800942 -0.723255 -0.370678 0.868531 -0.469107 -0.662426 -0.274586 -1.04496 0.0511338 -0.00231541 0.0655154 -0.0854337 -0.00480158 -0.12015 -0.0510271 0.299921 -0.0812291 -0.182476 0.00392072 0.00111027 -0.132287 -0.107745 -0.0161182 -0.0797433 0.0337128 0.000167576 -0.107197 -0.055834 0.148717 0.0288681 0.15536 -0.252637 -0.0857169 -0.0320551 -0.0793643 -0.388587 -0.0721765 0.0339608 0.123759 0.0420443 -0.548044 -0.174788 -0.22994 0.334106 0.14675 -0.137006 0.00238421 0.174837 0.13418 -0.275991 0.370629 -0.0707124 -0.328828 0.183894 -0.446559 -0.328244 0.131775 -0.0284179 0.75727 0.408868 0.180329 -0.38205 -0.274692 -0.698479 -0.0208859 0.481027 0.354106 -0.259372 -0.578348 -0.527354 0.741333 0.103664 0.499361 -0.541037 0.813564 -0.00149272 0.493657 0.937648 -0.249032 -0.0999534 0.765049 1.18908 -0.138316 -0.226138 -0.0162049 0.00801594 0.00887762 -0.0712891 -0.0233085 0.00805703 -0.0316445 -0.0276381 0.048059 -0.00318219 0.0333552 0.019245 -0.130856 -0.0623925 -0.0316992 0.0338237 0.0255273 -0.0132684 0.00902063 0.012465 -0.0688186 -0.0453394 0.00449321 0.0129885 -0.0162583 -0.0191834 0.455312 0.161026 0.217539 -0.282761 0.564494 0.286759 0.625464 0.279189 -0.0224339 -0.507686 0.333739 0.744749 0.233377 -0.0336884 -0.539429 -0.335838 0.511172 0.291754 -0.0178328 -0.531046 -0.861292 -0.584762 -0.211026 -0.685573 -0.0657659 -0.397421 -0.326629 -0.290068 0.758612 0.258041 0.687149 0.417598 -0.0505648 -0.74317 -0.154128 0.491236 -0.136538 0.545935 0.06268 0.475554 -0.591021 -0.515005 -0.402815 0.0176238 0.166508 0.54391 0.14625 0.492382 -0.0100764 -0.0237715 -0.0344484 -0.000143473 0.016152 -0.0314175 -0.0503989 0.0490713 0.0272125 -0.00690244 0.0198743 0.102782 -0.00733933 -0.0162729 0.0595082 0.0497078 0.0123248 0.0102641 -0.0151074 -0.0569353 -0.0500317 0.0506986 0.0172411 0.0361304 -0.0538937 -0.0431983 0.168169 0.213883 0.555482 0.55703 0.54619 -0.543692 -0.659542 -0.498209 -0.22978 -0.520808 -0.245134 -0.347238 -0.144463 -0.367917 -0.830346 0.176934 -0.316638 0.0583216 -0.202692 -0.442883 -0.0126366 -0.186042 -0.133337 -0.420109 0.0871665 -0.463163 -0.0324009 0.063012 -0.120695 -0.285643 0.792892 0.117196 0.466179 -0.250006 0.327922 -0.157586 0.0547184 0.538425 0.490563 0.704459 -0.627387 -0.692809 -0.623071 -0.0880366 -0.0666236 -0.250425 -0.129028 -0.187395 -0.0702127 -0.482153 0.0165688 0.058317 0.00252283 -0.0560527 0.0221946 -0.0428524 0.0574147 -0.029848 0.00154574 -0.0279974 -0.0590171 0.0169563 -0.0119198 0.00477436 -0.0335947 -0.0566833 0.00346843 -0.0224192 -0.0580977 -0.0343741 -0.0885144 -0.0398205 -0.00769491 -0.00679097 -0.0580128 0.402852 0.437496 -0.0361079 0.568981 0.544936 -0.432363 -0.11232 0.19003 -0.392508 -0.0552371 -0.274071 0.728248 0.44822 -0.0405035 -0.257899 0.356182 0.246917 0.71219 0.205497 -0.353431 0.00301973 -0.617833 -0.721111 -0.0672267 -0.0138003 -0.551568 0.290235 -0.157107 -0.693997 0.0937496 0.0502072 0.44265 0.331552 -0.523509 -0.151846 0.195768 -0.686862 -0.298972 -0.518714 -0.186757 0.702911 0.594397 1.05109 -0.215839 -0.0732811 0.773472 -0.0615284 -0.617777 -1.08766 0.16619 -0.588755 -0.535854 0.0655573 0.163821 0.0834633 0.201345 -0.268585 -0.537115 0.154143 1.1299 0.0521786 -0.540474 0.111174 0.0105642 -0.583226 0.762509 0.681225 0.157472 0.413423 0.0253642 0.562446 0.0171123 -0.352927 0.307694 -0.0362961 0.183582 0.0648462 0.197937 -0.0642026 -0.00748245 0.0484567 0.0236126 0.163439 -0.143791 -0.0362887 0.151835 0.259644 0.0495836 -0.126572 -0.0441356 0.111397 -0.169907 0.077704 -0.0688077 2.3236e-05 0.0413756 0.0565315 0.0085 0.0603871 -0.0604151 -0.696043 -0.342835 0.0779183 0.186979 0.0652484 0.16152 0.416573 0.253534 0.416067 -0.420086 0.310108 -0.922755 0.0911883 0.464793 -0.293903 -0.480454 0.0300833 -0.147024 0.55761 0.184356 -0.246361 0.0422564 -0.8267 0.00894975 -0.305199 -0.11058 0.00704438 -0.0266787 0.144808 0.0343037 0.0978315 -0.0964128 -0.0767482 -0.0451544 -0.0818708 -0.183413 -0.055492 -0.0483463 -0.0328119 -0.331288 -0.20569 -0.0346935 -0.0172512 -0.0548133 -0.0906661 -0.1237 -0.123458 -0.0752459 -0.0496592 0.117344 0.284533 0.913721 0.139156 -0.427434 0.0885516 0.12423 0.176604 -0.557045 -0.221805 0.124656 0.499844 -0.411573 -0.362909 -0.378695 0.140328 -0.417925 -0.260823 -0.0737433 -0.0488803 -0.266926 0.082767 0.157144 -0.139552 -0.0627775 -0.162465 0.234549 0.0122255 0.205281 0.398781 0.685766 0.248274 0.310156 0.928377 0.45643 0.324461 -0.415473 0.0765147 0.715158 -0.021921 -0.170716 -0.246344 0.146795 0.186049 0.0586247 0.561049 -0.726009 -1.25079 -1.32524 0.158648 -0.118352 0.00902827 0.0101609 -0.0611721 0.0147799 -0.0194576 -0.00270693 -0.00889448 -0.0141416 0.00389395 -0.0409443 0.0780923 -0.0375218 -0.051777 -0.0128732 -0.00373119 0.0443759 -0.0995194 -0.0346467 -0.0295412 0.0428448 0.129089 0.025949 0.0399903 -0.0244874 0.0337453 0.228628 0.328895 0.269302 0.288937 0.570768 0.206455 0.0211039 -0.103874 0.0237643 0.00680647 -0.126103 -0.673983 -0.107947 -0.249362 -0.216806 -0.425181 0.104451 -0.406753 0.301505 -0.185118 0.00522982 -0.218436 0.0822673 -0.2623 -0.298284 -0.0185994 0.763832 1.21995 0.0880397 0.60443 0.0610182 0.112908 0.369448 0.0885973 0.183921 0.00715693 0.089776 -0.334015 -1.0468 0.616261 -0.0408024 -0.923721 -0.734454 0.172183 -0.242975 -0.132615 -0.355086 -0.755552 -0.689597 0.253334 -0.0748347 -0.461994 -0.163459 -0.111732 -0.578167 -0.273361 -0.294535 -0.538475 -0.633304 -0.585426 -0.354617 0.505578 0.0761165 -0.343998 0.512822 -0.312652 0.112251 0.67296 0.550041 0.367205 0.222581 0.108621 0.471822 0.712666 0.764512 0.0513012 -0.665758 -0.036119 -0.221821 -0.173553 -0.536034 -0.086087 0.717494 0.212732 -0.183223 0.714433 -0.00329036 0.185378 0.552344 0.0186089 0.861982 -0.285989 -0.0893185 0.0187726 0.354711 0.755469 -0.630021 -0.584508 -1.6997 -0.361335 0.0682801 -0.47894 0.158643 0.527883 -0.10291 -0.0598778 0.657462 0.0367821 -0.116631 -0.162961 -0.179794 0.243044 -0.00497508 -0.107967 -0.0241451 -0.0886469 -0.378014 -0.497062 -0.286061 0.212836 0.0380779 1.09688 -0.123225 -0.152595 -0.0721241 -0.0177504 0.0212122 -0.0429185 -0.0152451 0.042379 0.0357266 -0.0322386 0.0208769 -0.0350427 -0.0378359 0.0225215 -0.0788403 0.00178563 -0.0191372 -0.0365962 -0.00469802 0.049837 0.029915 0.0569637 -0.0307122 0.0369451 0.00899098 0.0546371 -0.0201886 0.0381955 -0.24114 0.0832043 -0.163053 -0.29211 0.383402 0.225691 0.323763 -0.121773 -0.0845919 0.525704 0.125985 0.402459 -0.0739136 -0.137957 0.0256888 -0.556828 -0.229972 -0.0753607 0.0338072 -0.509608 -0.344792 0.790169 0.177345 0.184063 0.133227 -0.143147 -0.430422 -0.983521 -0.660297 0.109478 0.115925 0.153781 -0.490204 -0.477358 0.000396956 0.327631 0.0166414 0.187191 -0.479894 0.124897 0.556958 -0.0691798 -0.517615 -0.225327 0.232023 0.585857 0.530265 -0.354163 -0.515179 0.43248 -0.206256 -0.29837 -0.826419 -0.315904 0.186961 -0.147404 -0.701903 -0.330485 -0.393999 0.175486 0.677824 0.464174 0.169885 0.528788 0.136172 0.42057 -0.0680075 0.230797 0.732392 0.542191 -0.334371 -0.24031 -0.705389 -0.108995 -0.0571447 -0.516117 -0.265527 -1.40952 -0.73165 -0.765432 0.0884966 0.443729 -0.690627 -0.548392 -0.362881 0.242321 0.0313051 0.687214 -0.219871 0.151186 0.440832 0.237552 0.911009 0.363336 -0.110929 0.225045 -0.439978 0.296414 -0.128973 -0.0748341 0.174135 -0.0456139 -1.0366 -0.168282 0.344254 0.25835 -0.139303 0.0528117 0.0689477 -0.357603 0.12046 -0.731907 -0.63901 -0.255496 -0.0854336 0.876416 0.367167 -0.152485 -0.151922 0.25536 0.588785 -0.963179 0.452035 -0.0214383 -0.727716 0.289008 0.169738 -0.285466 -0.302619 -0.210004 -0.444578 0.779658 0.938881 -0.104912 0.0432085 -0.302661 -0.0279932 -0.108107 0.148396 -0.181306 0.254345 0.905022 0.30903 0.314403 0.257773 0.179798 -0.497019 -0.693329 -0.257514 -0.233928 0.0195366 0.134636 -0.439157 -0.74675 -0.246678 -0.111089 -0.0254368 0.210503 -0.355991 -0.629133 0.549454 0.432786 -0.354167 0.327914 0.289588 0.0955566 0.349862 -0.314468 0.223605 0.359875 0.0680184 0.294278 -0.380866 -0.173146 0.141485 -0.0102647 0.0741767 -0.00278727 -0.035081 -0.111902 -0.250069 0.0652229 -0.126329 -0.33639 -0.184489 0.549843 0.0737979 -0.0323948 -0.0634143 -0.0741355 0.128895 -0.0144075 0.231767 0.42542 0.353161 -0.0194165 -0.0440801 -0.0711993 0.30577 -0.0620172 -0.00218665 0.00331922 -0.068574 -0.0174141 0.0425777 -0.0654941 0.00804806 -0.0198665 0.0541988 -0.0345983 0.000725919 -0.0577777 0.0214652 0.0101807 0.0412284 0.0608234 -0.0218609 0.0213247 -0.0555328 -0.0104399 -0.0125778 -0.0372491 -0.00239642 0.0132042 -0.0456088 0.071113 0.161691 0.260672 -0.260333 0.257665 0.737589 -0.0710084 0.380778 -0.126977 -0.220665 0.599655 0.490653 0.0301739 -0.116079 -0.102223 0.433164 -0.167937 -0.147366 -0.0525754 -0.561356 -0.0587529 -0.659405 -0.783315 -0.574006 -0.389843 0.250264 0.0185383 -0.606582 0.290182 -0.0935328 0.252166 0.367301 0.311688 -0.12774 -0.347442 0.567133 0.437037 0.178062 0.128217 0.102088 -0.538406 0.279712 0.337918 -0.613399 -0.792355 -0.683546 0.259661 -0.104537 -0.965845 -0.462499 -0.014114 0.203426 0.232773 0.12516 -0.340483 -0.0839542 0.0531626 0.130424 -0.176375 -0.292404 -0.291166 0.0628354 -0.330707 -0.0618234 -0.0479558 0.231115 -0.236128 0.103901 0.00143953 -0.0125742 -0.397914 -0.0506711 -0.748394 0.291194 -0.20727 -0.000214822 0.0675682 0.0403568 0.0217862 0.0287995 0.0609588 -0.0815193 0.000722673 -0.0159659 0.0246492 0.0195989 0.0170013 -0.0429481 0.0181599 0.0359074 0.0338977 -0.0223351 -0.0179401 0.0283368 -0.0145081 -0.102534 0.0114939 -0.0415775 -0.0219194 0.00452756 0.270854 1.02897 -0.277845 0.137527 0.267796 -0.321495 0.524306 -0.666201 -0.248853 -0.158624 -0.118766 0.17085 -0.138932 -0.650845 -0.0398005 0.676845 0.545215 0.037398 -0.136274 -0.0333627 0.087685 -0.663185 -0.448416 -0.340132 0.0880538 -0.363288 -0.613899 0.457948 0.501977 0.405624 -0.138612 -0.535444 -0.452944 0.0962414 -0.569839 -0.0737223 -0.627517 0.32982 -0.105528 -0.293882 -0.0549349 -0.283389 0.274799 -0.217315 -0.553121 0.393464 1.12441 0.0166339 -0.166972 0.958098 -0.064054 -0.0376635 0.0218617 -0.0251396 0.0497973 -0.0204917 0.0599654 -0.0484283 -0.0498373 -0.127788 0.00424983 -0.0727429 -0.0646451 -0.00892308 -0.000653947 0.0356609 0.112267 0.031875 0.0690153 0.0543012 -0.099316 -0.299292 0.0126671 -0.00926694 -0.0299948 0.231674 0.386899 0.0570968 0.198975 0.0986447 0.0970112 0.491128 0.0687197 0.0724917 0.123997 0.130801 0.0139481 -0.180797 -0.0456012 -0.245908 -0.0930148 0.243978 0.118697 -0.134976 -0.0626397 -0.291013 -0.0429895 0.0317748 -0.179763 -0.243901 -0.0142653 0.156211 -0.101179 0.176351 0.381228 0.101086 0.112899 -0.40251 -0.107395 -0.116156 0.422544 -0.230216 -0.59758 0.121907 -0.128951 0.0619575 -0.0291765 0.141325 -0.417371 -0.282099 -0.236906 0.206869 0.0236153 -0.344792 -0.000218793 0.0606773 0.021289 -0.0412352 0.0148315 0.0399238 -0.015894 -0.0511447 -0.0515285 0.0798751 0.04476 0.0136851 0.0320612 0.00327612 -0.0356854 -0.0356127 0.00786946 -0.0451313 0.0125628 0.0144754 0.0853849 -0.020026 -0.0515377 -0.0931836 -0.0755734 0.0895976 0.145477 0.63646 -0.344144 0.0838979 -0.292425 -0.183822 0.308775 -0.259923 -0.289009 0.3666 0.0848653 0.268224 -0.972495 -0.139404 -0.197328 0.119181 0.21319 0.104949 0.27657 0.154402 -0.20664 -0.449312 -0.317463 0.128803 0.340714 -0.12343 -0.539153 0.0175582 -0.421858 -1.00761 -0.490187 -0.0738117 -0.0105955 -0.314857 0.258131 -0.348454 -0.569733 -0.0394766 -0.568185 0.146595 -0.15929 0.00815152 0.255825 0.0753839 0.694722 -0.0421756 -0.397176 -0.242657 0.24415 0.307598 0.0319428 0.0230991 -0.0144963 0.0176292 -0.111017 -0.00960361 -0.0432805 -0.0296795 0.0921112 -0.0967341 0.0597223 0.0117068 -0.0268096 0.0214158 0.0772154 0.022182 -0.0189292 0.0787986 0.037674 0.0125724 0.0400067 0.0663286 0.0362736 -0.0567455 0.0909031 0.421899 -0.0473853 -0.179944 0.0828404 -0.0465404 0.163965 -0.223366 -0.0137978 0.18057 0.426706 0.5919 -0.348091 -0.177363 -0.0479283 -0.115751 0.487533 0.298738 -0.104191 -0.0907361 -0.189761 0.880331 0.51119 0.128169 0.231635 0.0878968 -0.329172 -0.262696 0.420808 -0.142654 -0.0262162 0.204587 -0.659297 0.0956575 -0.269369 -0.154297 -0.0595748 0.0957516 -0.149462 -0.271157 0.226408 0.466342 0.422733 0.105415 -0.377445 -0.207228 0.0100443 0.489526 0.0245693 -0.0409852 -0.751176 0.00586445 -0.0462591 -0.0288383 -0.0170951 -0.0336454 0.00101288 -0.0717195 0.0572143 0.0550186 -0.0254161 0.00452345 0.0165282 -0.0333662 -0.0413554 -0.034763 -0.0621907 0.0382104 0.0185343 0.0330764 0.00543903 -0.0941852 -0.0393324 -0.0282492 0.073691 0.0123966 0.249166 0.110573 0.679149 0.895043 -0.0750577 -0.0508118 -0.0664735 0.207122 -0.297095 -0.0398886 0.333274 -0.372318 0.342114 0.333013 0.0184324 -0.0571468 -0.111001 -0.398109 -0.433199 0.167787 -0.220022 0.187766 -0.473381 0.742209 0.0124387 -0.103386 1.34231 0.271804 -0.0202785 -0.242467 0.196688 0.604673 -0.479188 -0.250813 -0.585065 -0.104943 0.628671 1.37769 0.539106 -0.660512 -0.923251 0.407728 0.0494399 0.0930119 -0.811814 -1.03245 -0.389817 0.180212 -0.508537 -0.439275 -0.121032 0.134811 0.423404 -0.0687806 -0.418301 -0.242235 -0.0244489 0.413814 0.48326 -0.38247 0.135065 0.399074 0.850756 -0.510083 -0.715194 -0.84605 -0.324839 0.396692 -0.227281 -0.241962 -0.450899 0.159504 0.507504 0.263121 -0.278839 -0.0420814 -0.203135 -0.00378736 0.037723 -0.0127653 -0.0221868 0.0445908 0.00366985 0.165002 -0.0276768 -0.0295882 -0.042227 0.0345275 -0.065211 -0.0913329 -0.0760984 0.0547855 -0.105126 -0.0453541 -0.0840324 0.046268 -0.00964619 0.0263405 -0.0286005 -0.0193232 -0.200202 0.0699955 0.240534 0.0450616 -0.819951 0.191131 0.16787 -0.571938 -0.222429 0.224412 0.354745 0.834693 0.363053 0.338903 -0.542097 -0.122919 -1.23317 0.0220277 -0.135724 -0.0964784 -0.112097 -0.422288 -0.318662 -0.467925 0.320658 0.253132 0.0815583 -0.0378352 -0.0225634 -0.0170486 0.0441097 0.0375286 0.0606483 -0.0104546 -0.0763247 -0.0764013 0.0469276 -0.0163702 -0.108355 -0.166674 -0.0368402 0.000647311 0.0118112 0.0832237 -0.030895 -0.0488736 -0.0145982 -0.0679216 0.0261504 0.0354303 0.0710981 -0.173794 0.252731 -0.0210158 -0.0401082 -0.547698 -0.231841 -0.242866 0.14927 -0.133223 -0.194863 -0.136733 0.278819 0.269345 -0.182464 -0.105903 -0.124101 -0.283165 -0.25718 -0.17111 0.091882 -0.150928 0.0939656 0.299093 0.00397236 -0.251231 0.19552 0.583404 -0.817751 -0.500658 -0.281761 -0.122315 0.0060735 -0.447055 0.304186 -0.325392 0.421806 0.0554107 -0.212188 -0.12735 0.937808 -0.141218 -0.187178 -0.26989 0.144803 -0.0915295 0.769604 -0.429514 -0.638181 0.859396 0.0358313 -0.0405819 0.0540916 -0.0373672 0.0670189 -0.0571241 -0.00868082 -0.0525402 -0.0214942 0.0342169 0.0152368 -0.0663085 0.0351084 -0.049479 0.0212189 -0.063764 0.00961055 0.0180804 0.0564386 0.0529553 0.0105037 0.0623462 -0.023598 -0.023083 0.0447808 -0.156879 -0.377694 0.0459384 -0.000557788 -0.235726 -0.093408 -0.0714661 0.317741 0.135673 -0.00410515 -0.0846622 0.354343 0.315812 0.347828 0.120617 0.407904 0.221915 0.159092 0.0350075 -0.356169 0.00974289 0.239691 -0.0714088 -0.108372 -0.272056 -0.100817 -0.101304 0.108059 -0.419264 -0.147314 -0.0755693 -0.0811513 0.124111 -0.215746 -0.0588619 -0.0148942 -0.564818 -0.507943 -0.250514 0.158085 0.023748 0.490386 0.137527 -0.121423 0.162574 -0.0322788 -0.212145 -0.283637 0.734237 0.0392344 0.054991 0.147168 -0.185713 -0.203974 0.264758 0.111644 0.476286 0.804339 0.866625 0.0456863 0.158163 0.0131483 -0.320899 -0.0655081 -0.325109 -0.475816 -0.359318 0.0581431 -0.204756 -0.771293 -0.411733 -0.0729159 0.403662 -0.387444 -0.199074 -0.194357 -0.659405 -0.531492 -0.294635 -0.0734232 0.718878 -0.188493 -0.0969468 -0.080992 0.0823123 0.688807 -0.174949 0.0101807 -0.138111 -0.244793 0.0858079 -0.337766 -0.977199 -0.416938 -0.27144 0.118979 0.620599 -0.332931 -0.436418 -0.180143 -0.185028 0.155923 0.0638091 0.471851 -0.209273 -0.172716 0.0199649 0.0453391 -0.29515 -0.281816 -0.123825 -0.31396 -0.164335 -0.360063 -0.208172 -0.0980112 -0.145069 0.896874 -0.0884038 -0.0166216 -0.0112294 0.166224 1.07693 0.481916 0.00661886 -0.0739761 0.0113406 -0.00147407 0.0169512 0.0983177 -0.0841347 0.0365538 0.0180352 0.0342435 0.008989 -0.0234274 0.117465 0.0448508 0.0361876 -0.0546728 -0.0614584 -0.0344141 -0.0351466 -0.00370126 -0.0380577 0.0289313 -0.0381073 0.08362 -0.0356858 -0.0912993 0.368837 0.606158 0.364608 0.191035 -0.469195 0.841295 0.455579 0.267039 -0.162348 -0.0517182 -0.257904 -0.56163 0.268248 -0.0112277 -0.609439 -0.154298 -0.590827 -0.0295356 -0.245444 -0.646431 0.371755 0.407594 -0.555826 0.0646954 -0.0451773 -0.12065 -0.854665 0.688968 -0.289038 0.288435 -0.18987 -0.579646 -0.678891 -0.877836 -0.0618853 -0.0671408 -0.0496781 0.0620158 0.180456 0.308325 -0.750215 -0.112936 0.107489 0.308924 -0.524544 -0.735664 0.237381 0.495711 0.746821 -0.0691784 0.0786232 0.154144 0.136262 0.838075 0.557512 0.322777 -0.0985193 -0.667669 -0.096663 -0.433616 -0.21749 -0.0150394 -0.0703874 -0.281953 -0.299881 0.21841 -0.342612 0.0211693 -0.24462 -0.0467724 0.306851 0.0897146 0.156346 0.71811 -0.650082 0.940153 -0.122976 0.144587 1.03184 0.883272 -0.65942 -0.301054 -0.615548 0.428975 -0.027847 -0.196102 -0.119725 -0.12581 -0.220354 -0.519409 -0.0695735 1.37043 0.168492 -0.822498 -0.311252 0.476253 -0.25508 0.0600372 0.407527 -0.2231 -0.335833 0.032549 -0.170069 0.596202 -0.326844 0.242578 0.00848121 0.315003 0.103649 -0.139495 -0.756213 -0.223426 -0.23361 0.343344 -0.244042 -0.156658 1.08293 -0.00171588 0.242706 -0.345678 -0.4041 0.53889 0.261889 -0.220854 0.824362 0.519124 0.621439 0.55231 0.753343 0.0972868 -0.066409 -0.537679 -0.196397 0.22568 -0.0952906 0.264018 -0.13668 -0.747427 -0.719371 -0.241538 0.00334342 0.363524 -0.281755 -0.219053 -0.0508237 0.0397448 -0.366514 -0.178858 -0.227177 -0.0352695 -0.0997189 -0.322537 -0.346615 0.000904601 0.011835 -0.206356 -0.589451 -0.386247 -0.171306 0.24482 -0.415927 -0.209129 -0.296869 -0.167329 0.454528 -0.306985 -0.478985 0.840415 -0.175076 0.318993 -0.540525 -0.67691 -0.247397 0.274227 -0.267484 0.234534 -0.0280861 -0.0763873 -0.0491735 -0.0458129 -0.194642 0.00352554 -0.0115843 0.0297987 -0.14077 -0.287656 -0.0614462 -0.0536337 0.106705 0.00134254 0.453187 -0.187663 -0.138965 0.0994865 -0.0988033 0.89705 -0.218573 -0.276022 0.0318675 -0.0850791 0.031731 0.0740595 -0.0292196 0.0168881 0.0716067 -0.0517306 -0.0328261 -0.0137187 0.00138488 -0.0566556 -0.0723786 0.045064 -0.0462634 0.00994081 0.0212542 -0.0577707 0.00970624 0.00696326 -0.0167559 -0.0297898 -0.0828448 0.0358907 -0.0243527 -0.12265 -0.0543418 0.32907 0.0338859 -0.255077 -0.147247 -0.085492 -0.0204865 -0.0711701 -0.568938 -0.259239 -0.250969 -0.558955 0.266026 -0.399643 -0.0451785 -0.327643 -0.117595 0.00454912 0.155874 -0.211657 -0.746304 0.605004 0.117464 0.210284 0.724851 0.176464 0.207958 -0.112875 -0.0401728 -0.419216 -0.356156 0.0608081 -0.210327 -0.628868 -0.764467 -0.180535 0.233692 0.300752 0.128515 -0.0213274 -0.340727 -0.441154 -0.173154 0.155532 0.151239 -0.0318484 0.669883 0.237463 0.173791 0.722061 0.128581 0.281718 -0.189906 -0.301557 0.309838 -0.153627 0.412203 -0.0199415 0.06643 0.0343853 -0.188227 0.204184 -0.133169 0.0624545 0.218858 -0.220412 -0.138954 -0.406562 -0.35511 0.451719 0.19171 0.401341 -0.454859 0.00158843 0.0818426 -0.113275 -0.0210591 0.0105246 -0.0787883 -0.112102 0.0129419 -0.0372101 0.14346 0.00639504 0.00309533 -0.0603956 0.00507701 0.0533214 -0.062639 -0.024265 -0.0388975 -0.141269 -0.0829808 0.00353608 0.0215183 0.0368513 0.020925 0.0933388 0.0663347 0.0108349 0.0150922 0.406165 -0.119355 -0.385104 -0.311517 -0.050089 0.692322 -1.01315 -0.557603 0.19046 -0.0925561 0.891501 -0.258236 0.735946 -0.838189 -0.335565 -0.302304 -1.16725 0.265095 -0.240513 -0.035747 -0.543129 -0.0383888 -0.606405 0.919893 0.481967 -0.14412 -0.00244013 0.327987 0.203048 -0.254476 0.317113 0.874562 0.462329 0.803729 -0.0438949 -0.315002 -0.20701 0.555931 0.820963 0.54393 -0.0391748 -0.078688 -0.206528 0.496252 0.212499 -0.195934 -1.16236 -0.270902 0.302573 -0.0229279 0.0922647 -0.103662 -0.0781326 0.113714 0.0430075 0.100103 0.0849319 0.125698 0.241119 0.0212923 -0.069572 0.148886 0.107282 -0.0593248 -0.0074709 -0.0514032 0.205017 0.0817299 0.0952332 -0.00350362 0.0224861 0.136656 0.341552 0.151772 -0.0581796 0.483497 0.063844 -0.0761426 -0.190445 0.16973 0.0745632 0.109782 -0.0626789 -0.227496 -0.332162 -0.0132372 0.163054 -0.387648 -0.525235 -0.125481 0.0115105 -0.243156 -0.327655 0.0445275 0.201072 0.687157 0.168431 -0.122844 0.172778 0.158811 -0.0529533 -0.224523 -0.0370657 -0.179036 0.359533 0.339622 -0.371837 -0.387903 -0.183144 1.22439 0.375785 -0.42713 -0.468362 -0.509749 0.118369 -0.616471 0.537718 -0.18088 -0.25283 0.369224 -0.220781 -0.66584 -0.784929 0.243841 -0.770662 -0.0645917 0.0126763 -0.0255181 -0.0244091 0.0428556 -0.0207871 0.0685187 0.0690171 0.0722804 0.0114684 -0.0214142 -0.016982 -0.0398466 0.0759258 0.0226007 0.0515912 -0.0549877 -0.00905787 -0.0100358 -0.0395854 -0.0555277 -0.00516301 -0.0834758 0.029376 -0.0265498 -0.226316 -0.953925 0.0420872 -0.00940769 0.440135 -0.469581 -0.659185 -0.589698 -0.225416 0.350241 -0.0615477 -0.65116 0.18988 -0.0866582 0.253791 -0.798198 0.239101 -0.236006 -0.748284 0.141142 0.688082 0.199458 1.06134 -0.412309 0.297047 -0.140845 0.190851 -0.171309 0.0826383 -0.374736 -0.105502 -0.127563 -0.0829873 -0.022966 0.0643817 0.150041 0.213246 0.664806 0.015586 -0.419392 0.301351 0.479546 0.165927 0.174378 -0.838445 0.842292 0.729212 0.303287 -0.185937 -0.278668 -0.0438681 -0.0364526 0.0332601 0.143908 -0.00143996 0.01702 -0.0504043 -0.041646 -0.00103674 -0.0205699 -0.0464056 0.0272447 0.000621816 -0.00953873 -0.0146244 0.0124099 0.0495223 0.0322491 -0.00304724 -0.003665 -0.108979 0.0041367 -0.0203151 0.0711064 0.0240547 -0.664638 0.234648 -0.336168 -1.13754 -1.04637 0.541775 0.936643 0.496347 -0.251924 0.448366 0.525164 0.305737 0.221922 0.0646525 0.285037 -0.367596 -0.147107 -0.322282 -0.092642 0.285717 0.0352717 -0.215967 0.0301538 0.487774 -0.0696979 0.00697164 0.508631 -0.259444 -0.250727 0.630728 -0.604856 -0.143403 -0.314953 0.048949 -0.245362 -0.374635 -0.557907 -0.327891 -0.444827 -0.413214 -0.145855 0.137708 0.613075 -0.344247 0.110808 0.461331 0.575617 0.89674 -0.0404131 0.203415 -0.0379751 0.0587724 -0.0568441 -0.0601381 0.0205564 0.0167813 -0.0769715 -0.0117912 -0.00190153 -0.042973 -0.052086 0.0479935 0.102926 0.0190805 0.0631073 0.0630469 0.0186122 -0.00275572 -0.0381829 -0.123079 -0.0798974 0.0006444 0.0508305 -0.0258843 0.0831454 -0.058652 -0.0537392 -0.500032 -0.689113 -0.105679 0.11524 0.09656 0.33999 0.623632 0.0567608 -0.154747 0.343624 -0.378992 -0.405844 -0.248823 -0.772465 -0.378108 -0.455375 -0.506313 0.214856 0.195063 0.314067 -0.158845 -0.157725 -0.260046 0.548121 -0.846439 -0.0579742 0.39382 0.385362 -0.623994 -0.826278 0.0695684 0.0698182 -0.0716764 0.167599 0.231022 -0.824878 -0.502657 0.615856 -0.660476 0.363829 0.312512 0.192607 0.0736559 1.29673 0.756658 0.592815 0.911606 -0.240041 0.613999 -0.519489 -0.298513 -0.582338 0.365426 0.411106 -0.913892 -0.0777422 -0.262712 -0.476075 0.346188 -0.033152 -0.233392 0.631404 0.894759 -0.0823322 -0.306318 -0.162757 0.358045 0.551068 -0.178106 0.381672 0.653732 -0.0451458 -0.505588 -0.175023 -0.0594415 -0.025001 -0.353583 0.0231241 -0.0585506 0.0839628 -0.268185 0.131612 0.0430096 -0.00104252 -0.32696 -0.125872 -0.0314899 0.141788 -0.0332731 -0.0730329 -0.0443422 0.127737 0.0606319 0.0363953 0.00526675 -0.0307109 -0.109889 -0.0319988 0.00234595 -0.0386188 -0.323498 -0.421883 0.377906 -0.190536 0.2598 -0.320107 0.195221 0.0668312 -0.741322 0.134278 0.541668 -0.0745373 -0.204209 0.319497 0.913295 -0.0148571 -0.247844 -0.910232 0.280289 0.204571 -0.0935818 0.548034 -0.180127 -0.110829 0.0869381 -0.0618307 -0.0373059 0.29876 -0.0900714 0.0986712 -0.103462 -0.00982768 0.224981 0.146616 -0.0349111 -0.0439222 0.027659 0.0717918 0.166094 0.0109091 -0.0813064 -0.0388989 0.106421 -0.04386 -0.0827037 0.00597725 0.0114063 -0.314749 -0.405028 -0.491484 -0.695187 0.441839 -0.259661 0.214117 0.223676 0.224892 0.293649 -0.483021 0.507885 0.496351 0.00311887 0.205336 -0.0841262 0.550214 0.0208278 0.135871 0.21688 -0.0704856 0.102778 0.157165 0.231491 0.11532 -0.0515928 0.136702 0.774224 0.564047 0.0533509 -0.554208 -0.0714726 0.0394188 -0.47834 0.414932 -0.511047 0.19643 -0.117942 -0.347044 0.268832 0.354895 -1.23161 0.228196 0.240789 0.676129 -0.177604 -0.128122 0.621855 0.223538 0.542836 -0.185737 0.00691069 -0.0157093 -0.0394231 0.0224395 0.0182235 -0.063262 0.0253797 0.0612433 0.102363 0.0675821 -0.0237489 -0.092296 0.00270184 0.0819696 -0.0470277 -0.0101686 -0.0314489 -0.00738037 -0.0309522 -0.0485883 0.0138878 0.0396866 -0.0318312 0.0344438 -0.025427 -0.0267336 -0.327444 -0.366691 0.2856 0.310168 0.064683 -0.505415 0.112987 0.18257 0.366096 0.588948 0.192689 0.388504 -0.0661499 0.214044 -0.360811 -0.153024 -0.125049 0.0735075 -0.26067 -0.347298 0.00843826 -0.588359 0.0615426 -0.334289 -0.0487622 -0.108725 -0.36191 -0.0602693 0.892474 -0.226368 -0.83223 -0.00489114 -0.0715348 0.497994 -0.026834 -0.721795 -0.434154 0.396748 -0.409847 -0.142957 -1.03191 -0.176547 -0.12477 0.612777 -0.0425021 0.149653 0.918871 -0.141342 0.278979 -0.482126 -0.353205 -0.680179 0.780096 0.286511 -0.354662 0.135532 0.108842 -0.44888 0.377553 -0.20571 0.295306 -0.191585 0.679662 -0.427969 -0.0643442 0.300711 -0.197899 0.150336 0.0258772 -0.355434 -0.138913 -0.356371 0.331588 -0.480638 -0.0350198 0.666284 -0.020618 -0.104205 -0.357357 0.128406 0.101823 -0.392027 0.503329 -0.21209 -0.0385391 0.008477 0.0848183 -0.608001 0.223463 -1.13148 -0.574437 0.558974 0.458274 0.531758 -0.998763 0.283067 -0.0798127 1.17138 0.692498 -0.086672 0.317631 -0.058161 -0.249551 -0.166739 -0.0312758 -0.244983 0.321743 -0.14032 -0.314868 0.00250945 -0.0178807 0.0641486 -0.0655832 -0.265531 -0.247647 0.43051 0.291195 0.607014 -0.200738 -0.262904 -0.717137 0.267352 -0.268302 -0.181369 -0.0504931 -0.0162291 -0.00849311 0.0297981 0.0348661 -0.0677578 -0.0881648 -0.0310844 -0.00627504 -0.102795 -0.0168791 0.0110762 -0.0184229 -0.0611401 0.013268 -0.0597707 -0.0252447 0.0279161 -0.0211069 0.0377649 0.0729197 -0.0586998 -0.095402 -0.0657967 0.0681264 0.089683 -0.640565 -0.51731 0.0656013 0.0196994 0.326878 -0.10518 0.339119 0.0324578 -0.207294 -0.109623 -0.640145 -0.747475 -0.324513 0.404727 0.419834 0.0863654 0.445786 0.510644 0.158828 0.125713 -0.075395 0.523765 0.0487431 0.262914 -0.435395 0.546987 0.38288 -0.115277 -0.225908 0.0357586 0.0271715 0.897049 -0.184281 0.139379 -0.0360624 -0.213627 -0.400839 -0.219155 0.0522625 0.511523 -0.254349 0.485647 -0.158206 0.793713 0.940902 -0.240385 -0.472336 -0.84297 -0.846057 0.338693 0.186221 0.341687 -0.266217 -0.155647 -0.390216 0.283926 0.817153 0.459304 0.72343 -0.528661 -0.348736 0.118817 -1.01327 0.42592 -0.732453 0.418025 0.360264 -0.168311 -0.150789 -0.710552 0.0236236 -0.028256 0.0349178 0.610034 0.870677 0.693484 0.190851 -0.337499 -0.717924 0.42377 -0.126582 0.104487 0.0145534 0.0039129 -0.0750926 0.167289 -0.0123424 -0.23546 -0.371519 -0.603478 -0.894178 -0.8113 -0.264115 0.391482 -0.527342 -0.161212 -0.126481 0.319473 0.226777 1.03146 0.526416 0.251309 0.0650159 0.185871 0.61546 0.20272 -0.0716572 0.213792 0.326388 0.614377 -0.326203 0.0163284 -0.110213 0.393059 -0.259209 -1.41241 -1.22788 -0.615917 -0.546257 -0.0858397 -0.40536 -0.570949 -0.891275 0.366271 -0.71738 -0.154058 0.572548 -0.120433 -0.470909 -0.132051 -0.22698 0.00369445 -0.112719 -0.493681 -0.0376967 0.155754 0.380082 0.0807936 0.477209 -0.470287 0.390722 0.608027 0.80373 0.0285473 0.629558 0.652648 0.713665 -0.403186 0.468712 -0.0022494 -0.138155 -0.0606034 -0.322219 0.154115 0.529164 0.589263 -0.715884 -0.323506 0.489661 0.520044 -0.485503 -1.3498 -0.894107 -0.597969 0.673752 0.132903 -0.266195 -0.292735 -0.657271 0.610035 0.465869 1.43113 0.244193 -0.261029 -0.108692 0.0346559 -0.190696 -0.31507 -0.105063 0.710878 0.12395 -0.222915 0.185406 -0.0808045 -0.317256 -0.205208 -0.0847337 -0.258032 0.234219 -0.626277 0.14267 0.0789495 -0.552649 0.0602934 -0.0885814 0.604177 0.706895 0.780856 0.86766 0.0521718 -0.0296638 0.0541265 0.0515741 -0.0230681 -0.0549586 -0.0317295 -0.00106101 0.00858241 -0.0112055 -0.00155568 -0.0493846 -0.0182165 -0.0117815 -0.048202 0.011951 -0.0266966 0.0573318 -0.0848822 -0.032167 0.0266759 0.0215912 0.0194053 -0.0729476 0.0515296 -0.310467 -0.434388 -0.749855 -0.161028 0.0786606 0.282658 -0.753145 0.333161 -0.283111 -0.272842 0.158511 0.0551168 0.296368 -0.346955 0.229812 0.437897 0.18845 0.261092 0.228011 0.00523856 0.138486 0.27912 0.318691 0.479797 0.235798 -0.884035 -0.27095 0.357156 0.5805 -0.460637 0.345348 0.0184863 0.132415 0.737825 -0.0859366 -0.219698 -1.08785 -0.168692 -0.177378 -0.237815 0.229143 0.131603 -0.483865 0.457313 0.2939 -0.217293 -0.63164 -0.236241 0.365532 0.102802 -0.267432 -0.0850978 -0.604753 -0.488302 -0.259642 0.0958714 1.14414 0.148636 0.136271 0.222477 -0.217138 0.387461 -0.0153733 0.411749 0.249935 -0.0559356 0.473481 0.193694 0.0843098 0.401779 0.0517416 0.145511 -0.095078 -0.43499 0.212077 0.0410544 -0.00189957 -0.0982627 0.0266303 0.0648671 -0.0247972 -0.0614277 -0.00490735 -0.104198 0.0403057 -0.00362641 0.0390625 -0.00809857 0.0304664 0.00355627 0.0149406 0.0145594 -0.0201654 0.0327036 0.070974 -0.0323725 -0.0254783 0.0201927 -0.0263005 -0.0150534 -0.667559 0.191905 0.545377 0.549101 -0.17992 -0.205653 0.644233 0.709373 0.501334 0.209991 -0.610956 0.560037 1.18071 0.371887 0.0924123 -0.635168 0.833395 0.589149 -0.221087 -0.38965 0.0523271 0.110609 0.54518 -0.840807 -0.455993 -0.157116 0.602311 0.0853444 -0.497772 -0.142805 -1.04916 0.355988 0.089381 0.605742 0.190125 0.147415 0.158384 -0.490354 0.190385 -0.195477 -0.109708 0.264928 0.133131 0.203428 0.524776 -0.200923 0.6338 -0.0851958 0.0500363 -0.0721069 0.0640297 0.0696665 0.152625 0.00190269 0.0355932 -0.0488674 0.0506791 0.118596 -0.0546664 0.0252082 -0.00507265 0.0814791 -0.0564542 -0.0744766 0.155595 -0.0578757 -0.0776031 -0.00345986 0.0299541 -0.0132863 0.0371096 -0.0685138 0.0176729 0.0305243 0.035388 -0.205839 0.148441 0.11646 0.125173 -0.0140252 0.0589688 0.185196 0.249605 0.0152147 -0.1843 -0.00255679 -0.201165 0.0482241 0.156314 -0.0149321 -0.0488968 0.0392983 0.132374 0.00904522 -0.206558 -0.0481091 -0.111139 0.0152816 0.0141757 -0.370136 0.0189222 -0.12459 0.0257346 0.0515331 0.814555 0.198605 0.0936613 -0.0583586 0.113853 -0.255962 0.160055 -0.679412 -0.554968 -0.956472 0.62449 1.14617 -0.351961 -0.58039 -0.941134 0.121231 0.800449 -0.289126 -0.727062 -0.231953 0.794213 -0.0574509 -0.0681152 -0.00523758 0.0518061 -0.0222977 -0.0207755 -0.0144504 0.0267631 0.0040414 -0.0821166 0.0429281 0.0393575 -0.0427219 0.0173366 0.0690493 -0.00987854 -0.0747064 0.041557 -0.0160271 -0.073516 -0.0316326 -0.0320481 -0.0373377 0.00892657 0.00381717 0.0223233 0.251349 0.437169 0.234501 0.0531885 0.256327 0.103658 0.334561 0.0572109 -0.502237 0.413718 0.256961 0.528485 0.0493847 -0.520293 0.425356 0.161999 -0.136206 0.0533801 -0.265417 -0.387445 0.596073 -0.607708 -0.19657 0.0454439 0.223613 0.962294 0.620467 0.0227048 0.00934178 0.495629 0.21751 0.368288 0.702854 0.522503 0.11949 -0.132111 0.0443894 0.336248 -0.936653 -0.14255 -0.0459618 -0.286201 0.0187516 -0.610017 -0.787033 -0.316811 0.138437 -0.345732 -0.965638 -0.012503 -0.00356643 0.0309354 0.0152816 0.0455477 0.00550117 0.039011 0.032268 0.0153189 0.0226388 0.0212731 -0.0139148 0.050461 -0.0198943 0.0178567 0.0403425 -0.0396975 0.00185386 -0.000264975 -0.0109119 -0.0423954 -0.0235352 -0.0182957 -0.0217867 0.0671301 0.282654 -0.00185235 -0.290955 0.03556 0.0060962 0.391182 0.27779 0.264588 0.357301 -0.595144 -0.167701 0.314964 -0.0324064 0.319032 -0.0517194 0.420032 -0.0885229 0.141489 0.582534 0.00968112 -0.308912 0.00774572 -0.476485 -0.0902163 -0.0842474 0.796726 0.370311 -0.419007 0.348786 -0.372564 -0.327024 0.903307 -0.0610176 0.392398 0.106221 -0.293019 0.479719 -0.265513 -0.732042 -0.306165 0.416631 0.207344 0.186129 -0.0789537 -0.163611 0.236059 -0.396329 -0.372445 0.125681 -0.241264 -0.0425308 0.0319931 0.0251304 0.0407179 -0.0571061 0.0100789 -0.0481001 -0.017506 -0.0139284 0.0191283 0.0104256 -0.0308184 0.075906 -0.0839501 0.022862 0.0110647 0.1072 -0.0561484 0.0121849 -0.0521906 -0.0694209 -0.115519 6.71596e-06 0.0092027 -0.0402113 0.123046 0.0163585 0.103534 -0.108747 -0.811703 0.66525 0.112024 -0.319046 0.238937 -0.0924156 -0.0233518 -1.00594 -0.664998 0.277436 -0.0137442 -0.0069207 -0.0137692 -0.19702 0.0194136 -0.399212 -0.252492 -0.731919 -0.103029 -0.143945 -0.242275 -0.327808 0.535294 0.423779 0.715174 0.0200781 0.0142002 -0.307145 -0.254657 0.348135 0.357001 -0.600698 -0.338484 -0.0844018 0.280002 0.02377 -0.277003 -0.5013 -0.760998 0.149064 0.402902 -1.23249 -0.906183 -1.0315 0.238058 0.113733 -0.308176 0.0590852 -0.455653 0.273423 -0.137782 -0.697337 0.70095 0.0972 -0.106171 -0.0664351 -0.413664 0.543792 -0.0431977 -0.0767523 0.249762 -0.328816 -0.168256 -0.185298 0.262561 -0.206504 -0.137664 -0.402378 -0.589312 -0.110552 0.233141 0.092684 -0.069218 -0.206461 0.0569777 -0.0453072 0.0419201 -0.0400637 0.158047 0.154434 -0.00272577 0.036459 0.238575 0.390465 0.202015 0.0399278 0.0328791 0.0137606 -0.0704692 0.0714497 -0.0757345 -0.0275978 -0.0511934 -0.0142922 0.226525 0.0368375 0.205335 0.472553 0.0820956 -0.880106 0.219835 -0.0801327 -0.725156 0.103572 -0.286662 -0.518856 -0.0450748 0.0979813 -0.705271 -0.28803 -0.517464 0.605759 0.35261 0.625371 -0.517442 -0.315211 0.154974 1.10291 0.388192 -0.0545975 0.56758 0.180922 -0.0134502 0.101418 0.138542 -0.0627295 0.302024 0.153591 0.195682 -0.0380936 -0.128791 0.319775 0.234563 0.103897 0.0425824 0.0636614 -0.0143287 0.0320321 0.140619 -0.0427962 -0.104401 -0.028303 0.112547 0.0392237 0.0370212 -0.0644974 0.390602 -0.0203597 0.119313 -0.122964 0.0202412 0.363555 0.184513 -0.214606 -0.327822 0.237035 -0.391357 0.0160256 -0.0473211 -0.179247 0.0741153 0.257443 0.106013 0.142308 0.00837027 0.270373 0.588702 -0.115691 -0.0640431 -0.355601 0.270374 0.173742 -0.239876 -0.0321832 0.500087 0.632999 0.0921534 0.251438 -0.122855 0.0736309 -0.0768062 -0.166529 -0.287673 0.662201 -0.122082 0.207227 -0.251202 -0.0244647 0.381414 0.298656 -0.416577 0.259999 -0.459286 0.286705 -0.104692 0.420511 0.00934854 0.0474855 -0.0342303 0.0226777 -0.000284535 -0.0356148 -0.0207593 0.0273218 0.0137315 -0.0465344 0.0289191 0.0419298 0.0308238 -0.0595616 -0.0156292 0.0714645 -0.0178924 0.0251222 0.0564828 -0.0552252 0.0210268 0.0148025 0.0701885 -0.068536 0.0253558 0.0899283 1.01274 0.544376 -0.0188262 -0.154099 0.142076 0.127721 0.111917 -0.182709 -0.207499 -0.193297 0.224239 -0.339913 -0.141421 -0.0397361 0.192712 -0.272572 0.720071 0.39003 0.351185 0.170732 -0.155782 0.0427561 0.511162 0.872216 0.00101677 -0.645999 -0.328784 0.696324 -0.963358 -0.0132173 0.643321 0.312046 0.491666 0.0138622 -0.0449616 0.431299 1.03972 0.165251 0.292677 -0.115524 1.20495 0.406997 -0.149183 0.234081 -0.00676517 0.387092 -0.0538814 0.0782404 -0.479092 0.261066 -0.173028 0.396514 -0.137037 0.110661 0.249639 -0.744618 -0.613792 -0.12224 0.215399 0.175081 -0.464226 -0.41831 -0.292021 0.582366 0.0619586 -0.704803 -0.29397 -0.300668 0.290344 0.206939 -0.0561605 -0.765718 -0.237336 -0.023608 0.156974 0.691803 0.304996 0.145552 -0.115574 -0.186455 0.639068 0.223557 -0.10043 -0.162351 -0.72158 -0.0602729 -0.0872101 -0.284487 -0.344637 -0.0236238 0.0821397 -0.237943 -0.457304 -0.705722 0.522731 -0.28106 0.461968 0.627998 -0.00963801 0.110365 0.41364 -0.458045 -0.00961647 0.0844432 0.0660323 0.23331 -0.526343 0.247639 -0.0758306 0.0728442 0.235767 -0.12509 0.131294 -0.170032 0.0453034 0.169433 -0.625443 0.0524846 -0.257169 0.0479739 -0.151288 -0.789972 -0.59065 0.0523965 -0.00485537 0.0109489 0.0342955 0.0296157 -0.0281359 -0.0847152 -0.025791 0.00767839 0.00602846 0.0453907 0.090126 0.103495 -0.0138338 0.00842978 0.0562611 -0.0109599 -0.020019 -0.0222622 -0.0352609 -0.0441388 0.0194423 -0.026264 -0.00688873 -0.0208876 0.0107976 -0.0359757 -0.115399 0.440325 0.311779 0.695941 -0.649178 -0.166112 -0.356475 0.0162933 -0.546891 -0.404813 0.104713 0.714682 0.1142 0.107714 -0.04978 0.0363429 -0.518121 -0.0949266 -0.0240114 -0.272532 -0.43714 -0.132155 -0.331488 0.123125 -0.0943915 0.969415 0.106383 0.44152 -0.251156 -0.389787 0.38067 -0.00197779 0.326989 -0.0516868 -0.774276 0.267712 0.256772 -0.02074 -0.0988245 -0.784435 0.300643 0.547409 0.230632 0.0749383 -0.671925 -0.0077374 0.467378 0.360947 0.308888 0.222908 0.502628 0.56986 0.144963 -0.369632 0.166857 0.418007 0.50399 0.407559 -0.156078 -0.462112 0.234039 0.161235 0.076312 -0.0401388 -0.0186931 -0.122569 -0.178454 -0.302986 0.492084 -0.337848 0.0134387 0.0264079 -0.229549 0.383013 -0.179546 0.300983 0.797034 0.591609 -0.425427 0.269115 0.350978 0.42112 0.690664 -0.00422611 0.282772 -0.0228432 -0.289816 0.358627 0.737687 0.00333226 0.0743119 0.187679 0.273062 -0.122359 -0.292777 -0.314464 -0.34608 -0.908099 -0.0939604 -0.622269 0.107867 0.649188 -0.127713 0.0738579 -0.275664 0.870759 0.143794 0.130468 0.604713 -0.1947 0.400118 0.455151 0.699715 -0.046664 -0.405928 0.233207 0.580479 0.189411 0.303002 0.257421 -0.219709 0.351755 0.19781 0.190692 -0.417065 -0.20553 -0.496952 -0.388327 0.279777 0.15312 0.0917601 -0.592542 0.259123 0.072816 0.0468776 0.19547 0.0192865 0.398073 0.311546 0.0794855 -0.296459 -0.762166 -0.306589 0.601802 -0.311114 -0.645854 -0.755364 -0.348417 -0.128487 0.914471 0.73584 1.1118 0.44244 0.390192 -0.158158 0.032876 0.280043 0.489461 0.123344 -0.438495 -0.0975352 0.386157 -0.226388 -0.0854381 -0.176979 0.176461 -0.0109009 -0.204368 -0.168061 -0.425644 -0.355394 0.299361 -0.0799119 -0.283847 0.00249978 -0.177145 -0.032171 0.127206 0.0100683 -0.0826441 -0.296358 0.089156 0.253264 0.10728 0.491842 -0.15697 0.0923979 -0.0362645 0.2727 0.396482 -0.193756 -0.0478645 0.465535 -0.170807 -0.0314528 -0.246068 -0.19284 0.0624296 -0.268045 -0.0238298 0.0624054 -0.0642718 -0.0124545 -0.0521887 -0.0596734 0.100075 0.102271 -0.0117772 0.0173085 0.0425676 -0.0734499 -0.00258607 0.0732117 -0.0706807 0.0474339 0.0777016 0.0203417 0.0973221 -0.095563 0.0345486 -0.0403016 -0.0412796 0.0549321 -0.01313 -0.404404 0.368661 -0.0569562 0.30546 -0.187169 -0.390836 0.0470919 -0.341429 0.30883 0.00149624 0.134585 -0.14992 0.504724 0.374367 -0.0517404 0.324182 0.356756 0.195194 0.0236454 0.974745 0.468695 -0.260467 -0.290818 -0.365168 -0.460759 0.371841 0.293634 0.0544434 -0.564486 0.40356 -0.115069 -0.0619697 -0.0629118 -0.467106 0.593088 -0.17392 0.124694 -0.0577631 -0.0762361 0.186847 0.582856 0.0988625 -0.257112 -0.522097 0.00752853 0.628294 0.129331 -0.0203354 -0.249281 0.0325877 0.344529 0.0849157 0.778047 -0.00928114 0.170645 -0.17739 -0.253646 0.342896 -0.0106871 -0.268892 0.132992 -0.112856 0.10534 -0.303398 -0.163262 0.237596 0.0923648 0.198587 0.0633991 -0.222367 0.476757 0.797534 0.335136 0.372824 0.00510282 